{"learner":{"attributes":{"scikit_learn":"{\"_estimator_type\": \"classifier\"}"},"feature_names":[],"feature_types":[],"gradient_booster":{"model":{"cats":{"enc":[],"feature_segments":[],"sorted_idx":[]},"gbtree_model_param":{"num_parallel_tree":"1","num_trees":"400"},"iteration_indptr":[0,1,2,3,4,5,6,7,8,9,10,11,12,13,14,15,16,17,18,19,20,21,22,23,24,25,26,27,28,29,30,31,32,33,34,35,36,37,38,39,40,41,42,43,44,45,46,47,48,49,50,51,52,53,54,55,56,57,58,59,60,61,62,63,64,65,66,67,68,69,70,71,72,73,74,75,76,77,78,79,80,81,82,83,84,85,86,87,88,89,90,91,92,93,94,95,96,97,98,99,100,101,102,103,104,105,106,107,108,109,110,111,112,113,114,115,116,117,118,119,120,121,122,123,124,125,126,127,128,129,130,131,132,133,134,135,136,137,138,139,140,141,142,143,144,145,146,147,148,149,150,151,152,153,154,155,156,157,158,159,160,161,162,163,164,165,166,167,168,169,170,171,172,173,174,175,176,177,178,179,180,181,182,183,184,185,186,187,188,189,190,191,192,193,194,195,196,197,198,199,200,201,202,203,204,205,206,207,208,209,210,211,212,213,214,215,216,217,218,219,220,221,222,223,224,225,226,227,228,229,230,231,232,233,234,235,236,237,238,239,240,241,242,243,244,245,246,247,248,249,250,251,252,253,254,255,256,257,258,259,260,261,262,263,264,265,266,267,268,269,270,271,272,273,274,275,276,277,278,279,280,281,282,283,284,285,286,287,288,289,290,291,292,293,294,295,296,297,298,299,300,301,302,303,304,305,306,307,308,309,310,311,312,313,314,315,316,317,318,319,320,321,322,323,324,325,326,327,328,329,330,331,332,333,334,335,336,337,338,339,340,341,342,343,344,345,346,347,348,349,350,351,352,353,354,355,356,357,358,359,360,361,362,363,364,365,366,367,368,369,370,371,372,373,374,375,376,377,378,379,380,381,382,383,384,385,386,387,388,389,390,391,392,393,394,395,396,397,398,399,400],"tree_info":[0,0,0,0,0,0,0,0,0,0,0,0,0,0,0,0,0,0,0,0,0,0,0,0,0,0,0,0,0,0,0,0,0,0,0,0,0,0,0,0,0,0,0,0,0,0,0,0,0,0,0,0,0,0,0,0,0,0,0,0,0,0,0,0,0,0,0,0,0,0,0,0,0,0,0,0,0,0,0,0,0,0,0,0,0,0,0,0,0,0,0,0,0,0,0,0,0,0,0,0,0,0,0,0,0,0,0,0,0,0,0,0,0,0,0,0,0,0,0,0,0,0,0,0,0,0,0,0,0,0,0,0,0,0,0,0,0,0,0,0,0,0,0,0,0,0,0,0,0,0,0,0,0,0,0,0,0,0,0,0,0,0,0,0,0,0,0,0,0,0,0,0,0,0,0,0,0,0,0,0,0,0,0,0,0,0,0,0,0,0,0,0,0,0,0,0,0,0,0,0,0,0,0,0,0,0,0,0,0,0,0,0,0,0,0,0,0,0,0,0,0,0,0,0,0,0,0,0,0,0,0,0,0,0,0,0,0,0,0,0,0,0,0,0,0,0,0,0,0,0,0,0,0,0,0,0,0,0,0,0,0,0,0,0,0,0,0,0,0,0,0,0,0,0,0,0,0,0,0,0,0,0,0,0,0,0,0,0,0,0,0,0,0,0,0,0,0,0,0,0,0,0,0,0,0,0,0,0,0,0,0,0,0,0,0,0,0,0,0,0,0,0,0,0,0,0,0,0,0,0,0,0,0,0,0,0,0,0,0,0,0,0,0,0,0,0,0,0,0,0,0,0,0,0,0,0,0,0,0,0,0,0,0,0,0,0,0,0,0,0,0,0,0,0,0,0,0,0,0,0,0,0,0,0,0,0,0,0,0,0,0,0,0,0,0,0,0,0,0,0],"trees":[{"base_weights":[5.839388E-3,4.1626287E-1,-1.09229796E-1,7.7373236E-1,2.4022957E-2,-3.582124E-1,8.2964614E-2,-1.3688706E0,8.324278E-1,-2.8453565E-1,8.2522196E-1,-3.1708875E-1,-1.4978131E0,4.667842E-1,-8.076393E-3,-1.785352E-1,-6.023418E-2,2.058205E0,7.656779E-1,-4.067341E-3,-6.9049305E-1,-1.2301985E0,9.332885E-1,-3.6267516E-1,8.1067955E-1,-6.213609E-2,-5.237875E-1,5.609061E-1,-9.490987E-1,-1.7985001E-1,2.3743257E-1,-4.073528E-2,4.057144E-2,2.145066E0,2.852044E-1,1.4046962E0,6.095489E-1,-5.6865907E-1,2.5403565E-1,-1.115275E0,-3.1834924E-1,2.2016283E-2,-5.7672232E-2,1.1040753E0,1.5789367E-1,5.5770165E-1,-4.1535667E-1,1.0961971E0,-7.3057544E-1,-4.9405403E-2,5.6748164E-1,2.4243578E-2,8.373207E-1,-1.066652E0,7.0160097E-1,4.000254E-1,-2.5924248E-1,3.2845446E-1,-4.4579542E-1,9.437022E-2,4.3355923E-2,-1.9710435E-2,4.057144E-2,4.919531E-2,8.523989E-2,1.5735881E-2,4.152971E-2,-3.2942157E-2,4.0123273E-2,-5.133553E-2,1.4763347E-2,3.1873133E-2,-4.6976347E-2,1.2330976E-3,-3.4367833E-2,5.4282367E-2,1.4713604E-2,2.364575E-2,-3.3418834E-2,1.1226071E-2,8.2221165E-2,-2.0975897E-2,-4.315923E-3,5.1428396E-2,-4.528046E-2,-4.5362525E-2,3.1873133E-2,-1.9710435E-2,5.91266E-2,4.328631E-3,-4.8449777E-2,6.147743E-2,2.3807146E-2,-2.373184E-2,-5.4479416E-2,-3.3649188E-2,6.8160355E-2,-1.4654348E-3,4.6350606E-2,6.7251287E-3,-1.6188042E-2,7.5399545E-3,4.1905098E-2,-6.749568E-3,-5.00686E-2],"categories":[],"categories_nodes":[],"categories_segments":[],"categories_sizes":[],"default_left":[0,0,0,0,0,0,0,0,0,0,0,0,0,0,0,0,0,0,0,0,0,0,0,0,0,0,0,0,0,0,0,0,0,0,0,0,0,0,0,0,0,0,0,0,0,0,0,0,0,0,0,0,0,0,0,0,0,0,0,0,0,0,0,0,0,0,0,0,0,0,0,0,0,0,0,0,0,0,0,0,0,0,0,0,0,0,0,0,0,0,0,0,0,0,0,0,0,0,0,0,0,0,0,0,0],"id":0,"left_children":[1,3,5,7,9,11,13,15,17,19,21,23,25,27,29,31,-1,33,35,37,39,41,43,45,47,-1,49,51,53,55,57,-1,-1,59,61,63,65,67,69,71,73,-1,-1,75,77,79,81,83,85,-1,87,89,91,93,95,97,99,101,103,-1,-1,-1,-1,-1,-1,-1,-1,-1,-1,-1,-1,-1,-1,-1,-1,-1,-1,-1,-1,-1,-1,-1,-1,-1,-1,-1,-1,-1,-1,-1,-1,-1,-1,-1,-1,-1,-1,-1,-1,-1,-1,-1,-1,-1,-1],"loss_changes":[4.2416205E2,2.757361E2,3.3570425E2,1.3053644E2,2.3231288E2,1.427464E2,1.3836615E2,4.2662544E0,8.04162E1,7.724902E1,5.9182297E1,1.5200235E2,4.9350586E0,1.017025E2,1.3505457E2,5.044998E0,0E0,7.2669067E0,9.411798E1,5.8764534E1,4.3468002E1,5.8734303E0,3.2772186E1,1.3778595E2,5.138762E1,0E0,6.3218746E0,1.056685E2,1.0002716E1,8.68459E1,8.2130196E1,0E0,0E0,8.492874E0,2.5091732E0,2.1013885E1,7.064459E1,5.151074E1,4.9426018E1,1.552803E1,2.819648E1,0E0,0E0,3.744403E1,2.0322844E1,6.333694E1,8.992337E1,4.257998E1,1.2346386E1,0E0,4.1489377E0,2.536662E1,7.874484E1,5.471363E0,7.2697606E0,7.534736E1,1.0312858E2,1.16951744E2,3.448865E1,0E0,0E0,0E0,0E0,0E0,0E0,0E0,0E0,0E0,0E0,0E0,0E0,0E0,0E0,0E0,0E0,0E0,0E0,0E0,0E0,0E0,0E0,0E0,0E0,0E0,0E0,0E0,0E0,0E0,0E0,0E0,0E0,0E0,0E0,0E0,0E0,0E0,0E0,0E0,0E0,0E0,0E0,0E0,0E0,0E0,0E0],"parents":[2147483647,0,0,1,1,2,2,3,3,4,4,5,5,6,6,7,7,8,8,9,9,10,10,11,11,12,12,13,13,14,14,15,15,17,17,18,18,19,19,20,20,21,21,22,22,23,23,24,24,26,26,27,27,28,28,29,29,30,30,33,33,34,34,35,35,36,36,37,37,38,38,39,39,40,40,43,43,44,44,45,45,46,46,47,47,48,48,50,50,51,51,52,52,53,53,54,54,55,55,56,56,57,57,58,58],"right_children":[2,4,6,8,10,12,14,16,18,20,22,24,26,28,30,32,-1,34,36,38,40,42,44,46,48,-1,50,52,54,56,58,-1,-1,60,62,64,66,68,70,72,74,-1,-1,76,78,80,82,84,86,-1,88,90,92,94,96,98,100,102,104,-1,-1,-1,-1,-1,-1,-1,-1,-1,-1,-1,-1,-1,-1,-1,-1,-1,-1,-1,-1,-1,-1,-1,-1,-1,-1,-1,-1,-1,-1,-1,-1,-1,-1,-1,-1,-1,-1,-1,-1,-1,-1,-1,-1,-1,-1],"split_conditions":[-9.5373964E-1,1.9153051E0,-2.487085E-1,-1.7355183E0,1.9455396E0,2.2594893E0,-5.6913227E-1,3.0507636E-1,-1.5020487E0,5.360787E-1,-1.5703672E0,1.3793269E0,-1.7556367E0,1.3999277E0,4.837591E-1,-1.1020097E-2,-6.023418E-2,2.9580145E0,-1.3203701E-1,-3.285528E-1,2.0859782E-1,-3.538652E-1,8.8817143E-1,-1.3967341E0,-3.6610702E-1,-6.213609E-2,2.5852135E-1,-1.4278677E0,2.0004867E-1,-8.010497E-1,6.497298E-1,-4.073528E-2,4.057144E-2,-9.377872E-1,-1.6560272E0,9.8364943E-1,2.8280416E-1,3.5449436E-1,-1.3289584E0,-1.8406206E0,1.4087595E0,2.2016283E-2,-5.7672232E-2,1.1057755E0,2.356104E0,8.8819754E-1,4.1975918E-1,1.3731095E0,2.5995436E-1,-4.9405403E-2,1.9061995E-1,4.8844284E-1,-1.0453683E0,1.5545491E0,-1.2674902E-1,3.4883377E-1,-8.892418E-1,4.5275167E-1,2.0004867E-1,9.437022E-2,4.3355923E-2,-1.9710435E-2,4.057144E-2,4.919531E-2,8.523989E-2,1.5735881E-2,4.152971E-2,-3.2942157E-2,4.0123273E-2,-5.133553E-2,1.4763347E-2,3.1873133E-2,-4.6976347E-2,1.2330976E-3,-3.4367833E-2,5.4282367E-2,1.4713604E-2,2.364575E-2,-3.3418834E-2,1.1226071E-2,8.2221165E-2,-2.0975897E-2,-4.315923E-3,5.1428396E-2,-4.528046E-2,-4.5362525E-2,3.1873133E-2,-1.9710435E-2,5.91266E-2,4.328631E-3,-4.8449777E-2,6.147743E-2,2.3807146E-2,-2.373184E-2,-5.4479416E-2,-3.3649188E-2,6.8160355E-2,-1.4654348E-3,4.6350606E-2,6.7251287E-3,-1.6188042E-2,7.5399545E-3,4.1905098E-2,-6.749568E-3,-5.00686E-2],"split_indices":[45,38,20,20,37,4,38,5,38,32,20,40,20,29,47,16,0,24,29,59,46,16,8,39,33,0,33,33,67,64,35,0,0,14,4,60,15,30,20,7,39,0,0,78,16,67,34,29,11,0,54,7,4,29,0,33,37,43,67,0,0,0,0,0,0,0,0,0,0,0,0,0,0,0,0,0,0,0,0,0,0,0,0,0,0,0,0,0,0,0,0,0,0,0,0,0,0,0,0,0,0,0,0,0,0],"split_type":[0,0,0,0,0,0,0,0,0,0,0,0,0,0,0,0,0,0,0,0,0,0,0,0,0,0,0,0,0,0,0,0,0,0,0,0,0,0,0,0,0,0,0,0,0,0,0,0,0,0,0,0,0,0,0,0,0,0,0,0,0,0,0,0,0,0,0,0,0,0,0,0,0,0,0,0,0,0,0,0,0,0,0,0,0,0,0,0,0,0,0,0,0,0,0,0,0,0,0,0,0,0,0,0,0],"sum_hessian":[8.979365E3,1.9656736E3,7.013692E3,1.0279105E3,9.377632E2,3.055069E3,3.9586226E3,2.6813046E1,1.0010974E3,6.774917E2,2.6027145E2,2.9498972E3,1.0517186E2,7.58162E2,3.2004607E3,3.0049102E0,2.3808136E1,5.0158886E1,9.5093854E2,4.012711E2,2.762206E2,1.24819355E1,2.4778952E2,2.835942E3,1.13955444E2,9.893089E1,6.2409678E0,7.114703E2,4.6691685E1,1.8831542E3,1.3173064E3,1.8491756E0,1.1557348E0,4.7616272E1,2.5426164E0,1.851487E2,7.6578986E2,1.25512794E2,2.757583E2,1.280554E2,1.4816519E2,1.1557348E0,1.13262005E1,2.0271587E2,4.5073654E1,1.5301927E2,2.6829226E3,9.6388275E1,1.7567167E1,3.6983511E0,2.5426164E0,2.42242E2,4.692283E2,4.391792E1,2.7737634E0,2.2629286E2,1.6568613E3,1.1629003E3,1.5440616E2,3.860154E1,9.01473E0,1.3868817E0,1.1557348E0,1.5140125E2,3.3747456E1,5.1037247E2,2.5541737E2,1.0840792E2,1.7104874E1,1.8491756E1,2.5726654E2,3.467204E0,1.245882E2,9.0609604E1,5.755559E1,1.5024551E2,5.2470356E1,3.1667131E1,1.3406523E1,1.3013573E2,2.2883547E1,1.9800048E3,7.0291785E2,8.9222725E1,7.1655555E0,1.4099964E1,3.467204E0,1.3868817E0,1.1557348E0,2.2767975E2,1.4562258E1,1.1927183E2,3.4995648E2,1.802946E1,2.5888458E1,1.1557348E0,1.6180286E0,1.4423569E2,8.205717E1,4.2068744E2,1.2361738E3,9.745155E2,1.8838477E2,1.1580462E2,3.860154E1],"tree_param":{"num_deleted":"0","num_feature":"80","num_nodes":"105","size_leaf_vector":"1"}},{"base_weights":[4.363549E-3,8.172073E-1,-4.0646575E-2,1.4687488E0,4.6073765E-1,-2.0046633E-1,2.1587653E-1,2.132921E0,1.1552573E0,-1.3547859E-1,6.6988117E-1,-4.1429502E-1,2.9830314E-2,8.934491E-1,3.2461643E-2,6.6382973E-3,2.192754E0,-4.6460998E-1,1.2893224E0,-4.6133187E-1,1.0315435E0,-4.0636733E-1,8.234806E-1,-5.1342607E-1,8.047332E-2,1.426093E0,-4.958068E-3,-1.1668186E0,9.7661084E-1,4.9368098E-1,-1.342716E-1,1.2374067E0,2.324908E0,-8.748622E-1,3.2355538E-1,1.3499861E0,-4.9599E-1,-8.0455476E-1,7.904953E-1,1.3329363E0,-2.5471547E-1,1.386907E0,-6.8530595E-1,1.0467281E0,3.0192864E-1,2.921599E-1,-5.5487823E-1,7.805955E-1,-2.023318E-1,-6.9854516E-1,1.7402211E0,2.7526665E-1,-1.9767696E-1,-1.3386642E0,5.9095938E-2,1.2786617E0,6.927485E-1,6.3899106E-1,-7.20095E-1,-2.804369E-1,7.584873E-1,-3.7792075E-2,7.2923966E-2,4.050924E-2,9.596546E-2,-4.3820247E-2,3.2956281E-3,4.7696464E-2,-2.3597976E-2,6.1372194E-2,2.76354E-2,-4.0791903E-2,1.3415784E-2,-4.0866107E-2,-1.2198219E-3,-2.491918E-2,6.373758E-2,1.6020702E-2,7.0204854E-2,2.1964068E-2,-3.857938E-2,2.4174221E-3,7.4878745E-2,-3.535373E-2,2.855085E-2,2.1360379E-2,5.297231E-2,1.9499581E-2,-2.0404605E-2,3.538377E-2,-2.5747845E-2,-2.057681E-2,-5.2270964E-2,1.6938372E-2,5.518306E-2,-1.24711245E-2,4.29489E-2,1.5311349E-2,-4.1976042E-2,7.753573E-2,1.4381308E-2,4.956816E-2,8.435735E-3,-1.3445834E-2,8.961155E-3,1.3435668E-2,-5.7813734E-2,8.3083816E-2,4.6100806E-2,3.2146238E-2,-6.2937597E-3,-1.7049838E-2,2.9807488E-2,-1.3016297E-2,-4.403696E-2,1.21060405E-2,-1.7529441E-2,-3.9023574E-2,3.4790367E-2],"categories":[],"categories_nodes":[],"categories_segments":[],"categories_sizes":[],"default_left":[0,0,0,0,0,0,0,0,0,0,0,0,0,0,0,0,0,0,0,0,0,0,0,0,0,0,0,0,0,0,0,0,0,0,0,0,0,0,0,0,0,0,0,0,0,0,0,0,0,0,0,0,0,0,0,0,0,0,0,0,0,0,0,0,0,0,0,0,0,0,0,0,0,0,0,0,0,0,0,0,0,0,0,0,0,0,0,0,0,0,0,0,0,0,0,0,0,0,0,0,0,0,0,0,0,0,0,0,0,0,0,0,0,0,0,0,0,0,0],"id":1,"left_children":[1,3,5,7,9,11,13,15,17,19,21,23,25,27,29,-1,31,33,35,37,39,41,43,45,47,49,51,53,55,57,59,61,63,65,67,69,71,73,75,77,79,81,83,85,87,89,91,93,95,97,99,101,103,105,-1,107,109,111,113,115,117,-1,-1,-1,-1,-1,-1,-1,-1,-1,-1,-1,-1,-1,-1,-1,-1,-1,-1,-1,-1,-1,-1,-1,-1,-1,-1,-1,-1,-1,-1,-1,-1,-1,-1,-1,-1,-1,-1,-1,-1,-1,-1,-1,-1,-1,-1,-1,-1,-1,-1,-1,-1,-1,-1,-1,-1,-1,-1],"loss_changes":[3.2959317E2,1.0910303E2,3.500016E2,3.224414E1,3.836872E1,2.5903107E2,4.0725085E2,5.7877197E0,2.5665817E1,3.110711E1,3.7930336E1,1.3381851E2,1.2306205E2,1.20748535E2,1.9847739E2,0E0,3.5172424E0,3.3735826E0,1.224379E1,2.798737E1,7.275215E0,1.5493277E1,2.2895386E1,7.6045105E1,9.0471306E1,4.2320503E1,1.3359572E2,1.4492172E1,5.6694153E1,1.213253E2,2.4759894E2,1.2320867E1,1.7929077E0,1.4749556E0,3.879832E0,1.1528778E1,2.189923E0,8.447865E0,1.7111702E1,5.0659904E0,2.946266E0,2.617694E0,7.80536E0,1.9102585E1,9.464346E0,6.258912E1,6.508215E1,2.7533806E1,4.582039E1,3.6821241E0,1.4062424E1,6.2289673E1,8.566399E1,5.198864E0,0E0,3.0255432E1,3.2972733E1,6.961073E1,1.0725258E1,1.5009445E2,5.2365524E1,0E0,0E0,0E0,0E0,0E0,0E0,0E0,0E0,0E0,0E0,0E0,0E0,0E0,0E0,0E0,0E0,0E0,0E0,0E0,0E0,0E0,0E0,0E0,0E0,0E0,0E0,0E0,0E0,0E0,0E0,0E0,0E0,0E0,0E0,0E0,0E0,0E0,0E0,0E0,0E0,0E0,0E0,0E0,0E0,0E0,0E0,0E0,0E0,0E0,0E0,0E0,0E0,0E0,0E0,0E0,0E0,0E0,0E0],"parents":[2147483647,0,0,1,1,2,2,3,3,4,4,5,5,6,6,7,7,8,8,9,9,10,10,11,11,12,12,13,13,14,14,16,16,17,17,18,18,19,19,20,20,21,21,22,22,23,23,24,24,25,25,26,26,27,27,28,28,29,29,30,30,31,31,32,32,33,33,34,34,35,35,36,36,37,37,38,38,39,39,40,40,41,41,42,42,43,43,44,44,45,45,46,46,47,47,48,48,49,49,50,50,51,51,52,52,53,53,55,55,56,56,57,57,58,58,59,59,60,60],"right_children":[2,4,6,8,10,12,14,16,18,20,22,24,26,28,30,-1,32,34,36,38,40,42,44,46,48,50,52,54,56,58,60,62,64,66,68,70,72,74,76,78,80,82,84,86,88,90,92,94,96,98,100,102,104,106,-1,108,110,112,114,116,118,-1,-1,-1,-1,-1,-1,-1,-1,-1,-1,-1,-1,-1,-1,-1,-1,-1,-1,-1,-1,-1,-1,-1,-1,-1,-1,-1,-1,-1,-1,-1,-1,-1,-1,-1,-1,-1,-1,-1,-1,-1,-1,-1,-1,-1,-1,-1,-1,-1,-1,-1,-1,-1,-1,-1,-1,-1,-1],"split_conditions":[-8.3361995E-1,-1.1807684E0,3.8557953E-1,1.9132833E-1,-9.8293245E-1,-1.0464845E-1,-3.281517E-1,-2.870815E0,-9.8293245E-1,1.2564113E0,-9.3946433E-1,6.8706983E-1,-2.347463E0,-1.4850341E0,-6.634133E-1,6.6382973E-3,-1.3450754E0,7.2203225E-1,1.3082297E0,7.920059E-1,2.7414382E-1,-9.5895445E-1,1.4468406E-5,-7.873743E-1,-6.8191206E-1,-3.4287363E-1,-9.034826E-1,1.7458308E-1,-2.0913921E-1,2.2085736E0,1.9455396E0,-1.307551E-1,-1.745019E0,-5.344923E-1,-1.12778954E-1,-1.6902776E-1,-1.036221E0,1.9799323E-1,-4.351602E-1,-2.3277482E-2,-2.7989414E-1,4.012571E-1,1.3718843E-2,9.103812E-2,3.2263625E-1,-6.406144E-1,1.4198306E0,4.1902065E-1,1.708938E0,-4.9591053E-1,3.2263625E-1,-1.4468855E0,7.866126E-1,-4.688135E-1,5.9095938E-2,-5.762507E-1,1.8817525E-1,-1.501746E0,2.4431852E-1,-1.0068128E-1,-1.4455441E0,-3.7792075E-2,7.2923966E-2,4.050924E-2,9.596546E-2,-4.3820247E-2,3.2956281E-3,4.7696464E-2,-2.3597976E-2,6.1372194E-2,2.76354E-2,-4.0791903E-2,1.3415784E-2,-4.0866107E-2,-1.2198219E-3,-2.491918E-2,6.373758E-2,1.6020702E-2,7.0204854E-2,2.1964068E-2,-3.857938E-2,2.4174221E-3,7.4878745E-2,-3.535373E-2,2.855085E-2,2.1360379E-2,5.297231E-2,1.9499581E-2,-2.0404605E-2,3.538377E-2,-2.5747845E-2,-2.057681E-2,-5.2270964E-2,1.6938372E-2,5.518306E-2,-1.24711245E-2,4.29489E-2,1.5311349E-2,-4.1976042E-2,7.753573E-2,1.4381308E-2,4.956816E-2,8.435735E-3,-1.3445834E-2,8.961155E-3,1.3435668E-2,-5.7813734E-2,8.3083816E-2,4.6100806E-2,3.2146238E-2,-6.2937597E-3,-1.7049838E-2,2.9807488E-2,-1.3016297E-2,-4.403696E-2,1.21060405E-2,-1.7529441E-2,-3.9023574E-2,3.4790367E-2],"split_indices":[51,10,43,49,42,20,52,36,42,29,20,34,47,20,47,0,53,75,3,20,2,10,63,51,38,28,37,16,29,38,37,20,75,16,11,7,13,4,75,8,11,28,8,28,67,32,29,46,47,75,67,16,47,4,0,3,53,49,32,52,20,0,0,0,0,0,0,0,0,0,0,0,0,0,0,0,0,0,0,0,0,0,0,0,0,0,0,0,0,0,0,0,0,0,0,0,0,0,0,0,0,0,0,0,0,0,0,0,0,0,0,0,0,0,0,0,0,0,0],"split_type":[0,0,0,0,0,0,0,0,0,0,0,0,0,0,0,0,0,0,0,0,0,0,0,0,0,0,0,0,0,0,0,0,0,0,0,0,0,0,0,0,0,0,0,0,0,0,0,0,0,0,0,0,0,0,0,0,0,0,0,0,0,0,0,0,0,0,0,0,0,0,0,0,0,0,0,0,0,0,0,0,0,0,0,0,0,0,0,0,0,0,0,0,0,0,0,0,0,0,0,0,0,0,0,0,0,0,0,0,0,0,0,0,0,0,0,0,0,0,0],"sum_hessian":[9.006767E3,4.7166953E2,8.535098E3,1.6569615E2,3.059734E2,5.258901E3,3.2761968E3,5.1270084E1,1.1442606E2,7.954957E1,2.2642383E2,2.726535E3,2.5323657E3,6.970987E2,2.5790981E3,1.6249428E0,4.964514E1,8.557904E0,1.0586816E2,6.265881E1,1.6890757E1,2.8073227E1,1.983506E2,2.2714023E3,4.5513248E2,6.0588757E1,2.471777E3,2.6540762E1,6.705579E2,6.842785E2,1.8948196E3,7.2922873E0,4.2352856E1,5.5559487E0,3.0019553E0,1.0262487E2,3.2432833E0,4.9456295E1,1.3202512E1,1.365489E1,3.2358668E0,3.244232E0,2.4828995E1,1.3819151E2,6.015909E1,1.1086145E2,2.160541E3,1.3044302E2,3.2468945E2,7.6465774E0,5.2942177E1,1.00704517E3,1.4647318E3,2.5384766E1,1.1559961E0,3.23173E2,3.4738492E2,6.115401E2,7.27384E1,1.6288286E3,2.659911E2,1.4133197E0,5.8789673E0,3.051594E0,3.930126E1,4.397834E0,1.158115E0,1.3820958E0,1.6198595E0,7.915982E1,2.3465055E1,1.850662E0,1.3926212E0,3.837384E1,1.1082456E1,4.8640833E0,8.3384285E0,4.8631153E0,8.791775E0,1.6235515E0,1.6123153E0,1.1698105E0,2.0744214E0,2.206597E1,2.7630248E0,4.95645E1,8.862701E1,4.9294445E1,1.0864644E1,6.792009E1,4.2941364E1,2.051821E3,1.0872005E2,8.2788315E1,4.76547E1,2.9973688E2,2.4952564E1,1.8509614E0,5.7956157E0,4.5943855E1,6.998324E0,6.1899532E1,9.451456E2,1.1028193E3,3.619125E2,1.3916268E0,2.399314E1,4.1981E1,2.81192E2,3.073421E2,4.004281E1,5.5165916E1,5.5637415E2,3.6629944E1,3.610846E1,3.4672342E2,1.2821051E3,1.5570503E1,2.5042058E2],"tree_param":{"num_deleted":"0","num_feature":"80","num_nodes":"119","size_leaf_vector":"1"}},{"base_weights":[1.1151951E-3,3.6831048E-1,-1.0377376E-1,7.600699E-1,4.6830187E-3,-2.9480374E-1,8.8036515E-2,-1.4372233E0,8.216833E-1,-2.4799816E-1,7.393323E-1,5.2385277E-1,-3.6688888E-1,9.057846E-1,4.656899E-2,-5.885145E-2,-1.45387435E-2,3.0473918E-1,9.727941E-1,1.4142077E-1,-5.7754195E-1,-9.2393655E-1,8.404689E-1,8.497993E-1,-2.3147056E-1,-4.9323547E-1,-2.5655169E-2,2.1133668E0,7.363124E-1,1.314803E0,2.0895831E-2,-6.479832E-2,9.824709E-1,9.033912E-1,1.799028E0,-5.28182E-1,3.7254024E-1,-7.9377824E-1,2.027873E-1,9.7984475E-1,-5.623028E-2,9.539423E-1,-1.0214495E-1,1.257134E0,3.151428E-1,1.3069703E-2,-1.181535E0,-4.6462405E-1,-1.4180586E0,2.8210266E-2,-1.1897461E0,2.2393136E0,1.7491784E-3,-8.2607895E-1,8.4514713E-1,3.6236858E-1,1.8801357E0,-1.0662002E-1,2.666263E-1,2.4403282E-2,-2.571594E-2,5.0140932E-2,1.723924E-2,2.1690456E-2,4.3479815E-2,7.540532E-2,1.0207995E-2,-9.0995785E-3,-4.0721778E-2,-4.117293E-2,1.8880999E-2,-3.747118E-2,-1.0953369E-2,-1.1283787E-2,2.8284255E-2,-1.52641805E-2,6.9287755E-2,6.1479244E-2,2.9605454E-2,-1.9173292E-2,4.5170825E-2,4.067943E-2,7.6418236E-2,3.330444E-2,-1.2291868E-2,2.4658706E-2,-7.930303E-3,-5.4789968E-2,-1.0474188E-2,-2.291635E-2,-8.894832E-3,-5.836527E-2,2.2231316E-2,-5.7130627E-2,2.8919955E-3,-1.6811037E-2,-5.6825336E-2,9.262446E-2,2.9776432E-2,1.4591773E-2,-4.5398034E-2,4.2871498E-2,2.975049E-3,6.201257E-2,-1.4525592E-2,7.8356214E-2,-1.690497E-2,6.796478E-3,-1.177991E-2,1.4312274E-2,-1.8711789E-2],"categories":[],"categories_nodes":[],"categories_segments":[],"categories_sizes":[],"default_left":[0,0,0,0,0,0,0,0,0,0,0,0,0,0,0,0,0,0,0,0,0,0,0,0,0,0,0,0,0,0,0,0,0,0,0,0,0,0,0,0,0,0,0,0,0,0,0,0,0,0,0,0,0,0,0,0,0,0,0,0,0,0,0,0,0,0,0,0,0,0,0,0,0,0,0,0,0,0,0,0,0,0,0,0,0,0,0,0,0,0,0,0,0,0,0,0,0,0,0,0,0,0,0,0,0,0,0,0,0,0,0],"id":2,"left_children":[1,3,5,7,9,11,13,15,17,19,21,23,25,27,29,-1,-1,31,33,35,37,39,41,43,45,47,49,51,53,55,57,59,61,63,65,67,69,71,73,75,-1,77,79,81,83,85,87,89,91,93,95,97,-1,99,101,103,105,107,109,-1,-1,-1,-1,-1,-1,-1,-1,-1,-1,-1,-1,-1,-1,-1,-1,-1,-1,-1,-1,-1,-1,-1,-1,-1,-1,-1,-1,-1,-1,-1,-1,-1,-1,-1,-1,-1,-1,-1,-1,-1,-1,-1,-1,-1,-1,-1,-1,-1,-1,-1,-1],"loss_changes":[3.4641516E2,2.8467596E2,2.5636896E2,1.314159E2,1.927604E2,2.0705304E2,1.1835886E2,4.382286E-1,7.284924E1,9.923799E1,4.5480194E1,7.0138084E1,1.3891083E2,3.2919296E1,1.08206E2,0E0,0E0,5.347393E1,3.9897766E1,5.5129944E1,7.081085E1,1.5787207E1,2.6949112E1,4.286998E1,2.0094263E1,6.156311E1,5.4696163E1,5.166794E0,2.6078972E1,3.4823883E1,1.0215478E2,5.4602276E1,1.07176285E1,4.3835632E1,6.8438416E0,1.3245338E1,3.7369488E1,2.4135208E1,2.2610416E1,4.5144405E0,0E0,2.6806015E1,1.3489358E1,1.569577E1,2.8355606E1,9.012755E0,2.705536E0,5.974594E1,6.4923553E0,5.3670216E1,6.25663E0,4.4548798E-1,0E0,4.1754355E0,2.438279E1,2.2799147E1,8.290268E0,1.1156762E2,7.475076E1,0E0,0E0,0E0,0E0,0E0,0E0,0E0,0E0,0E0,0E0,0E0,0E0,0E0,0E0,0E0,0E0,0E0,0E0,0E0,0E0,0E0,0E0,0E0,0E0,0E0,0E0,0E0,0E0,0E0,0E0,0E0,0E0,0E0,0E0,0E0,0E0,0E0,0E0,0E0,0E0,0E0,0E0,0E0,0E0,0E0,0E0,0E0,0E0,0E0,0E0,0E0,0E0],"parents":[2147483647,0,0,1,1,2,2,3,3,4,4,5,5,6,6,7,7,8,8,9,9,10,10,11,11,12,12,13,13,14,14,17,17,18,18,19,19,20,20,21,21,22,22,23,23,24,24,25,25,26,26,27,27,28,28,29,29,30,30,31,31,32,32,33,33,34,34,35,35,36,36,37,37,38,38,39,39,41,41,42,42,43,43,44,44,45,45,46,46,47,47,48,48,49,49,50,50,51,51,53,53,54,54,55,55,56,56,57,57,58,58],"right_children":[2,4,6,8,10,12,14,16,18,20,22,24,26,28,30,-1,-1,32,34,36,38,40,42,44,46,48,50,52,54,56,58,60,62,64,66,68,70,72,74,76,-1,78,80,82,84,86,88,90,92,94,96,98,-1,100,102,104,106,108,110,-1,-1,-1,-1,-1,-1,-1,-1,-1,-1,-1,-1,-1,-1,-1,-1,-1,-1,-1,-1,-1,-1,-1,-1,-1,-1,-1,-1,-1,-1,-1,-1,-1,-1,-1,-1,-1,-1,-1,-1,-1,-1,-1,-1,-1,-1,-1,-1,-1,-1,-1,-1],"split_conditions":[-9.5373964E-1,1.7749447E0,-1.0464845E-1,-1.7556367E0,1.9455396E0,-7.873743E-1,-8.558322E-1,6.4285593E-3,-1.0996788E0,2.0291286E0,-1.4455441E0,-1.766559E-1,4.1975918E-1,-2.0145369E0,-2.347463E0,-5.885145E-2,-1.45387435E-2,1.00524895E-1,2.0562403E0,1.5633571E0,2.2783608E0,-1.782368E-1,1.2254411E0,1.1879607E0,1.2929254E0,2.2594893E0,1.452516E0,-1.3701962E0,-1.577159E0,3.7753707E-1,4.837591E-1,-6.9723535E-1,-6.546357E-2,-7.9503185E-1,2.9580145E0,-1.3642596E0,-1.413793E0,1.679838E0,1.3349976E-2,-1.8412013E-1,-5.623028E-2,-4.9432942E-1,1.5595361E0,5.180733E-1,-8.664785E-1,3.6844194E-1,4.9391064E-1,-3.023503E-1,-3.0269417E-1,-1.8053676E0,-7.62908E-1,-1.1240252E-1,1.7491784E-3,-6.433104E-1,-1.2279352E-1,-1.6590112E-1,-1.03181735E-1,-6.865016E-1,4.5726597E-1,2.4403282E-2,-2.571594E-2,5.0140932E-2,1.723924E-2,2.1690456E-2,4.3479815E-2,7.540532E-2,1.0207995E-2,-9.0995785E-3,-4.0721778E-2,-4.117293E-2,1.8880999E-2,-3.747118E-2,-1.0953369E-2,-1.1283787E-2,2.8284255E-2,-1.52641805E-2,6.9287755E-2,6.1479244E-2,2.9605454E-2,-1.9173292E-2,4.5170825E-2,4.067943E-2,7.6418236E-2,3.330444E-2,-1.2291868E-2,2.4658706E-2,-7.930303E-3,-5.4789968E-2,-1.0474188E-2,-2.291635E-2,-8.894832E-3,-5.836527E-2,2.2231316E-2,-5.7130627E-2,2.8919955E-3,-1.6811037E-2,-5.6825336E-2,9.262446E-2,2.9776432E-2,1.4591773E-2,-4.5398034E-2,4.2871498E-2,2.975049E-3,6.201257E-2,-1.4525592E-2,7.8356214E-2,-1.690497E-2,6.796478E-3,-1.177991E-2,1.4312274E-2,-1.8711789E-2],"split_indices":[45,51,20,20,37,51,51,8,30,51,20,6,34,12,47,0,0,19,48,35,51,6,6,49,4,4,29,17,44,28,47,49,46,46,24,45,20,29,17,7,0,55,10,67,51,49,14,51,20,20,30,59,0,11,6,8,66,37,51,0,0,0,0,0,0,0,0,0,0,0,0,0,0,0,0,0,0,0,0,0,0,0,0,0,0,0,0,0,0,0,0,0,0,0,0,0,0,0,0,0,0,0,0,0,0,0,0,0,0,0,0],"split_type":[0,0,0,0,0,0,0,0,0,0,0,0,0,0,0,0,0,0,0,0,0,0,0,0,0,0,0,0,0,0,0,0,0,0,0,0,0,0,0,0,0,0,0,0,0,0,0,0,0,0,0,0,0,0,0,0,0,0,0,0,0,0,0,0,0,0,0,0,0,0,0,0,0,0,0,0,0,0,0,0,0,0,0,0,0,0,0,0,0,0,0,0,0,0,0,0,0,0,0,0,0,0,0,0,0,0,0,0,0,0,0],"sum_hessian":[8.992361E3,1.9973893E3,6.994972E3,9.609766E2,1.0364127E3,3.5043457E3,3.4906267E3,2.5602396E1,9.353742E2,7.7166315E2,2.6474957E2,2.8308942E2,3.2212563E3,1.6745894E2,3.3231677E3,2.4456337E1,1.1460593E0,2.1225949E2,7.2311475E2,3.539612E2,4.177019E2,1.4709239E1,2.5004034E2,1.9766533E2,8.542408E1,2.350504E3,8.7075244E2,1.9197315E1,1.4826163E2,6.4940575E1,3.258227E3,1.3794727E2,7.4312225E1,6.690117E2,5.410301E1,9.049433E1,2.634669E2,3.270548E2,9.064709E1,2.7620654E0,1.1947174E1,2.2316353E2,2.6876804E1,1.1142415E2,8.624117E1,6.8721794E1,1.6702288E1,2.2814253E3,6.907848E1,8.331751E2,3.757735E1,1.8018806E1,1.1785085E0,9.226023E0,1.390356E2,2.480007E1,4.0140507E1,2.1454592E3,1.1127678E3,6.362059E1,7.432668E1,4.897062E1,2.5341606E1,2.268249E2,4.4218683E2,5.103549E1,3.0675201E0,5.6981647E1,3.3512688E1,1.6838932E1,2.4662794E2,2.5587837E2,7.1176445E1,4.6438774E1,4.4208313E1,1.1584748E0,1.6035906E0,5.8217743E1,1.6494579E2,2.1042234E1,5.8345714E0,8.334487E1,2.8079279E1,4.6907074E1,3.9334095E1,1.7328112E1,5.139368E1,1.345859E1,3.243698E0,1.5757267E3,7.056986E2,6.79258E1,1.1526867E0,2.355792E1,8.096172E2,9.323964E0,2.8253387E1,1.662146E1,1.3973452E0,1.862808E0,7.363215E0,1.0714094E2,3.1894669E1,8.972179E0,1.5827891E1,3.8957233E1,1.1832749E0,8.679879E2,1.2774713E3,9.903284E2,1.2243945E2],"tree_param":{"num_deleted":"0","num_feature":"80","num_nodes":"111","size_leaf_vector":"1"}},{"base_weights":[-6.60684E-3,3.575559E-1,-1.0902463E-1,7.128871E-1,3.837856E-2,2.5060055E-1,-2.0378344E-1,9.793898E-1,4.0565488E-1,3.1979796E-1,-4.6898162E-1,4.7690755E-1,-5.98357E-1,-3.3829495E-1,-2.7386596E-2,1.0445107E0,-2.7829272E-1,-1.3228196E-1,6.198472E-1,-1.3300982E-1,6.4095E-1,-8.694777E-1,5.068775E-2,6.106173E-1,-1.160659E0,-2.735834E-2,-8.0232656E-1,7.3910093E-1,-3.6285102E-1,-1.0129521E-1,5.15423E-1,1.9018209E0,9.576342E-1,7.824771E-1,-6.092928E-1,-4.9797878E-1,8.0239075E-1,1.2738403E0,4.747981E-1,-5.32033E-1,4.240712E-1,8.276166E-1,1.5672389E-1,3.9070663E-1,-9.731755E-1,8.766614E-1,-8.750881E-2,3.7483636E-1,9.686975E-1,-1.2789464E0,-2.6139048E-1,1.6495807E-1,-7.966408E-1,-8.35137E-1,7.368911E-2,9.777464E-1,-2.1963091E-1,-6.449901E-1,-2.5482285E-1,-5.942359E-1,-2.3032771E-2,2.3668345E-2,8.905538E-1,7.965488E-2,-7.6751393E-4,3.0887282E-2,5.1506612E-2,-1.3089577E-2,6.439075E-2,-4.69392E-2,2.2248179E-2,-2.4769401E-2,3.0177074E-2,4.5117762E-2,1.0622463E-2,5.4322995E-2,-2.923234E-2,5.9970072E-3,3.2267705E-2,-2.8524041E-2,3.5831865E-2,3.2187323E-3,3.806643E-2,1.7755948E-2,4.380647E-2,-7.886854E-3,2.0984717E-2,4.276893E-2,-1.0532355E-2,6.311037E-2,-4.0349465E-2,-3.2888267E-2,4.9595337E-2,3.8242717E-3,-3.0472698E-2,1.6740631E-2,-5.406882E-2,7.982192E-2,3.3387832E-2,-2.5754346E-2,-5.3978804E-2,-2.9595928E-2,5.756767E-2,1.5724096E-2,-3.0738387E-2,-4.3105096E-2,1.7887969E-2,4.795397E-2,-3.438414E-2,5.1539455E-2,1.4408756E-2,1.9707702E-2,-3.5676777E-2,2.4512137E-4,-3.0176865E-2,1.1274499E-2,-1.2252178E-2,-3.0679688E-2,6.04356E-3,4.8106415E-3,-1.2958712E-2,-1.611999E-2,2.2060808E-2,3.7888974E-2,-3.0613806E-2],"categories":[],"categories_nodes":[],"categories_segments":[],"categories_sizes":[],"default_left":[0,0,0,0,0,0,0,0,0,0,0,0,0,0,0,0,0,0,0,0,0,0,0,0,0,0,0,0,0,0,0,0,0,0,0,0,0,0,0,0,0,0,0,0,0,0,0,0,0,0,0,0,0,0,0,0,0,0,0,0,0,0,0,0,0,0,0,0,0,0,0,0,0,0,0,0,0,0,0,0,0,0,0,0,0,0,0,0,0,0,0,0,0,0,0,0,0,0,0,0,0,0,0,0,0,0,0,0,0,0,0,0,0,0,0,0,0,0,0,0,0,0,0,0,0],"id":3,"left_children":[1,3,5,7,9,11,13,15,17,19,21,23,25,27,29,31,33,35,37,39,41,43,45,47,49,51,53,55,57,59,61,63,65,67,69,71,73,75,77,79,81,83,85,87,89,91,93,95,97,99,101,103,105,107,-1,109,111,113,115,117,119,121,123,-1,-1,-1,-1,-1,-1,-1,-1,-1,-1,-1,-1,-1,-1,-1,-1,-1,-1,-1,-1,-1,-1,-1,-1,-1,-1,-1,-1,-1,-1,-1,-1,-1,-1,-1,-1,-1,-1,-1,-1,-1,-1,-1,-1,-1,-1,-1,-1,-1,-1,-1,-1,-1,-1,-1,-1,-1,-1,-1,-1,-1,-1],"loss_changes":[3.34605E2,2.233179E2,2.3866571E2,7.589798E1,1.4842563E2,2.8092004E2,1.3149745E2,4.1100098E1,5.015046E1,9.730873E1,7.724067E1,2.5334708E2,3.5834442E1,8.3459564E1,9.629415E1,3.3479004E1,9.366781E0,4.29794E1,2.8893814E1,6.207707E1,3.5241333E1,2.7761398E1,1.8612167E1,8.975375E1,8.967285E0,1.2272665E1,2.1218018E1,1.6322182E1,9.3559814E1,8.147596E1,5.3044067E1,7.3658295E0,2.5468292E1,6.4569063E0,1.3711808E1,1.4158562E1,5.8899918E0,1.04242325E1,2.7493881E1,4.2667984E1,2.1075611E1,2.848581E1,1.4439723E1,7.6676884E0,1.917978E1,1.543745E1,1.7361668E1,4.922538E1,5.655948E1,2.5808563E0,1.0359366E1,1.445953E1,6.2781982E0,1.2213242E1,0E0,1.0387787E1,7.549903E0,6.0623352E1,6.156978E1,3.7375313E1,7.8693115E1,2.8488684E1,1.6035248E1,0E0,0E0,0E0,0E0,0E0,0E0,0E0,0E0,0E0,0E0,0E0,0E0,0E0,0E0,0E0,0E0,0E0,0E0,0E0,0E0,0E0,0E0,0E0,0E0,0E0,0E0,0E0,0E0,0E0,0E0,0E0,0E0,0E0,0E0,0E0,0E0,0E0,0E0,0E0,0E0,0E0,0E0,0E0,0E0,0E0,0E0,0E0,0E0,0E0,0E0,0E0,0E0,0E0,0E0,0E0,0E0,0E0,0E0,0E0,0E0,0E0,0E0],"parents":[2147483647,0,0,1,1,2,2,3,3,4,4,5,5,6,6,7,7,8,8,9,9,10,10,11,11,12,12,13,13,14,14,15,15,16,16,17,17,18,18,19,19,20,20,21,21,22,22,23,23,24,24,25,25,26,26,27,27,28,28,29,29,30,30,31,31,32,32,33,33,34,34,35,35,36,36,37,37,38,38,39,39,40,40,41,41,42,42,43,43,44,44,45,45,46,46,47,47,48,48,49,49,50,50,51,51,52,52,53,53,55,55,56,56,57,57,58,58,59,59,60,60,61,61,62,62],"right_children":[2,4,6,8,10,12,14,16,18,20,22,24,26,28,30,32,34,36,38,40,42,44,46,48,50,52,54,56,58,60,62,64,66,68,70,72,74,76,78,80,82,84,86,88,90,92,94,96,98,100,102,104,106,108,-1,110,112,114,116,118,120,122,124,-1,-1,-1,-1,-1,-1,-1,-1,-1,-1,-1,-1,-1,-1,-1,-1,-1,-1,-1,-1,-1,-1,-1,-1,-1,-1,-1,-1,-1,-1,-1,-1,-1,-1,-1,-1,-1,-1,-1,-1,-1,-1,-1,-1,-1,-1,-1,-1,-1,-1,-1,-1,-1,-1,-1,-1,-1,-1,-1,-1,-1,-1],"split_conditions":[-9.5373964E-1,9.727299E-1,-5.6913227E-1,2.7684537E-1,5.2157176E-1,5.5249673E-1,4.4705006E-1,2.5028913E0,-1.0996788E0,1.7679894E0,3.19455E-2,1.3999277E0,-1.5482907E0,-1.7567854E0,9.4178504E-1,-5.8236355E-1,-7.880443E-1,1.7773193E-1,-1.0933518E0,2.3737603E-1,1.6203368E0,8.189464E-1,-3.6721215E-1,5.706192E-1,4.8074389E-1,5.180733E-1,1.3859951E0,3.2263625E-1,-4.564375E-1,-8.5311675E-1,-3.6193356E-1,2.7216482E0,1.4869949E-1,5.043554E-1,1.2511435E-1,1.1366704E0,1.8103653E-1,1.7440284E0,1.02500685E-1,1.1119099E0,3.1737247E-1,-1.1295104E0,2.6087046E-1,-4.9489316E-1,-2.551943E0,-1.8064468E0,1.3636541E-1,2.2594893E0,-1.2440414E0,-1.4743348E0,9.9814255E-3,8.913459E-2,-8.126579E-2,-7.005184E-1,7.368911E-2,-1.3367094E-1,-1.2006438E0,-1.0578845E0,-8.170065E-1,2.5227187E-2,3.0621868E-1,-1.5652734E-1,1.6835418E0,7.965488E-2,-7.6751393E-4,3.0887282E-2,5.1506612E-2,-1.3089577E-2,6.439075E-2,-4.69392E-2,2.2248179E-2,-2.4769401E-2,3.0177074E-2,4.5117762E-2,1.0622463E-2,5.4322995E-2,-2.923234E-2,5.9970072E-3,3.2267705E-2,-2.8524041E-2,3.5831865E-2,3.2187323E-3,3.806643E-2,1.7755948E-2,4.380647E-2,-7.886854E-3,2.0984717E-2,4.276893E-2,-1.0532355E-2,6.311037E-2,-4.0349465E-2,-3.2888267E-2,4.9595337E-2,3.8242717E-3,-3.0472698E-2,1.6740631E-2,-5.406882E-2,7.982192E-2,3.3387832E-2,-2.5754346E-2,-5.3978804E-2,-2.9595928E-2,5.756767E-2,1.5724096E-2,-3.0738387E-2,-4.3105096E-2,1.7887969E-2,4.795397E-2,-3.438414E-2,5.1539455E-2,1.4408756E-2,1.9707702E-2,-3.5676777E-2,2.4512137E-4,-3.0176865E-2,1.1274499E-2,-1.2252178E-2,-3.0679688E-2,6.04356E-3,4.8106415E-3,-1.2958712E-2,-1.611999E-2,2.2060808E-2,3.7888974E-2,-3.0613806E-2],"split_indices":[45,52,38,63,32,52,47,0,30,43,36,29,37,52,63,3,10,19,10,60,29,29,7,28,2,67,75,67,52,31,44,22,15,32,17,75,7,76,18,30,16,49,14,28,6,75,67,4,52,18,14,1,1,7,0,13,17,55,64,7,35,38,5,0,0,0,0,0,0,0,0,0,0,0,0,0,0,0,0,0,0,0,0,0,0,0,0,0,0,0,0,0,0,0,0,0,0,0,0,0,0,0,0,0,0,0,0,0,0,0,0,0,0,0,0,0,0,0,0,0,0,0,0,0,0],"split_type":[0,0,0,0,0,0,0,0,0,0,0,0,0,0,0,0,0,0,0,0,0,0,0,0,0,0,0,0,0,0,0,0,0,0,0,0,0,0,0,0,0,0,0,0,0,0,0,0,0,0,0,0,0,0,0,0,0,0,0,0,0,0,0,0,0,0,0,0,0,0,0,0,0,0,0,0,0,0,0,0,0,0,0,0,0,0,0,0,0,0,0,0,0,0,0,0,0,0,0,0,0,0,0,0,0,0,0,0,0,0,0,0,0,0,0,0,0,0,0,0,0,0,0,0,0],"sum_hessian":[8.969383E3,1.9682974E3,7.0010854E3,9.308142E2,1.0374832E3,1.4596876E3,5.5413975E3,4.9727493E2,4.3353928E2,6.675695E2,3.6991364E2,1.1528185E3,3.068691E2,3.1434443E3,2.3979534E3,4.7295554E2,2.4319414E1,1.23572784E2,3.099665E2,2.7724884E2,3.9032068E2,2.0853096E2,1.6138269E2,1.0663746E3,8.644393E1,8.1065636E1,2.2580348E2,6.940058E1,3.0740437E3,2.1112942E3,2.8665912E2,4.1595337E1,4.313602E2,5.4594173E0,1.8859999E1,8.9156815E1,3.4415974E1,5.485513E1,2.5511137E2,1.6156723E2,1.1568161E2,2.8120752E2,1.0911314E2,1.5644461E1,1.9288649E2,2.2365414E1,1.3901727E2,6.442257E2,4.221489E2,7.6021996E1,1.0421941E1,6.548125E1,1.5584387E1,2.2371214E2,2.0913422E0,5.5552692E1,1.384789E1,8.4975476E2,2.224289E3,2.8837213E2,1.822922E3,1.2450718E2,1.6215195E2,3.970767E1,1.8876716E0,2.783107E2,1.5304948E2,2.5898612E0,2.869556E0,1.2703643E1,6.1563554E0,8.174767E1,7.4091387E0,2.073834E1,1.3677632E1,5.2952618E1,1.9025112E0,1.2965302E2,1.2545835E2,1.4382843E2,1.773881E1,7.0754135E1,4.4927475E1,1.166152E2,1.6459233E2,5.5851196E1,5.326194E1,7.3668103E0,8.277651E0,2.0557015E0,1.908308E2,3.7169209E0,1.8648493E1,1.1000301E2,2.9014261E1,6.290687E2,1.515693E1,4.7126698E1,3.7502222E2,8.610599E0,6.741139E1,8.574245E0,1.8476957E0,5.3085133E1,1.2396118E1,1.2821587E1,2.7628002E0,2.0885003E0,2.2162364E2,3.6233475E1,1.9319216E1,6.8534536E0,6.9944367E0,1.2240268E2,7.2735205E2,1.9429788E2,2.0299912E3,2.3408525E2,5.428689E1,1.2352993E3,5.876227E2,6.8983574E1,5.5523605E1,1.5719998E2,4.95196E0],"tree_param":{"num_deleted":"0","num_feature":"80","num_nodes":"125","size_leaf_vector":"1"}},{"base_weights":[-1.004063E-3,-1.3141843E0,2.38133E-2,-1.4579208E0,-5.129031E-1,3.6204916E-1,-7.2550155E-2,-1.5850062E-3,-1.4784662E0,1.3301628E0,-9.0054923E-1,7.387752E-1,1.0162672E-2,4.8763722E-1,-1.2900321E-1,-1.3450594E-2,-5.9414644E-2,7.4097596E-2,-1.9477202E-3,4.7012898E-1,-1.1496285E0,2.0891549E-1,8.878514E-1,-3.347992E-1,5.2144367E-1,-7.6930225E-2,7.652944E-1,-3.4988627E-1,3.4358066E-2,-3.620185E-2,5.8328968E-2,-1.2790862E0,3.0655419E-3,-1.2644622E-1,9.152008E-1,1.5576262E0,8.132954E-1,1.4936037E-1,-7.662489E-1,-8.981874E-1,5.955228E-1,1.2527956E0,-1.121951E-1,9.059198E-1,-8.256879E-1,-4.6295282E-1,2.6334738E-2,1.0919114E0,9.775926E-3,4.866571E-3,-5.5273492E-2,1.9190034E-2,-2.9906174E-2,3.918268E-2,-4.0714663E-2,6.502657E-2,-1.8873632E-2,2.8873993E-2,5.239165E-2,-2.4427237E-2,1.606704E-2,-1.1861826E-2,-3.777785E-2,3.3322826E-2,-5.3280424E-2,1.8808268E-2,5.6511085E-2,7.8922715E-3,7.437607E-2,-1.067719E-2,7.044146E-3,4.0474735E-2,-2.945814E-2,-4.032182E-2,-3.6704578E-3,-1.9210411E-2,2.984025E-2,4.0259343E-3,-4.9958996E-2,5.772056E-2,-1.0566374E-2,9.789907E-3,-3.9236043E-3],"categories":[],"categories_nodes":[],"categories_segments":[],"categories_sizes":[],"default_left":[0,0,0,0,0,0,0,0,0,0,0,0,0,0,0,0,0,0,0,0,0,0,0,0,0,0,0,0,0,0,0,0,0,0,0,0,0,0,0,0,0,0,0,0,0,0,0,0,0,0,0,0,0,0,0,0,0,0,0,0,0,0,0,0,0,0,0,0,0,0,0,0,0,0,0,0,0,0,0,0,0,0,0],"id":4,"left_children":[1,3,5,7,9,11,13,-1,15,17,19,21,23,25,27,-1,-1,-1,-1,29,31,33,35,37,39,41,43,45,47,-1,-1,49,-1,51,53,55,57,59,61,63,65,67,69,71,73,75,77,79,81,-1,-1,-1,-1,-1,-1,-1,-1,-1,-1,-1,-1,-1,-1,-1,-1,-1,-1,-1,-1,-1,-1,-1,-1,-1,-1,-1,-1,-1,-1,-1,-1,-1,-1],"loss_changes":[2.9289203E2,1.8451294E1,2.8752148E2,4.04422E0,2.041481E1,2.592834E2,2.1718437E2,0E0,5.941467E-1,3.7469702E0,8.331196E0,7.442975E1,1.7872214E2,9.862021E1,2.2509871E2,0E0,0E0,0E0,0E0,7.0523186E0,3.2096157E0,4.9553764E1,3.5530884E1,1.26512924E2,4.3467293E1,9.903189E0,9.506572E1,1.1282846E2,9.32343E1,0E0,0E0,2.7279587E0,0E0,5.3983532E1,9.373318E0,1.0808182E1,2.9255371E1,5.508528E1,2.6514572E1,1.6615204E1,3.913353E1,3.1295338E0,9.135382E0,6.8226135E1,4.559517E0,4.3029053E1,5.8298325E1,3.9170296E1,8.889284E1,0E0,0E0,0E0,0E0,0E0,0E0,0E0,0E0,0E0,0E0,0E0,0E0,0E0,0E0,0E0,0E0,0E0,0E0,0E0,0E0,0E0,0E0,0E0,0E0,0E0,0E0,0E0,0E0,0E0,0E0,0E0,0E0,0E0,0E0],"parents":[2147483647,0,0,1,1,2,2,3,3,4,4,5,5,6,6,8,8,9,9,10,10,11,11,12,12,13,13,14,14,19,19,20,20,21,21,22,22,23,23,24,24,25,25,26,26,27,27,28,28,31,31,33,33,34,34,35,35,36,36,37,37,38,38,39,39,40,40,41,41,42,42,43,43,44,44,45,45,46,46,47,47,48,48],"right_children":[2,4,6,8,10,12,14,-1,16,18,20,22,24,26,28,-1,-1,-1,-1,30,32,34,36,38,40,42,44,46,48,-1,-1,50,-1,52,54,56,58,60,62,64,66,68,70,72,74,76,78,80,82,-1,-1,-1,-1,-1,-1,-1,-1,-1,-1,-1,-1,-1,-1,-1,-1,-1,-1,-1,-1,-1,-1,-1,-1,-1,-1,-1,-1,-1,-1,-1,-1,-1,-1],"split_conditions":[-1.7734611E0,-3.5887015E-1,-9.5373964E-1,3.0097556E-1,-7.184779E-1,1.7749447E0,-7.873743E-1,-1.5850062E-3,-1.1565162E0,-1.3748458E-1,-7.283051E-1,-1.0996788E0,1.9390372E0,1.0212992E-1,-2.487085E-1,-1.3450594E-2,-5.9414644E-2,7.4097596E-2,-1.9477202E-3,-2.9938608E-1,3.1027907E-1,1.7773193E-1,-5.7133436E-1,2.0291286E0,-1.3889493E0,-1.8064468E0,7.286775E-1,5.4298204E-1,-2.347463E0,-3.620185E-2,5.8328968E-2,-1.3064802E0,3.0655419E-3,-1.08667E0,3.7533553E0,1.2454811E0,1.6748844E0,1.5633571E0,2.4431852E-1,-4.6817735E-2,1.8463326E0,-4.1233498E-1,1.81484E-1,1.0205979E0,1.1032238E0,1.6724648E0,1.452516E0,1.9648334E-1,-9.034826E-1,4.866571E-3,-5.5273492E-2,1.9190034E-2,-2.9906174E-2,3.918268E-2,-4.0714663E-2,6.502657E-2,-1.8873632E-2,2.8873993E-2,5.239165E-2,-2.4427237E-2,1.606704E-2,-1.1861826E-2,-3.777785E-2,3.3322826E-2,-5.3280424E-2,1.8808268E-2,5.6511085E-2,7.8922715E-3,7.437607E-2,-1.067719E-2,7.044146E-3,4.0474735E-2,-2.945814E-2,-4.032182E-2,-3.6704578E-3,-1.9210411E-2,2.984025E-2,4.0259343E-3,-4.9958996E-2,5.772056E-2,-1.0566374E-2,9.789907E-3,-3.9236043E-3],"split_indices":[20,77,45,4,47,51,51,0,28,29,42,30,43,28,20,0,0,0,0,12,13,19,2,51,20,75,37,36,47,0,0,46,0,45,6,47,43,35,32,32,33,30,32,48,20,44,29,5,37,0,0,0,0,0,0,0,0,0,0,0,0,0,0,0,0,0,0,0,0,0,0,0,0,0,0,0,0,0,0,0,0,0,0],"split_type":[0,0,0,0,0,0,0,0,0,0,0,0,0,0,0,0,0,0,0,0,0,0,0,0,0,0,0,0,0,0,0,0,0,0,0,0,0,0,0,0,0,0,0,0,0,0,0,0,0,0,0,0,0,0,0,0,0,0,0,0,0,0,0,0,0,0,0,0,0,0,0,0,0,0,0,0,0,0,0,0,0,0,0],"sum_hessian":[8.985307E3,1.6569705E2,8.819609E3,1.397998E2,2.5897247E1,1.9549556E3,6.8646543E3,2.0380387E0,1.3776176E2,4.077824E0,2.1819424E1,9.4362305E2,1.0113326E3,6.2775574E2,6.2368984E3,1.1258379E0,1.3663593E2,2.7084622E0,1.3693618E0,3.2188258E0,1.8600597E1,2.077217E2,7.3590137E2,6.040945E2,4.0723807E2,2.0719127E2,4.2056448E2,2.651129E3,3.5857695E3,1.3809488E0,1.837877E0,1.6785473E1,1.8151245E0,1.4140167E2,6.632003E1,7.171913E1,6.641822E2,2.8496704E2,3.1912744E2,1.9644882E1,3.875932E2,4.460867E0,2.027304E2,3.8680566E2,3.375881E1,2.038318E3,6.1281085E2,8.046918E1,3.5053005E3,1.1345601E0,1.5650912E1,7.168075E1,6.972092E1,6.466026E1,1.6597652E0,6.958525E1,2.1338744E0,5.629507E2,1.01231514E2,7.067001E1,2.1429704E2,8.8504944E1,2.3062248E2,3.7518954E0,1.5892986E1,3.37428E2,5.0165184E1,2.1117337E0,2.3491333E0,1.3197264E2,7.075775E1,3.637258E2,2.3079853E1,2.674101E1,7.017796E0,2.0101434E3,2.8174486E1,5.7993835E2,3.287253E1,6.386871E1,1.6600468E1,1.102463E3,2.4028374E3],"tree_param":{"num_deleted":"0","num_feature":"80","num_nodes":"83","size_leaf_vector":"1"}},{"base_weights":[-3.6797842E-3,-6.9033015E-1,4.0811773E-2,-3.9764318E-1,-1.3055695E0,3.6871395E-1,-5.9514992E-2,-6.488682E-1,1.3616489E-1,-2.3032571E-1,-1.3692849E0,6.4643985E-1,5.193952E-2,4.890588E-1,-1.1615211E-1,-1.3990538E-1,-8.492537E-1,7.070123E-1,-3.5843575E-1,7.7941924E-1,-1.0080452E0,-1.416325E0,-6.778093E-1,9.2473435E-1,3.9113933E-1,-2.0798007E-1,7.224864E-1,6.091492E-1,-8.231924E-1,-3.137967E-1,4.1697018E-2,7.309917E-1,-4.7600523E-1,-9.8030615E-1,3.4924275E-1,1.0890468E0,-4.3299943E-1,-6.6058177E-1,2.5714353E-1,1.5716126E0,-3.557769E-2,-5.0232895E-2,4.030466E-3,-5.818362E-2,-9.2698437E-1,-1.1363707E0,5.027731E-1,1.8442601E0,8.511908E-1,7.4735455E-2,7.916884E-1,1.563425E-1,-4.947716E-1,8.761546E-1,-2.6013536E-2,-2.2354184E-3,8.583971E-1,1.7807542E-1,-1.0164396E0,-4.3175316E-1,-3.648417E-3,3.7245432E-1,-3.3629216E-2,-3.536997E-2,5.8711547E-2,3.362743E-2,-2.8691446E-2,5.8019694E-2,-4.1506376E-2,7.3250696E-2,-1.703867E-2,-2.9636532E-2,5.3276096E-2,-4.023946E-2,6.0275655E-2,-3.5773072E-2,1.7786583E-2,3.6281634E-2,-2.4753988E-2,2.0988813E-2,7.269716E-2,5.975186E-4,-5.1528048E-2,5.1635345E-3,-5.309693E-2,-1.45564405E-2,5.9673518E-2,3.4680977E-2,7.839608E-2,2.3131037E-2,4.7252703E-2,4.3186348E-2,-1.676614E-3,-3.6300823E-2,3.7089314E-2,1.4510735E-2,-3.2919433E-2,-3.1943735E-2,7.070153E-3,4.1778725E-2,1.5358387E-2,3.3285405E-2,-1.5229722E-2,1.717672E-2,-8.238348E-3,8.580433E-3,4.185172E-2,2.6569052E-2,-2.52297E-2,-4.4340596E-2,1.3800529E-2,-1.8474147E-2,2.1609914E-2,1.9792116E-3,-4.499575E-2,2.1811726E-2,-1.0024728E-2,-6.0243756E-3,8.153459E-3],"categories":[],"categories_nodes":[],"categories_segments":[],"categories_sizes":[],"default_left":[0,0,0,0,0,0,0,0,0,0,0,0,0,0,0,0,0,0,0,0,0,0,0,0,0,0,0,0,0,0,0,0,0,0,0,0,0,0,0,0,0,0,0,0,0,0,0,0,0,0,0,0,0,0,0,0,0,0,0,0,0,0,0,0,0,0,0,0,0,0,0,0,0,0,0,0,0,0,0,0,0,0,0,0,0,0,0,0,0,0,0,0,0,0,0,0,0,0,0,0,0,0,0,0,0,0,0,0,0,0,0,0,0,0,0,0,0,0,0],"id":5,"left_children":[1,3,5,7,9,11,13,15,17,19,21,23,25,27,29,31,33,35,37,39,41,43,45,47,49,51,53,55,57,59,61,63,65,67,69,71,73,75,77,79,-1,-1,-1,-1,81,83,85,87,89,91,93,95,97,99,101,103,105,107,109,111,113,115,117,-1,-1,-1,-1,-1,-1,-1,-1,-1,-1,-1,-1,-1,-1,-1,-1,-1,-1,-1,-1,-1,-1,-1,-1,-1,-1,-1,-1,-1,-1,-1,-1,-1,-1,-1,-1,-1,-1,-1,-1,-1,-1,-1,-1,-1,-1,-1,-1,-1,-1,-1,-1,-1,-1,-1,-1],"loss_changes":[2.7435126E2,9.788583E1,2.774771E2,4.9941677E1,1.1723663E1,1.7381436E2,2.0073216E2,2.5679619E1,3.4075684E1,9.449691E0,4.4295654E0,7.444168E1,1.612322E2,9.578444E1,1.8268562E2,2.1614609E1,2.8818253E1,2.4837418E1,1.2230874E1,8.489743E0,1.9586201E0,1.5394592E0,7.32322E0,3.2446014E1,6.975184E1,6.975051E1,2.9744125E1,8.450194E1,1.0072075E1,9.511737E1,8.114087E1,2.5844727E1,1.7449911E1,2.4326004E1,2.2158186E1,1.9735882E1,1.7919928E1,1.1707199E1,1.3125481E1,7.546234E-2,0E0,0E0,0E0,0E0,4.7629433E0,2.4172735E0,4.1280413E0,2.4135742E0,4.144702E1,3.625017E1,5.680696E1,5.9828693E1,7.631446E1,1.7361786E1,1.401075E1,1.4298291E1,4.7433746E1,4.0053406E0,5.7725067E0,5.5360016E1,4.279113E1,6.519263E1,7.373186E1,0E0,0E0,0E0,0E0,0E0,0E0,0E0,0E0,0E0,0E0,0E0,0E0,0E0,0E0,0E0,0E0,0E0,0E0,0E0,0E0,0E0,0E0,0E0,0E0,0E0,0E0,0E0,0E0,0E0,0E0,0E0,0E0,0E0,0E0,0E0,0E0,0E0,0E0,0E0,0E0,0E0,0E0,0E0,0E0,0E0,0E0,0E0,0E0,0E0,0E0,0E0,0E0,0E0,0E0,0E0,0E0],"parents":[2147483647,0,0,1,1,2,2,3,3,4,4,5,5,6,6,7,7,8,8,9,9,10,10,11,11,12,12,13,13,14,14,15,15,16,16,17,17,18,18,19,19,20,20,21,21,22,22,23,23,24,24,25,25,26,26,27,27,28,28,29,29,30,30,31,31,32,32,33,33,34,34,35,35,36,36,37,37,38,38,39,39,44,44,45,45,46,46,47,47,48,48,49,49,50,50,51,51,52,52,53,53,54,54,55,55,56,56,57,57,58,58,59,59,60,60,61,61,62,62],"right_children":[2,4,6,8,10,12,14,16,18,20,22,24,26,28,30,32,34,36,38,40,42,44,46,48,50,52,54,56,58,60,62,64,66,68,70,72,74,76,78,80,-1,-1,-1,-1,82,84,86,88,90,92,94,96,98,100,102,104,106,108,110,112,114,116,118,-1,-1,-1,-1,-1,-1,-1,-1,-1,-1,-1,-1,-1,-1,-1,-1,-1,-1,-1,-1,-1,-1,-1,-1,-1,-1,-1,-1,-1,-1,-1,-1,-1,-1,-1,-1,-1,-1,-1,-1,-1,-1,-1,-1,-1,-1,-1,-1,-1,-1,-1,-1,-1,-1,-1,-1],"split_conditions":[-1.4455441E0,1.4541415E0,-9.0421647E-1,3.3818334E-1,-7.39825E-1,1.817583E0,-7.873743E-1,-6.20945E-1,-2.708919E-1,-1.2525874E0,1.8038037E0,2.7684537E-1,1.9455396E0,7.286775E-1,-1.5458378E-1,-4.3329036E-1,9.5643646E-1,-1.7005833E-2,-2.1074134E-1,1.5309869E0,6.108935E-1,-1.7155447E0,-5.722545E-1,-1.5020487E0,3.5675114E-1,2.0291286E0,9.4935066E-1,1.0212992E-1,-3.234877E-1,4.1975918E-1,-5.6913227E-1,-1.3202169E0,-1.1944762E0,-1.4897382E0,-5.685174E-1,-1.3185185E0,6.8439454E-1,1.6501318E0,5.8701324E-1,-1.9890113E-1,-3.557769E-2,-5.0232895E-2,4.030466E-3,-5.818362E-2,9.573775E-1,-8.591751E-1,9.37016E-1,-1.3450754E0,3.524217E-1,-9.7178483E-1,-5.553969E-1,5.081728E-1,1.9129622E0,1.1057755E0,2.5216835E0,-8.2324433E-1,-7.049301E-1,-1.5713349E-1,1.837731E0,1.3793269E0,1.452516E0,8.101459E-1,6.6730654E-1,-3.536997E-2,5.8711547E-2,3.362743E-2,-2.8691446E-2,5.8019694E-2,-4.1506376E-2,7.3250696E-2,-1.703867E-2,-2.9636532E-2,5.3276096E-2,-4.023946E-2,6.0275655E-2,-3.5773072E-2,1.7786583E-2,3.6281634E-2,-2.4753988E-2,2.0988813E-2,7.269716E-2,5.975186E-4,-5.1528048E-2,5.1635345E-3,-5.309693E-2,-1.45564405E-2,5.9673518E-2,3.4680977E-2,7.839608E-2,2.3131037E-2,4.7252703E-2,4.3186348E-2,-1.676614E-3,-3.6300823E-2,3.7089314E-2,1.4510735E-2,-3.2919433E-2,-3.1943735E-2,7.070153E-3,4.1778725E-2,1.5358387E-2,3.3285405E-2,-1.5229722E-2,1.717672E-2,-8.238348E-3,8.580433E-3,4.185172E-2,2.6569052E-2,-2.52297E-2,-4.4340596E-2,1.3800529E-2,-1.8474147E-2,2.1609914E-2,1.9792116E-3,-4.499575E-2,2.1811726E-2,-1.0024728E-2,-6.0243756E-3,8.153459E-3],"split_indices":[20,4,45,34,76,51,51,40,38,49,21,63,37,37,20,54,40,37,40,5,30,20,28,38,54,51,8,28,8,34,38,54,76,49,2,43,44,45,29,30,0,0,0,0,10,58,10,53,10,28,40,40,43,78,38,38,58,6,20,40,29,29,47,0,0,0,0,0,0,0,0,0,0,0,0,0,0,0,0,0,0,0,0,0,0,0,0,0,0,0,0,0,0,0,0,0,0,0,0,0,0,0,0,0,0,0,0,0,0,0,0,0,0,0,0,0,0,0,0],"split_type":[0,0,0,0,0,0,0,0,0,0,0,0,0,0,0,0,0,0,0,0,0,0,0,0,0,0,0,0,0,0,0,0,0,0,0,0,0,0,0,0,0,0,0,0,0,0,0,0,0,0,0,0,0,0,0,0,0,0,0,0,0,0,0,0,0,0,0,0,0,0,0,0,0,0,0,0,0,0,0,0,0,0,0,0,0,0,0,0,0,0,0,0,0,0,0,0,0,0,0,0,0,0,0,0,0,0,0,0,0,0,0,0,0,0,0,0,0,0,0],"sum_hessian":[8.9784375E3,5.454739E2,8.432963E3,3.707458E2,1.7472807E2,1.9750734E3,6.45789E3,2.5195375E2,1.18792046E2,1.0032752E1,1.6469533E2,1.0518464E3,9.23227E2,6.036306E2,5.8542593E3,7.165474E1,1.8029901E2,5.4946095E1,6.384595E1,4.364264E0,5.668488E0,1.5322346E2,1.1471859E1,5.0200528E2,5.498411E2,6.6582684E2,2.5740015E2,5.535119E2,5.0118732E1,2.5990156E3,3.2552437E3,1.9625778E1,5.202896E1,1.6269121E2,1.7607805E1,4.1188076E1,1.3758018E1,4.277668E1,2.106927E1,2.9989583E0,1.3653059E0,4.524779E0,1.1437091E0,1.4028117E2,1.2942292E1,8.289503E0,3.182356E0,3.5393826E1,4.6661145E2,3.0784952E2,2.419916E2,2.9347232E2,3.7235452E2,2.1341515E2,4.3985016E1,1.6058969E2,3.929222E2,8.120845E0,4.1997887E1,1.8826202E3,7.163954E2,6.0309784E2,2.6521458E3,6.0852604E0,1.3540519E1,7.672919E0,4.4356045E1,3.1902118E0,1.5950099E2,5.579253E0,1.2028552E1,4.585404E0,3.6602673E1,1.09925585E1,2.7654595E0,3.5466763E1,7.3099174E0,1.2075237E1,8.994033E0,1.166334E0,1.8326243E0,3.8531976E0,9.089094E0,1.1298888E0,7.159614E0,2.0329854E0,1.1493708E0,4.644329E0,3.0749496E1,2.5694632E2,2.0966513E2,3.1159678E1,2.7668985E2,1.7456656E1,2.2453493E2,2.4290219E2,5.0570107E1,2.5623538E2,1.16119156E2,1.5819565E2,5.5219494E1,1.2470648E1,3.1514368E1,5.1135277E1,1.0945441E2,8.9243164E1,3.0367902E2,5.183813E0,2.9370317E0,3.95115E1,2.486387E0,1.8265803E3,5.6039967E1,6.848983E2,3.1497116E1,4.7222784E2,1.3087003E2,1.7770852E3,8.750606E2],"tree_param":{"num_deleted":"0","num_feature":"80","num_nodes":"119","size_leaf_vector":"1"}},{"base_weights":[-3.169722E-3,-7.2475255E-1,3.6875363E-2,-5.7056434E-2,-4.710271E-1,3.55787E-1,-5.5476446E-2,7.3251045E-1,-6.6336167E-1,6.849267E-1,3.5815276E-2,-9.057179E-2,6.5487385E-1,-7.95112E-1,1.0442439E0,-8.550671E-1,-1.1390126E-1,9.2902815E-1,4.2964137E-1,-1.5956236E-1,7.2982186E-1,6.681537E-1,-1.2198205E-1,1.1831932E0,1.0324318E-1,-5.3038493E-2,5.60417E-2,1.4413027E0,-2.9606462E-1,1.038478E0,-9.178648E-1,9.6330804E-1,-3.7470517E-1,1.7385124E0,8.414689E-1,1.1149488E-1,8.429831E-1,1.5878905E-1,-4.042054E-1,9.1024446E-1,-5.3051823E-1,-5.6540597E-2,9.0010184E-1,-3.0448702E-1,1.508375E-3,1.8333879E0,8.275514E-1,-7.8304625E-1,5.1150835E-1,2.7067738E-2,7.866507E-2,-3.5056002E-2,6.739543E-2,7.294396E-2,-3.8689613E-2,1.0630165E-2,-3.9756153E-2,-2.942296E-2,8.11454E-2,4.7340862E-2,-2.1601548E-2,3.3092335E-2,7.456122E-2,7.039078E-2,3.0536808E-2,-7.175329E-3,2.110734E-2,4.5599896E-2,1.8855074E-2,1.1759388E-2,-4.0174127E-2,8.714168E-3,-2.7601697E-2,4.2805158E-2,1.6766416E-2,2.3737852E-2,-3.25245E-2,9.244729E-3,-3.1741012E-2,4.2483356E-2,-3.6022675E-3,2.6255788E-2,-1.4272122E-2,4.2659674E-2,-9.434411E-4,7.554741E-2,2.1530373E-3,5.5998072E-2,1.6392386E-2,-4.8570603E-2,2.0763936E-2,3.10111E-2,4.45332E-3],"categories":[],"categories_nodes":[],"categories_segments":[],"categories_sizes":[],"default_left":[0,0,0,0,0,0,0,0,0,0,0,0,0,0,0,0,0,0,0,0,0,0,0,0,0,0,0,0,0,0,0,0,0,0,0,0,0,0,0,0,0,0,0,0,0,0,0,0,0,0,0,0,0,0,0,0,0,0,0,0,0,0,0,0,0,0,0,0,0,0,0,0,0,0,0,0,0,0,0,0,0,0,0,0,0,0,0,0,0,0,0,0,0],"id":6,"left_children":[1,3,5,-1,7,9,11,13,15,17,19,21,23,25,27,29,31,33,35,37,39,41,43,45,47,-1,-1,49,51,53,55,57,59,61,63,65,67,69,71,73,75,77,79,81,83,85,87,89,91,-1,-1,-1,-1,-1,-1,-1,-1,-1,-1,-1,-1,-1,-1,-1,-1,-1,-1,-1,-1,-1,-1,-1,-1,-1,-1,-1,-1,-1,-1,-1,-1,-1,-1,-1,-1,-1,-1,-1,-1,-1,-1,-1,-1],"loss_changes":[2.5799905E2,8.290355E1,2.4916101E2,0E0,8.064086E1,2.0004355E2,1.6361267E2,2.3777456E1,3.1406265E1,5.7951996E1,1.3087224E2,1.4909006E2,8.992844E1,1.2040588E1,2.1954792E1,2.7300095E1,2.2418245E1,3.2403564E1,6.034041E1,5.873332E1,4.8694817E1,4.185704E1,1.353345E2,3.4956482E1,5.549258E1,0E0,0E0,1.127269E1,1.3058579E1,1.3702625E1,1.9613297E1,2.9696377E1,1.7108932E1,3.6848145E0,2.9698822E1,3.1671886E1,2.1506973E1,5.1882927E1,7.5940094E1,1.4142761E1,9.116364E0,1.3167021E1,3.0323532E1,1.2205554E2,9.576647E1,5.305542E0,2.4242897E1,2.7814056E1,1.098027E1,0E0,0E0,0E0,0E0,0E0,0E0,0E0,0E0,0E0,0E0,0E0,0E0,0E0,0E0,0E0,0E0,0E0,0E0,0E0,0E0,0E0,0E0,0E0,0E0,0E0,0E0,0E0,0E0,0E0,0E0,0E0,0E0,0E0,0E0,0E0,0E0,0E0,0E0,0E0,0E0,0E0,0E0,0E0,0E0],"parents":[2147483647,0,0,1,1,2,2,4,4,5,5,6,6,7,7,8,8,9,9,10,10,11,11,12,12,13,13,14,14,15,15,16,16,17,17,18,18,19,19,20,20,21,21,22,22,23,23,24,24,27,27,28,28,29,29,30,30,31,31,32,32,33,33,34,34,35,35,36,36,37,37,38,38,39,39,40,40,41,41,42,42,43,43,44,44,45,45,46,46,47,47,48,48],"right_children":[2,4,6,-1,8,10,12,14,16,18,20,22,24,26,28,30,32,34,36,38,40,42,44,46,48,-1,-1,50,52,54,56,58,60,62,64,66,68,70,72,74,76,78,80,82,84,86,88,90,92,-1,-1,-1,-1,-1,-1,-1,-1,-1,-1,-1,-1,-1,-1,-1,-1,-1,-1,-1,-1,-1,-1,-1,-1,-1,-1,-1,-1,-1,-1,-1,-1,-1,-1,-1,-1,-1,-1,-1,-1,-1,-1,-1,-1],"split_conditions":[-1.5247926E0,-9.8073864E-1,-9.5373964E-1,-5.7056434E-2,-9.0202534E-1,1.7749447E0,1.3793269E0,-1.1635432E0,4.207301E-1,2.7684537E-1,2.874145E0,-8.558322E-1,7.234069E-1,1.9067396E-1,7.773035E-1,-1.7728661E0,-1.0913154E0,-5.774909E-1,3.5192016E-1,2.0291286E0,1.2254411E0,8.053897E-2,-2.3982961E-1,-9.731437E-1,-7.72625E-1,-5.3038493E-2,5.60417E-2,-3.0589166E-1,5.3085834E-1,1.2564113E0,-9.867452E-1,1.7172897E-1,-1.6714838E0,-2.5964491E0,-2.4361296E-1,-4.1336164E-2,4.9048427E-1,6.7096317E-1,-5.025356E-1,1.1057755E0,1.3509023E0,8.6694755E-2,8.9113903E-1,-1.3967341E0,-2.347463E0,2.336502E0,-2.5572795E-1,7.7416354E-1,1.6047418E-1,2.7067738E-2,7.866507E-2,-3.5056002E-2,6.739543E-2,7.294396E-2,-3.8689613E-2,1.0630165E-2,-3.9756153E-2,-2.942296E-2,8.11454E-2,4.7340862E-2,-2.1601548E-2,3.3092335E-2,7.456122E-2,7.039078E-2,3.0536808E-2,-7.175329E-3,2.110734E-2,4.5599896E-2,1.8855074E-2,1.1759388E-2,-4.0174127E-2,8.714168E-3,-2.7601697E-2,4.2805158E-2,1.6766416E-2,2.3737852E-2,-3.25245E-2,9.244729E-3,-3.1741012E-2,4.2483356E-2,-3.6022675E-3,2.6255788E-2,-1.4272122E-2,4.2659674E-2,-9.434411E-4,7.554741E-2,2.1530373E-3,5.5998072E-2,1.6392386E-2,-4.8570603E-2,2.0763936E-2,3.10111E-2,4.45332E-3],"split_indices":[20,77,45,0,47,51,40,48,36,63,51,51,29,34,55,58,37,2,54,51,6,28,20,14,51,0,0,40,48,29,40,47,52,61,39,30,32,46,40,78,29,67,44,39,47,65,20,20,13,0,0,0,0,0,0,0,0,0,0,0,0,0,0,0,0,0,0,0,0,0,0,0,0,0,0,0,0,0,0,0,0,0,0,0,0,0,0,0,0,0,0,0,0],"split_type":[0,0,0,0,0,0,0,0,0,0,0,0,0,0,0,0,0,0,0,0,0,0,0,0,0,0,0,0,0,0,0,0,0,0,0,0,0,0,0,0,0,0,0,0,0,0,0,0,0,0,0,0,0,0,0,0,0,0,0,0,0,0,0,0,0,0,0,0,0,0,0,0,0,0,0,0,0,0,0,0,0,0,0,0,0,0,0,0,0,0,0,0,0],"sum_hessian":[8.926661E3,4.684495E2,8.458212E3,1.23180725E2,3.4526877E2,1.8987045E3,6.5595073E3,4.718695E1,2.9808182E2,9.3538153E2,9.6332294E2,6.251519E3,3.079881E2,7.734434E0,3.945252E1,2.2056949E2,7.751234E1,4.7681558E2,4.5856592E2,7.523035E2,2.110194E2,2.4771072E2,6.0038086E3,1.567333E2,1.512548E2,6.5479183E0,1.1865158E0,3.0377892E1,9.074625E0,6.58146E0,2.1398802E2,1.4583575E1,6.292876E1,4.470094E1,4.3211465E2,2.5983914E2,1.9872676E2,3.2705774E2,4.2524582E2,1.8483702E2,2.6182362E1,6.024346E1,1.8746727E2,2.422363E3,3.5814456E3,5.3948288E1,1.0278501E2,4.7411892E1,1.0384291E2,1.3303215E1,1.7074677E1,7.4497476E0,1.6248778E0,4.7952147E0,1.7862453E0,1.2766732E1,2.012213E2,5.7398076E0,8.843767E0,5.445732E0,5.748303E1,6.331116E0,3.8369823E1,3.2161648E1,3.99953E2,1.5327959E2,1.06559555E2,1.0929923E2,8.942752E1,2.9367072E2,3.338702E1,1.3395685E2,2.9128897E2,1.3854965E2,4.628737E1,5.039345E0,2.1143017E1,4.3824387E1,1.6419073E1,1.6104839E2,2.6418882E1,1.2448148E2,2.2978813E3,8.14922E1,3.4999534E3,5.2262966E1,1.6853218E0,4.237309E1,6.0411926E1,3.566766E1,1.1744232E1,6.202365E1,4.181926E1],"tree_param":{"num_deleted":"0","num_feature":"80","num_nodes":"93","size_leaf_vector":"1"}},{"base_weights":[-6.5023634E-3,-1.2035456E0,1.6006468E-2,-1.3675612E0,-3.9814258E-1,1.5611382E-1,-1.8119138E-1,-1.9981892E-1,-5.604605E-2,1.3861103E0,-7.858636E-1,-4.1030258E-2,4.868723E-1,-4.366018E-1,4.530917E-2,3.3337455E-2,-3.236119E-2,-2.7200873E-3,7.508193E-2,7.821399E-1,-9.777755E-1,-1.0181503E-1,6.194435E-1,-1.6261217E-1,5.7767206E-1,8.7082736E-2,-5.868015E-1,2.0739274E-1,-3.5884428E-1,4.429E-3,4.3651752E-2,-1.163122E0,4.8079687E-1,-1.6518435E-1,3.3485767E-1,7.2148836E-1,-3.006557E-1,-7.9703957E-1,3.0942878E-1,9.6083605E-1,3.820417E-1,-3.4829417E-1,3.5639676E-1,-5.028315E-1,-1.1567597E0,3.329024E-1,-2.5863326E-1,-7.5556964E-1,-2.2601949E-1,7.0603737E-3,-5.153474E-2,-1.2952115E-2,4.1961882E-2,-2.0642681E-2,-1.8990563E-3,5.855182E-3,3.462489E-2,-1.2946373E-2,3.1123238E-2,2.4358757E-2,-2.4790782E-2,-3.9203275E-2,7.207941E-5,-7.5223553E-3,3.049145E-2,5.4126985E-2,3.1161543E-2,9.195163E-3,3.3444162E-2,-2.3509825E-2,9.730714E-3,2.5323175E-2,-1.6734948E-3,-3.846968E-2,-1.5496474E-2,1.1111882E-3,-4.775361E-2,1.8901346E-2,-2.5862937E-3,-1.3663954E-2,4.6891265E-2,-3.3367474E-2,3.331914E-2,-1.5731676E-2,8.303052E-3],"categories":[],"categories_nodes":[],"categories_segments":[],"categories_sizes":[],"default_left":[0,0,0,0,0,0,0,0,0,0,0,0,0,0,0,0,0,0,0,0,0,0,0,0,0,0,0,0,0,0,0,0,0,0,0,0,0,0,0,0,0,0,0,0,0,0,0,0,0,0,0,0,0,0,0,0,0,0,0,0,0,0,0,0,0,0,0,0,0,0,0,0,0,0,0,0,0,0,0,0,0,0,0,0,0],"id":7,"left_children":[1,3,5,7,9,11,13,15,-1,17,19,21,23,25,27,-1,-1,-1,-1,29,31,33,35,37,39,41,43,45,47,-1,-1,49,51,53,55,57,59,61,63,65,67,69,71,73,75,77,79,81,83,-1,-1,-1,-1,-1,-1,-1,-1,-1,-1,-1,-1,-1,-1,-1,-1,-1,-1,-1,-1,-1,-1,-1,-1,-1,-1,-1,-1,-1,-1,-1,-1,-1,-1,-1,-1],"loss_changes":[2.4136772E2,2.129625E1,2.4297058E2,5.0919495E0,2.1416876E1,3.3526257E2,2.1133984E2,3.8188708E0,0E0,4.1304884E0,8.22055E0,1.2942198E2,1.1332501E2,1.3510223E2,1.26954384E2,0E0,0E0,0E0,0E0,5.5530524E-1,6.6471443E0,8.172711E1,2.572638E1,7.100808E1,1.2592035E2,4.5097412E1,6.328192E1,8.098491E1,2.9064323E1,0E0,0E0,3.62887E0,1.8240376E0,1.06455246E2,3.7323624E1,1.4734795E1,8.455719E0,1.4782326E1,3.0828274E1,3.9515015E1,7.698135E1,2.0978481E1,2.6191568E1,6.1324707E1,7.5255585E0,6.054283E1,3.5306053E1,1.8020592E1,3.033098E1,0E0,0E0,0E0,0E0,0E0,0E0,0E0,0E0,0E0,0E0,0E0,0E0,0E0,0E0,0E0,0E0,0E0,0E0,0E0,0E0,0E0,0E0,0E0,0E0,0E0,0E0,0E0,0E0,0E0,0E0,0E0,0E0,0E0,0E0,0E0,0E0],"parents":[2147483647,0,0,1,1,2,2,3,3,4,4,5,5,6,6,7,7,9,9,10,10,11,11,12,12,13,13,14,14,19,19,20,20,21,21,22,22,23,23,24,24,25,25,26,26,27,27,28,28,31,31,32,32,33,33,34,34,35,35,36,36,37,37,38,38,39,39,40,40,41,41,42,42,43,43,44,44,45,45,46,46,47,47,48,48],"right_children":[2,4,6,8,10,12,14,16,-1,18,20,22,24,26,28,-1,-1,-1,-1,30,32,34,36,38,40,42,44,46,48,-1,-1,50,52,54,56,58,60,62,64,66,68,70,72,74,76,78,80,82,84,-1,-1,-1,-1,-1,-1,-1,-1,-1,-1,-1,-1,-1,-1,-1,-1,-1,-1,-1,-1,-1,-1,-1,-1,-1,-1,-1,-1,-1,-1,-1,-1,-1,-1,-1,-1],"split_conditions":[-1.7734611E0,-3.5887015E-1,4.1947377E-1,5.764533E-1,-7.184779E-1,1.0008342E-1,8.307356E-1,-7.277371E-1,-5.604605E-2,-2.992902E-1,-1.4380262E0,1.9455396E0,-7.530866E-2,-1.0883946E0,4.4170693E-1,3.3337455E-2,-3.236119E-2,-2.7200873E-3,7.508193E-2,-9.910229E-1,2.996574E-1,1.4029649E-1,1.2254411E0,-7.71585E-2,-2.0913921E-1,-1.9803666E-1,5.3404495E-2,9.578454E-1,-5.8499444E-1,4.429E-3,4.3651752E-2,-7.283051E-1,6.9264823E-1,-1.1588644E0,-9.156569E-2,-1.3889493E0,1.3509023E0,1.9435039E-3,-1.8187222E-1,-6.7209154E-1,2.1775868E0,8.848668E-1,-6.59005E-1,-1.7701241E-1,-2.048545E0,6.162212E-1,4.7771192E-1,3.9275286E0,1.0676392E0,7.0603737E-3,-5.153474E-2,-1.2952115E-2,4.1961882E-2,-2.0642681E-2,-1.8990563E-3,5.855182E-3,3.462489E-2,-1.2946373E-2,3.1123238E-2,2.4358757E-2,-2.4790782E-2,-3.9203275E-2,7.207941E-5,-7.5223553E-3,3.049145E-2,5.4126985E-2,3.1161543E-2,9.195163E-3,3.3444162E-2,-2.3509825E-2,9.730714E-3,2.5323175E-2,-1.6734948E-3,-3.846968E-2,-1.5496474E-2,1.1111882E-3,-4.775361E-2,1.8901346E-2,-2.5862937E-3,-1.3663954E-2,4.6891265E-2,-3.3367474E-2,3.331914E-2,-1.5731676E-2,8.303052E-3],"split_indices":[20,77,49,4,47,40,49,30,0,42,60,37,32,35,61,0,0,0,0,42,17,49,6,39,29,20,43,48,20,0,0,42,49,29,67,20,29,6,6,10,32,77,40,47,75,10,58,25,29,0,0,0,0,0,0,0,0,0,0,0,0,0,0,0,0,0,0,0,0,0,0,0,0,0,0,0,0,0,0,0,0,0,0,0,0],"split_type":[0,0,0,0,0,0,0,0,0,0,0,0,0,0,0,0,0,0,0,0,0,0,0,0,0,0,0,0,0,0,0,0,0,0,0,0,0,0,0,0,0,0,0,0,0,0,0,0,0,0,0,0,0,0,0,0,0,0,0,0,0,0,0,0,0,0,0,0,0,0,0,0,0,0,0,0,0,0,0,0,0,0,0,0,0],"sum_hessian":[8.9563955E3,1.6433653E2,8.792059E3,1.3595259E2,2.838394E1,5.1401997E3,3.651859E3,3.9956212E0,1.3195697E2,4.6071734E0,2.3776768E1,3.221152E3,1.919048E3,1.7159559E3,1.9359028E3,1.3455074E0,2.650114E0,1.38031E0,3.2268634E0,2.2573915E0,2.1519375E1,2.9504607E3,2.706912E2,2.3528442E2,1.6837635E3,3.8255725E2,1.3333987E3,1.3821042E3,5.5379865E2,1.1399101E0,1.1174814E0,1.9272858E1,2.246517E0,2.5770977E3,3.7336304E2,2.4386128E2,2.682992E1,1.0008319E2,1.3520123E2,5.677839E2,1.1159796E3,1.4609106E2,2.3646617E2,1.1638193E3,1.6957939E2,1.08908E3,2.930243E2,1.3773094E2,4.160677E2,1.6128261E0,1.7660032E1,1.1079369E0,1.1385801E0,6.4650574E2,1.930592E3,2.7646442E2,9.6898605E1,1.2283913E1,2.3157738E2,6.732063E0,2.0097857E1,8.124115E1,1.8842041E1,6.470459E1,7.049664E1,1.7774583E2,3.9003802E2,8.369967E2,2.7898297E2,1.0400042E2,4.2090652E1,1.3917873E2,9.7287445E1,2.3241217E2,9.3140717E2,5.154943E0,1.6442444E2,8.058574E2,2.8322253E2,2.7768515E2,1.5339141E1,1.3168854E2,6.0423894E0,3.0030795E2,1.1575974E2],"tree_param":{"num_deleted":"0","num_feature":"80","num_nodes":"85","size_leaf_vector":"1"}},{"base_weights":[1.9279794E-3,-1.1937913E0,2.3727769E-2,-5.3934973E-1,-5.526652E-2,3.1580496E-1,-6.0653433E-2,1.0644475E0,-8.126857E-1,6.3333964E-1,-1.3642625E-2,4.0980327E-1,-1.0882002E-1,7.366255E-2,2.0518946E-2,8.985951E-1,-1.0125829E0,8.658082E-1,3.8922644E-1,-3.3585733E-1,4.1645822E-1,6.126849E-1,-1.22926995E-1,-2.7668157E-1,4.181486E-2,-1.9141462E-2,2.2480981E-2,-1.7256323E-2,6.998237E-2,-1.1831303E0,4.1472155E-1,1.6723623E0,8.024868E-1,-2.650529E-2,7.127046E-1,7.752671E-2,-6.709496E-1,6.8167204E-1,7.551861E-2,8.310318E-1,8.137232E-2,-3.9259416E-1,2.7876005E-1,-2.4395983E-1,-1.1815941E0,-5.556003E-1,7.578117E-2,1.9942075E-2,-5.151238E-2,6.380195E-2,-3.5051446E-2,3.448505E-2,7.034949E-2,2.4287166E-2,4.5435194E-2,-7.019535E-3,4.3070044E-2,-4.5168865E-2,3.0042227E-2,-3.0938625E-2,1.1850643E-2,4.68169E-3,-3.0841291E-2,1.786678E-2,4.193696E-2,-2.6973453E-3,3.2625284E-2,4.834636E-2,2.2205902E-2,-1.3491E-2,3.1414315E-2,-2.0823786E-2,1.5088825E-2,-2.2887405E-2,2.0871708E-2,2.916461E-3,-1.4477492E-2,-1.4090627E-2,-5.3394005E-2,4.4057816E-3,-2.8786672E-2,1.6549405E-2,-4.19942E-5],"categories":[],"categories_nodes":[],"categories_segments":[],"categories_sizes":[],"default_left":[0,0,0,0,0,0,0,0,0,0,0,0,0,0,0,0,0,0,0,0,0,0,0,0,0,0,0,0,0,0,0,0,0,0,0,0,0,0,0,0,0,0,0,0,0,0,0,0,0,0,0,0,0,0,0,0,0,0,0,0,0,0,0,0,0,0,0,0,0,0,0,0,0,0,0,0,0,0,0,0,0,0,0],"id":8,"left_children":[1,3,5,7,-1,9,11,13,15,17,19,21,23,-1,25,27,29,31,33,35,37,39,41,43,45,-1,-1,-1,-1,47,49,51,53,55,57,59,61,63,65,67,69,71,73,75,77,79,81,-1,-1,-1,-1,-1,-1,-1,-1,-1,-1,-1,-1,-1,-1,-1,-1,-1,-1,-1,-1,-1,-1,-1,-1,-1,-1,-1,-1,-1,-1,-1,-1,-1,-1,-1,-1],"loss_changes":[2.3312387E2,1.8943344E1,2.1648915E2,1.7241396E1,0E0,2.0597488E2,1.5448254E2,4.726386E0,1.2022121E1,5.655841E1,1.3419171E2,6.851002E1,1.5635812E2,0E0,1.2194837E0,5.199827E0,7.6854725E0,2.4843872E1,6.603E1,7.673166E1,3.7449608E1,5.3148148E1,1.9115955E1,8.6307205E1,6.618734E1,0E0,0E0,0E0,0E0,5.335472E0,7.333279E0,1.0312119E0,3.039093E1,3.5653507E1,2.0351517E1,4.6527874E1,2.420958E1,1.9626244E1,1.9372742E1,3.318802E1,3.9968193E1,1.0582058E1,1.4995192E1,1.0558681E2,1.2468491E1,1.9246323E1,8.0108536E1,0E0,0E0,0E0,0E0,0E0,0E0,0E0,0E0,0E0,0E0,0E0,0E0,0E0,0E0,0E0,0E0,0E0,0E0,0E0,0E0,0E0,0E0,0E0,0E0,0E0,0E0,0E0,0E0,0E0,0E0,0E0,0E0,0E0,0E0,0E0,0E0],"parents":[2147483647,0,0,1,1,2,2,3,3,5,5,6,6,7,7,8,8,9,9,10,10,11,11,12,12,14,14,15,15,16,16,17,17,18,18,19,19,20,20,21,21,22,22,23,23,24,24,29,29,30,30,31,31,32,32,33,33,34,34,35,35,36,36,37,37,38,38,39,39,40,40,41,41,42,42,43,43,44,44,45,45,46,46],"right_children":[2,4,6,8,-1,10,12,14,16,18,20,22,24,-1,26,28,30,32,34,36,38,40,42,44,46,-1,-1,-1,-1,48,50,52,54,56,58,60,62,64,66,68,70,72,74,76,78,80,82,-1,-1,-1,-1,-1,-1,-1,-1,-1,-1,-1,-1,-1,-1,-1,-1,-1,-1,-1,-1,-1,-1,-1,-1,-1,-1,-1,-1,-1,-1,-1,-1,-1,-1,-1,-1],"split_conditions":[-1.7734611E0,1.9069188E0,-9.5373964E-1,-7.184779E-1,-5.526652E-2,1.817583E0,-7.873743E-1,-5.2411843E-2,-1.4380262E0,2.7684537E-1,1.9390372E0,-1.6254175E-1,-1.4561576E-1,7.366255E-2,1.1763522E-1,-1.2619941E-1,-1.9127885E-1,-1.5020487E0,5.338114E-1,2.0291286E0,1.6203368E0,5.513805E-1,1.81484E-1,1.452516E0,-1.4062347E0,-1.9141462E-2,2.2480981E-2,-1.7256323E-2,6.998237E-2,-4.392879E-1,-1.7105626E-1,-1.4677142E0,5.2973527E-1,9.905069E-1,-1.6964813E0,1.5633571E0,-6.961039E-1,1.8064356E0,5.488856E-1,-8.044863E-1,-1.6523944E0,-1.0318175E-1,-1.4157793E-1,-4.7424713E-1,-3.5694718E-1,-6.3007957E-1,-5.6913227E-1,1.9942075E-2,-5.151238E-2,6.380195E-2,-3.5051446E-2,3.448505E-2,7.034949E-2,2.4287166E-2,4.5435194E-2,-7.019535E-3,4.3070044E-2,-4.5168865E-2,3.0042227E-2,-3.0938625E-2,1.1850643E-2,4.68169E-3,-3.0841291E-2,1.786678E-2,4.193696E-2,-2.6973453E-3,3.2625284E-2,4.834636E-2,2.2205902E-2,-1.3491E-2,3.1414315E-2,-2.0823786E-2,1.5088825E-2,-2.2887405E-2,2.0871708E-2,2.916461E-3,-1.4477492E-2,-1.4090627E-2,-5.3394005E-2,4.4057816E-3,-2.8786672E-2,1.6549405E-2,-4.19942E-5],"split_indices":[20,4,45,47,0,51,51,36,60,63,43,6,20,0,17,12,1,38,43,51,29,36,32,29,52,0,0,0,0,12,0,53,4,20,20,35,4,35,67,5,52,66,6,38,31,32,38,0,0,0,0,0,0,0,0,0,0,0,0,0,0,0,0,0,0,0,0,0,0,0,0,0,0,0,0,0,0,0,0,0,0,0,0],"split_type":[0,0,0,0,0,0,0,0,0,0,0,0,0,0,0,0,0,0,0,0,0,0,0,0,0,0,0,0,0,0,0,0,0,0,0,0,0,0,0,0,0,0,0,0,0,0,0,0,0,0,0,0,0,0,0,0,0,0,0,0,0,0,0,0,0,0,0,0,0,0,0,0,0,0,0,0,0,0,0,0,0,0,0],"sum_hessian":[8.941365E3,1.5913335E2,8.782231E3,3.635686E1,1.2277649E2,1.9678772E3,6.8143545E3,4.8726044E0,3.1484257E1,1.0015861E3,9.662911E2,6.3217865E2,6.182176E3,2.3552501E0,2.5173542E0,2.9274695E0,2.8556787E1,5.117248E2,4.8986133E2,5.525565E2,4.1373456E2,4.577152E2,1.7446344E2,2.9235032E3,3.2586726E3,1.3705399E0,1.1468143E0,1.3346041E0,1.5928653E0,2.5661581E1,2.895206E0,3.5400585E1,4.7632422E2,2.14765E2,2.750963E2,2.4772325E2,3.0483325E2,2.3214876E2,1.8158578E2,3.240006E2,1.337146E2,1.0439913E2,7.006431E1,2.8227034E3,1.0079968E2,1.7448001E2,3.0841926E3,1.2832587E0,2.4378323E1,1.3894078E0,1.5057981E0,4.4681892E0,3.0932396E1,3.0214404E2,1.7418016E2,1.8995457E2,2.4810417E1,5.0308414E0,2.700655E2,5.0136024E1,1.9758722E2,3.433448E1,2.7049878E2,1.4283969E2,8.930907E1,1.5295212E2,2.863367E1,1.3535168E2,1.8864893E2,8.4176994E1,4.953761E1,8.9792656E1,1.460648E1,1.5264261E1,5.480005E1,7.6592255E2,2.056781E3,1.623645E1,8.456323E1,3.456238E1,1.3991763E2,5.704757E2,2.5137168E3],"tree_param":{"num_deleted":"0","num_feature":"80","num_nodes":"83","size_leaf_vector":"1"}},{"base_weights":[4.106735E-3,-1.170646E0,2.5028892E-2,-1.3161312E0,-3.7450343E-1,3.1252912E-1,-5.2233983E-2,6.8350676E-3,-1.3299539E0,-5.322765E-1,4.2951547E-2,4.4751027E-1,-7.849683E-1,-2.336146E-1,8.7336384E-2,2.672155E-3,-1.3441088E0,-8.858312E-2,-5.091376E-2,8.5311955E-1,3.4173182E-1,1.4266659E0,-8.7048125E-1,6.726884E-3,-4.4839057E-1,-6.314684E-1,1.2163367E-1,-5.4321203E-2,-3.4834105E-1,-8.590043E-1,3.1386802E-1,1.3102328E0,4.9545485E-1,4.1443405E-1,-5.3753984E-1,8.677553E-2,-1.8643482E-1,3.845128E-1,-9.681586E-1,-1.2840888E-1,3.9285362E-1,-1.5617153E-1,-6.624538E-1,1.1861539E0,-7.481905E-1,8.672837E-2,7.0474803E-1,8.375447E-3,-2.960112E-2,-4.4313923E-2,-1.1431732E-3,6.46843E-2,-8.313151E-3,6.1596632E-2,2.8138872E-2,2.6131119E-3,2.5633626E-2,2.8401012E-2,1.1932827E-2,-3.9174218E-2,5.562888E-2,6.9140512E-3,-1.7195344E-2,-1.465606E-2,5.3011265E-2,-4.0584665E-2,7.207571E-2,-1.5671449E-2,8.288931E-3,5.464793E-2,1.3228087E-2,8.443815E-3,-1.6350714E-2,-2.2635147E-2,-4.6120323E-2,7.970016E-2,-3.6896523E-2,5.199112E-3,-3.741801E-2,2.0074641E-2,9.0443826E-4,-5.0350097E-3,3.9317865E-2],"categories":[],"categories_nodes":[],"categories_segments":[],"categories_sizes":[],"default_left":[0,0,0,0,0,0,0,0,0,0,0,0,0,0,0,0,0,0,0,0,0,0,0,0,0,0,0,0,0,0,0,0,0,0,0,0,0,0,0,0,0,0,0,0,0,0,0,0,0,0,0,0,0,0,0,0,0,0,0,0,0,0,0,0,0,0,0,0,0,0,0,0,0,0,0,0,0,0,0,0,0,0,0],"id":9,"left_children":[1,3,5,7,9,11,13,-1,15,17,-1,19,21,23,25,-1,27,29,-1,31,33,35,37,39,41,43,45,-1,47,49,51,53,55,57,59,-1,61,63,65,67,69,71,73,75,77,79,81,-1,-1,-1,-1,-1,-1,-1,-1,-1,-1,-1,-1,-1,-1,-1,-1,-1,-1,-1,-1,-1,-1,-1,-1,-1,-1,-1,-1,-1,-1,-1,-1,-1,-1,-1,-1],"loss_changes":[2.1962698E2,1.7617828E1,1.9503027E2,2.9364471E0,6.4111357E0,2.7585446E2,1.7521544E2,0E0,2.673935E0,7.6793294E0,0E0,7.078827E1,3.9830757E1,1.5536539E2,9.6513306E1,0E0,1.3212738E0,5.2008166E0,0E0,5.526738E1,8.4327545E1,9.958591E0,2.4529541E1,7.421475E1,9.932056E1,3.8716652E1,7.594882E1,0E0,8.3864355E-1,1.1513572E0,7.936862E0,1.9754944E1,1.20576515E1,4.1515778E1,8.733403E1,0E0,3.74757E-1,1.1044018E1,2.5394226E1,9.321791E1,2.185394E1,6.2552277E1,4.279486E1,2.0789207E1,2.7775024E1,9.38065E1,4.882995E1,0E0,0E0,0E0,0E0,0E0,0E0,0E0,0E0,0E0,0E0,0E0,0E0,0E0,0E0,0E0,0E0,0E0,0E0,0E0,0E0,0E0,0E0,0E0,0E0,0E0,0E0,0E0,0E0,0E0,0E0,0E0,0E0,0E0,0E0,0E0,0E0],"parents":[2147483647,0,0,1,1,2,2,3,3,4,4,5,5,6,6,8,8,9,9,11,11,12,12,13,13,14,14,16,16,17,17,19,19,20,20,21,21,22,22,23,23,24,24,25,25,26,26,28,28,29,29,30,30,31,31,32,32,33,33,34,34,36,36,37,37,38,38,39,39,40,40,41,41,42,42,43,43,44,44,45,45,46,46],"right_children":[2,4,6,8,10,12,14,-1,16,18,-1,20,22,24,26,-1,28,30,-1,32,34,36,38,40,42,44,46,-1,48,50,52,54,56,58,60,-1,62,64,66,68,70,72,74,76,78,80,82,-1,-1,-1,-1,-1,-1,-1,-1,-1,-1,-1,-1,-1,-1,-1,-1,-1,-1,-1,-1,-1,-1,-1,-1,-1,-1,-1,-1,-1,-1,-1,-1,-1,-1,-1,-1],"split_conditions":[-1.7734611E0,-3.5887015E-1,-5.6913227E-1,-2.5372094E-1,2.784339E-1,7.347131E-1,5.7596665E-2,6.8350676E-3,-1.642836E0,7.773394E-2,4.2951547E-2,-8.231979E-1,-1.6475475E0,-8.892418E-1,-1.4455441E0,2.672155E-3,1.6336653E-1,-6.4290166E-1,-5.091376E-2,-7.7511674E-1,1.3999277E0,-8.7342304E-1,-6.994857E-1,4.6453142E-1,-5.5428827E-1,-1.3849285E0,1.3236139E0,-5.4321203E-2,1.1101834E-1,7.094829E-1,-3.683404E-1,-2.4361296E-1,-3.576353E-1,-1.0803798E0,6.978894E-1,8.677553E-2,-1.685393E-2,4.8073688E-1,1.3859951E0,-4.5594454E-1,-5.38248E-1,-4.217591E-1,8.03478E-1,2.7216482E0,-1.2779506E-1,1.4794543E-1,-2.4936713E-1,8.375447E-3,-2.960112E-2,-4.4313923E-2,-1.1431732E-3,6.46843E-2,-8.313151E-3,6.1596632E-2,2.8138872E-2,2.6131119E-3,2.5633626E-2,2.8401012E-2,1.1932827E-2,-3.9174218E-2,5.562888E-2,6.9140512E-3,-1.7195344E-2,-1.465606E-2,5.3011265E-2,-4.0584665E-2,7.207571E-2,-1.5671449E-2,8.288931E-3,5.464793E-2,1.3228087E-2,8.443815E-3,-1.6350714E-2,-2.2635147E-2,-4.6120323E-2,7.970016E-2,-3.6896523E-2,5.199112E-3,-3.741801E-2,2.0074641E-2,9.0443826E-4,-5.0350097E-3,3.9317865E-2],"split_indices":[20,77,38,15,14,52,35,0,49,19,0,42,20,37,20,0,17,64,0,10,29,63,32,20,51,42,63,0,12,52,59,39,28,52,31,0,8,12,75,29,51,43,58,22,75,37,60,0,0,0,0,0,0,0,0,0,0,0,0,0,0,0,0,0,0,0,0,0,0,0,0,0,0,0,0,0,0,0,0,0,0,0,0],"split_type":[0,0,0,0,0,0,0,0,0,0,0,0,0,0,0,0,0,0,0,0,0,0,0,0,0,0,0,0,0,0,0,0,0,0,0,0,0,0,0,0,0,0,0,0,0,0,0,0,0,0,0,0,0,0,0,0,0,0,0,0,0,0,0,0,0,0,0,0,0,0,0,0,0,0,0,0,0,0,0,0,0,0,0],"sum_hessian":[8.933594E3,1.5536023E2,8.778233E3,1.3080424E2,2.4555992E1,1.8587305E3,6.9195034E3,1.1000717E0,1.2970416E2,2.2714062E1,1.84193E0,1.6556896E3,2.030409E2,3.008757E3,3.910746E3,1.2639306E0,1.2844023E2,1.4904187E1,7.809875E0,3.410112E2,1.3146783E3,6.974505E0,1.9606639E2,1.4203296E3,1.5884276E3,1.7730772E2,3.7334385E3,1.2631056E2,2.1296766E0,4.724857E0,1.017933E1,1.4852527E2,1.9248593E2,1.2147646E3,9.991368E1,4.5395136E0,2.4349916E0,1.394604E1,1.8212036E2,1.0526078E3,3.6772183E2,6.723406E2,9.16087E2,1.0146228E1,1.671615E2,3.5236604E3,2.0977802E2,1.0706258E0,1.0590509E0,3.3784137E0,1.3464433E0,2.3097317E0,7.8695984E0,1.066254E2,4.1899876E1,4.8991844E1,1.434941E2,3.4115845E2,8.736062E2,8.168874E1,1.822494E1,1.1006386E0,1.3343529E0,8.095114E0,5.8509264E0,1.7973956E2,2.3807921E0,5.896949E2,4.6291284E2,2.081166E1,3.469102E2,2.7404797E2,3.9829263E2,7.67202E2,1.4888495E2,7.379306E0,2.7669218E0,2.9434093E1,1.377274E2,4.7050156E2,3.053159E3,5.2769768E1,1.5700824E2],"tree_param":{"num_deleted":"0","num_feature":"80","num_nodes":"83","size_leaf_vector":"1"}},{"base_weights":[1.2275862E-3,2.817503E-1,-7.98014E-2,5.26145E-1,-1.4862146E-3,2.0865373E-1,-1.5693976E-1,3.5447034E-1,8.501334E-1,-2.4473783E-1,5.811432E-1,3.5324773E-1,-7.0709133E-1,-1.3808598E-1,-1.1337972E0,4.0563825E-1,-5.2391108E-2,6.2728584E-1,1.0766344E0,-3.4374267E-1,5.224598E-1,6.5541893E-1,-3.4379932E-1,4.5008758E-1,-1.0515697E0,4.37592E-1,-7.991392E-1,-2.2045779E-1,1.0033446E-1,-4.439323E-1,-1.226683E0,1.3658983E-1,7.193139E-1,5.4204077E-1,1.5352284E0,1.1902926E0,9.613119E-3,4.4136643E-1,-4.237097E-1,9.0329576E-1,1.4323631E-1,8.023063E-1,2.3322861E-1,-7.4174917E-1,7.6549685E-1,2.785383E-1,7.718872E-1,4.644977E-1,-1.1120989E0,8.940603E-1,-6.341171E-1,-8.421656E-1,6.931749E-2,-2.4724396E-1,6.009258E-1,1.6224882E-1,-1.0102309E0,-7.0379126E-1,3.3717733E-2,-1.2450942E0,-9.415533E-3,1.2832214E-2,-1.0231765E-2,2.4377195E-2,5.662134E-2,2.3543159E-2,-3.309974E-2,-2.5452273E-2,7.208617E-2,6.8478063E-3,5.2728284E-2,6.9640964E-2,-3.5510905E-2,-1.42839905E-2,4.1984797E-2,-2.8076824E-2,-7.534129E-3,5.8262248E-2,1.7077351E-2,-6.2909573E-3,3.1543713E-2,2.1676997E-2,4.199241E-2,1.6288599E-2,-2.3300635E-2,-4.5193188E-2,-4.932109E-3,5.1622834E-2,-5.4578907E-3,8.543258E-3,3.4099493E-2,1.2274261E-2,4.0785555E-2,-7.175121E-3,4.26671E-2,-4.5777492E-2,1.798325E-2,-3.4486968E-2,4.8690625E-2,5.118586E-4,-3.4305453E-2,6.1655253E-2,-3.4771696E-2,-2.0344867E-3,-1.4326532E-2,5.61878E-3,3.6839195E-2,1.724387E-2,-2.3558713E-3,-7.127198E-3,-4.4193394E-2,-3.5919387E-2,2.5477925E-2,-5.083457E-2,-1.785151E-2],"categories":[],"categories_nodes":[],"categories_segments":[],"categories_sizes":[],"default_left":[0,0,0,0,0,0,0,0,0,0,0,0,0,0,0,0,0,0,0,0,0,0,0,0,0,0,0,0,0,0,0,0,0,0,0,0,0,0,0,0,0,0,0,0,0,0,0,0,0,0,0,0,0,0,0,0,0,0,0,0,0,0,0,0,0,0,0,0,0,0,0,0,0,0,0,0,0,0,0,0,0,0,0,0,0,0,0,0,0,0,0,0,0,0,0,0,0,0,0,0,0,0,0,0,0,0,0,0,0,0,0,0,0,0,0],"id":10,"left_children":[1,3,5,7,9,11,13,15,17,19,21,23,25,27,29,31,-1,33,35,37,39,41,43,45,47,49,51,53,55,57,59,61,63,65,67,69,71,73,75,77,79,81,83,85,87,89,91,93,95,97,99,101,-1,103,105,107,109,111,-1,113,-1,-1,-1,-1,-1,-1,-1,-1,-1,-1,-1,-1,-1,-1,-1,-1,-1,-1,-1,-1,-1,-1,-1,-1,-1,-1,-1,-1,-1,-1,-1,-1,-1,-1,-1,-1,-1,-1,-1,-1,-1,-1,-1,-1,-1,-1,-1,-1,-1,-1,-1,-1,-1,-1,-1],"loss_changes":[2.0255627E2,1.3824538E2,1.5387808E2,5.932834E1,1.3138776E2,1.9347342E2,1.0032597E2,6.035141E1,1.8030914E1,4.9855114E1,1.8984253E1,1.7201465E2,2.1351982E1,1.0516341E2,6.066269E0,5.748256E1,0E0,1.3811813E1,2.2109146E1,3.659188E1,1.0723579E1,1.55086975E1,9.817377E0,6.4944244E1,8.006195E0,8.140654E0,2.1597641E1,8.7699554E1,9.4734985E1,5.211278E0,1.3560181E0,2.6718681E1,2.3219254E1,1.1609604E1,1.0243343E1,2.1261414E1,3.039368E1,2.6645227E1,3.4359566E1,9.210138E0,7.6568923E0,1.1505646E1,9.709311E0,3.6837044E0,3.0290904E0,2.8579529E1,4.690831E1,1.6797583E0,4.4929504E0,7.447936E0,7.6425314E-1,1.3135483E1,0E0,8.3938736E1,1.8433723E1,7.753113E1,5.5310364E0,3.7053103E0,0E0,1.2541656E0,0E0,0E0,0E0,0E0,0E0,0E0,0E0,0E0,0E0,0E0,0E0,0E0,0E0,0E0,0E0,0E0,0E0,0E0,0E0,0E0,0E0,0E0,0E0,0E0,0E0,0E0,0E0,0E0,0E0,0E0,0E0,0E0,0E0,0E0,0E0,0E0,0E0,0E0,0E0,0E0,0E0,0E0,0E0,0E0,0E0,0E0,0E0,0E0,0E0,0E0,0E0,0E0,0E0,0E0,0E0],"parents":[2147483647,0,0,1,1,2,2,3,3,4,4,5,5,6,6,7,7,8,8,9,9,10,10,11,11,12,12,13,13,14,14,15,15,17,17,18,18,19,19,20,20,21,21,22,22,23,23,24,24,25,25,26,26,27,27,28,28,29,29,30,30,31,31,32,32,33,33,34,34,35,35,36,36,37,37,38,38,39,39,40,40,41,41,42,42,43,43,44,44,45,45,46,46,47,47,48,48,49,49,50,50,51,51,53,53,54,54,55,55,56,56,57,57,59,59],"right_children":[2,4,6,8,10,12,14,16,18,20,22,24,26,28,30,32,-1,34,36,38,40,42,44,46,48,50,52,54,56,58,60,62,64,66,68,70,72,74,76,78,80,82,84,86,88,90,92,94,96,98,100,102,-1,104,106,108,110,112,-1,114,-1,-1,-1,-1,-1,-1,-1,-1,-1,-1,-1,-1,-1,-1,-1,-1,-1,-1,-1,-1,-1,-1,-1,-1,-1,-1,-1,-1,-1,-1,-1,-1,-1,-1,-1,-1,-1,-1,-1,-1,-1,-1,-1,-1,-1,-1,-1,-1,-1,-1,-1,-1,-1,-1,-1],"split_conditions":[-9.5373964E-1,1.9153051E0,-5.6913227E-1,1.985316E-1,1.9455396E0,7.347131E-1,1.4084506E0,1.6631571E0,-9.370094E-1,1.0703206E0,1.7699776E0,1.3999277E0,-6.994857E-1,4.247175E-1,-8.0215126E-1,2.2908738E-1,-5.2391108E-2,1.8457954E0,1.0892597E0,-1.6898527E0,3.2546863E-1,1.6203368E0,1.5291592E0,6.625444E-1,-2.048545E0,-4.71984E-2,1.3859951E0,1.4198306E0,6.5154773E-1,1.2514398E0,1.4212688E0,1.0048242E0,-9.915337E-1,1.7320797E0,1.030879E0,-4.4861543E-1,1.9607241E-1,-1.9670422E-1,2.1381578E-1,-2.1986423E-1,6.659045E-1,-9.251357E-2,9.730196E-1,1.9477473E0,5.981198E-1,4.2869446E-1,-7.530866E-2,-1.0491562E0,6.157727E-1,-5.0064933E-1,-3.3493334E-1,-7.4273384E-1,6.931749E-2,-9.28451E-1,-6.572964E-2,3.571858E-2,-2.3344746E-1,-8.3866996E-1,3.3717733E-2,1.5141896E0,-9.415533E-3,1.2832214E-2,-1.0231765E-2,2.4377195E-2,5.662134E-2,2.3543159E-2,-3.309974E-2,-2.5452273E-2,7.208617E-2,6.8478063E-3,5.2728284E-2,6.9640964E-2,-3.5510905E-2,-1.42839905E-2,4.1984797E-2,-2.8076824E-2,-7.534129E-3,5.8262248E-2,1.7077351E-2,-6.2909573E-3,3.1543713E-2,2.1676997E-2,4.199241E-2,1.6288599E-2,-2.3300635E-2,-4.5193188E-2,-4.932109E-3,5.1622834E-2,-5.4578907E-3,8.543258E-3,3.4099493E-2,1.2274261E-2,4.0785555E-2,-7.175121E-3,4.26671E-2,-4.5777492E-2,1.798325E-2,-3.4486968E-2,4.8690625E-2,5.118586E-4,-3.4305453E-2,6.1655253E-2,-3.4771696E-2,-2.0344867E-3,-1.4326532E-2,5.61878E-3,3.6839195E-2,1.724387E-2,-2.3558713E-3,-7.127198E-3,-4.4193394E-2,-3.5919387E-2,2.5477925E-2,-5.083457E-2,-1.785151E-2],"split_indices":[45,38,38,15,37,52,32,4,52,55,6,29,32,32,15,30,0,5,67,62,32,29,10,28,75,67,75,29,52,76,10,32,45,76,32,17,52,16,46,10,15,16,17,31,30,47,32,5,14,17,13,7,0,37,56,63,6,15,0,16,0,0,0,0,0,0,0,0,0,0,0,0,0,0,0,0,0,0,0,0,0,0,0,0,0,0,0,0,0,0,0,0,0,0,0,0,0,0,0,0,0,0,0,0,0,0,0,0,0,0,0,0,0,0,0],"split_type":[0,0,0,0,0,0,0,0,0,0,0,0,0,0,0,0,0,0,0,0,0,0,0,0,0,0,0,0,0,0,0,0,0,0,0,0,0,0,0,0,0,0,0,0,0,0,0,0,0,0,0,0,0,0,0,0,0,0,0,0,0,0,0,0,0,0,0,0,0,0,0,0,0,0,0,0,0,0,0,0,0,0,0,0,0,0,0,0,0,0,0,0,0,0,0,0,0,0,0,0,0,0,0,0,0,0,0,0,0,0,0,0,0,0,0],"sum_hessian":[8.909233E3,1.9961337E3,6.9131E3,1.0710796E3,9.250541E2,1.458269E3,5.454831E3,7.014762E2,3.6960336E2,6.530016E2,2.7205252E2,1.2599414E3,1.9832756E2,5.3526636E3,1.0216744E2,6.812861E2,2.0190119E1,1.8820427E2,1.813991E2,5.7885394E2,7.414763E1,2.5209955E2,1.9952978E1,1.1793253E3,8.0616135E1,1.4481798E1,1.8384576E2,3.978283E3,1.3743807E3,1.2809618E1,8.935783E1,3.6750348E2,3.1378262E2,1.7351067E2,1.4693603E1,1.6383229E2,1.7566801E1,5.309108E1,5.257629E2,3.630565E1,3.784198E1,1.8636098E2,6.573857E1,1.4928758E1,5.024221E0,7.704624E2,4.0886295E2,2.838815E0,7.777731E1,1.0272318E1,4.2094803E0,1.814302E2,2.4155545E0,3.8533213E3,1.2496172E2,1.3026135E3,7.17672E1,1.1034517E1,1.7751008E0,8.7477104E1,1.8807263E0,2.5021536E2,1.17288124E2,2.7262906E2,4.115356E1,1.6835985E2,5.1508117E0,1.4569532E0,1.32366495E1,1.8531313E1,1.4530098E2,5.6758127E0,1.1890987E1,2.3134666E1,2.9956415E1,2.4003688E2,2.8572598E2,1.5845067E1,2.046058E1,2.6335264E1,1.1506716E1,9.237227E1,9.398871E1,5.4595047E1,1.114352E1,8.664698E0,6.2640595E0,2.9032145E0,2.1210065E0,6.93363E2,7.7099434E1,1.428923E2,2.6597064E2,1.711223E0,1.1275921E0,7.6461174E1,1.3161384E0,1.3374265E0,8.934891E0,1.3230457E0,2.8864346E0,1.4134485E0,1.8001675E2,1.3913705E3,2.4619507E3,5.183151E1,7.313022E1,5.874716E2,7.151419E2,7.6212296E0,6.4145966E1,9.926928E0,1.10759E0,8.417074E1,3.3063633E0],"tree_param":{"num_deleted":"0","num_feature":"80","num_nodes":"115","size_leaf_vector":"1"}},{"base_weights":[-6.310185E-3,-1.2507902E0,1.0518816E-2,-5.341915E-2,4.163331E-1,2.662208E-1,-7.064408E-2,1.5268432E0,-3.9888296E-2,5.0435245E-1,4.1039325E-2,-2.2706112E-1,7.613941E-2,7.120968E-2,1.9719198E-2,-1.1631155E-2,6.384236E-1,2.9265887E-1,-3.7955678E-1,6.9017395E-2,-3.1250978E-1,-3.6637066E-3,3.4842318E-1,-1.3958055E-1,1.2373893E0,1.0613111E0,5.4318815E-1,-6.364036E-2,5.241925E-1,-6.9954777E-1,-1.2228463E-2,3.8235772E-1,-6.670825E-1,-2.8308737E-1,-1.097604E0,-1.0349487E-1,1.6996852E-1,1.4212767E0,2.8119504E-1,-1.6742831E-2,1.9417252E-2,6.681201E-2,1.1712339E-2,4.7217492E-2,-7.732409E-3,5.2404158E-2,1.9123698E-2,-2.145345E-2,9.390509E-3,2.7730899E-2,2.1241673E-3,1.2974317E-2,-3.5957094E-2,-1.468094E-2,2.1257555E-2,2.1558885E-2,-4.5668345E-2,6.290524E-2,-3.021764E-2,1.7263923E-2,-1.2524446E-2,-5.12867E-2,-8.183804E-3,4.469137E-3,-8.4432755E-3,1.0580606E-2,-1.6818924E-2,-2.3215006E-3,6.1770003E-2,2.6176801E-2,5.3353617E-3],"categories":[],"categories_nodes":[],"categories_segments":[],"categories_sizes":[],"default_left":[0,0,0,0,0,0,0,0,0,0,0,0,0,0,0,0,0,0,0,0,0,0,0,0,0,0,0,0,0,0,0,0,0,0,0,0,0,0,0,0,0,0,0,0,0,0,0,0,0,0,0,0,0,0,0,0,0,0,0,0,0,0,0,0,0,0,0,0,0,0,0],"id":11,"left_children":[1,3,5,-1,7,9,11,13,-1,15,17,19,21,-1,-1,23,25,27,29,31,33,35,37,39,41,43,45,47,49,51,53,55,57,59,61,63,65,67,69,-1,-1,-1,-1,-1,-1,-1,-1,-1,-1,-1,-1,-1,-1,-1,-1,-1,-1,-1,-1,-1,-1,-1,-1,-1,-1,-1,-1,-1,-1,-1,-1],"loss_changes":[1.8563689E2,1.7253342E1,1.8152628E2,0E0,1.1694019E1,1.12984344E2,1.5245564E2,1.7654991E-1,0E0,7.085739E1,1.1485674E2,8.1346985E1,7.4444244E1,0E0,0E0,3.4086502E1,3.2164185E1,5.604439E1,4.77466E1,1.6649706E2,5.7316452E1,4.5959873E1,5.5608246E1,3.392521E1,7.6158047E0,2.2404633E1,3.260092E1,3.7973278E1,3.275116E1,4.4614555E1,3.6876682E1,1.21437904E2,4.384812E1,5.1761642E1,1.4533157E1,3.900493E1,5.4146317E1,8.374741E0,4.0294E1,0E0,0E0,0E0,0E0,0E0,0E0,0E0,0E0,0E0,0E0,0E0,0E0,0E0,0E0,0E0,0E0,0E0,0E0,0E0,0E0,0E0,0E0,0E0,0E0,0E0,0E0,0E0,0E0,0E0,0E0,0E0,0E0],"parents":[2147483647,0,0,1,1,2,2,4,4,5,5,6,6,7,7,9,9,10,10,11,11,12,12,15,15,16,16,17,17,18,18,19,19,20,20,21,21,22,22,23,23,24,24,25,25,26,26,27,27,28,28,29,29,30,30,31,31,32,32,33,33,34,34,35,35,36,36,37,37,38,38],"right_children":[2,4,6,-1,8,10,12,14,-1,16,18,20,22,-1,-1,24,26,28,30,32,34,36,38,40,42,44,46,48,50,52,54,56,58,60,62,64,66,68,70,-1,-1,-1,-1,-1,-1,-1,-1,-1,-1,-1,-1,-1,-1,-1,-1,-1,-1,-1,-1,-1,-1,-1,-1,-1,-1,-1,-1,-1,-1,-1,-1],"split_conditions":[-1.8053676E0,-8.172776E-1,-8.846682E-1,-5.341915E-2,-2.459492E-2,9.1746396E-1,-1.0464845E-1,9.955071E-1,-3.9888296E-2,-8.7130094E-1,5.2157176E-1,-5.6913227E-1,6.625444E-1,7.120968E-2,1.9719198E-2,1.2454811E0,-2.0913921E-1,1.7679894E0,3.19455E-2,5.5249673E-1,1.9629083E0,4.837591E-1,-2.2648659E0,2.0660801E-1,-7.7397362E-3,1.4065268E0,-1.5020487E0,-6.351193E-2,1.6203368E0,1.1874804E0,3.192606E-1,1.3731095E0,-1.7155447E0,-1.4380262E0,-5.022488E-1,-9.147038E-1,6.497298E-1,-4.9396658E-1,-8.0933946E-1,-1.6742831E-2,1.9417252E-2,6.681201E-2,1.1712339E-2,4.7217492E-2,-7.732409E-3,5.2404158E-2,1.9123698E-2,-2.145345E-2,9.390509E-3,2.7730899E-2,2.1241673E-3,1.2974317E-2,-3.5957094E-2,-1.468094E-2,2.1257555E-2,2.1558885E-2,-4.5668345E-2,6.290524E-2,-3.021764E-2,1.7263923E-2,-1.2524446E-2,-5.12867E-2,-8.183804E-3,4.469137E-3,-8.4432755E-3,1.0580606E-2,-1.6818924E-2,-2.3215006E-3,6.1770003E-2,2.6176801E-2,5.3353617E-3],"split_indices":[20,75,45,0,19,52,20,10,0,30,32,38,28,0,0,47,29,43,36,52,45,47,47,19,20,21,38,61,29,29,20,29,20,60,29,37,35,63,33,0,0,0,0,0,0,0,0,0,0,0,0,0,0,0,0,0,0,0,0,0,0,0,0,0,0,0,0,0,0,0,0],"split_type":[0,0,0,0,0,0,0,0,0,0,0,0,0,0,0,0,0,0,0,0,0,0,0,0,0,0,0,0,0,0,0,0,0,0,0,0,0,0,0,0,0,0,0,0,0,0,0,0,0,0,0,0,0,0,0,0,0,0,0,0,0,0,0,0,0,0,0,0,0,0,0],"sum_hessian":[8.862133E3,1.1726458E2,8.744868E3,1.1178493E2,5.479652E0,2.1064045E3,6.6384634E3,3.0238726E0,2.4557793E0,1.02316144E3,1.083243E3,3.2135054E3,3.424958E3,1.8488015E0,1.1750711E0,2.1121129E2,8.1195013E2,6.7796063E2,4.0528244E2,7.1975507E2,2.4937502E3,2.6494287E3,7.7552936E2,1.9239104E2,1.882025E1,1.473789E2,6.645712E2,2.6731848E2,4.1064218E2,2.1611424E2,1.891682E2,5.0518872E2,2.1456633E2,2.404981E3,8.876917E1,1.6824786E3,9.6694995E2,4.45436E1,7.309858E2,1.332443E2,5.9146744E1,1.2378678E1,6.4415708E0,1.3465277E2,1.2726138E1,5.0498962E1,6.1407227E2,1.0313945E2,1.6417902E2,3.018371E2,1.0880508E2,3.512164E1,1.809926E2,1.1466391E2,7.450428E1,4.586988E2,4.6489937E1,7.50599E0,2.0706033E2,9.6420334E1,2.3085608E3,7.3203896E1,1.5565274E1,5.6072784E2,1.1217509E3,8.339609E2,1.3298906E2,3.4591873E0,4.108441E1,2.0639865E2,5.2458716E2],"tree_param":{"num_deleted":"0","num_feature":"80","num_nodes":"71","size_leaf_vector":"1"}},{"base_weights":[2.0953813E-3,-7.1865696E-1,3.414701E-2,-5.2663617E-2,-4.731205E-1,7.021075E-1,4.222266E-3,6.22918E-1,-6.403736E-1,4.8596913E-1,1.3688955E0,-1.2134458E-1,2.0819168E-1,1.0503305E0,-8.4189884E-2,-6.430648E-2,-8.595277E-1,2.612274E-1,1.1087595E0,-1.6965404E-1,1.5283076E0,-1.9844425E-1,2.0945087E-1,6.07897E-1,3.0270241E-2,-5.4424435E-1,1.3805482E0,-6.663343E-1,9.965899E-1,-5.0706124E-1,5.9380645E-1,5.7175882E-2,-8.9323384E-1,-3.659658E-1,4.7386187E-1,1.2717115E0,4.571017E-1,-6.7610586E-1,6.223064E-1,-5.16242E-3,1.5556575E0,-3.477672E-1,-2.5832271E-2,4.0863213E-1,-1.5396078E-1,5.0692964E-1,1.0863172E0,-4.0799266E-1,1.7560823E-1,-4.3292563E-2,2.3381056E-2,6.255936E-2,-2.1543765E-2,-3.8606334E-2,2.2348592E-2,6.605684E-2,-2.7042662E-3,5.4261003E-2,-2.772705E-2,3.716343E-2,-4.7129784E-2,-6.2702056E-3,-3.93266E-2,-3.056321E-2,3.7270196E-2,2.6908275E-2,7.0634834E-4,7.617714E-2,3.6922254E-2,4.670101E-2,-3.3429988E-2,-4.8027184E-2,1.3096449E-2,-1.8958334E-2,4.9207788E-2,4.0765632E-2,6.59085E-2,-8.459889E-3,-2.5561502E-2,1.5404149E-2,-8.912703E-3,2.1316035E-2,-9.086684E-3,5.61565E-3,-2.9000845E-2,1.0530728E-2,2.7684983E-2,5.022688E-2,-4.7749407E-3,-2.7453065E-2,-8.535975E-3,1.26874335E-2,-6.214732E-3],"categories":[],"categories_nodes":[],"categories_segments":[],"categories_sizes":[],"default_left":[0,0,0,0,0,0,0,0,0,0,0,0,0,0,0,0,0,0,0,0,0,0,0,0,0,0,0,0,0,0,0,0,0,0,0,0,0,0,0,0,0,0,0,0,0,0,0,0,0,0,0,0,0,0,0,0,0,0,0,0,0,0,0,0,0,0,0,0,0,0,0,0,0,0,0,0,0,0,0,0,0,0,0,0,0,0,0,0,0,0,0,0,0],"id":12,"left_children":[1,3,5,-1,7,9,11,13,15,17,19,21,23,25,27,29,31,33,35,37,39,41,43,45,47,49,51,53,55,57,59,-1,61,63,65,67,69,71,73,-1,75,77,79,81,83,85,87,89,91,-1,-1,-1,-1,-1,-1,-1,-1,-1,-1,-1,-1,-1,-1,-1,-1,-1,-1,-1,-1,-1,-1,-1,-1,-1,-1,-1,-1,-1,-1,-1,-1,-1,-1,-1,-1,-1,-1,-1,-1,-1,-1,-1,-1],"loss_changes":[2.056737E2,5.5028976E1,1.7037947E2,0E0,4.994501E1,5.200949E1,2.090049E2,1.10562935E1,2.961126E1,3.856156E1,2.2068634E1,1.288642E2,2.2111551E2,1.2700323E1,9.848398E0,1.9485937E1,1.4403725E1,2.7549805E1,7.201973E0,4.1302204E0,3.8576355E0,1.0558592E2,6.9206604E1,4.5712402E1,1.3719328E2,3.4328008E0,7.560047E0,4.231707E0,3.9520235E0,1.4779218E1,1.7101131E1,0E0,1.099231E1,2.7855259E1,1.3934387E1,1.1053116E1,1.5876265E1,3.6149862E0,3.3340774E0,0E0,2.2442627E0,8.704724E1,1.5399297E2,4.889463E1,5.7071007E1,3.5588623E1,3.4050446E1,2.8906677E1,7.5835526E1,0E0,0E0,0E0,0E0,0E0,0E0,0E0,0E0,0E0,0E0,0E0,0E0,0E0,0E0,0E0,0E0,0E0,0E0,0E0,0E0,0E0,0E0,0E0,0E0,0E0,0E0,0E0,0E0,0E0,0E0,0E0,0E0,0E0,0E0,0E0,0E0,0E0,0E0,0E0,0E0,0E0,0E0,0E0,0E0],"parents":[2147483647,0,0,1,1,2,2,4,4,5,5,6,6,7,7,8,8,9,9,10,10,11,11,12,12,13,13,14,14,15,15,16,16,17,17,18,18,19,19,20,20,21,21,22,22,23,23,24,24,25,25,26,26,27,27,28,28,29,29,30,30,32,32,33,33,34,34,35,35,36,36,37,37,38,38,40,40,41,41,42,42,43,43,44,44,45,45,46,46,47,47,48,48],"right_children":[2,4,6,-1,8,10,12,14,16,18,20,22,24,26,28,30,32,34,36,38,40,42,44,46,48,50,52,54,56,58,60,-1,62,64,66,68,70,72,74,-1,76,78,80,82,84,86,88,90,92,-1,-1,-1,-1,-1,-1,-1,-1,-1,-1,-1,-1,-1,-1,-1,-1,-1,-1,-1,-1,-1,-1,-1,-1,-1,-1,-1,-1,-1,-1,-1,-1,-1,-1,-1,-1,-1,-1,-1,-1,-1,-1,-1,-1],"split_conditions":[-1.6074159E0,-9.8073864E-1,-8.558322E-1,-5.2663617E-2,-9.0202534E-1,8.91785E-1,4.5275167E-1,4.0258715E-1,-3.1917486E-1,1.3798153E0,-2.108771E-1,6.8706983E-1,3.991539E-1,-1.227571E0,1.079018E0,4.1061604E-1,-1.7539902E0,-1.415868E0,3.2263625E-1,7.0643765E-1,-1.0212206E0,6.362112E-1,-5.2024496E-1,5.180733E-1,8.3976954E-1,4.1352045E-3,5.8701324E-1,-2.5049204E-1,-1.2645319E0,-1.577159E0,1.0058311E0,5.7175882E-2,-1.7348562E0,7.7416354E-1,-1.7740658E-1,-4.8859143E-1,-5.574031E-1,1.19773574E-1,2.4671437E-1,-5.16242E-3,-8.445963E-1,-5.636259E-1,-4.740697E-1,1.0468613E0,-9.7812045E-1,4.6081516E-1,9.4191986E-1,-3.3100355E-1,5.4393667E-1,-4.3292563E-2,2.3381056E-2,6.255936E-2,-2.1543765E-2,-3.8606334E-2,2.2348592E-2,6.605684E-2,-2.7042662E-3,5.4261003E-2,-2.772705E-2,3.716343E-2,-4.7129784E-2,-6.2702056E-3,-3.93266E-2,-3.056321E-2,3.7270196E-2,2.6908275E-2,7.0634834E-4,7.617714E-2,3.6922254E-2,4.670101E-2,-3.3429988E-2,-4.8027184E-2,1.3096449E-2,-1.8958334E-2,4.9207788E-2,4.0765632E-2,6.59085E-2,-8.459889E-3,-2.5561502E-2,1.5404149E-2,-8.912703E-3,2.1316035E-2,-9.086684E-3,5.61565E-3,-2.9000845E-2,1.0530728E-2,2.7684983E-2,5.022688E-2,-4.7749407E-3,-2.7453065E-2,-8.535975E-3,1.26874335E-2,-6.214732E-3],"split_indices":[20,77,51,0,47,42,43,59,55,29,28,34,51,62,64,36,33,42,67,29,11,45,51,67,43,13,29,1,47,44,29,0,75,20,6,1,17,78,19,0,32,51,51,59,32,47,6,2,32,0,0,0,0,0,0,0,0,0,0,0,0,0,0,0,0,0,0,0,0,0,0,0,0,0,0,0,0,0,0,0,0,0,0,0,0,0,0,0,0,0,0,0,0],"split_type":[0,0,0,0,0,0,0,0,0,0,0,0,0,0,0,0,0,0,0,0,0,0,0,0,0,0,0,0,0,0,0,0,0,0,0,0,0,0,0,0,0,0,0,0,0,0,0,0,0,0,0,0,0,0,0,0,0,0,0,0,0,0,0,0,0,0,0,0,0,0,0,0,0,0,0,0,0,0,0,0,0,0,0,0,0,0,0,0,0,0,0,0,0],"sum_hessian":[8.901065E3,3.780626E2,8.523003E3,1.0878526E2,2.6927734E2,3.6449615E2,8.158507E3,3.5290188E1,2.3398715E2,2.7657394E2,8.7922226E1,5.0500312E3,3.1084753E3,2.1692644E1,1.3597543E1,6.4840706E1,1.6914644E2,2.0427736E2,7.2296585E1,8.248489E0,7.967374E1,4.0958074E3,9.542242E2,9.567328E2,2.1517427E3,3.6103983E0,1.8082245E1,9.086641E0,4.510902E0,3.8899822E1,2.5940884E1,1.8537531E0,1.672927E2,5.1538044E1,1.527393E2,5.7073444E1,1.5223145E1,5.120355E0,3.1281345E0,1.233062E0,7.8440674E1,2.1955063E3,1.9003008E3,6.1630884E2,3.3791537E2,7.917078E2,1.6502498E2,5.3541266E2,1.61633E3,2.472803E0,1.1375952E0,1.6673609E1,1.4086374E0,7.4753413E0,1.6112999E0,2.4509563E0,2.0599456E0,2.9611294E0,3.5938694E1,2.2213667E1,3.727216E0,1.8503546E1,1.4878914E2,3.9753647E1,1.17844E1,1.0604358E2,4.6695724E1,1.8691355E1,3.8382088E1,9.887105E0,5.3360395E0,3.2335782E0,1.8867769E0,1.194427E0,1.9337075E0,1.3255545E1,6.518513E1,1.4969083E3,6.985981E2,6.154468E2,1.2848541E3,5.156796E2,1.0062921E2,2.2347813E2,1.14437256E2,3.4293243E2,4.4877536E2,1.4466365E2,2.0361332E1,2.1926413E2,3.1614853E2,1.1321053E3,4.842246E2],"tree_param":{"num_deleted":"0","num_feature":"80","num_nodes":"93","size_leaf_vector":"1"}},{"base_weights":[2.5871743E-3,-1.0816245E0,2.0692073E-2,-1.1892005E0,3.0872938E-1,2.490222E-1,-5.1736627E-2,-1.7232376E-1,-1.2496071E0,-3.7798215E-2,7.1616954E-1,4.6623772E-1,3.702272E-2,-2.2420903E-1,7.075391E-2,5.7290033E-2,-6.090216E-1,-1.3006235E0,-6.3986295E-1,-2.9071812E-2,9.944873E-1,6.097697E-2,6.097433E-1,3.0252483E-1,-3.6134663E-1,-2.4125057E-1,1.2269644E0,9.4495946E-1,5.179596E-2,-4.5318775E-2,2.695101E-1,-1.8089972E-2,-5.232756E-2,6.185044E-2,-1.0847698E0,1.3357854E0,-7.091879E-3,-4.487409E-2,8.255758E-1,8.3346725E-1,4.3622598E-1,-8.4240574E-1,3.6739102E-1,-6.2707996E-1,-4.279818E-2,-2.1908207E-1,-1.0347055E0,-2.6755532E-2,1.391782E0,-3.611374E-1,1.207287E0,-3.3125963E-2,2.4467692E-1,5.5769447E-2,-3.3612154E-2,5.163929E-3,-4.9775165E-2,1.2513077E-3,6.663064E-2,5.7822084E-3,-2.5979105E-2,5.2207835E-2,1.8628554E-2,3.9481435E-2,1.844875E-2,8.6794505E-3,3.248736E-2,1.1735567E-2,-3.8787346E-2,-8.503896E-3,1.9086841E-2,1.0824277E-2,-3.1510226E-2,-1.7330153E-2,1.6451161E-2,1.17026875E-2,-1.0208028E-2,1.3756035E-2,-4.4911914E-2,5.9630737E-2,-2.035479E-2,4.305153E-2,-3.7345532E-2,5.2186616E-2,-1.976152E-2,6.495623E-2,-1.7351232E-3,2.657824E-2,5.4358803E-3],"categories":[],"categories_nodes":[],"categories_segments":[],"categories_sizes":[],"default_left":[0,0,0,0,0,0,0,0,0,0,0,0,0,0,0,0,0,0,0,0,0,0,0,0,0,0,0,0,0,0,0,0,0,0,0,0,0,0,0,0,0,0,0,0,0,0,0,0,0,0,0,0,0,0,0,0,0,0,0,0,0,0,0,0,0,0,0,0,0,0,0,0,0,0,0,0,0,0,0,0,0,0,0,0,0,0,0,0,0],"id":13,"left_children":[1,3,5,7,9,11,13,15,17,-1,19,21,23,25,27,-1,29,31,33,-1,35,37,39,41,43,45,47,49,51,-1,53,-1,-1,-1,55,57,-1,59,61,63,65,67,69,71,73,75,77,-1,79,81,83,85,87,-1,-1,-1,-1,-1,-1,-1,-1,-1,-1,-1,-1,-1,-1,-1,-1,-1,-1,-1,-1,-1,-1,-1,-1,-1,-1,-1,-1,-1,-1,-1,-1,-1,-1,-1,-1],"loss_changes":[1.7375261E2,2.211177E1,1.4399078E2,8.086212E0,6.4154606E0,9.65379E1,1.3966661E2,6.995172E0,3.1311035E0,0E0,4.3564644E0,6.0187805E1,1.1245699E2,6.8188644E1,6.402236E1,0E0,3.7900171E0,1.567688E-1,1.3159598E1,0E0,3.4391308E0,2.2044104E1,2.9319763E1,4.7687874E1,3.5971405E1,4.751706E1,1.0939148E1,2.8531143E1,6.200528E1,0E0,5.7101936E0,0E0,0E0,0E0,2.1749878E0,2.6676407E0,0E0,2.7557768E1,5.108179E0,1.8575333E1,3.5492287E1,5.2731113E0,3.8586563E1,3.3644295E1,3.4659847E1,4.889518E1,9.312981E0,0E0,6.3636513E0,1.2924666E1,1.1995605E1,4.4729065E1,5.2749367E1,0E0,0E0,0E0,0E0,0E0,0E0,0E0,0E0,0E0,0E0,0E0,0E0,0E0,0E0,0E0,0E0,0E0,0E0,0E0,0E0,0E0,0E0,0E0,0E0,0E0,0E0,0E0,0E0,0E0,0E0,0E0,0E0,0E0,0E0,0E0,0E0],"parents":[2147483647,0,0,1,1,2,2,3,3,4,4,5,5,6,6,7,7,8,8,10,10,11,11,12,12,13,13,14,14,16,16,17,17,18,18,20,20,21,21,22,22,23,23,24,24,25,25,26,26,27,27,28,28,30,30,34,34,35,35,37,37,38,38,39,39,40,40,41,41,42,42,43,43,44,44,45,45,46,46,48,48,49,49,50,50,51,51,52,52],"right_children":[2,4,6,8,10,12,14,16,18,-1,20,22,24,26,28,-1,30,32,34,-1,36,38,40,42,44,46,48,50,52,-1,54,-1,-1,-1,56,58,-1,60,62,64,66,68,70,72,74,76,78,-1,80,82,84,86,88,-1,-1,-1,-1,-1,-1,-1,-1,-1,-1,-1,-1,-1,-1,-1,-1,-1,-1,-1,-1,-1,-1,-1,-1,-1,-1,-1,-1,-1,-1,-1,-1,-1,-1,-1,-1],"split_conditions":[-1.7734611E0,7.1015996E-1,-8.846682E-1,3.9022654E-1,-4.6343005E-1,9.1746396E-1,-2.3982961E-1,-5.848136E-1,4.518361E-3,-3.7798215E-2,-1.0212595E0,-6.5227205E-1,5.0934947E-1,2.1775868E0,-2.347463E0,5.7290033E-2,2.9790905E-1,-1.642836E0,-7.283051E-1,-2.9071812E-2,1.0493387E0,1.2717742E0,2.1199523E-1,1.490187E0,3.19455E-2,1.9629083E0,-5.9483837E-2,-2.1896787E-1,6.6730654E-1,-4.5318775E-2,3.7744728E-1,-1.8089972E-2,-5.232756E-2,6.185044E-2,-1.07942075E-1,-8.2080925E-1,-7.091879E-3,-4.4207388E-1,3.190262E-1,2.3779958E-1,4.75431E-2,-2.667492E-1,7.743199E-1,1.1874804E0,7.501778E-2,-9.126285E-1,-1.945855E0,-2.6755532E-2,1.2126396E0,-9.545869E-1,-1.03181735E-1,-1.596889E0,-4.377351E-1,5.5769447E-2,-3.3612154E-2,5.163929E-3,-4.9775165E-2,1.2513077E-3,6.663064E-2,5.7822084E-3,-2.5979105E-2,5.2207835E-2,1.8628554E-2,3.9481435E-2,1.844875E-2,8.6794505E-3,3.248736E-2,1.1735567E-2,-3.8787346E-2,-8.503896E-3,1.9086841E-2,1.0824277E-2,-3.1510226E-2,-1.7330153E-2,1.6451161E-2,1.17026875E-2,-1.0208028E-2,1.3756035E-2,-4.4911914E-2,5.9630737E-2,-2.035479E-2,4.305153E-2,-3.7345532E-2,5.2186616E-2,-1.976152E-2,6.495623E-2,-1.7351232E-3,2.657824E-2,5.4358803E-3],"split_indices":[20,76,45,4,34,52,20,0,12,0,63,30,32,32,47,0,75,49,42,0,45,16,63,35,36,45,8,28,47,0,49,0,0,0,16,45,0,49,13,57,19,7,29,29,20,18,4,0,10,75,66,38,38,0,0,0,0,0,0,0,0,0,0,0,0,0,0,0,0,0,0,0,0,0,0,0,0,0,0,0,0,0,0,0,0,0,0,0,0],"split_type":[0,0,0,0,0,0,0,0,0,0,0,0,0,0,0,0,0,0,0,0,0,0,0,0,0,0,0,0,0,0,0,0,0,0,0,0,0,0,0,0,0,0,0,0,0,0,0,0,0,0,0,0,0,0,0,0,0,0,0,0,0,0,0,0,0,0,0,0,0,0,0,0,0,0,0,0,0,0,0,0,0,0,0,0,0,0,0,0,0],"sum_hessian":[8.849447E3,1.4438213E2,8.705065E3,1.341474E2,1.023472E1,2.0957654E3,6.6093E3,7.7380843E0,1.26409325E2,2.1867838E0,8.047936E0,1.0345559E3,1.0612095E3,2.7443276E3,3.8649722E3,1.1677284E0,6.570356E0,1.1560384E2,1.0805478E1,1.0407389E0,7.007198E0,2.7091495E2,7.63641E2,6.3694434E2,4.2426514E2,2.7132983E3,3.1029308E1,8.099966E1,3.7839724E3,3.9343379E0,2.636018E0,1.5590073E0,1.1404484E2,1.4086027E0,9.396875E0,5.318232E0,1.6889658E0,2.3879718E2,3.211777E1,3.319015E2,4.3173947E2,3.3508602E1,6.034357E2,2.3077986E2,1.9348526E2,2.6407927E3,7.250557E1,2.2371874E0,2.879212E1,1.34846325E1,6.751502E1,2.62782E3,1.1561523E3,1.1819288E0,1.4540892E0,1.1142087E0,8.282666E0,1.2947071E0,4.023525E0,1.8240765E2,5.6389523E1,1.2641879E1,1.9475891E1,2.3379808E2,9.810342E1,2.7370544E2,1.5803403E2,3.2450957E0,3.0263508E1,9.589068E1,5.07545E2,3.4932064E1,1.958478E2,1.04055244E2,8.9430016E1,1.7366005E2,2.4671328E3,4.1803885E0,6.832518E1,2.7571827E1,1.2202932E0,3.590269E0,9.894363E0,6.408041E1,3.4346144E0,1.5190615E1,2.6126294E3,2.3689026E2,9.192621E2],"tree_param":{"num_deleted":"0","num_feature":"80","num_nodes":"89","size_leaf_vector":"1"}},{"base_weights":[-9.655686E-4,6.371314E-1,-2.96694E-2,9.4371444E-1,1.6340256E-1,8.383103E-2,-1.9766554E-1,1.3914539E0,7.337977E-1,-1.4670104E-1,4.75567E-1,-6.057424E-2,3.343408E-1,3.2898124E-2,-3.5478216E-1,7.858437E-1,1.5309448E0,1.0434719E0,3.3743268E-1,8.5678324E-2,-8.8382375E-1,-6.3309425E-1,6.5642035E-1,-1.1669769E-1,5.399989E-1,-8.803218E-1,3.824485E-1,3.7676182E-1,-1.2901405E-1,-7.282091E-1,-1.8315774E-1,1.2064021E0,-4.4474426E-1,7.397829E-1,1.6029587E0,1.1158851E0,-5.12031E-1,2.8365497E-2,1.0815887E0,5.2112186E-1,-2.9319495E-1,1.3462509E-2,-1.0413079E0,-1.074167E0,-1.9700335E-1,1.3169084E0,3.6777824E-1,-1.7177598E-1,3.0568436E-1,6.187087E-1,-5.017865E-1,4.7335544E-1,-1.0077715E0,-1.4751613E-1,4.482266E-1,1.1317911E0,1.6442157E-1,-2.2661833E-1,3.0940872E-1,-7.9812557E-1,-8.789102E-2,-1.5720544E-2,-5.218334E-1,1.0885234E-2,6.2333215E-2,-3.419004E-2,3.2074088E-3,4.6352692E-2,-1.7374035E-2,1.6515572E-2,6.58922E-2,4.7226496E-2,-1.3207274E-2,3.4911547E-2,-5.002337E-2,1.5148165E-2,-1.9260583E-2,2.0153679E-2,6.2308345E-2,1.4555898E-3,3.7568174E-2,-2.3960939E-2,2.088521E-2,-4.7657873E-2,2.0476302E-2,-1.3617985E-2,-4.7603372E-2,3.1695876E-2,-3.2558892E-2,-6.8881395E-3,6.034915E-2,5.037356E-2,4.3683103E-3,-9.12975E-3,1.4283627E-2,2.1932311E-2,1.8544238E-3,1.9609034E-2,4.3027952E-2,-3.334402E-2,1.7432943E-2,4.6703957E-2,-3.8382307E-2,-4.300384E-2,1.67123E-3,6.2081018E-3,-3.6555994E-2,2.997157E-2,1.0950949E-2,5.6178365E-2,5.702566E-3,1.5142072E-2,-1.3388213E-2,-1.7335972E-2,2.0092346E-3,2.9695554E-2,-1.2033406E-3,-3.388855E-2,2.7997908E-3,3.5998736E-2,-1.299536E-2,-6.1970204E-3,1.6805781E-2,2.4971409E-2,-2.474759E-2],"categories":[],"categories_nodes":[],"categories_segments":[],"categories_sizes":[],"default_left":[0,0,0,0,0,0,0,0,0,0,0,0,0,0,0,0,0,0,0,0,0,0,0,0,0,0,0,0,0,0,0,0,0,0,0,0,0,0,0,0,0,0,0,0,0,0,0,0,0,0,0,0,0,0,0,0,0,0,0,0,0,0,0,0,0,0,0,0,0,0,0,0,0,0,0,0,0,0,0,0,0,0,0,0,0,0,0,0,0,0,0,0,0,0,0,0,0,0,0,0,0,0,0,0,0,0,0,0,0,0,0,0,0,0,0,0,0,0,0,0,0,0,0,0,0],"id":14,"left_children":[1,3,5,7,9,11,13,15,17,19,21,23,25,27,29,31,33,35,37,39,41,43,45,47,49,51,53,55,57,59,61,63,65,67,69,71,73,75,77,79,81,-1,83,85,87,89,91,93,95,97,99,101,103,105,107,109,111,113,115,117,119,121,123,-1,-1,-1,-1,-1,-1,-1,-1,-1,-1,-1,-1,-1,-1,-1,-1,-1,-1,-1,-1,-1,-1,-1,-1,-1,-1,-1,-1,-1,-1,-1,-1,-1,-1,-1,-1,-1,-1,-1,-1,-1,-1,-1,-1,-1,-1,-1,-1,-1,-1,-1,-1,-1,-1,-1,-1,-1,-1,-1,-1,-1,-1],"loss_changes":[1.628742E2,5.5442307E1,1.6227657E2,2.0801819E1,1.4746115E1,1.8376233E2,1.24317E2,4.9634247E0,1.9310486E1,1.3234433E1,1.56117935E1,1.0869214E2,1.0887576E2,7.75263E1,1.306633E2,8.672351E0,2.1343994E0,1.0647209E1,1.6468939E1,9.939099E0,3.9062738E0,1.9308486E0,1.20317135E1,6.863989E1,2.2910172E1,1.2737724E1,6.23743E1,7.12762E1,4.0587635E1,2.8684082E1,7.935713E1,3.516758E0,1.0875673E0,3.809065E0,2.0935364E0,8.425789E0,5.8621855E0,9.420131E0,4.9986153E0,5.6319523E0,8.381681E0,0E0,4.4882355E0,4.6710968E-2,4.811452E0,5.852066E0,1.0714353E1,7.798911E1,2.1395374E1,1.4544762E1,6.55835E0,7.880542E0,4.656952E0,4.6101574E1,8.331821E1,2.6144646E1,3.7434475E1,4.4389244E1,2.5427643E1,2.4730133E1,1.5357975E1,5.6952503E1,5.1782104E1,0E0,0E0,0E0,0E0,0E0,0E0,0E0,0E0,0E0,0E0,0E0,0E0,0E0,0E0,0E0,0E0,0E0,0E0,0E0,0E0,0E0,0E0,0E0,0E0,0E0,0E0,0E0,0E0,0E0,0E0,0E0,0E0,0E0,0E0,0E0,0E0,0E0,0E0,0E0,0E0,0E0,0E0,0E0,0E0,0E0,0E0,0E0,0E0,0E0,0E0,0E0,0E0,0E0,0E0,0E0,0E0,0E0,0E0,0E0,0E0,0E0,0E0],"parents":[2147483647,0,0,1,1,2,2,3,3,4,4,5,5,6,6,7,7,8,8,9,9,10,10,11,11,12,12,13,13,14,14,15,15,16,16,17,17,18,18,19,19,20,20,21,21,22,22,23,23,24,24,25,25,26,26,27,27,28,28,29,29,30,30,31,31,32,32,33,33,34,34,35,35,36,36,37,37,38,38,39,39,40,40,42,42,43,43,44,44,45,45,46,46,47,47,48,48,49,49,50,50,51,51,52,52,53,53,54,54,55,55,56,56,57,57,58,58,59,59,60,60,61,61,62,62],"right_children":[2,4,6,8,10,12,14,16,18,20,22,24,26,28,30,32,34,36,38,40,42,44,46,48,50,52,54,56,58,60,62,64,66,68,70,72,74,76,78,80,82,-1,84,86,88,90,92,94,96,98,100,102,104,106,108,110,112,114,116,118,120,122,124,-1,-1,-1,-1,-1,-1,-1,-1,-1,-1,-1,-1,-1,-1,-1,-1,-1,-1,-1,-1,-1,-1,-1,-1,-1,-1,-1,-1,-1,-1,-1,-1,-1,-1,-1,-1,-1,-1,-1,-1,-1,-1,-1,-1,-1,-1,-1,-1,-1,-1,-1,-1,-1,-1,-1,-1,-1,-1,-1,-1,-1,-1],"split_conditions":[-8.558322E-1,-4.8360315E-1,4.1947377E-1,-9.308688E-1,1.2290747E-2,1.0008342E-1,-9.28451E-1,-1.8743147E0,3.485864E-1,1.7463154E0,-2.503585E0,1.9455396E0,-1.9033067E0,5.62375E-1,6.1599646E-2,-1.6768928E0,-1.218769E0,1.4423234E0,-4.47809E-1,-2.4568991E-1,-1.1944762E0,-2.0018472E-1,7.694094E-2,1.4029649E-1,1.7699776E0,-5.9147847E-1,-2.1090052E-1,-7.661774E-1,7.8853965E-2,3.6598596E-1,-5.862444E-1,-5.3430593E-1,-1.2291734E0,-1.6284622E0,-1.4854292E0,2.0917773E0,1.3058241E-2,-7.502428E-1,-5.974325E-1,-7.3656243E-1,7.4530387E-1,1.3462509E-2,1.6206573E0,-6.56344E-1,3.9022654E-1,-8.630624E-1,-9.1858554E-1,1.3236139E0,-1.7155187E-1,9.658862E-1,1.4725819E0,8.848668E-1,4.5824587E-1,7.5135416E-1,-2.0913921E-1,-7.784022E-1,-8.6518717E-1,-5.022488E-1,-5.772457E-2,1.0896472E0,3.0531393E-2,4.737373E-1,-1.2615194E0,1.0885234E-2,6.2333215E-2,-3.419004E-2,3.2074088E-3,4.6352692E-2,-1.7374035E-2,1.6515572E-2,6.58922E-2,4.7226496E-2,-1.3207274E-2,3.4911547E-2,-5.002337E-2,1.5148165E-2,-1.9260583E-2,2.0153679E-2,6.2308345E-2,1.4555898E-3,3.7568174E-2,-2.3960939E-2,2.088521E-2,-4.7657873E-2,2.0476302E-2,-1.3617985E-2,-4.7603372E-2,3.1695876E-2,-3.2558892E-2,-6.8881395E-3,6.034915E-2,5.037356E-2,4.3683103E-3,-9.12975E-3,1.4283627E-2,2.1932311E-2,1.8544238E-3,1.9609034E-2,4.3027952E-2,-3.334402E-2,1.7432943E-2,4.6703957E-2,-3.8382307E-2,-4.300384E-2,1.67123E-3,6.2081018E-3,-3.6555994E-2,2.997157E-2,1.0950949E-2,5.6178365E-2,5.702566E-3,1.5142072E-2,-1.3388213E-2,-1.7335972E-2,2.0092346E-3,2.9695554E-2,-1.2033406E-3,-3.388855E-2,2.7997908E-3,3.5998736E-2,-1.299536E-2,-6.1970204E-3,1.6805781E-2,2.4971409E-2,-2.474759E-2],"split_indices":[51,15,49,51,8,40,37,44,29,49,64,37,64,52,47,17,53,3,4,15,76,7,8,49,6,6,32,18,7,7,51,76,18,53,76,78,11,5,13,10,48,0,76,17,4,11,59,63,7,46,10,77,17,28,29,5,39,29,2,40,1,32,62,0,0,0,0,0,0,0,0,0,0,0,0,0,0,0,0,0,0,0,0,0,0,0,0,0,0,0,0,0,0,0,0,0,0,0,0,0,0,0,0,0,0,0,0,0,0,0,0,0,0,0,0,0,0,0,0,0,0,0,0,0,0],"split_type":[0,0,0,0,0,0,0,0,0,0,0,0,0,0,0,0,0,0,0,0,0,0,0,0,0,0,0,0,0,0,0,0,0,0,0,0,0,0,0,0,0,0,0,0,0,0,0,0,0,0,0,0,0,0,0,0,0,0,0,0,0,0,0,0,0,0,0,0,0,0,0,0,0,0,0,0,0,0,0,0,0,0,0,0,0,0,0,0,0,0,0,0,0,0,0,0,0,0,0,0,0,0,0,0,0,0,0,0,0,0,0,0,0,0,0,0,0,0,0,0,0,0,0,0,0],"sum_hessian":[8.890506E3,3.817979E2,8.508708E3,2.3118794E2,1.5060997E2,5.0782656E3,3.4304426E3,7.19961E1,1.5919183E2,7.582028E1,7.478968E1,3.2218198E3,1.8564458E3,1.3905886E3,2.039854E3,1.4720339E1,5.727576E1,8.845256E1,7.073928E1,5.8318905E1,1.750138E1,1.0138482E1,6.465119E1,2.9472092E3,2.7461047E2,7.006586E1,1.7863799E3,4.4473926E2,9.4584937E2,6.412831E2,1.3985709E3,1.0985615E1,3.7347243E0,5.7189345E0,5.1556828E1,8.478805E1,3.6645112E0,5.07144E1,2.0024881E1,2.6959072E1,3.135983E1,1.8703583E0,1.5631022E1,4.313019E0,5.8254633E0,1.8577843E1,4.6073353E1,2.6077534E3,3.3945572E2,2.5569789E2,1.891258E1,5.795563E0,6.4270294E1,1.9710345E2,1.5892765E3,9.6671005E1,3.4806824E2,7.7401636E2,1.7183301E2,5.7793207E2,6.335103E1,9.365823E2,4.6198865E2,3.4910662E0,7.4945483E0,1.7441247E0,1.9905996E0,4.2243567E0,1.4945776E0,2.2225783E0,4.9334248E1,8.132844E1,3.459609E0,1.211375E0,2.453136E0,3.0212595E1,2.0501806E1,9.97679E0,1.004809E1,1.2987815E1,1.3971258E1,2.2998419E1,8.361413E0,1.4465641E1,1.1653816E0,1.1255661E0,3.1874528E0,2.128217E0,3.697246E0,2.1316907E0,1.6446154E1,9.487994E0,3.6585358E1,2.3566946E3,2.5105888E2,1.7479918E2,1.6465654E2,2.0120251E2,5.4495373E1,1.4050966E1,4.8616138E0,4.0287833E0,1.7667801E0,6.0373257E1,3.8970356E0,1.4186485E2,5.5238594E1,5.818505E2,1.0074259E3,7.5453445E1,2.1217556E1,2.4374211E2,1.0432613E2,4.4275412E2,3.3126224E2,7.499695E1,9.683605E1,5.470245E2,3.0907585E1,1.171633E1,5.16347E1,7.10356E2,2.2622629E2,3.557523E1,4.2641342E2],"tree_param":{"num_deleted":"0","num_feature":"80","num_nodes":"125","size_leaf_vector":"1"}},{"base_weights":[-4.507666E-3,-1.096756E0,1.3414042E-2,-1.2525425E0,-3.8811433E-1,5.375075E-1,-1.731225E-2,1.2581552E-2,-1.2756745E0,1.0476401E0,-7.3859847E-1,9.316209E-1,2.8402588E-1,-1.2771472E-1,1.5290369E-1,-9.048097E-3,-5.1324133E-2,6.378924E-2,2.5940493E-1,5.856168E-1,-1.0068365E0,9.8458904E-1,-6.2650996E-1,4.4436368E-1,-1.8357167E-1,-2.5189307E-1,9.765262E-2,5.041658E-1,-1.911316E-2,-1.6737172E-2,3.0713052E-2,-3.19529E-2,5.5640996E-2,8.79825E-3,-1.1378336E0,1.0505985E0,-1.1170826E-1,2.248025E-2,-5.277234E-2,-9.267862E-2,6.2955993E-1,4.8698148E-1,-6.0880023E-1,-3.939141E-1,-8.73732E-2,8.695891E-1,5.5338293E-2,6.3644725E-1,2.126494E-1,-4.3209356E-1,1.2095491E-1,-5.1190365E-2,-1.3199419E-2,4.940437E-2,2.681373E-2,-4.0971406E-2,2.2255894E-2,-1.793061E-2,2.0105228E-2,7.20844E-3,3.321335E-2,-3.6733914E-2,3.133169E-2,2.1799564E-2,-3.226165E-2,1.6758727E-2,-1.7849902E-2,-5.1967287E-3,1.7148437E-2,-2.0576518E-2,4.3225493E-2,3.4990795E-3,-3.268662E-2,2.6412822E-2,-5.5369183E-2,1.9473424E-2,-2.5487817E-3,-4.027043E-2,-1.4120314E-2,