{"learner":{"attributes":{"scikit_learn":"{\"_estimator_type\": \"regressor\"}"},"feature_names":[],"feature_types":[],"gradient_booster":{"model":{"cats":{"enc":[],"feature_segments":[],"sorted_idx":[]},"gbtree_model_param":{"num_parallel_tree":"1","num_trees":"400"},"iteration_indptr":[0,1,2,3,4,5,6,7,8,9,10,11,12,13,14,15,16,17,18,19,20,21,22,23,24,25,26,27,28,29,30,31,32,33,34,35,36,37,38,39,40,41,42,43,44,45,46,47,48,49,50,51,52,53,54,55,56,57,58,59,60,61,62,63,64,65,66,67,68,69,70,71,72,73,74,75,76,77,78,79,80,81,82,83,84,85,86,87,88,89,90,91,92,93,94,95,96,97,98,99,100,101,102,103,104,105,106,107,108,109,110,111,112,113,114,115,116,117,118,119,120,121,122,123,124,125,126,127,128,129,130,131,132,133,134,135,136,137,138,139,140,141,142,143,144,145,146,147,148,149,150,151,152,153,154,155,156,157,158,159,160,161,162,163,164,165,166,167,168,169,170,171,172,173,174,175,176,177,178,179,180,181,182,183,184,185,186,187,188,189,190,191,192,193,194,195,196,197,198,199,200,201,202,203,204,205,206,207,208,209,210,211,212,213,214,215,216,217,218,219,220,221,222,223,224,225,226,227,228,229,230,231,232,233,234,235,236,237,238,239,240,241,242,243,244,245,246,247,248,249,250,251,252,253,254,255,256,257,258,259,260,261,262,263,264,265,266,267,268,269,270,271,272,273,274,275,276,277,278,279,280,281,282,283,284,285,286,287,288,289,290,291,292,293,294,295,296,297,298,299,300,301,302,303,304,305,306,307,308,309,310,311,312,313,314,315,316,317,318,319,320,321,322,323,324,325,326,327,328,329,330,331,332,333,334,335,336,337,338,339,340,341,342,343,344,345,346,347,348,349,350,351,352,353,354,355,356,357,358,359,360,361,362,363,364,365,366,367,368,369,370,371,372,373,374,375,376,377,378,379,380,381,382,383,384,385,386,387,388,389,390,391,392,393,394,395,396,397,398,399,400],"tree_info":[0,0,0,0,0,0,0,0,0,0,0,0,0,0,0,0,0,0,0,0,0,0,0,0,0,0,0,0,0,0,0,0,0,0,0,0,0,0,0,0,0,0,0,0,0,0,0,0,0,0,0,0,0,0,0,0,0,0,0,0,0,0,0,0,0,0,0,0,0,0,0,0,0,0,0,0,0,0,0,0,0,0,0,0,0,0,0,0,0,0,0,0,0,0,0,0,0,0,0,0,0,0,0,0,0,0,0,0,0,0,0,0,0,0,0,0,0,0,0,0,0,0,0,0,0,0,0,0,0,0,0,0,0,0,0,0,0,0,0,0,0,0,0,0,0,0,0,0,0,0,0,0,0,0,0,0,0,0,0,0,0,0,0,0,0,0,0,0,0,0,0,0,0,0,0,0,0,0,0,0,0,0,0,0,0,0,0,0,0,0,0,0,0,0,0,0,0,0,0,0,0,0,0,0,0,0,0,0,0,0,0,0,0,0,0,0,0,0,0,0,0,0,0,0,0,0,0,0,0,0,0,0,0,0,0,0,0,0,0,0,0,0,0,0,0,0,0,0,0,0,0,0,0,0,0,0,0,0,0,0,0,0,0,0,0,0,0,0,0,0,0,0,0,0,0,0,0,0,0,0,0,0,0,0,0,0,0,0,0,0,0,0,0,0,0,0,0,0,0,0,0,0,0,0,0,0,0,0,0,0,0,0,0,0,0,0,0,0,0,0,0,0,0,0,0,0,0,0,0,0,0,0,0,0,0,0,0,0,0,0,0,0,0,0,0,0,0,0,0,0,0,0,0,0,0,0,0,0,0,0,0,0,0,0,0,0,0,0,0,0,0,0,0,0,0,0,0,0,0,0,0,0,0,0,0,0,0,0,0,0,0,0,0,0,0,0,0,0,0,0],"trees":[{"base_weights":[-1.11258105E-5,7.1399137E-3,-9.4285E-3,1.0694012E-3,1.5164348E-2,-6.594524E-3,-5.36153E-2,1.4781603E-2,-4.461988E-3,-4.3357987E-2,1.6516192E-2,-1.4710477E-2,4.7807246E-3,-4.1286103E-2,-8.133264E-2,1.1012444E-2,4.6506643E-2,1.151739E-2,-7.012434E-3,-3.4386124E-2,-7.417227E-2,2.1647923E-2,3.1341547E-3,-4.2721797E-2,-1.0645493E-2,-4.5556612E-2,7.0846626E-3,-3.160085E-2,-5.892625E-2,-8.741813E-2,3.3296674E-2,1.4176951E-2,-1.21140955E-2,5.1473863E-2,1.5595076E-2,-2.73679E-2,1.8935455E-2,9.493448E-3,-9.056304E-3,-3.10438E-2,-3.2852923E-3,-9.1495514E-2,-2.7434831E-2,1.872036E-2,4.8753116E-2,3.3501115E-2,-2.3852733E-3,-8.306132E-2,-2.9244905E-2,-1.707974E-2,-3.3753542E-3,-6.444187E-2,-2.863947E-2,1.5531291E-2,-5.703731E-3,4.1620564E-2,-3.3977337E-2,-1.630632E-2,-6.8817444E-2,-4.53797E-2,-9.348066E-2,3.777987E-3,5.2346133E-2,2.5174764E-4,8.72571E-4,-5.888472E-4,2.1647753E-3,7.324293E-4,2.2224667E-3,9.895451E-4,-1.1869611E-3,-4.536537E-4,-2.2022976E-3,8.3924655E-4,-7.6473324E-4,2.6534923E-4,2.889427E-3,3.8993712E-5,-5.303908E-4,-1.3768217E-3,5.7529276E-5,-4.4347803E-4,-3.8057608E-3,-2.8053117E-3,8.300036E-4,8.774022E-4,-1.6733831E-5,5.3200254E-4,2.2020556E-3,6.8969815E-4,2.5305664E-3,-2.0286375E-4,1.1811369E-3,-4.5601903E-3,-2.674942E-3,-7.261449E-4,-2.5994473E-3,-3.1136023E-4,-1.1579695E-3,-2.6177647E-4,5.101563E-4,-3.174779E-3,-1.2154283E-3,-1.2985873E-3,2.5452557E-3,3.4481712E-4,1.2479515E-3,1.9704818E-4,-7.859073E-4,2.265744E-3,-2.9226785E-4,-1.4605557E-3,7.122586E-4,-2.6529008E-3,-1.5001117E-5,-1.5344953E-3,-3.146086E-3,-2.4439204E-3,-2.522327E-4,-3.9195907E-3,-1.5092077E-3,3.4773088E-4,-3.17663E-4,2.6792844E-3,-4.1667538E-4],"categories":[],"categories_nodes":[],"categories_segments":[],"categories_sizes":[],"default_left":[0,0,0,0,0,0,0,0,0,0,0,0,0,0,0,0,0,0,0,0,0,0,0,0,0,0,0,0,0,0,0,0,0,0,0,0,0,0,0,0,0,0,0,0,0,0,0,0,0,0,0,0,0,0,0,0,0,0,0,0,0,0,0,0,0,0,0,0,0,0,0,0,0,0,0,0,0,0,0,0,0,0,0,0,0,0,0,0,0,0,0,0,0,0,0,0,0,0,0,0,0,0,0,0,0,0,0,0,0,0,0,0,0,0,0,0,0,0,0,0,0,0,0,0,0],"id":0,"left_children":[1,3,5,7,9,11,13,15,17,19,21,23,25,27,29,31,33,35,37,39,41,43,45,47,49,51,53,55,57,59,61,63,65,67,69,71,73,75,77,79,-1,81,83,85,87,89,91,93,95,97,99,101,103,105,107,109,111,113,115,117,119,121,123,-1,-1,-1,-1,-1,-1,-1,-1,-1,-1,-1,-1,-1,-1,-1,-1,-1,-1,-1,-1,-1,-1,-1,-1,-1,-1,-1,-1,-1,-1,-1,-1,-1,-1,-1,-1,-1,-1,-1,-1,-1,-1,-1,-1,-1,-1,-1,-1,-1,-1,-1,-1,-1,-1,-1,-1,-1,-1,-1,-1,-1,-1],"loss_changes":[1.556253E0,6.3982165E-1,1.2486341E0,5.673295E-1,4.4825852E-1,8.6548716E-1,2.020235E-1,2.565778E-1,2.1730249E-1,3.2836556E-2,3.7969398E-1,6.2250364E-1,4.5308566E-1,6.95529E-2,1.3126457E-1,1.4090471E-1,3.4205437E-2,2.1224318E-1,1.5516974E-1,1.35682225E-2,2.015987E-2,3.1625772E-1,2.5719097E-1,3.743211E-1,2.2349381E-1,5.278629E-2,4.0343088E-1,4.8744738E-2,6.08474E-2,4.0358186E-2,5.425386E-3,1.0173297E-1,4.0857617E-2,2.5553226E-2,1.4393471E-2,5.1740192E-2,4.8432708E-2,9.04893E-2,1.7251244E-1,1.0579102E-2,0E0,4.8125535E-3,1.9971842E-2,2.2205317E-1,8.612883E-2,1.1311129E-1,1.11513555E-1,7.903278E-2,2.0535332E-1,2.7947563E-1,1.14835665E-1,3.8258433E-2,3.4537703E-2,2.4324358E-1,2.2035664E-1,7.0292E-3,3.5327256E-2,2.3082986E-2,3.2625258E-2,1.43549405E-2,3.4513474E-2,3.570632E-4,6.2093344E-3,0E0,0E0,0E0,0E0,0E0,0E0,0E0,0E0,0E0,0E0,0E0,0E0,0E0,0E0,0E0,0E0,0E0,0E0,0E0,0E0,0E0,0E0,0E0,0E0,0E0,0E0,0E0,0E0,0E0,0E0,0E0,0E0,0E0,0E0,0E0,0E0,0E0,0E0,0E0,0E0,0E0,0E0,0E0,0E0,0E0,0E0,0E0,0E0,0E0,0E0,0E0,0E0,0E0,0E0,0E0,0E0,0E0,0E0,0E0,0E0,0E0,0E0],"parents":[2147483647,0,0,1,1,2,2,3,3,4,4,5,5,6,6,7,7,8,8,9,9,10,10,11,11,12,12,13,13,14,14,15,15,16,16,17,17,18,18,19,19,20,20,21,21,22,22,23,23,24,24,25,25,26,26,27,27,28,28,29,29,30,30,31,31,32,32,33,33,34,34,35,35,36,36,37,37,38,38,39,39,41,41,42,42,43,43,44,44,45,45,46,46,47,47,48,48,49,49,50,50,51,51,52,52,53,53,54,54,55,55,56,56,57,57,58,58,59,59,60,60,61,61,62,62],"right_children":[2,4,6,8,10,12,14,16,18,20,22,24,26,28,30,32,34,36,38,40,42,44,46,48,50,52,54,56,58,60,62,64,66,68,70,72,74,76,78,80,-1,82,84,86,88,90,92,94,96,98,100,102,104,106,108,110,112,114,116,118,120,122,124,-1,-1,-1,-1,-1,-1,-1,-1,-1,-1,-1,-1,-1,-1,-1,-1,-1,-1,-1,-1,-1,-1,-1,-1,-1,-1,-1,-1,-1,-1,-1,-1,-1,-1,-1,-1,-1,-1,-1,-1,-1,-1,-1,-1,-1,-1,-1,-1,-1,-1,-1,-1,-1,-1,-1,-1,-1,-1,-1,-1,-1,-1],"split_conditions":[1.8381864E-1,-1.3694625E-1,1.211837E0,-6.6953915E-1,-2.6253383E0,-3.445881E-1,1.3600291E0,1.8721188E0,-3.209859E-1,1.0821571E0,-3.429587E-1,-1.0927342E0,-9.9714905E-1,1.4581986E-1,4.8425765E0,1.5778531E0,4.5063358E-2,-5.9002197E-1,-9.5190376E-1,3.7142155E0,2.058235E0,2.3293588E0,-1.0794866E0,-7.9379E-3,1.0112907E0,-3.5597792E-1,2.550047E-1,-1.6152029E0,-1.4691242E0,-1.2334652E0,-6.1549723E-1,-1.1524331E-1,3.405386E0,-5.850622E-1,8.156289E-1,2.0868856E-1,1.4687554E0,2.0890315E0,1.01382785E-1,3.6909833E0,-3.2852923E-3,-1.5846555E0,-6.013073E-1,1.1847769E0,-1.362947E0,1.296795E-1,1.5640087E-1,-7.1009004E-1,-1.4608984E0,-8.4338516E-2,4.427393E-1,-1.362947E0,2.058235E0,4.273521E-1,1.3243346E-1,-6.312333E-1,3.1564948E-1,1.1120048E0,-6.7740285E-1,8.9043593E-1,9.183707E-1,-1.3040831E0,-1.7348829E-1,2.5174764E-4,8.72571E-4,-5.888472E-4,2.1647753E-3,7.324293E-4,2.2224667E-3,9.895451E-4,-1.1869611E-3,-4.536537E-4,-2.2022976E-3,8.3924655E-4,-7.6473324E-4,2.6534923E-4,2.889427E-3,3.8993712E-5,-5.303908E-4,-1.3768217E-3,5.7529276E-5,-4.4347803E-4,-3.8057608E-3,-2.8053117E-3,8.300036E-4,8.774022E-4,-1.6733831E-5,5.3200254E-4,2.2020556E-3,6.8969815E-4,2.5305664E-3,-2.0286375E-4,1.1811369E-3,-4.5601903E-3,-2.674942E-3,-7.261449E-4,-2.5994473E-3,-3.1136023E-4,-1.1579695E-3,-2.6177647E-4,5.101563E-4,-3.174779E-3,-1.2154283E-3,-1.2985873E-3,2.5452557E-3,3.4481712E-4,1.2479515E-3,1.9704818E-4,-7.859073E-4,2.265744E-3,-2.9226785E-4,-1.4605557E-3,7.122586E-4,-2.6529008E-3,-1.5001117E-5,-1.5344953E-3,-3.146086E-3,-2.4439204E-3,-2.522327E-4,-3.9195907E-3,-1.5092077E-3,3.4773088E-4,-3.17663E-4,2.6792844E-3,-4.1667538E-4],"split_indices":[61,53,42,26,80,42,39,68,42,23,59,45,53,23,107,41,70,62,62,95,22,68,39,28,59,4,26,23,94,22,17,78,0,4,89,22,22,21,68,96,0,5,16,41,26,22,61,28,50,49,83,26,22,22,80,0,21,23,21,89,4,5,5,0,0,0,0,0,0,0,0,0,0,0,0,0,0,0,0,0,0,0,0,0,0,0,0,0,0,0,0,0,0,0,0,0,0,0,0,0,0,0,0,0,0,0,0,0,0,0,0,0,0,0,0,0,0,0,0,0,0,0,0,0,0],"split_type":[0,0,0,0,0,0,0,0,0,0,0,0,0,0,0,0,0,0,0,0,0,0,0,0,0,0,0,0,0,0,0,0,0,0,0,0,0,0,0,0,0,0,0,0,0,0,0,0,0,0,0,0,0,0,0,0,0,0,0,0,0,0,0,0,0,0,0,0,0,0,0,0,0,0,0,0,0,0,0,0,0,0,0,0,0,0,0,0,0,0,0,0,0,0,0,0,0,0,0,0,0,0,0,0,0,0,0,0,0,0,0,0,0,0,0,0,0,0,0,0,0,0,0,0,0],"sum_hessian":[2.3107E4,1.3134E4,9.973E3,7.478E3,5.656E3,9.373E3,6E2,2.149E3,5.329E3,1.27E2,5.529E3,5.47E3,3.903E3,4.17E2,1.83E2,1.922E3,2.27E2,7.33E2,4.596E3,1E2,2.7E1,3.996E3,1.533E3,6.92E2,4.778E3,1.7E2,3.733E3,2.71E2,1.46E2,1.74E2,9E0,1.691E3,2.31E2,1.95E2,3.2E1,1.17E2,6.16E2,5.06E2,4.09E3,9.5E1,5E0,1.9E1,8E0,3.608E3,3.88E2,2.35E2,1.298E3,1.72E2,5.2E2,2.534E3,2.244E3,7.9E1,9.1E1,2.248E3,1.485E3,8E0,2.63E2,2.8E1,1.18E2,2.3E1,1.51E2,4E0,5E0,8.33E2,8.58E2,2.23E2,8E0,2.2E1,1.73E2,2.7E1,5E0,7.5E1,4.2E1,5.85E2,3.1E1,4.85E2,2.1E1,1.208E3,2.882E3,8.6E1,9E0,1E0,1.8E1,4E0,4E0,3.089E3,5.19E2,5.9E1,3.29E2,1.53E2,8.2E1,1.198E3,1E2,5.7E1,1.15E2,3.98E2,1.22E2,1.422E3,1.112E3,1.876E3,3.68E2,5.4E1,2.5E1,8.8E1,3E0,1.561E3,6.87E2,8.43E2,6.42E2,6E0,2E0,2.51E2,1.2E1,6E0,2.2E1,3E1,8.8E1,1.6E1,7E0,1.39E2,1.2E1,3E0,1E0,4E0,1E0],"tree_param":{"num_deleted":"0","num_feature":"111","num_nodes":"125","size_leaf_vector":"1"}},{"base_weights":[7.386925E-5,5.9757787E-3,-1.0530302E-2,-9.842813E-4,1.6220588E-2,-2.2475237E-2,-1.3877543E-3,-3.9168186E-3,1.8792728E-2,-1.9135678E-2,1.7983444E-2,-1.7702604E-2,-5.521082E-2,2.2521311E-2,-5.124304E-3,-1.6286299E-2,-1.4396396E-3,-3.8637097E-3,2.6498834E-2,-3.412034E-2,4.496516E-2,5.153406E-2,1.6119981E-2,-1.4357108E-2,-5.843239E-2,-4.316614E-2,-7.46911E-2,4.8851915E-2,1.6389916E-2,6.0705503E-4,-1.9933783E-2,1.2393337E-3,-2.3139756E-2,-3.0137147E-3,1.6022043E-2,-2.7453383E-2,1.1531042E-2,2.9648008E-2,-2.0996222E-2,-2.2848506E-2,-4.5389544E-2,3.5401925E-2,4.219367E-3,9.054011E-2,4.8605695E-2,5.293516E-2,1.45949265E-2,1.1133311E-2,-1.7091416E-2,-1.0581647E-1,-4.369358E-2,4.6560377E-2,-4.5584224E-2,-7.832414E-2,4.008811E-2,3.5211343E-2,7.970182E-2,2.9547768E-2,8.509507E-3,-1.9736456E-2,5.122894E-3,-6.976321E-3,-3.3993855E-2,2.0769896E-4,-1.602412E-3,-7.4119505E-4,-1.9888643E-3,-6.497499E-5,-8.407601E-4,8.410644E-4,-4.288033E-4,-2.6223555E-4,-2.0530159E-3,-1.7317897E-4,1.3976551E-3,1.2968183E-3,-1.20065815E-4,-3.2095268E-4,-3.7833827E-3,-1.1147038E-3,2.0109934E-3,-1.4316983E-3,-2.9709404E-3,1.8169688E-3,1.6614844E-4,2.1219573E-3,4.112742E-3,1.4882475E-3,2.4729408E-3,2.4970407E-3,1.3932832E-4,9.242652E-5,7.149492E-4,-3.4869277E-5,1.4588885E-3,-3.1671673E-3,-6.245125E-4,-2.601924E-3,-4.93664E-3,-2.2623152E-3,-6.7307637E-4,2.5989558E-3,-2.3147177E-4,-3.4732195E-3,-1.6544685E-3,-3.5836871E-3,-1.956021E-3,-8.774272E-5,2.4710936E-3,1.6121191E-3,-1.0821592E-4,3.442526E-3,-7.584211E-4,8.189237E-4,2.4007545E-3,-4.2459574E-3,3.8179583E-4,1.3596467E-4,-1.2435261E-3,9.832458E-4,4.860502E-5,-6.432621E-4,7.2855306E-5,-2.0078646E-3,-8.2555163E-4],"categories":[],"categories_nodes":[],"categories_segments":[],"categories_sizes":[],"default_left":[0,0,0,0,0,0,0,0,0,0,0,0,0,0,0,0,0,0,0,0,0,0,0,0,0,0,0,0,0,0,0,0,0,0,0,0,0,0,0,0,0,0,0,0,0,0,0,0,0,0,0,0,0,0,0,0,0,0,0,0,0,0,0,0,0,0,0,0,0,0,0,0,0,0,0,0,0,0,0,0,0,0,0,0,0,0,0,0,0,0,0,0,0,0,0,0,0,0,0,0,0,0,0,0,0,0,0,0,0,0,0,0,0,0,0,0,0,0,0,0,0,0,0,0,0],"id":1,"left_children":[1,3,5,7,9,11,13,15,17,19,21,23,25,27,29,31,33,35,37,39,41,43,45,47,49,51,53,55,57,59,61,63,65,67,69,71,73,75,77,79,81,83,-1,85,87,89,91,93,95,97,99,101,103,105,107,109,111,113,115,117,119,121,123,-1,-1,-1,-1,-1,-1,-1,-1,-1,-1,-1,-1,-1,-1,-1,-1,-1,-1,-1,-1,-1,-1,-1,-1,-1,-1,-1,-1,-1,-1,-1,-1,-1,-1,-1,-1,-1,-1,-1,-1,-1,-1,-1,-1,-1,-1,-1,-1,-1,-1,-1,-1,-1,-1,-1,-1,-1,-1,-1,-1,-1,-1],"loss_changes":[1.4578521E0,1.0670877E0,9.09555E-1,5.1694125E-1,3.7767768E-1,5.6318676E-1,4.2169863E-1,2.3781522E-1,2.010588E-1,2.7816665E-1,3.5972393E-1,4.28793E-1,1.0447276E-1,1.0220018E-1,3.4648594E-1,1.5557265E-1,1.7782773E-1,1.0672162E-1,1.2910324E-1,2.8686672E-2,2.8097302E-2,3.0209005E-2,3.060608E-1,2.0336187E-1,1.6229045E-1,6.417471E-2,7.569748E-2,4.769084E-2,5.3563267E-2,2.7056053E-1,2.072691E-1,5.9799097E-2,1.1316261E-1,1.4840762E-1,7.182591E-2,5.753188E-2,6.624268E-2,7.30561E-2,5.0790437E-2,4.5075547E-2,2.9496998E-2,1.5157085E-2,0E0,3.7522614E-3,4.0492E-2,1.01629615E-1,2.1137619E-1,8.611886E-2,2.4048144E-1,3.2152295E-2,6.2642574E-2,8.08716E-3,4.5000017E-2,5.1650286E-2,5.6378553E-3,1.6518988E-2,2.4226263E-2,5.2415192E-2,3.9714605E-2,1.4061168E-1,1.8322253E-1,4.7611743E-2,1.1711234E-1,0E0,0E0,0E0,0E0,0E0,0E0,0E0,0E0,0E0,0E0,0E0,0E0,0E0,0E0,0E0,0E0,0E0,0E0,0E0,0E0,0E0,0E0,0E0,0E0,0E0,0E0,0E0,0E0,0E0,0E0,0E0,0E0,0E0,0E0,0E0,0E0,0E0,0E0,0E0,0E0,0E0,0E0,0E0,0E0,0E0,0E0,0E0,0E0,0E0,0E0,0E0,0E0,0E0,0E0,0E0,0E0,0E0,0E0,0E0,0E0,0E0,0E0],"parents":[2147483647,0,0,1,1,2,2,3,3,4,4,5,5,6,6,7,7,8,8,9,9,10,10,11,11,12,12,13,13,14,14,15,15,16,16,17,17,18,18,19,19,20,20,21,21,22,22,23,23,24,24,25,25,26,26,27,27,28,28,29,29,30,30,31,31,32,32,33,33,34,34,35,35,36,36,37,37,38,38,39,39,40,40,41,41,43,43,44,44,45,45,46,46,47,47,48,48,49,49,50,50,51,51,52,52,53,53,54,54,55,55,56,56,57,57,58,58,59,59,60,60,61,61,62,62],"right_children":[2,4,6,8,10,12,14,16,18,20,22,24,26,28,30,32,34,36,38,40,42,44,46,48,50,52,54,56,58,60,62,64,66,68,70,72,74,76,78,80,82,84,-1,86,88,90,92,94,96,98,100,102,104,106,108,110,112,114,116,118,120,122,124,-1,-1,-1,-1,-1,-1,-1,-1,-1,-1,-1,-1,-1,-1,-1,-1,-1,-1,-1,-1,-1,-1,-1,-1,-1,-1,-1,-1,-1,-1,-1,-1,-1,-1,-1,-1,-1,-1,-1,-1,-1,-1,-1,-1,-1,-1,-1,-1,-1,-1,-1,-1,-1,-1,-1,-1,-1,-1,-1,-1,-1,-1],"split_conditions":[4.5035496E-1,-1.3694625E-1,9.7688144E-1,1.7424799E0,-1.7335489E0,1.2445122E0,-8.789922E-1,-5.5384713E-1,8.406765E-1,1.591308E0,-1.5664034E0,6.875432E-1,1.3600291E0,-9.2212164E-1,-2.869465E-1,-5.60676E-1,1.3129073E0,-2.2578558E-2,2.452477E0,3.0792344E-1,1.2720852E0,-2.3825045E0,-1.264299E0,-7.1641624E-1,-1.4182861E0,-1.679258E0,4.8425765E0,4.273521E-1,-2.755037E-1,3.918734E-1,5.3888116E-2,1.7239991E0,7.942704E-1,1.5045781E0,4.185516E-1,4.273521E-1,3.776113E-1,3.7000268E0,1.7351309E0,6.748794E-1,1.1120048E0,1.4289209E0,4.219367E-3,5.711808E-1,-6.953457E-1,1.78757E0,-8.022245E-1,2.9431406E-1,-1.5559548E0,-6.581825E-1,-6.0610646E-1,-6.3330066E-1,-9.4708866E-1,-4.1489133E-1,-1.9977425E-1,4.5649016E-1,1.7785461E0,-3.510937E-1,-1.1275418E0,-7.334402E-1,-8.246331E-1,-4.5572095E-2,-2.4333729E-1,2.0769896E-4,-1.602412E-3,-7.4119505E-4,-1.9888643E-3,-6.497499E-5,-8.407601E-4,8.410644E-4,-4.288033E-4,-2.6223555E-4,-2.0530159E-3,-1.7317897E-4,1.3976551E-3,1.2968183E-3,-1.20065815E-4,-3.2095268E-4,-3.7833827E-3,-1.1147038E-3,2.0109934E-3,-1.4316983E-3,-2.9709404E-3,1.8169688E-3,1.6614844E-4,2.1219573E-3,4.112742E-3,1.4882475E-3,2.4729408E-3,2.4970407E-3,1.3932832E-4,9.242652E-5,7.149492E-4,-3.4869277E-5,1.4588885E-3,-3.1671673E-3,-6.245125E-4,-2.601924E-3,-4.93664E-3,-2.2623152E-3,-6.7307637E-4,2.5989558E-3,-2.3147177E-4,-3.4732195E-3,-1.6544685E-3,-3.5836871E-3,-1.956021E-3,-8.774272E-5,2.4710936E-3,1.6121191E-3,-1.0821592E-4,3.442526E-3,-7.584211E-4,8.189237E-4,2.4007545E-3,-4.2459574E-3,3.8179583E-4,1.3596467E-4,-1.2435261E-3,9.832458E-4,4.860502E-5,-6.432621E-4,7.2855306E-5,-2.0078646E-3,-8.2555163E-4],"split_indices":[64,53,64,47,78,39,68,52,39,41,77,49,39,68,50,63,80,49,17,41,11,94,64,68,42,22,107,22,8,61,80,20,23,23,16,22,24,100,12,24,23,22,0,22,13,19,46,23,50,22,39,1,85,94,7,13,5,11,24,74,76,78,50,0,0,0,0,0,0,0,0,0,0,0,0,0,0,0,0,0,0,0,0,0,0,0,0,0,0,0,0,0,0,0,0,0,0,0,0,0,0,0,0,0,0,0,0,0,0,0,0,0,0,0,0,0,0,0,0,0,0,0,0,0,0],"split_type":[0,0,0,0,0,0,0,0,0,0,0,0,0,0,0,0,0,0,0,0,0,0,0,0,0,0,0,0,0,0,0,0,0,0,0,0,0,0,0,0,0,0,0,0,0,0,0,0,0,0,0,0,0,0,0,0,0,0,0,0,0,0,0,0,0,0,0,0,0,0,0,0,0,0,0,0,0,0,0,0,0,0,0,0,0,0,0,0,0,0,0,0,0,0,0,0,0,0,0,0,0,0,0,0,0,0,0,0,0,0,0,0,0,0,0,0,0,0,0,0,0,0,0,0,0],"sum_hessian":[2.3292E4,1.4964E4,8.328E3,8.911E3,6.053E3,3.61E3,4.718E3,7.761E3,1.15E3,2.87E2,5.766E3,3.152E3,4.58E2,6.37E2,4.081E3,1.294E3,6.467E3,2.92E2,8.58E2,2.33E2,5.4E1,3.02E2,5.464E3,2.914E3,2.38E2,2.85E2,1.73E2,1.19E2,5.18E2,2.943E3,1.138E3,3.64E2,9.3E2,5.933E3,5.34E2,1.15E2,1.77E2,8.05E2,5.3E1,1.18E2,1.15E2,4.8E1,6E0,1.9E1,2.83E2,2.16E2,5.248E3,2.82E2,2.632E3,5.5E1,1.83E2,7E0,2.78E2,1.68E2,5E0,8.4E1,3.5E1,1.93E2,3.25E2,5.34E2,2.409E3,5.93E2,5.45E2,3.33E2,3.1E1,7.94E2,1.36E2,5.509E3,4.24E2,4.5E2,8.4E1,6.2E1,5.3E1,1.06E2,7.1E1,7.42E2,6.3E1,4.6E1,7E0,1.11E2,7E0,8.8E1,2.7E1,3.6E1,1.2E1,6E0,1.3E1,1.54E2,1.29E2,1.81E2,3.5E1,1.106E3,4.142E3,1.92E2,9E1,6E1,2.572E3,1.8E1,3.7E1,1.23E2,6E1,5E0,2E0,2.4E1,2.54E2,1.2E2,4.8E1,2E0,3E0,7.4E1,1E1,3.3E1,2E0,1.5E2,4.3E1,2E0,3.23E2,1.76E2,3.58E2,4.02E2,2.007E3,2.91E2,3.02E2,2.45E2,3E2],"tree_param":{"num_deleted":"0","num_feature":"111","num_nodes":"125","size_leaf_vector":"1"}},{"base_weights":[-3.154507E-4,6.1342637E-3,-8.834972E-3,1.4076195E-2,2.5785167E-4,-6.182715E-3,-5.0578695E-2,1.9915996E-2,-6.496925E-4,1.27471415E-2,-3.9930665E-3,-1.3305553E-2,3.948856E-3,-4.043729E-2,-7.3551655E-2,2.5481375E-2,7.649144E-3,5.5401544E-3,-1.7254746E-2,1.608595E-2,-1.1749282E-2,1.6139265E-2,-7.3358472E-3,-9.927642E-3,-3.9453816E-2,-4.6746258E-2,6.335054E-3,-3.62583E-2,-7.484971E-2,-7.646885E-2,2.4277845E-2,2.2273824E-2,4.4653863E-2,1.1072808E-2,-3.3692814E-2,3.2396168E-2,3.4115019E-3,-8.206856E-3,-5.2530505E-2,1.9300718E-2,-2.7862159E-3,2.5629522E-2,-2.501453E-2,-5.6163883E-3,2.2788094E-2,-4.944978E-3,-2.7366016E-2,-7.488889E-3,-2.977135E-2,-7.972737E-2,-2.4842288E-2,-5.775075E-2,-2.0533152E-2,1.5677879E-2,-3.6275517E-3,-7.26345E-2,-3.2144673E-2,-4.7769133E-2,-3.6052482E-3,-4.5341235E-2,-8.4711656E-2,1.9151288E-3,5.081021E-4,-2.0643878E-4,1.0168363E-3,1.9773857E-3,-1.7046103E-4,-4.0088522E-5,7.297077E-4,9.689393E-4,-1.8231546E-3,2.1392673E-3,-4.975189E-4,-7.585056E-4,2.2600013E-4,-6.863792E-4,1.0883721E-3,2.9847017E-3,-2.3158374E-3,-7.5330725E-4,8.306466E-4,-3.0179686E-4,1.6697784E-3,1.5069019E-3,-6.996615E-4,-1.8775819E-3,1.2037469E-4,-3.4702953E-4,2.2613835E-3,8.164131E-4,2.7421396E-3,-3.3542383E-4,3.5007673E-4,-1.4050541E-3,-4.7252284E-5,2.5147691E-4,-4.0937486E-4,-7.2641857E-4,-2.3609728E-3,-2.3721473E-3,-3.9130445E-3,-2.557298E-4,-1.4289963E-3,-2.9748406E-3,-1.4177714E-3,-4.7159224E-4,-3.482309E-3,1.4006958E-3,4.3872904E-4,-1.2599286E-3,-1.960256E-5,-1.1319483E-3,-3.2814492E-3,-3.3765777E-3,-1.1843967E-3,9.46177E-5,-2.6893448E-3,-2.6914051E-3,-7.480431E-4,-3.4543825E-3,7.292348E-4,3.3227462E-4,-4.5776373E-4],"categories":[],"categories_nodes":[],"categories_segments":[],"categories_sizes":[],"default_left":[0,0,0,0,0,0,0,0,0,0,0,0,0,0,0,0,0,0,0,0,0,0,0,0,0,0,0,0,0,0,0,0,0,0,0,0,0,0,0,0,0,0,0,0,0,0,0,0,0,0,0,0,0,0,0,0,0,0,0,0,0,0,0,0,0,0,0,0,0,0,0,0,0,0,0,0,0,0,0,0,0,0,0,0,0,0,0,0,0,0,0,0,0,0,0,0,0,0,0,0,0,0,0,0,0,0,0,0,0,0,0,0,0,0,0,0,0,0,0,0,0,0,0],"id":2,"left_children":[1,3,5,7,9,11,13,15,17,19,21,23,25,27,29,31,33,35,37,39,41,43,45,47,49,51,53,55,57,59,61,63,65,67,69,71,73,75,77,79,81,83,85,87,89,91,93,95,97,99,101,103,105,107,109,111,113,115,-1,117,119,-1,121,-1,-1,-1,-1,-1,-1,-1,-1,-1,-1,-1,-1,-1,-1,-1,-1,-1,-1,-1,-1,-1,-1,-1,-1,-1,-1,-1,-1,-1,-1,-1,-1,-1,-1,-1,-1,-1,-1,-1,-1,-1,-1,-1,-1,-1,-1,-1,-1,-1,-1,-1,-1,-1,-1,-1,-1,-1,-1,-1,-1],"loss_changes":[1.2704631E0,6.1412776E-1,1.1026313E0,4.8124802E-1,4.0163082E-1,6.7609936E-1,1.3564777E-1,2.7336156E-1,1.6352014E-1,1.5730548E-1,3.7994814E-1,4.8549253E-1,4.6820256E-1,5.69669E-2,5.351162E-2,1.6849053E-1,1.7758235E-1,6.614618E-2,1.3745081E-1,1.0264614E-1,1.1517997E-1,1.16426274E-1,2.3169786E-1,2.356005E-1,3.6815953E-1,4.900658E-2,3.4398335E-1,5.333054E-2,1.3903096E-2,4.1316986E-2,3.3415223E-3,2.0415151E-1,9.234905E-2,1.0018729E-1,6.719011E-2,8.102004E-2,5.394803E-2,1.0985521E-1,6.4354E-2,8.114123E-2,5.265633E-2,3.233675E-2,1.05207846E-1,3.6427245E-2,6.5633625E-2,2.0393953E-1,1.04810834E-1,1.642464E-1,1.7996314E-1,5.5928946E-2,9.2729926E-2,4.2594165E-2,2.9800909E-2,1.7331007E-1,1.5642165E-1,1.3101295E-2,4.201752E-2,1.7724227E-2,0E0,2.154065E-2,2.4984717E-2,0E0,4.6791392E-4,0E0,0E0,0E0,0E0,0E0,0E0,0E0,0E0,0E0,0E0,0E0,0E0,0E0,0E0,0E0,0E0,0E0,0E0,0E0,0E0,0E0,0E0,0E0,0E0,0E0,0E0,0E0,0E0,0E0,0E0,0E0,0E0,0E0,0E0,0E0,0E0,0E0,0E0,0E0,0E0,0E0,0E0,0E0,0E0,0E0,0E0,0E0,0E0,0E0,0E0,0E0,0E0,0E0,0E0,0E0,0E0,0E0,0E0,0E0,0E0],"parents":[2147483647,0,0,1,1,2,2,3,3,4,4,5,5,6,6,7,7,8,8,9,9,10,10,11,11,12,12,13,13,14,14,15,15,16,16,17,17,18,18,19,19,20,20,21,21,22,22,23,23,24,24,25,25,26,26,27,27,28,28,29,29,30,30,31,31,32,32,33,33,34,34,35,35,36,36,37,37,38,38,39,39,40,40,41,41,42,42,43,43,44,44,45,45,46,46,47,47,48,48,49,49,50,50,51,51,52,52,53,53,54,54,55,55,56,56,57,57,59,59,60,60,62,62],"right_children":[2,4,6,8,10,12,14,16,18,20,22,24,26,28,30,32,34,36,38,40,42,44,46,48,50,52,54,56,58,60,62,64,66,68,70,72,74,76,78,80,82,84,86,88,90,92,94,96,98,100,102,104,106,108,110,112,114,116,-1,118,120,-1,122,-1,-1,-1,-1,-1,-1,-1,-1,-1,-1,-1,-1,-1,-1,-1,-1,-1,-1,-1,-1,-1,-1,-1,-1,-1,-1,-1,-1,-1,-1,-1,-1,-1,-1,-1,-1,-1,-1,-1,-1,-1,-1,-1,-1,-1,-1,-1,-1,-1,-1,-1,-1,-1,-1,-1,-1,-1,-1,-1,-1],"split_conditions":[1.8381864E-1,-7.012852E-3,1.211837E0,-3.429587E-1,-7.8510714E-1,-3.445881E-1,1.3600291E0,4.470293E-1,7.3210216E-1,1.3436335E0,-7.427901E-1,1.4106845E0,-9.9714905E-1,1.9109158E-1,4.8425765E0,2.2809079E0,3.7142155E0,-3.468025E-1,9.432074E-1,1.4315358E0,-6.886527E-1,-6.917149E-1,1.3246403E0,2.8857644E0,2.74328E-1,-1.362947E0,-9.169924E-2,-9.4708866E-1,7.1727663E-1,-1.0042958E0,-1.6586478E-1,-1.1628499E0,6.0285413E-1,-4.2141926E-1,-1.0162431E0,5.377922E-2,-1.1423168E0,5.4853016E-1,-1.1448936E0,-1.0627853E0,1.0287397E0,-9.331296E-2,3.058417E-2,1.9780535E0,2.0551696E0,7.588316E-1,1.3609114E-1,-1.2094578E0,4.2634536E-2,-5.8748794E-1,-6.855898E-1,-2.564315E-1,4.473354E-1,-8.4283984E-1,-1.4406167E0,-5.7503945E-1,-1.3437407E0,-2.7338174E-1,-3.6052482E-3,-1.8428744E-1,1.1145811E0,1.9151288E-3,-5.9792256E-1,-2.0643878E-4,1.0168363E-3,1.9773857E-3,-1.7046103E-4,-4.0088522E-5,7.297077E-4,9.689393E-4,-1.8231546E-3,2.1392673E-3,-4.975189E-4,-7.585056E-4,2.2600013E-4,-6.863792E-4,1.0883721E-3,2.9847017E-3,-2.3158374E-3,-7.5330725E-4,8.306466E-4,-3.0179686E-4,1.6697784E-3,1.5069019E-3,-6.996615E-4,-1.8775819E-3,1.2037469E-4,-3.4702953E-4,2.2613835E-3,8.164131E-4,2.7421396E-3,-3.3542383E-4,3.5007673E-4,-1.4050541E-3,-4.7252284E-5,2.5147691E-4,-4.0937486E-4,-7.2641857E-4,-2.3609728E-3,-2.3721473E-3,-3.9130445E-3,-2.557298E-4,-1.4289963E-3,-2.9748406E-3,-1.4177714E-3,-4.7159224E-4,-3.482309E-3,1.4006958E-3,4.3872904E-4,-1.2599286E-3,-1.960256E-5,-1.1319483E-3,-3.2814492E-3,-3.3765777E-3,-1.1843967E-3,9.46177E-5,-2.6893448E-3,-2.6914051E-3,-7.480431E-4,-3.4543825E-3,7.292348E-4,3.3227462E-4,-4.5776373E-4],"split_indices":[61,27,42,59,26,42,39,79,22,24,56,26,53,9,107,57,95,53,78,43,19,53,50,101,27,26,26,85,26,23,9,60,9,24,26,8,63,60,24,79,1,53,74,87,14,87,44,57,24,23,42,3,15,18,79,3,17,22,0,8,7,0,0,0,0,0,0,0,0,0,0,0,0,0,0,0,0,0,0,0,0,0,0,0,0,0,0,0,0,0,0,0,0,0,0,0,0,0,0,0,0,0,0,0,0,0,0,0,0,0,0,0,0,0,0,0,0,0,0,0,0,0,0],"split_type":[0,0,0,0,0,0,0,0,0,0,0,0,0,0,0,0,0,0,0,0,0,0,0,0,0,0,0,0,0,0,0,0,0,0,0,0,0,0,0,0,0,0,0,0,0,0,0,0,0,0,0,0,0,0,0,0,0,0,0,0,0,0,0,0,0,0,0,0,0,0,0,0,0,0,0,0,0,0,0,0,0,0,0,0,0,0,0,0,0,0,0,0,0,0,0,0,0,0,0,0,0,0,0,0,0,0,0,0,0,0,0,0,0,0,0,0,0,0,0,0,0,0,0],"sum_hessian":[2.3119E4,1.3158E4,9.961E3,5.595E3,7.563E3,9.367E3,5.94E2,4.006E3,1.589E3,1.92E3,5.643E3,5.5E3,3.867E3,4.14E2,1.8E2,2.755E3,1.251E3,1.158E3,4.31E2,1.69E3,2.3E2,8.03E2,4.84E3,4.872E3,6.28E2,1.73E2,3.694E3,3.71E2,4.3E1,1.75E2,5E0,2.362E3,3.93E2,1.156E3,9.5E1,8.4E1,1.074E3,3.44E2,8.7E1,1.444E3,2.46E2,6E1,1.7E2,1.88E2,6.15E2,4.325E3,5.15E2,4.34E3,5.32E2,1.66E2,4.62E2,1.21E2,5.2E1,1.906E3,1.788E3,3.6E1,3.35E2,1.7E1,2.6E1,3.8E1,1.37E2,2E0,3E0,2.43E2,2.119E3,3.58E2,3.5E1,4.31E2,7.25E2,1.6E1,7.9E1,5.7E1,2.7E1,9.7E1,9.77E2,2.75E2,6.9E1,3E0,8.4E1,5.3E1,1.391E3,2.23E2,2.3E1,4.7E1,1.3E1,9.5E1,7.5E1,1.8E2,8E0,5.86E2,2.9E1,3.457E3,8.68E2,3.97E2,1.18E2,7.21E2,3.619E3,3.82E2,1.5E2,8E1,8.6E1,1.72E2,2.9E2,6.8E1,5.3E1,4.7E1,5E0,3.72E2,1.534E3,1.8E2,1.608E3,7E0,2.9E1,1.4E1,3.21E2,5E0,1.2E1,2E1,1.8E1,1.35E2,2E0,2E0,1E0],"tree_param":{"num_deleted":"0","num_feature":"111","num_nodes":"123","size_leaf_vector":"1"}},{"base_weights":[4.8170428E-4,6.8416507E-3,-7.874227E-3,1.5491329E-2,3.8075456E-4,-5.543457E-3,-4.516506E-2,2.0989457E-2,1.4234276E-3,3.6723027E-3,-1.41046895E-2,-1.2389391E-2,4.072993E-3,-3.5962135E-2,-6.763602E-2,1.7640729E-2,4.4428777E-2,3.2430901E-3,-4.4001978E-2,1.3906395E-2,-1.364808E-3,-7.0249652E-3,-4.5129947E-2,-3.631624E-2,-8.89188E-3,-4.5059655E-2,6.5042125E-3,-2.7630446E-2,-5.1409066E-2,-7.224567E-2,2.2852808E-2,2.5796007E-2,8.783861E-3,4.8669495E-2,3.970902E-3,6.6430325E-4,2.7001547E-2,-5.1048096E-2,4.3695588E-3,8.695531E-3,2.504174E-2,-7.4822493E-3,1.8160066E-2,1.1436827E-2,-1.4364763E-2,-2.1122325E-4,-5.4321636E-2,-4.6735656E-2,1.2628586E-2,-2.1393779E-3,-1.5626654E-2,-3.8664903E-2,-1.1018768E-1,1.581843E-2,-3.169057E-3,-2.9183662E-2,3.600461E-2,-2.1918196E-2,-6.701028E-2,-3.3973936E-2,-7.998921E-2,3.5370044E-2,-1.6362492E-3,2.2061584E-3,9.553071E-4,-1.0157274E-4,6.885965E-4,6.833088E-4,2.2633716E-3,-8.2340225E-4,1.4017378E-3,1.7036533E-4,-7.3256716E-4,1.4729206E-3,-1.2547555E-3,-4.3672885E-4,-2.8539025E-3,-1.9974531E-4,6.849203E-4,5.201136E-4,1.184104E-3,1.8890169E-4,-4.3591726E-4,1.2609735E-3,3.4899852E-4,-1.8715301E-3,6.3333265E-4,-9.2501915E-4,-1.7192983E-4,-1.9761398E-3,6.862787E-4,-2.4238261E-3,-1.0814357E-3,-1.1616022E-3,-2.9231042E-3,9.1730146E-4,-1.9729708E-3,1.8713316E-4,-3.5370886E-4,-9.3171257E-4,-2.0533784E-4,-2.0883775E-3,-6.612378E-4,-4.528426E-3,-1.2968604E-3,-2.724855E-4,7.889779E-4,-2.2233387E-4,1.2649596E-3,-4.767885E-4,-1.4318571E-3,9.950188E-5,1.956557E-3,-3.376839E-3,-4.1278073E-4,-2.835383E-3,1.5540373E-3,-1.7308148E-3,1.3978557E-3,-3.300546E-3,9.073441E-4,-3.7600225E-6,2.1250227E-3,2.1180567E-4,-4.4860845E-4],"categories":[],"categories_nodes":[],"categories_segments":[],"categories_sizes":[],"default_left":[0,0,0,0,0,0,0,0,0,0,0,0,0,0,0,0,0,0,0,0,0,0,0,0,0,0,0,0,0,0,0,0,0,0,0,0,0,0,0,0,0,0,0,0,0,0,0,0,0,0,0,0,0,0,0,0,0,0,0,0,0,0,0,0,0,0,0,0,0,0,0,0,0,0,0,0,0,0,0,0,0,0,0,0,0,0,0,0,0,0,0,0,0,0,0,0,0,0,0,0,0,0,0,0,0,0,0,0,0,0,0,0,0,0,0,0,0,0,0,0,0,0,0,0,0],"id":3,"left_children":[1,3,5,7,9,11,13,15,17,19,21,23,25,27,29,31,33,35,37,39,41,43,45,47,49,51,53,55,57,59,61,63,65,67,69,71,73,75,-1,77,79,81,83,85,87,89,91,93,95,97,99,101,103,105,107,109,111,113,115,117,119,121,123,-1,-1,-1,-1,-1,-1,-1,-1,-1,-1,-1,-1,-1,-1,-1,-1,-1,-1,-1,-1,-1,-1,-1,-1,-1,-1,-1,-1,-1,-1,-1,-1,-1,-1,-1,-1,-1,-1,-1,-1,-1,-1,-1,-1,-1,-1,-1,-1,-1,-1,-1,-1,-1,-1,-1,-1,-1,-1,-1,-1,-1,-1],"loss_changes":[1.2314899E0,7.3532456E-1,8.702172E-1,4.351251E-1,3.5922173E-1,6.206636E-1,1.1937189E-1,3.1671607E-1,1.309091E-1,3.16486E-1,3.0609515E-1,4.6052706E-1,4.6866536E-1,5.2633166E-2,7.256174E-2,2.555405E-1,8.644974E-2,9.323194E-2,7.144141E-2,1.1728242E-1,4.9164084E-1,1.5423441E-1,1.0692412E-1,3.585937E-1,2.1852699E-1,7.278797E-2,3.367499E-1,2.8231457E-2,6.570488E-2,4.5292616E-2,2.816692E-3,1.02206826E-1,1.6224098E-1,1.1328471E-1,3.8109157E-2,9.381836E-2,8.657432E-2,4.7283307E-2,0E0,1.5940472E-1,3.5030574E-2,1.3070066E-1,1.2354857E-1,8.368027E-2,7.168719E-2,3.9294746E-2,3.5167873E-2,2.677709E-1,8.028767E-2,1.097705E-1,1.9342542E-1,5.0101966E-2,9.0911984E-5,1.6843912E-1,1.526374E-1,3.0283034E-2,2.907102E-3,3.6826197E-2,4.1716993E-2,2.0092834E-2,3.660339E-2,3.78309E-3,3.249683E-4,0E0,0E0,0E0,0E0,0E0,0E0,0E0,0E0,0E0,0E0,0E0,0E0,0E0,0E0,0E0,0E0,0E0,0E0,0E0,0E0,0E0,0E0,0E0,0E0,0E0,0E0,0E0,0E0,0E0,0E0,0E0,0E0,0E0,0E0,0E0,0E0,0E0,0E0,0E0,0E0,0E0,0E0,0E0,0E0,0E0,0E0,0E0,0E0,0E0,0E0,0E0,0E0,0E0,0E0,0E0,0E0,0E0,0E0,0E0,0E0,0E0,0E0],"parents":[2147483647,0,0,1,1,2,2,3,3,4,4,5,5,6,6,7,7,8,8,9,9,10,10,11,11,12,12,13,13,14,14,15,15,16,16,17,17,18,18,19,19,20,20,21,21,22,22,23,23,24,24,25,25,26,26,27,27,28,28,29,29,30,30,31,31,32,32,33,33,34,34,35,35,36,36,37,37,39,39,40,40,41,41,42,42,43,43,44,44,45,45,46,46,47,47,48,48,49,49,50,50,51,51,52,52,53,53,54,54,55,55,56,56,57,57,58,58,59,59,60,60,61,61,62,62],"right_children":[2,4,6,8,10,12,14,16,18,20,22,24,26,28,30,32,34,36,38,40,42,44,46,48,50,52,54,56,58,60,62,64,66,68,70,72,74,76,-1,78,80,82,84,86,88,90,92,94,96,98,100,102,104,106,108,110,112,114,116,118,120,122,124,-1,-1,-1,-1,-1,-1,-1,-1,-1,-1,-1,-1,-1,-1,-1,-1,-1,-1,-1,-1,-1,-1,-1,-1,-1,-1,-1,-1,-1,-1,-1,-1,-1,-1,-1,-1,-1,-1,-1,-1,-1,-1,-1,-1,-1,-1,-1,-1,-1,-1,-1,-1,-1,-1,-1,-1,-1,-1,-1,-1,-1,-1],"split_conditions":[1.8381864E-1,-7.012852E-3,1.211837E0,-3.429587E-1,1.2284081E0,-3.445881E-1,1.3600291E0,1.9331528E0,1.9227225E0,-5.539712E-1,6.9403017E-1,-1.0927342E0,-9.9714905E-1,4.3979353E-1,4.8425765E0,2.7307788E-1,1.9746231E0,1.8016238E0,2.7336786E0,3.482655E-1,1.1213055E0,-1.3370557E-1,3.4141576E-1,1.7192302E0,-2.088913E-2,3.3975527E0,-9.169924E-2,3.294014E-1,-9.1711473E-1,-1.0042958E0,-7.9379E-3,-1.4243153E0,-3.9107972E-1,-4.7584438E-1,-9.7080714E-1,1.0821571E0,1.7480972E0,-1.7878787E-1,4.3695588E-3,1.9597341E-1,-3.468025E-1,-4.7274897E-1,4.7621158E-1,-1.0089507E0,1.4682364E0,9.381581E-1,4.1006604E-1,-4.8252025E-1,3.9436126E-1,2.3868734E-2,1.0112907E0,-1.840026E-1,-2.6000472E-2,-8.475487E-1,1.1473843E0,7.1727663E-1,-8.1227936E-2,-1.6512451E0,1.5569093E0,3.7152345E0,1.1145811E0,-5.9792256E-1,-1.6171011E0,2.2061584E-3,9.553071E-4,-1.0157274E-4,6.885965E-4,6.833088E-4,2.2633716E-3,-8.2340225E-4,1.4017378E-3,1.7036533E-4,-7.3256716E-4,1.4729206E-3,-1.2547555E-3,-4.3672885E-4,-2.8539025E-3,-1.9974531E-4,6.849203E-4,5.201136E-4,1.184104E-3,1.8890169E-4,-4.3591726E-4,1.2609735E-3,3.4899852E-4,-1.8715301E-3,6.3333265E-4,-9.2501915E-4,-1.7192983E-4,-1.9761398E-3,6.862787E-4,-2.4238261E-3,-1.0814357E-3,-1.1616022E-3,-2.9231042E-3,9.1730146E-4,-1.9729708E-3,1.8713316E-4,-3.5370886E-4,-9.3171257E-4,-2.0533784E-4,-2.0883775E-3,-6.612378E-4,-4.528426E-3,-1.2968604E-3,-2.724855E-4,7.889779E-4,-2.2233387E-4,1.2649596E-3,-4.767885E-4,-1.4318571E-3,9.950188E-5,1.956557E-3,-3.376839E-3,-4.1278073E-4,-2.835383E-3,1.5540373E-3,-1.7308148E-3,1.3978557E-3,-3.300546E-3,9.073441E-4,-3.7600225E-6,2.1250227E-3,2.1180567E-4,-4.4860845E-4],"split_indices":[61,27,42,59,68,42,39,47,7,26,23,45,53,22,107,80,17,47,48,40,57,42,21,61,76,102,26,21,6,23,28,48,24,42,38,23,25,50,0,47,53,77,39,70,39,23,40,68,24,26,59,2,5,53,39,26,14,17,90,106,7,0,5,0,0,0,0,0,0,0,0,0,0,0,0,0,0,0,0,0,0,0,0,0,0,0,0,0,0,0,0,0,0,0,0,0,0,0,0,0,0,0,0,0,0,0,0,0,0,0,0,0,0,0,0,0,0,0,0,0,0,0,0,0,0],"split_type":[0,0,0,0,0,0,0,0,0,0,0,0,0,0,0,0,0,0,0,0,0,0,0,0,0,0,0,0,0,0,0,0,0,0,0,0,0,0,0,0,0,0,0,0,0,0,0,0,0,0,0,0,0,0,0,0,0,0,0,0,0,0,0,0,0,0,0,0,0,0,0,0,0,0,0,0,0,0,0,0,0,0,0,0,0,0,0,0,0,0,0,0,0,0,0,0,0,0,0,0,0,0,0,0,0,0,0,0,0,0,0,0,0,0,0,0,0,0,0,0,0,0,0,0,0],"sum_hessian":[2.3171E4,1.3157E4,1.0014E4,5.625E3,7.532E3,9.426E3,5.88E2,4.044E3,1.581E3,6.138E3,1.394E3,5.506E3,3.92E3,4.19E2,1.69E2,3.54E3,5.04E2,1.521E3,6E1,2.024E3,4.114E3,1.136E3,2.58E2,7.01E2,4.805E3,1.84E2,3.736E3,2.74E2,1.45E2,1.61E2,8E0,1.842E3,1.698E3,4.56E2,4.8E1,1.373E3,1.48E2,5.8E1,2E0,1.38E3,6.44E2,3.133E3,9.81E2,3.23E2,8.13E2,4.4E1,2.14E2,5.78E2,1.23E2,2.4E3,2.405E3,1.69E2,1.5E1,1.903E3,1.833E3,2.68E2,6E0,5.1E1,9.4E1,2.8E1,1.33E2,5E0,3E0,1.11E2,1.731E3,7.25E2,9.73E2,9.2E1,3.64E2,2.7E1,2.1E1,1.155E3,2.18E2,1.27E2,2.1E1,2E1,3.8E1,5.26E2,8.54E2,1.78E2,4.66E2,6.85E2,2.448E3,4.05E2,5.76E2,2.2E1,3.01E2,4.34E2,3.79E2,1.1E1,3.3E1,1.73E2,4.1E1,3.47E2,2.31E2,1.06E2,1.7E1,1.19E3,1.21E3,1.389E3,1.016E3,1.04E2,6.5E1,1.4E1,1E0,2.8E2,1.623E3,1.716E3,1.17E2,7.5E1,1.93E2,2E0,4E0,7E0,4.4E1,9.1E1,3E0,2.5E1,3E0,1.3E2,3E0,2E0,3E0,2E0,1E0],"tree_param":{"num_deleted":"0","num_feature":"111","num_nodes":"125","size_leaf_vector":"1"}},{"base_weights":[7.5724136E-5,5.969169E-3,-7.7806264E-3,1.3887362E-2,9.645378E-5,-5.5414583E-3,-4.4650123E-2,1.9408895E-2,1.8112734E-5,1.5367683E-2,-4.1241893E-3,-1.2421591E-2,4.099564E-3,-3.3268943E-2,-6.1600402E-2,1.6244423E-2,4.266229E-2,5.3411317E-3,-1.4176646E-2,4.1318783E-3,2.508286E-2,1.15823215E-2,-1.00704655E-2,-9.355431E-3,-3.6650497E-2,-4.3269407E-2,6.4452267E-3,-3.0388415E-2,-3.6024177E-3,-6.577234E-2,1.8627815E-2,2.3333495E-2,8.445639E-3,2.7077004E-2,5.521622E-2,-1.6783677E-2,7.9377005E-3,-3.517945E-3,-4.5926973E-2,2.5862988E-4,2.8985845E-2,1.4232674E-2,4.055673E-2,-9.019589E-3,1.6162133E-2,1.3410248E-2,-1.2074329E-2,-7.1340264E-3,-2.8072227E-2,-7.229248E-2,-2.1783665E-2,-3.6995396E-2,-4.2733736E-3,1.2295285E-2,-7.503816E-3,2.7113408E-3,-3.1506624E-2,-8.895247E-2,-5.7103343E-2,-1.2390031E-2,4.2553425E-2,1.5501737E-3,6.632899E-4,-3.247595E-5,6.1779644E-4,4.5580193E-4,2.1730622E-3,2.6089256E-3,4.700516E-4,-3.6506396E-4,-1.697484E-3,2.5592517E-4,1.9899716E-3,1.5087283E-3,-5.37048E-4,3.4561728E-3,-2.0177886E-3,-2.8084262E-4,4.8218964E-4,-7.0763833E-4,1.7669266E-3,1.833858E-3,4.1883567E-4,1.7396825E-3,-3.8054087E-3,-9.505786E-5,-2.4212694E-3,8.791166E-4,-1.8620673E-4,6.0940225E-4,-3.0229958E-3,-2.053327E-4,-7.651533E-4,-2.5629962E-4,-2.4620022E-3,-1.6185738E-3,-7.399222E-5,-2.3751117E-3,-4.0847454E-3,-1.2038964E-4,-1.3360423E-3,8.080785E-4,-1.7750029E-3,1.3866824E-4,1.1343978E-3,-7.472249E-4,6.574396E-4,-1.0841411E-3,-2.8899463E-3,-3.6294782E-3,2.1957149E-4,-2.7523455E-3,-1.8277472E-3,2.0615752E-4,-8.9801993E-4,-3.6597748E-6,2.3851874E-3],"categories":[],"categories_nodes":[],"categories_segments":[],"categories_sizes":[],"default_left":[0,0,0,0,0,0,0,0,0,0,0,0,0,0,0,0,0,0,0,0,0,0,0,0,0,0,0,0,0,0,0,0,0,0,0,0,0,0,0,0,0,0,0,0,0,0,0,0,0,0,0,0,0,0,0,0,0,0,0,0,0,0,0,0,0,0,0,0,0,0,0,0,0,0,0,0,0,0,0,0,0,0,0,0,0,0,0,0,0,0,0,0,0,0,0,0,0,0,0,0,0,0,0,0,0,0,0,0,0,0,0,0,0,0,0,0,0],"id":4,"left_children":[1,3,5,7,9,11,13,15,17,19,21,23,25,27,29,31,33,35,37,39,41,43,45,47,49,51,53,55,-1,57,59,61,63,65,67,69,71,73,75,77,79,81,83,85,87,89,91,93,95,97,99,101,-1,103,105,-1,107,109,111,113,115,-1,-1,-1,-1,-1,-1,-1,-1,-1,-1,-1,-1,-1,-1,-1,-1,-1,-1,-1,-1,-1,-1,-1,-1,-1,-1,-1,-1,-1,-1,-1,-1,-1,-1,-1,-1,-1,-1,-1,-1,-1,-1,-1,-1,-1,-1,-1,-1,-1,-1,-1,-1,-1,-1,-1,-1],"loss_changes":[1.0719138E0,6.1511767E-1,8.1896555E-1,4.3137205E-1,4.896591E-1,6.206485E-1,1.07525945E-1,2.9577982E-1,1.2134787E-1,1.7946103E-1,5.5600524E-1,4.0527898E-1,4.332809E-1,5.3210825E-2,7.720369E-2,1.9595808E-1,9.2811346E-2,6.723316E-2,1.4806518E-1,7.3539406E-2,1.4750558E-1,1.5441272E-1,2.0333308E-1,2.0136774E-1,3.2324368E-1,6.9428176E-2,3.0316472E-1,3.803262E-2,0E0,3.832537E-2,9.432688E-3,1.9279373E-1,1.0958264E-1,9.211077E-2,1.1493027E-1,2.3773622E-2,6.701471E-2,1.3492867E-1,7.0120856E-2,5.6931965E-2,7.3797725E-2,6.1360493E-2,1.4872098E-1,1.01832524E-1,1.6209248E-1,5.6360852E-2,1.9473511E-1,1.7099078E-1,1.6695014E-1,6.327164E-2,9.455663E-2,7.2231025E-2,0E0,3.7106594E-1,2.9409954E-1,0E0,5.6164503E-2,1.0104269E-2,1.8224418E-2,1.1747119E-3,5.102965E-3,0E0,0E0,0E0,0E0,0E0,0E0,0E0,0E0,0E0,0E0,0E0,0E0,0E0,0E0,0E0,0E0,0E0,0E0,0E0,0E0,0E0,0E0,0E0,0E0,0E0,0E0,0E0,0E0,0E0,0E0,0E0,0E0,0E0,0E0,0E0,0E0,0E0,0E0,0E0,0E0,0E0,0E0,0E0,0E0,0E0,0E0,0E0,0E0,0E0,0E0,0E0,0E0,0E0,0E0,0E0,0E0],"parents":[2147483647,0,0,1,1,2,2,3,3,4,4,5,5,6,6,7,7,8,8,9,9,10,10,11,11,12,12,13,13,14,14,15,15,16,16,17,17,18,18,19,19,20,20,21,21,22,22,23,23,24,24,25,25,26,26,27,27,29,29,30,30,31,31,32,32,33,33,34,34,35,35,36,36,37,37,38,38,39,39,40,40,41,41,42,42,43,43,44,44,45,45,46,46,47,47,48,48,49,49,50,50,51,51,53,53,54,54,56,56,57,57,58,58,59,59,60,60],"right_children":[2,4,6,8,10,12,14,16,18,20,22,24,26,28,30,32,34,36,38,40,42,44,46,48,50,52,54,56,-1,58,60,62,64,66,68,70,72,74,76,78,80,82,84,86,88,90,92,94,96,98,100,102,-1,104,106,-1,108,110,112,114,116,-1,-1,-1,-1,-1,-1,-1,-1,-1,-1,-1,-1,-1,-1,-1,-1,-1,-1,-1,-1,-1,-1,-1,-1,-1,-1,-1,-1,-1,-1,-1,-1,-1,-1,-1,-1,-1,-1,-1,-1,-1,-1,-1,-1,-1,-1,-1,-1,-1,-1,-1,-1,-1,-1,-1,-1],"split_conditions":[1.8381864E-1,-7.012852E-3,1.211837E0,-3.429587E-1,-8.127176E-1,-3.445881E-1,8.829149E-2,1.9331528E0,7.3210216E-1,-2.2005793E-1,-9.006751E-1,1.4106845E0,-9.9714905E-1,5.7229066E-1,4.8425765E0,2.7307788E-1,9.891448E-2,-1.0144404E0,9.4841254E-1,1.1216233E0,-4.758486E-2,1.0660975E-1,-1.0190299E0,2.8857644E0,2.74328E-1,3.3975527E0,-6.336486E-1,-1.7551175E0,-3.6024177E-3,-1.0767307E0,-1.2550865E-1,-5.2588063E-1,-3.9107972E-1,2.5747487E-1,1.9746231E0,4.7042713E-1,6.524052E-1,7.35062E-1,-1.1448936E0,1.6630682E-1,-5.672075E-1,-9.804888E-1,5.3317585E0,1.4025154E0,1.1921965E0,2.6821382E0,5.7367E-3,3.1743908E0,5.1417994E-1,-7.8878544E-2,-6.855898E-1,-2.761046E-1,-4.2733736E-3,2.3845074E-1,8.7508255E-1,2.7113408E-3,2.8857644E0,3.6909833E0,-1.478515E0,-1.6171011E0,-5.9792256E-1,1.5501737E-3,6.632899E-4,-3.247595E-5,6.1779644E-4,4.5580193E-4,2.1730622E-3,2.6089256E-3,4.700516E-4,-3.6506396E-4,-1.697484E-3,2.5592517E-4,1.9899716E-3,1.5087283E-3,-5.37048E-4,3.4561728E-3,-2.0177886E-3,-2.8084262E-4,4.8218964E-4,-7.0763833E-4,1.7669266E-3,1.833858E-3,4.1883567E-4,1.7396825E-3,-3.8054087E-3,-9.505786E-5,-2.4212694E-3,8.791166E-4,-1.8620673E-4,6.0940225E-4,-3.0229958E-3,-2.053327E-4,-7.651533E-4,-2.5629962E-4,-2.4620022E-3,-1.6185738E-3,-7.399222E-5,-2.3751117E-3,-4.0847454E-3,-1.2038964E-4,-1.3360423E-3,8.080785E-4,-1.7750029E-3,1.3866824E-4,1.1343978E-3,-7.472249E-4,6.574396E-4,-1.0841411E-3,-2.8899463E-3,-3.6294782E-3,2.1957149E-4,-2.7523455E-3,-1.8277472E-3,2.0615752E-4,-8.9801993E-4,-3.6597748E-6,2.3851874E-3],"split_indices":[61,27,42,59,62,42,44,47,22,53,26,26,53,9,107,80,17,52,26,85,22,47,77,101,27,102,68,22,0,94,40,49,24,87,17,17,22,39,24,58,39,85,7,24,68,7,20,22,62,23,42,9,0,22,59,0,101,96,26,5,0,0,0,0,0,0,0,0,0,0,0,0,0,0,0,0,0,0,0,0,0,0,0,0,0,0,0,0,0,0,0,0,0,0,0,0,0,0,0,0,0,0,0,0,0,0,0,0,0,0,0,0,0,0,0,0,0],"split_type":[0,0,0,0,0,0,0,0,0,0,0,0,0,0,0,0,0,0,0,0,0,0,0,0,0,0,0,0,0,0,0,0,0,0,0,0,0,0,0,0,0,0,0,0,0,0,0,0,0,0,0,0,0,0,0,0,0,0,0,0,0,0,0,0,0,0,0,0,0,0,0,0,0,0,0,0,0,0,0,0,0,0,0,0,0,0,0,0,0,0,0,0,0,0,0,0,0,0,0,0,0,0,0,0,0,0,0,0,0,0,0,0,0,0,0,0,0],"sum_hessian":[2.3149E4,1.3227E4,9.922E3,5.632E3,7.595E3,9.355E3,5.67E2,4.028E3,1.604E3,1.644E3,5.951E3,5.459E3,3.896E3,3.41E2,2.26E2,3.547E3,4.81E2,1.167E3,4.37E2,7.63E2,8.81E2,1.634E3,4.317E3,4.847E3,6.12E2,1.83E2,3.713E3,3.26E2,1.5E1,2.15E2,1.1E1,1.857E3,1.69E3,2.16E2,2.65E2,1.22E2,1.045E3,3.28E2,1.09E2,6.61E2,1.02E2,5.19E2,3.62E2,2.97E2,1.337E3,3.39E2,3.978E3,4.334E3,5.13E2,1.79E2,4.33E2,1.68E2,1.5E1,2.616E3,1.097E3,3E0,3.23E2,5.6E1,1.59E2,5E0,6E0,5.64E2,1.293E3,7.28E2,9.62E2,1.38E2,7.8E1,2.15E2,5E1,9.5E1,2.7E1,1.009E3,3.6E1,6.3E1,2.65E2,3E0,1.06E2,4.09E2,2.52E2,2.5E1,7.7E1,5.4E1,4.65E2,3.55E2,7E0,2.64E2,3.3E1,1.045E3,2.92E2,3.33E2,6E0,2.006E3,1.972E3,4.278E3,5.6E1,3.48E2,1.65E2,1.27E2,5.2E1,1.66E2,2.67E2,1.9E1,1.49E2,1.689E3,9.27E2,7.48E2,3.49E2,2.93E2,3E1,5.5E1,1E0,7.6E1,8.3E1,2E0,3E0,2E0,4E0],"tree_param":{"num_deleted":"0","num_feature":"111","num_nodes":"117","size_leaf_vector":"1"}},{"base_weights":[1.3511468E-4,5.112699E-3,-9.330136E-3,1.4813903E-2,-1.4868972E-4,-2.0533452E-2,-1.4417812E-3,2.0004801E-2,4.1937702E-3,2.1061402E-2,-1.8800148E-3,-1.5950467E-2,-4.7539826E-2,2.1591732E-2,-4.749525E-3,2.3898752E-2,6.8986067E-3,1.6988562E-3,3.7697583E-2,5.474674E-2,1.5519313E-2,5.3430106E-3,-5.1474664E-3,-1.2266533E-2,-4.884309E-2,-3.658193E-2,-6.4072505E-2,1.7387321E-2,5.7836827E-2,1.1062774E-4,-1.6018113E-2,2.0310672E-2,4.1959066E-2,8.33914E-3,-4.871892E-2,3.7238814E-3,-3.945489E-2,3.0292524E-2,1.09667495E-1,7.77698E-2,3.7524782E-2,-2.3035616E-2,1.8533679E-2,1.8809645E-2,-1.3365303E-3,4.730413E-3,-9.050617E-3,-5.184068E-2,-1.01528065E-2,-9.307203E-2,-3.8337894E-2,2.57039E-3,-3.856958E-2,-6.688779E-2,1.9082641E-2,1.3361415E-2,3.670641E-2,3.4869824E-2,8.74128E-2,5.895896E-3,-1.5918426E-2,-2.8512964E-2,-8.48441E-3,-1.2933408E-4,9.223235E-4,1.8618653E-3,1.4007387E-4,5.5508484E-4,-5.2032497E-5,5.505226E-4,-2.98517E-3,3.1863394E-5,1.1834345E-3,-2.9369364E-3,9.0449187E-4,6.047796E-4,1.7867165E-3,1.275182E-3,4.5703333E-3,3.2154846E-3,-6.954953E-4,7.815896E-4,2.9726552E-3,-1.2219596E-3,1.3358907E-3,8.2758686E-4,-1.0376439E-3,5.397915E-4,1.3668544E-3,-3.2299117E-4,5.669707E-4,9.726323E-4,-2.1698726E-4,-7.7204854E-4,-2.1386161E-4,-3.08636E-3,-1.0601649E-3,-2.5034042E-3,-3.5448404E-4,-2.1827759E-3,-4.3139043E-3,-1.6867386E-3,5.0352194E-4,-1.3610919E-3,-2.9934356E-3,-2.741326E-3,9.7146555E-4,1.5492945E-3,-2.1350957E-4,7.3489663E-4,-1.3891669E-4,2.061006E-3,-8.86427E-4,1.7930892E-3,4.4877658E-4,9.080326E-4,3.7946599E-3,-1.964926E-3,2.5885587E-4,-1.9384187E-3,-4.0036376E-4,1.0135703E-3,-1.2393871E-3,2.982762E-5,-7.563343E-4],"categories":[],"categories_nodes":[],"categories_segments":[],"categories_sizes":[],"default_left":[0,0,0,0,0,0,0,0,0,0,0,0,0,0,0,0,0,0,0,0,0,0,0,0,0,0,0,0,0,0,0,0,0,0,0,0,0,0,0,0,0,0,0,0,0,0,0,0,0,0,0,0,0,0,0,0,0,0,0,0,0,0,0,0,0,0,0,0,0,0,0,0,0,0,0,0,0,0,0,0,0,0,0,0,0,0,0,0,0,0,0,0,0,0,0,0,0,0,0,0,0,0,0,0,0,0,0,0,0,0,0,0,0,0,0,0,0,0,0,0,0,0,0,0,0],"id":5,"left_children":[1,3,5,7,9,11,13,15,17,19,21,23,25,27,29,31,33,35,37,39,41,43,45,47,49,51,53,55,57,59,61,63,65,67,69,71,73,75,77,79,81,83,85,87,89,91,93,95,97,99,101,-1,103,105,107,109,111,113,115,117,119,121,123,-1,-1,-1,-1,-1,-1,-1,-1,-1,-1,-1,-1,-1,-1,-1,-1,-1,-1,-1,-1,-1,-1,-1,-1,-1,-1,-1,-1,-1,-1,-1,-1,-1,-1,-1,-1,-1,-1,-1,-1,-1,-1,-1,-1,-1,-1,-1,-1,-1,-1,-1,-1,-1,-1,-1,-1,-1,-1,-1,-1,-1,-1],"loss_changes":[1.095827E0,7.780324E-1,7.0839024E-1,2.954024E-1,3.6299556E-1,4.0916717E-1,3.585716E-1,1.8356073E-1,1.471364E-1,1.3841897E-1,2.15716E-1,3.426876E-1,8.4614635E-2,8.905643E-2,2.253682E-1,1.7897296E-1,6.658447E-2,1.3682021E-1,6.1696753E-2,3.871447E-2,7.503933E-2,2.5611544E-1,2.426685E-1,2.126948E-1,1.2885237E-1,6.0805947E-2,4.575646E-2,4.0809035E-2,3.8387477E-2,2.6679215E-1,1.1648238E-1,1.4995027E-1,8.081609E-2,4.3047074E-2,3.5024635E-2,1.1838013E-1,1.6400175E-1,2.3753889E-2,2.8572977E-4,1.2356162E-2,3.9573178E-2,2.0948315E-2,5.768554E-2,7.6612055E-2,1.9911219E-1,3.5475552E-1,1.7117494E-1,8.070579E-2,1.6328564E-1,2.4835378E-2,4.5788288E-2,0E0,4.456684E-2,2.9267192E-2,3.5657187E-3,3.726518E-2,8.052444E-2,7.974949E-3,1.0387406E-2,6.725454E-2,1.4624114E-1,6.28131E-2,7.458002E-2,0E0,0E0,0E0,0E0,0E0,0E0,0E0,0E0,0E0,0E0,0E0,0E0,0E0,0E0,0E0,0E0,0E0,0E0,0E0,0E0,0E0,0E0,0E0,0E0,0E0,0E0,0E0,0E0,0E0,0E0,0E0,0E0,0E0,0E0,0E0,0E0,0E0,0E0,0E0,0E0,0E0,0E0,0E0,0E0,0E0,0E0,0E0,0E0,0E0,0E0,0E0,0E0,0E0,0E0,0E0,0E0,0E0,0E0,0E0,0E0,0E0,0E0],"parents":[2147483647,0,0,1,1,2,2,3,3,4,4,5,5,6,6,7,7,8,8,9,9,10,10,11,11,12,12,13,13,14,14,15,15,16,16,17,17,18,18,19,19,20,20,21,21,22,22,23,23,24,24,25,25,26,26,27,27,28,28,29,29,30,30,31,31,32,32,33,33,34,34,35,35,36,36,37,37,38,38,39,39,40,40,41,41,42,42,43,43,44,44,45,45,46,46,47,47,48,48,49,49,50,50,52,52,53,53,54,54,55,55,56,56,57,57,58,58,59,59,60,60,61,61,62,62],"right_children":[2,4,6,8,10,12,14,16,18,20,22,24,26,28,30,32,34,36,38,40,42,44,46,48,50,52,54,56,58,60,62,64,66,68,70,72,74,76,78,80,82,84,86,88,90,92,94,96,98,100,102,-1,104,106,108,110,112,114,116,118,120,122,124,-1,-1,-1,-1,-1,-1,-1,-1,-1,-1,-1,-1,-1,-1,-1,-1,-1,-1,-1,-1,-1,-1,-1,-1,-1,-1,-1,-1,-1,-1,-1,-1,-1,-1,-1,-1,-1,-1,-1,-1,-1,-1,-1,-1,-1,-1,-1,-1,-1,-1,-1,-1,-1,-1,-1,-1,-1,-1,-1,-1,-1,-1],"split_conditions":[4.9446282E-1,-7.012852E-3,9.7688144E-1,4.470293E-1,-1.6992645E0,1.2445122E0,-8.8295084E-1,-3.429587E-1,1.7580532E0,-1.624381E0,-5.539712E-1,5.564965E-1,1.3600291E0,1.0785936E0,6.0170865E-1,1.9331528E0,2.2302153E0,2.5364518E0,2.8600044E0,-4.4308078E-1,-1.478515E0,-9.445234E-1,-1.1915168E0,-1.8047618E0,-1.4182861E0,-1.6152029E0,4.8425765E0,8.2430404E-1,3.1586602E-1,-2.869465E-1,1.4565428E0,-1.1628499E0,6.695463E-1,2.791198E-1,-6.444212E-1,2.8600044E0,4.6979845E-1,-3.8379308E-2,-8.630236E-1,2.6262E0,2.9643465E-2,1.1555319E-1,8.182951E-1,6.226341E-1,4.4433784E-1,8.7769043E-1,-4.7612396E-1,-2.7984518E-1,-1.2810748E0,-6.984503E-1,3.3975527E0,2.57039E-3,1.9109158E-1,1.1145811E0,-1.9442858E-1,7.1058226E-1,-8.04916E-2,-8.075434E-1,-2.3377514E0,-2.383507E0,-1.362947E0,-1.8096749E0,5.2154535E-1,-1.2933408E-4,9.223235E-4,1.8618653E-3,1.4007387E-4,5.5508484E-4,-5.2032497E-5,5.505226E-4,-2.98517E-3,3.1863394E-5,1.1834345E-3,-2.9369364E-3,9.0449187E-4,6.047796E-4,1.7867165E-3,1.275182E-3,4.5703333E-3,3.2154846E-3,-6.954953E-4,7.815896E-4,2.9726552E-3,-1.2219596E-3,1.3358907E-3,8.2758686E-4,-1.0376439E-3,5.397915E-4,1.3668544E-3,-3.2299117E-4,5.669707E-4,9.726323E-4,-2.1698726E-4,-7.7204854E-4,-2.1386161E-4,-3.08636E-3,-1.0601649E-3,-2.5034042E-3,-3.5448404E-4,-2.1827759E-3,-4.3139043E-3,-1.6867386E-3,5.0352194E-4,-1.3610919E-3,-2.9934356E-3,-2.741326E-3,9.7146555E-4,1.5492945E-3,-2.1350957E-4,7.3489663E-4,-1.3891669E-4,2.061006E-3,-8.86427E-4,1.7930892E-3,4.4877658E-4,9.080326E-4,3.7946599E-3,-1.964926E-3,2.5885587E-4,-1.9384187E-3,-4.0036376E-4,1.0135703E-3,-1.2393871E-3,2.982762E-5,-7.563343E-4],"split_indices":[64,27,64,79,51,39,68,59,41,94,26,49,39,40,26,47,9,20,98,1,26,64,59,40,42,23,107,87,22,50,64,60,9,12,87,98,60,5,22,13,1,7,5,75,40,39,58,17,45,22,102,0,9,7,9,58,7,13,15,17,26,14,78,0,0,0,0,0,0,0,0,0,0,0,0,0,0,0,0,0,0,0,0,0,0,0,0,0,0,0,0,0,0,0,0,0,0,0,0,0,0,0,0,0,0,0,0,0,0,0,0,0,0,0,0,0,0,0,0,0,0,0,0,0,0],"split_type":[0,0,0,0,0,0,0,0,0,0,0,0,0,0,0,0,0,0,0,0,0,0,0,0,0,0,0,0,0,0,0,0,0,0,0,0,0,0,0,0,0,0,0,0,0,0,0,0,0,0,0,0,0,0,0,0,0,0,0,0,0,0,0,0,0,0,0,0,0,0,0,0,0,0,0,0,0,0,0,0,0,0,0,0,0,0,0,0,0,0,0,0,0,0,0,0,0,0,0,0,0,0,0,0,0,0,0,0,0,0,0,0,0,0,0,0,0,0,0,0,0,0,0,0,0],"sum_hessian":[2.3257E4,1.5242E4,8.015E3,5.359E3,9.883E3,3.311E3,4.704E3,3.599E3,1.76E3,7.45E2,9.138E3,2.832E3,4.79E2,5.9E2,4.114E3,2.774E3,8.25E2,1.639E3,1.21E2,1.04E2,6.41E2,2.846E3,6.292E3,2.548E3,2.84E2,2.9E2,1.89E2,5.3E2,6E1,2.875E3,1.239E3,2.316E3,4.58E2,8.05E2,2E1,1.563E3,7.6E1,1.11E2,1E1,4.3E1,6.1E1,4.6E1,5.95E2,9.43E2,1.903E3,1.782E3,4.51E3,1.28E2,2.42E3,5.3E1,2.31E2,5E0,2.85E2,1.83E2,6E0,4.4E2,9E1,3.5E1,2.5E1,2.113E3,7.62E2,4.65E2,7.74E2,2.42E2,2.074E3,4.09E2,4.9E1,5.11E2,2.94E2,6E0,1.4E1,1.405E3,1.58E2,4.9E1,2.7E1,5.5E1,5.6E1,1E0,9E0,4.2E1,1E0,4.2E1,1.9E1,4.1E1,5E0,5.68E2,2.7E1,7.02E2,2.41E2,1.327E3,5.76E2,6.08E2,1.174E3,1.196E3,3.314E3,6.3E1,6.5E1,5.7E1,2.363E3,1.6E1,3.7E1,2.15E2,1.6E1,2.55E2,3E1,1.8E2,3E0,3E0,3E0,3.39E2,1.01E2,7.2E1,1.8E1,2.4E1,1.1E1,3E0,2.2E1,2.1E1,2.092E3,1.16E2,6.46E2,2E1,4.45E2,4.11E2,3.63E2],"tree_param":{"num_deleted":"0","num_feature":"111","num_nodes":"125","size_leaf_vector":"1"}},{"base_weights":[-2.1010937E-4,4.6239765E-3,-9.450281E-3,1.4082753E-2,-4.8804542E-4,-1.6135322E-2,4.0124273E-3,4.146987E-2,1.2486594E-2,1.9394895E-2,-2.1237358E-3,-1.3265912E-2,-4.6385508E-2,1.9103726E-2,8.688745E-4,4.2920556E-2,-2.3725394E-2,1.0311166E-2,3.0474132E-2,5.211146E-2,1.3903371E-2,-3.0205334E-3,3.255127E-2,-3.4711387E-3,-2.1136984E-2,-3.519519E-2,-6.49611E-2,2.3498341E-2,-1.2470569E-2,-5.2484665E-3,1.0718659E-2,3.148409E-2,5.3671386E-2,2.2675108E-2,-4.6820614E-2,8.930697E-3,3.847227E-2,-4.4557843E-2,3.4811016E-2,5.7420965E-2,-2.0771274E-2,-2.5128212E-2,1.7319877E-2,6.6842994E-4,-1.0854284E-2,2.7342448E-2,7.590402E-2,3.2931212E-2,-5.633897E-3,-1.9087765E-2,-6.751981E-2,-2.9977623E-2,-7.460433E-2,-6.82598E-2,3.712987E-2,2.6480807E-2,-1.846371E-2,-2.1936905E-2,2.4067398E-2,-2.552405E-2,-2.9427472E-3,-8.2522206E-2,1.1607665E-2,1.4355028E-3,-3.1590476E-4,2.8793963E-3,1.6453471E-3,-2.6251339E-5,1.3867577E-3,-2.4752E-3,-6.4617425E-4,-5.2847725E-4,4.271618E-4,1.7377149E-3,-1.5924347E-3,2.4281452E-4,-2.016321E-3,1.2329471E-3,2.6439594E-3,1.539453E-3,3.0852677E-3,-1.6137947E-3,3.5554133E-4,-1.1970417E-3,1.5970913E-3,7.918816E-4,-1.1832153E-3,1.1383027E-3,-8.116877E-6,-8.7642507E-4,-1.2634891E-5,9.3710644E-4,2.4285698E-3,1.7041243E-3,4.455465E-3,7.763221E-4,2.5728713E-3,-2.013173E-4,-3.681115E-3,-1.2583351E-3,-4.808487E-4,-2.2342813E-3,-4.5288936E-3,-2.6971495E-3,-1.0325091E-3,-5.2883937E-5,-3.1715827E-3,-1.5554201E-3,-3.0212526E-3,-1.3865269E-4,2.331782E-3,5.158665E-4,1.4119385E-3,-1.8939365E-3,3.1202447E-4,-1.1773498E-3,-4.876011E-5,-6.800651E-5,2.0047328E-3,-5.737838E-4,-1.8650524E-3,-1.708271E-4,1.1684083E-3,-9.748043E-4,-3.913782E-3,9.7461656E-4,1.9417201E-4],"categories":[],"categories_nodes":[],"categories_segments":[],"categories_sizes":[],"default_left":[0,0,0,0,0,0,0,0,0,0,0,0,0,0,0,0,0,0,0,0,0,0,0,0,0,0,0,0,0,0,0,0,0,0,0,0,0,0,0,0,0,0,0,0,0,0,0,0,0,0,0,0,0,0,0,0,0,0,0,0,0,0,0,0,0,0,0,0,0,0,0,0,0,0,0,0,0,0,0,0,0,0,0,0,0,0,0,0,0,0,0,0,0,0,0,0,0,0,0,0,0,0,0,0,0,0,0,0,0,0,0,0,0,0,0,0,0,0,0,0,0,0,0,0,0,0,0],"id":6,"left_children":[1,3,5,7,9,11,13,15,17,19,21,23,25,27,29,31,33,35,37,39,41,43,45,47,49,51,53,55,57,59,61,63,65,67,69,71,73,75,77,79,81,83,85,87,89,91,93,95,97,99,101,103,105,107,109,111,113,115,117,119,121,123,125,-1,-1,-1,-1,-1,-1,-1,-1,-1,-1,-1,-1,-1,-1,-1,-1,-1,-1,-1,-1,-1,-1,-1,-1,-1,-1,-1,-1,-1,-1,-1,-1,-1,-1,-1,-1,-1,-1,-1,-1,-1,-1,-1,-1,-1,-1,-1,-1,-1,-1,-1,-1,-1,-1,-1,-1,-1,-1,-1,-1,-1,-1,-1,-1],"loss_changes":[1.0297254E0,7.318367E-1,7.1267474E-1,2.3160434E-1,3.1960568E-1,4.5864415E-1,1.2465649E-1,2.8635144E-2,1.960823E-1,1.3348436E-1,2.824542E-1,3.7260574E-1,9.291661E-2,6.3149914E-2,1.3117003E-1,3.3474267E-2,8.5630715E-3,1.7377993E-1,1.775952E-1,4.2598635E-2,8.591363E-2,2.5581607E-1,4.9636647E-2,1.698476E-1,2.5344133E-1,5.698207E-2,6.0121715E-2,5.0298795E-2,1.989728E-2,6.270987E-2,7.008958E-2,2.4735138E-2,3.0561984E-2,8.622514E-4,1.3094442E-3,1.6548443E-1,8.3054364E-2,9.1915205E-3,6.1837494E-2,3.4353018E-2,5.0029987E-3,1.742538E-2,6.913154E-2,1.4575055E-1,3.3020023E-1,2.549015E-2,2.3613065E-2,5.011612E-2,1.0519339E-1,2.2410989E-1,5.3906858E-2,3.819035E-2,1.1225536E-2,3.2519877E-2,5.357298E-3,4.4103026E-2,2.0852547E-2,6.9534667E-3,8.1404345E-3,3.165108E-2,5.1659893E-2,4.743729E-3,7.113416E-2,0E0,0E0,0E0,0E0,0E0,0E0,0E0,0E0,0E0,0E0,0E0,0E0,0E0,0E0,0E0,0E0,0E0,0E0,0E0,0E0,0E0,0E0,0E0,0E0,0E0,0E0,0E0,0E0,0E0,0E0,0E0,0E0,0E0,0E0,0E0,0E0,0E0,0E0,0E0,0E0,0E0,0E0,0E0,0E0,0E0,0E0,0E0,0E0,0E0,0E0,0E0,0E0,0E0,0E0,0E0,0E0,0E0,0E0,0E0,0E0,0E0,0E0,0E0,0E0],"parents":[2147483647,0,0,1,1,2,2,3,3,4,4,5,5,6,6,7,7,8,8,9,9,10,10,11,11,12,12,13,13,14,14,15,15,16,16,17,17,18,18,19,19,20,20,21,21,22,22,23,23,24,24,25,25,26,26,27,27,28,28,29,29,30,30,31,31,32,32,33,33,34,34,35,35,36,36,37,37,38,38,39,39,40,40,41,41,42,42,43,43,44,44,45,45,46,46,47,47,48,48,49,49,50,50,51,51,52,52,53,53,54,54,55,55,56,56,57,57,58,58,59,59,60,60,61,61,62,62],"right_children":[2,4,6,8,10,12,14,16,18,20,22,24,26,28,30,32,34,36,38,40,42,44,46,48,50,52,54,56,58,60,62,64,66,68,70,72,74,76,78,80,82,84,86,88,90,92,94,96,98,100,102,104,106,108,110,112,114,116,118,120,122,124,126,-1,-1,-1,-1,-1,-1,-1,-1,-1,-1,-1,-1,-1,-1,-1,-1,-1,-1,-1,-1,-1,-1,-1,-1,-1,-1,-1,-1,-1,-1,-1,-1,-1,-1,-1,-1,-1,-1,-1,-1,-1,-1,-1,-1,-1,-1,-1,-1,-1,-1,-1,-1,-1,-1,-1,-1,-1,-1,-1,-1,-1,-1,-1,-1],"split_conditions":[4.9446282E-1,-7.012852E-3,9.085381E-1,-2.0609117E0,-1.6992645E0,1.2445122E0,-8.246331E-1,1.7186807E0,2.8600044E0,-1.6100475E0,1.8547355E0,-2.094199E-1,1.3600291E0,1.3996913E0,-8.494413E-1,-2.1983936E-1,-7.691119E-1,2.7336786E0,-6.642553E-1,4.154604E0,-6.827786E-1,6.136219E-1,2.8600044E0,-1.3579841E0,1.1485002E0,1.9109158E-1,4.8425765E0,3.7000268E0,7.665818E-1,-1.318644E0,-5.176947E0,2.8978878E-1,-1.7367394E-1,-5.5821466E-1,1.6064892E0,-1.2201911E0,4.8425765E0,-1.5603411E0,2.9195714E0,1.1693844E0,2.5661483E-3,3.7000268E0,1.0204725E0,-1.5468479E0,2.9033417E-1,1.4206469E0,9.315762E-1,4.273521E-1,3.7167726E0,-6.4342636E-1,2.8466108E-1,-9.4708866E-1,-8.985851E-1,-1.0042958E0,-6.1549723E-1,-4.6501714E-1,-9.188542E-2,-2.0265836E-1,-1.2703992E-1,2.9109487E-1,4.881427E0,-5.383919E-1,-1.0526132E-1,1.4355028E-3,-3.1590476E-4,2.8793963E-3,1.6453471E-3,-2.6251339E-5,1.3867577E-3,-2.4752E-3,-6.4617425E-4,-5.2847725E-4,4.271618E-4,1.7377149E-3,-1.5924347E-3,2.4281452E-4,-2.016321E-3,1.2329471E-3,2.6439594E-3,1.539453E-3,3.0852677E-3,-1.6137947E-3,3.5554133E-4,-1.1970417E-3,1.5970913E-3,7.918816E-4,-1.1832153E-3,1.1383027E-3,-8.116877E-6,-8.7642507E-4,-1.2634891E-5,9.3710644E-4,2.4285698E-3,1.7041243E-3,4.455465E-3,7.763221E-4,2.5728713E-3,-2.013173E-4,-3.681115E-3,-1.2583351E-3,-4.808487E-4,-2.2342813E-3,-4.5288936E-3,-2.6971495E-3,-1.0325091E-3,-5.2883937E-5,-3.1715827E-3,-1.5554201E-3,-3.0212526E-3,-1.3865269E-4,2.331782E-3,5.158665E-4,1.4119385E-3,-1.8939365E-3,3.1202447E-4,-1.1773498E-3,-4.876011E-5,-6.800651E-5,2.0047328E-3,-5.737838E-4,-1.8650524E-3,-1.708271E-4,1.1684083E-3,-9.748043E-4,-3.913782E-3,9.7461656E-4,1.9417201E-4],"split_indices":[64,27,62,80,51,39,76,6,98,15,80,76,39,27,41,85,90,48,62,104,42,77,98,69,49,9,107,100,22,21,9,70,91,0,5,64,107,85,69,22,4,100,21,58,76,70,20,22,20,63,23,85,23,23,17,22,0,17,15,0,109,47,74,0,0,0,0,0,0,0,0,0,0,0,0,0,0,0,0,0,0,0,0,0,0,0,0,0,0,0,0,0,0,0,0,0,0,0,0,0,0,0,0,0,0,0,0,0,0,0,0,0,0,0,0,0,0,0,0,0,0,0,0,0,0,0,0],"split_type":[0,0,0,0,0,0,0,0,0,0,0,0,0,0,0,0,0,0,0,0,0,0,0,0,0,0,0,0,0,0,0,0,0,0,0,0,0,0,0,0,0,0,0,0,0,0,0,0,0,0,0,0,0,0,0,0,0,0,0,0,0,0,0,0,0,0,0,0,0,0,0,0,0,0,0,0,0,0,0,0,0,0,0,0,0,0,0,0,0,0,0,0,0,0,0,0,0,0,0,0,0,0,0,0,0,0,0,0,0,0,0,0,0,0,0,0,0,0,0,0,0,0,0,0,0,0,0],"sum_hessian":[2.3051E4,1.5134E4,7.917E3,5.309E3,9.825E3,5.29E3,2.627E3,2.91E2,5.018E3,7.46E2,9.079E3,4.833E3,4.57E2,4.52E2,2.175E3,2.85E2,6E0,4.478E3,5.4E2,1.06E2,6.4E2,8.851E3,2.28E2,2.154E3,2.679E3,2.87E2,1.7E2,3.97E2,5.5E1,1.342E3,8.33E2,1.4E2,1.45E2,2E0,4E0,4.27E3,2.08E2,2.9E1,5.11E2,9.9E1,7E0,5.1E1,5.89E2,6.018E3,2.833E3,2.05E2,2.3E1,1.2E2,2.034E3,2.567E3,1.12E2,2.55E2,3.2E1,1.65E2,5E0,3.71E2,2.6E1,4.4E1,1.1E1,1.36E2,1.206E3,7E0,8.26E2,1.26E2,1.4E1,5.7E1,8.8E1,1E0,1E0,2E0,2E0,3.12E2,3.958E3,1.96E2,1.2E1,3E0,2.6E1,4.55E2,5.6E1,5.2E1,4.7E1,4E0,3E0,4.8E1,3E0,5.6E2,2.9E1,1.82E2,5.836E3,1.382E3,1.451E3,1.85E2,2E1,1.3E1,1E1,8.5E1,3.5E1,2.021E3,1.3E1,9.32E2,1.635E3,9.1E1,2.1E1,2.4E1,2.31E2,2E0,3E1,3.4E1,1.31E2,2E0,3E0,1.47E2,2.24E2,1.2E1,1.4E1,3.2E1,1.2E1,6E0,5E0,9E1,4.6E1,1.159E3,4.7E1,2E0,5E0,2.85E2,5.41E2],"tree_param":{"num_deleted":"0","num_feature":"111","num_nodes":"127","size_leaf_vector":"1"}},{"base_weights":[1.2007317E-4,5.538215E-3,-6.984758E-3,1.21543575E-2,5.727247E-4,-4.937345E-3,-4.0043432E-2,1.690137E-2,8.972498E-5,3.9097928E-3,-1.43314805E-2,-1.12883E-2,4.1350843E-3,-6.442643E-2,-3.3330563E-2,1.8870272E-2,-9.21143E-3,-1.4455459E-3,4.2991936E-2,1.3817476E-2,-1.8120846E-3,-8.004172E-3,-4.075659E-2,-3.378587E-2,-8.001687E-3,-3.7140097E-2,5.9758225E-3,-6.839973E-2,2.577721E-2,-2.212303E-2,-5.145642E-2,1.0923293E-2,2.5753805E-2,-1.4825193E-2,2.3487521E-2,3.831183E-4,-4.5699507E-2,9.00974E-3,6.2152915E-2,6.1306744E-3,2.2118384E-2,9.6246E-3,-9.813973E-3,6.9201514E-3,-1.3933746E-2,-1.8255457E-3,-4.9579717E-2,-9.763546E-3,-5.027433E-2,-1.1222065E-2,2.5776832E-3,-3.0999122E-2,-9.277429E-2,2.2778962E-2,1.5462089E-3,-7.8517124E-2,-4.4501208E-2,2.9878618E-4,1.6637951E-3,-2.4920663E-2,3.4011044E-2,-7.688247E-2,-4.1241203E-2,6.9968705E-4,-5.1081715E-5,1.3652239E-3,7.2215573E-4,-9.913162E-4,1.6727692E-5,1.3955294E-3,-2.7142162E-3,1.8595788E-4,-4.975411E-4,-2.250521E-3,1.7531232E-3,-2.7214427E-4,2.4389268E-3,1.875935E-3,4.6588522E-3,1.1556557E-4,1.3349147E-3,7.91281E-4,2.2625453E-3,7.566123E-4,7.732666E-5,-7.814962E-4,-1.1582355E-4,9.4334123E-4,-6.7168515E-4,-4.7561014E-4,-2.2168458E-3,-1.7508051E-3,6.960511E-4,-2.311376E-3,-3.850644E-4,9.5385197E-4,-7.4695004E-4,-1.3693693E-3,-2.830914E-3,-3.4233677E-4,-1.0881148E-3,1.9159429E-3,3.6608675E-5,-6.990631E-4,-2.0715562E-3,5.618114E-4,-4.0332777E-3,1.188314E-3,6.637725E-8,3.024692E-4,-3.1560485E-4,-3.8935512E-3,-2.6410706E-3,3.6303532E-5,-2.1217486E-3,-8.948036E-4,-3.890076E-3,1.5360698E-3,-4.6136155E-4,-1.2646131E-3,-3.3469696E-3,-1.9194258E-3,6.649453E-4],"categories":[],"categories_nodes":[],"categories_segments":[],"categories_sizes":[],"default_left":[0,0,0,0,0,0,0,0,0,0,0,0,0,0,0,0,0,0,0,0,0,0,0,0,0,0,0,0,0,0,0,0,0,0,0,0,0,0,0,0,0,0,0,0,0,0,0,0,0,0,0,0,0,0,0,0,0,0,0,0,0,0,0,0,0,0,0,0,0,0,0,0,0,0,0,0,0,0,0,0,0,0,0,0,0,0,0,0,0,0,0,0,0,0,0,0,0,0,0,0,0,0,0,0,0,0,0,0,0,0,0,0,0,0,0,0,0,0,0,0,0,0,0],"id":7,"left_children":[1,3,5,7,9,11,13,15,17,19,21,23,25,27,29,31,33,35,37,39,41,43,45,47,49,51,53,55,57,59,61,63,65,67,69,71,73,75,77,79,81,83,85,87,89,91,93,95,97,99,101,103,105,107,109,111,113,-1,-1,115,117,119,121,-1,-1,-1,-1,-1,-1,-1,-1,-1,-1,-1,-1,-1,-1,-1,-1,-1,-1,-1,-1,-1,-1,-1,-1,-1,-1,-1,-1,-1,-1,-1,-1,-1,-1,-1,-1,-1,-1,-1,-1,-1,-1,-1,-1,-1,-1,-1,-1,-1,-1,-1,-1,-1,-1,-1,-1,-1,-1,-1,-1],"loss_changes":[8.9115906E-1,4.314763E-1,6.77733E-1,3.2249135E-1,3.7327763E-1,5.435628E-1,9.344149E-2,2.0793581E-1,1.0485578E-1,3.4765148E-1,2.292391E-1,4.100272E-1,2.9539174E-1,4.6563864E-2,9.230894E-2,2.0529377E-1,5.2480437E-2,1.2440021E-1,3.5252273E-2,1.4311206E-1,3.5590506E-1,9.823726E-2,9.093532E-2,2.7954572E-1,1.6502789E-1,5.3837687E-2,2.7684963E-1,2.5520861E-2,1.4267978E-3,4.5761734E-2,4.2282462E-2,1.3995129E-1,1.2922335E-1,3.689514E-2,4.6105087E-2,8.084226E-2,6.0155213E-2,1.767087E-2,2.3538768E-2,1.0295729E-1,8.5715175E-2,1.14369065E-1,1.538582E-1,1.2525608E-1,6.665571E-2,4.108471E-2,7.024908E-2,8.699232E-2,1.3534355E-1,1.5781924E-1,8.517074E-2,4.154566E-2,1.5187651E-2,1.22469366E-1,1.6723096E-1,1.3085425E-2,1.4788538E-2,0E0,0E0,4.8189178E-2,3.2425746E-3,1.2419373E-2,5.03615E-2,0E0,0E0,0E0,0E0,0E0,0E0,0E0,0E0,0E0,0E0,0E0,0E0,0E0,0E0,0E0,0E0,0E0,0E0,0E0,0E0,0E0,0E0,0E0,0E0,0E0,0E0,0E0,0E0,0E0,0E0,0E0,0E0,0E0,0E0,0E0,0E0,0E0,0E0,0E0,0E0,0E0,0E0,0E0,0E0,0E0,0E0,0E0,0E0,0E0,0E0,0E0,0E0,0E0,0E0,0E0,0E0,0E0,0E0,0E0,0E0],"parents":[2147483647,0,0,1,1,2,2,3,3,4,4,5,5,6,6,7,7,8,8,9,9,10,10,11,11,12,12,13,13,14,14,15,15,16,16,17,17,18,18,19,19,20,20,21,21,22,22,23,23,24,24,25,25,26,26,27,27,28,28,29,29,30,30,31,31,32,32,33,33,34,34,35,35,36,36,37,37,38,38,39,39,40,40,41,41,42,42,43,43,44,44,45,45,46,46,47,47,48,48,49,49,50,50,51,51,52,52,53,53,54,54,55,55,56,56,59,59,60,60,61,61,62,62],"right_children":[2,4,6,8,10,12,14,16,18,20,22,24,26,28,30,32,34,36,38,40,42,44,46,48,50,52,54,56,58,60,62,64,66,68,70,72,74,76,78,80,82,84,86,88,90,92,94,96,98,100,102,104,106,108,110,112,114,-1,-1,116,118,120,122,-1,-1,-1,-1,-1,-1,-1,-1,-1,-1,-1,-1,-1,-1,-1,-1,-1,-1,-1,-1,-1,-1,-1,-1,-1,-1,-1,-1,-1,-1,-1,-1,-1,-1,-1,-1,-1,-1,-1,-1,-1,-1,-1,-1,-1,-1,-1,-1,-1,-1,-1,-1,-1,-1,-1,-1,-1,-1,-1,-1],"split_conditions":[1.8381864E-1,-7.012852E-3,1.211837E0,-3.429587E-1,1.2284081E0,-3.445881E-1,-1.478515E0,3.7000268E0,2.7336786E0,-6.0394174E-1,6.8156356E-1,-1.0927342E0,-9.9714905E-1,4.8425765E0,5.475821E-2,-2.615824E-1,5.4436916E-1,1.9227225E0,-1.5690235E-2,-2.2005793E-1,9.918908E-2,-1.3370557E-1,3.4141576E-1,-9.4009894E-1,1.362054E-1,3.3975527E0,-7.6313555E-1,-4.1489133E-1,-2.0391732E-1,3.294014E-1,-6.093616E-1,3.3446893E-1,-2.0726722E-1,-7.7819693E-1,1.253811E0,7.3210216E-1,1.1201131E0,1.29605E0,6.736131E-1,2.8857644E0,3.7142155E0,-7.8510714E-1,4.9292913E-1,-2.6265496E-1,3.7142155E0,9.381581E-1,2.006187E0,-1.2849356E0,3.1729065E-2,1.0884603E-2,-3.8656554E-1,-4.7348842E-2,-5.904142E-1,-7.8239E-2,3.7057266E-1,-1.8957925E-1,-1.4524198E0,2.9878618E-4,1.6637951E-3,7.5612076E-2,7.127949E-1,6.0170865E-1,2.2099583E0,6.9968705E-4,-5.1081715E-5,1.3652239E-3,7.2215573E-4,-9.913162E-4,1.6727692E-5,1.3955294E-3,-2.7142162E-3,1.8595788E-4,-4.975411E-4,-2.250521E-3,1.7531232E-3,-2.7214427E-4,2.4389268E-3,1.875935E-3,4.6588522E-3,1.1556557E-4,1.3349147E-3,7.91281E-4,2.2625453E-3,7.566123E-4,7.732666E-5,-7.814962E-4,-1.1582355E-4,9.4334123E-4,-6.7168515E-4,-4.7561014E-4,-2.2168458E-3,-1.7508051E-3,6.960511E-4,-2.311376E-3,-3.850644E-4,9.5385197E-4,-7.4695004E-4,-1.3693693E-3,-2.830914E-3,-3.4233677E-4,-1.0881148E-3,1.9159429E-3,3.6608675E-5,-6.990631E-4,-2.0715562E-3,5.618114E-4,-4.0332777E-3,1.188314E-3,6.637725E-8,3.024692E-4,-3.1560485E-4,-3.8935512E-3,-2.6410706E-3,3.6303532E-5,-2.1217486E-3,-8.948036E-4,-3.890076E-3,1.5360698E-3,-4.6136155E-4,-1.2646131E-3,-3.3469696E-3,-1.9194258E-3,6.649453E-4],"split_indices":[61,27,42,59,68,42,26,100,48,62,23,45,53,107,23,24,22,7,90,53,68,42,21,77,83,102,16,94,7,21,85,73,26,59,16,22,53,22,7,101,95,26,41,22,95,23,25,57,69,47,7,11,0,45,26,90,16,0,0,22,1,26,23,0,0,0,0,0,0,0,0,0,0,0,0,0,0,0,0,0,0,0,0,0,0,0,0,0,0,0,0,0,0,0,0,0,0,0,0,0,0,0,0,0,0,0,0,0,0,0,0,0,0,0,0,0,0,0,0,0,0,0,0],"split_type":[0,0,0,0,0,0,0,0,0,0,0,0,0,0,0,0,0,0,0,0,0,0,0,0,0,0,0,0,0,0,0,0,0,0,0,0,0,0,0,0,0,0,0,0,0,0,0,0,0,0,0,0,0,0,0,0,0,0,0,0,0,0,0,0,0,0,0,0,0,0,0,0,0,0,0,0,0,0,0,0,0,0,0,0,0,0,0,0,0,0,0,0,0,0,0,0,0,0,0,0,0,0,0,0,0,0,0,0,0,0,0,0,0,0,0,0,0,0,0,0,0,0,0],"sum_hessian":[2.3148E4,1.3133E4,1.0015E4,5.63E3,7.503E3,9.432E3,5.83E2,4.04E3,1.59E3,6.131E3,1.372E3,5.548E3,3.884E3,1.24E2,4.59E2,3.757E3,2.83E2,1.536E3,5.4E1,2.244E3,3.887E3,1.108E3,2.64E2,7.06E2,4.842E3,1.65E2,3.719E3,1.19E2,5E0,2.85E2,1.74E2,1.745E3,2.012E3,2.42E2,4.1E1,1.476E3,6E1,2E1,3.4E1,1.166E3,1.078E3,1.6E3,2.287E3,3.15E2,7.93E2,4.9E1,2.15E2,2.88E2,4.18E2,3.712E3,1.13E3,1.5E2,1.5E1,7.75E2,2.944E3,8.2E1,3.7E1,3E0,2E0,2.72E2,1.3E1,4.8E1,1.26E2,1.134E3,6.11E2,9.62E2,1.05E3,1.46E2,9.6E1,3.7E1,4E0,1.108E3,3.68E2,5.4E1,6E0,1.6E1,4E0,2.8E1,6E0,1.043E3,1.23E2,1.011E3,6.7E1,7.24E2,8.76E2,9.5E2,1.337E3,1.85E2,1.3E2,7.57E2,3.6E1,1.5E1,3.4E1,1.78E2,3.7E1,6E1,2.28E2,2.36E2,1.82E2,3.183E3,5.29E2,3.9E1,1.091E3,9.2E1,5.8E1,1E0,1.4E1,5.94E2,1.81E2,1.798E3,1.146E3,3E1,5.2E1,6E0,3.1E1,2.64E2,8E0,1.2E1,1E0,7E0,4.1E1,1.13E2,1.3E1],"tree_param":{"num_deleted":"0","num_feature":"111","num_nodes":"123","size_leaf_vector":"1"}},{"base_weights":[-6.548698E-5,4.8208092E-3,-7.3933406E-3,3.859599E-3,3.6313865E-2,-5.748297E-3,-4.802823E-2,4.6739526E-2,3.1309929E-3,4.4845484E-2,3.0650084E-3,-1.1408925E-2,2.249973E-3,-1.2688451E-2,-5.240605E-2,3.8650095E-2,9.4321094E-2,7.6478967E-3,-1.7377799E-3,4.8514236E-2,-2.490904E-2,6.0173366E-2,-1.4286994E-2,-8.584033E-3,-3.407641E-2,-1.08505795E-2,8.265595E-3,-1.9335829E-2,2.9310552E-2,-7.039642E-2,-4.3542434E-2,5.963474E-2,3.1724904E-2,5.015633E-2,4.6026646E-3,8.903556E-3,-1.6133524E-2,-1.3778845E-2,3.1870431E-3,3.3922035E-2,6.7286864E-2,5.312673E-2,-6.1851174E-2,1.7325155E-2,4.8912014E-3,4.7961627E-3,-2.0353965E-2,-4.6119657E-3,-1.778444E-2,-6.4168274E-2,-2.1138221E-2,-1.2247606E-2,3.4443684E-2,2.0224242E-2,6.184842E-4,1.157022E-3,-2.4599759E-2,1.558189E-3,-3.782065E-4,-8.304027E-2,-3.9352775E-2,-2.9286174E-2,-6.2235877E-2,2.6565208E-3,8.9905625E-5,-1.1748429E-3,1.3450391E-3,3.392964E-3,5.3103623E-4,4.7067134E-4,-7.82038E-5,-2.9390617E-4,-1.2693183E-3,-1.4098443E-4,-9.633923E-4,5.5436033E-4,-3.0038493E-5,4.4089125E-4,1.8975522E-3,4.3832655E-3,2.1872746E-3,-1.524166E-3,3.1597493E-3,-2.7888897E-3,4.9461174E-4,2.7787902E-3,-9.579577E-4,-3.4836085E-5,-2.111578E-3,-5.3998407E-5,-6.0911133E-4,-1.729362E-3,-4.3963955E-4,-2.11063E-3,-3.780082E-3,-6.3596695E-4,-2.1401916E-3,2.9999284E-5,-6.529392E-4,-7.914417E-5,3.5687378E-3,5.429421E-4,1.6427749E-3,2.2674998E-4,-1.100608E-3,-2.1067564E-3,-6.5645867E-4,-2.034266E-3,-3.8731035E-3,-5.0684996E-4,-2.189125E-3,3.4372177E-4,-1.5536762E-3,-2.1895475E-3,-4.16647E-3],"categories":[],"categories_nodes":[],"categories_segments":[],"categories_sizes":[],"default_left":[0,0,0,0,0,0,0,0,0,0,0,0,0,0,0,0,0,0,0,0,0,0,0,0,0,0,0,0,0,0,0,0,0,0,0,0,0,0,0,0,0,0,0,0,0,0,0,0,0,0,0,0,0,0,0,0,0,0,0,0,0,0,0,0,0,0,0,0,0,0,0,0,0,0,0,0,0,0,0,0,0,0,0,0,0,0,0,0,0,0,0,0,0,0,0,0,0,0,0,0,0,0,0,0,0,0,0,0,0,0,0,0,0,0,0],"id":8,"left_children":[1,3,5,7,9,11,13,15,17,19,21,23,25,27,29,31,33,35,37,39,41,43,45,47,49,51,53,55,57,59,61,63,65,67,-1,69,71,73,75,77,79,81,83,85,-1,-1,87,89,91,93,95,97,99,101,103,-1,105,-1,-1,107,109,111,113,-1,-1,-1,-1,-1,-1,-1,-1,-1,-1,-1,-1,-1,-1,-1,-1,-1,-1,-1,-1,-1,-1,-1,-1,-1,-1,-1,-1,-1,-1,-1,-1,-1,-1,-1,-1,-1,-1,-1,-1,-1,-1,-1,-1,-1,-1,-1,-1,-1,-1,-1,-1],"loss_changes":[8.284448E-1,4.2005795E-1,6.184521E-1,4.207223E-1,1.16449535E-1,4.0283936E-1,5.503106E-2,8.295873E-2,2.9133838E-1,8.489162E-2,8.508996E-2,3.333205E-1,2.907335E-1,1.2013257E-2,4.796183E-2,2.6300699E-2,2.3547769E-2,2.0535088E-1,3.7814146E-1,8.2910955E-2,5.229368E-2,5.1104672E-2,5.617333E-2,1.692658E-1,2.2328949E-1,7.388677E-2,2.311708E-1,9.857166E-3,2.6115025E-3,3.755331E-2,5.6007534E-2,1.813306E-2,1.817754E-2,1.4216628E-2,0E0,2.0298368E-1,4.7050662E-2,1.9552833E-1,1.9022125E-1,5.4264024E-2,6.597978E-2,1.7169207E-2,7.87209E-3,2.9642608E-2,0E0,0E0,4.039835E-2,1.1210767E-1,2.410531E-1,5.4850996E-2,6.782514E-2,5.971682E-2,7.00023E-2,1.3613611E-1,2.193894E-1,0E0,6.7202933E-3,0E0,0E0,2.7467668E-2,1.2434136E-2,4.557924E-2,2.3530662E-2,0E0,0E0,0E0,0E0,0E0,0E0,0E0,0E0,0E0,0E0,0E0,0E0,0E0,0E0,0E0,0E0,0E0,0E0,0E0,0E0,0E0,0E0,0E0,0E0,0E0,0E0,0E0,0E0,0E0,0E0,0E0,0E0,0E0,0E0,0E0,0E0,0E0,0E0,0E0,0E0,0E0,0E0,0E0,0E0,0E0,0E0,0E0,0E0,0E0,0E0,0E0,0E0],"parents":[2147483647,0,0,1,1,2,2,3,3,4,4,5,5,6,6,7,7,8,8,9,9,10,10,11,11,12,12,13,13,14,14,15,15,16,16,17,17,18,18,19,19,20,20,21,21,22,22,23,23,24,24,25,25,26,26,27,27,28,28,29,29,30,30,31,31,32,32,33,33,35,35,36,36,37,37,38,38,39,39,40,40,41,41,42,42,43,43,46,46,47,47,48,48,49,49,50,50,51,51,52,52,53,53,54,54,56,56,59,59,60,60,61,61,62,62],"right_children":[2,4,6,8,10,12,14,16,18,20,22,24,26,28,30,32,34,36,38,40,42,44,46,48,50,52,54,56,58,60,62,64,66,68,-1,70,72,74,76,78,80,82,84,86,-1,-1,88,90,92,94,96,98,100,102,104,-1,106,-1,-1,108,110,112,114,-1,-1,-1,-1,-1,-1,-1,-1,-1,-1,-1,-1,-1,-1,-1,-1,-1,-1,-1,-1,-1,-1,-1,-1,-1,-1,-1,-1,-1,-1,-1,-1,-1,-1,-1,-1,-1,-1,-1,-1,-1,-1,-1,-1,-1,-1,-1,-1,-1,-1,-1,-1],"split_conditions":[2.7091143E-1,2.5414875E0,1.3978153E0,-9.228355E-1,1.114631E0,-3.445881E-1,-9.92154E-1,7.701217E-2,4.8539978E-2,6.0170865E-1,-1.2968926E-1,1.4106845E0,5.708972E-1,-6.045253E-2,-4.4230166E-1,-1.5177861E0,3.407727E-2,1.3266773E0,-1.8171209E-1,-9.457981E-2,-9.3168326E-2,-1.2890886E-1,-8.6947167E-1,5.1298547E-1,2.74328E-1,2.0540416E0,1.4786701E-2,-1.0122926E0,-1.7348829E-1,5.561917E-1,4.2695373E-1,2.8610234E0,-7.8898233E-1,-1.1329929E0,4.6026646E-3,5.9700435E-1,-3.9007044E-1,6.136219E-1,-5.539712E-1,2.4109516E-1,-8.389939E-1,2.3106042E-1,2.8627768E0,1.3455709E0,4.8912014E-3,4.7961627E-3,2.0051652E-1,-8.2858676E-1,-9.006751E-1,7.451609E-2,1.1120048E0,-4.6639785E-1,8.5882075E-2,4.7150177E-1,6.0170865E-1,1.157022E-3,-4.4608474E-1,1.558189E-3,-3.782065E-4,-5.886193E-1,-8.460919E-1,-9.15077E-1,2.8857644E0,2.6565208E-3,8.9905625E-5,-1.1748429E-3,1.3450391E-3,3.392964E-3,5.3103623E-4,4.7067134E-4,-7.82038E-5,-2.9390617E-4,-1.2693183E-3,-1.4098443E-4,-9.633923E-4,5.5436033E-4,-3.0038493E-5,4.4089125E-4,1.8975522E-3,4.3832655E-3,2.1872746E-3,-1.524166E-3,3.1597493E-3,-2.7888897E-3,4.9461174E-4,2.7787902E-3,-9.579577E-4,-3.4836085E-5,-2.111578E-3,-5.3998407E-5,-6.0911133E-4,-1.729362E-3,-4.3963955E-4,-2.11063E-3,-3.780082E-3,-6.3596695E-4,-2.1401916E-3,2.9999284E-5,-6.529392E-4,-7.914417E-5,3.5687378E-3,5.429421E-4,1.6427749E-3,2.2674998E-4,-1.100608E-3,-2.1067564E-3,-6.5645867E-4,-2.034266E-3,-3.8731035E-3,-5.0684996E-4,-2.189125E-3,3.4372177E-4,-1.5536762E-3,-2.1895475E-3,-4.16647E-3],"split_indices":[61,48,42,68,5,42,87,24,77,26,8,26,61,23,85,20,87,51,75,85,25,7,70,75,27,16,72,19,5,89,38,34,38,25,0,78,40,77,26,23,89,6,3,6,0,0,75,57,26,23,23,56,87,23,26,0,94,0,0,87,6,11,101,0,0,0,0,0,0,0,0,0,0,0,0,0,0,0,0,0,0,0,0,0,0,0,0,0,0,0,0,0,0,0,0,0,0,0,0,0,0,0,0,0,0,0,0,0,0,0,0,0,0,0,0],"split_type":[0,0,0,0,0,0,0,0,0,0,0,0,0,0,0,0,0,0,0,0,0,0,0,0,0,0,0,0,0,0,0,0,0,0,0,0,0,0,0,0,0,0,0,0,0,0,0,0,0,0,0,0,0,0,0,0,0,0,0,0,0,0,0,0,0,0,0,0,0,0,0,0,0,0,0,0,0,0,0,0,0,0,0,0,0,0,0,0,0,0,0,0,0,0,0,0,0,0,0,0,0,0,0,0,0,0,0,0,0,0,0,0,0,0,0],"sum_hessian":[2.3135E4,1.388E4,9.255E3,1.347E4,4.1E2,8.896E3,3.59E2,2.24E2,1.3246E4,3.26E2,8.4E1,5.209E3,3.687E3,4E1,3.19E2,1.93E2,3.1E1,6.871E3,6.375E3,3.1E2,1.6E1,1.9E1,6.5E1,4.633E3,5.76E2,1.16E3,2.527E3,3.5E1,5E0,1.03E2,2.16E2,4.6E1,1.47E2,1.1E1,2E1,6.527E3,3.44E2,1.85E3,4.525E3,1.76E2,1.34E2,5E0,1.1E1,1.2E1,7E0,2E0,6.3E1,3.237E3,1.396E3,1.72E2,4.04E2,1.126E3,3.4E1,9.85E2,1.542E3,3E0,3.2E1,4E0,1E0,7.2E1,3.1E1,1.24E2,9.2E1,4.1E1,5E0,4E0,1.43E2,5E0,6E0,5.165E3,1.362E3,2.21E2,1.23E2,9.28E2,9.22E2,1.219E3,3.306E3,6.6E1,1.1E2,2.9E1,1.05E2,1E0,4E0,1E1,1E0,5E0,7E0,4E1,2.3E1,2.477E3,7.6E2,2.93E2,1.103E3,1.27E2,4.5E1,3.49E2,5.5E1,2.69E2,8.57E2,2.1E1,1.3E1,7.48E2,2.37E2,1.308E3,2.34E2,6E0,2.6E1,2.3E1,4.9E1,1.2E1,1.9E1,2.5E1,9.9E1,8E1,1.2E1],"tree_param":{"num_deleted":"0","num_feature":"111","num_nodes":"115","size_leaf_vector":"1"}},{"base_weights":[-1.2018677E-5,4.2784633E-3,-8.279959E-3,1.3098002E-2,-4.3503116E-4,-1.9132942E-2,-1.2817781E-3,1.1126609E-2,3.3812013E-2,2.2170005E-2,-2.00488E-3,-1.4896475E-2,-3.919512E-2,1.649901E-2,-4.0205917E-3,1.5710216E-2,1.7914892E-3,3.7649475E-2,-2.4518862E-2,1.666963E-2,6.851629E-2,-3.4541439E-3,1.6285177E-2,-1.320813E-2,-8.376366E-2,-3.0805588E-2,-5.521402E-2,6.5317154E-3,2.8167324E-2,1.2744394E-3,-1.3663798E-2,4.3885976E-2,1.4090339E-2,-5.7932124E-3,1.06516145E-2,3.343197E-2,7.601604E-2,4.0689856E-2,-4.711663E-2,2.8794153E-2,2.28606E-3,8.36367E-2,-9.015344E-3,1.8414239E-3,-9.764456E-3,3.4344647E-2,1.02570625E-2,-5.1193852E-2,-1.1319255E-2,-4.5085665E-2,-9.6513934E-2,-2.6595635E-2,-7.120615E-2,-8.675048E-2,-4.8257288E-2,8.639835E-3,-4.0703975E-2,2.9896982E-2,-6.0127385E-2,2.0616949E-2,-2.7616213E-3,-5.361332E-3,-3.2264136E-2,1.3229917E-3,4.4391477E-3,6.387487E-4,-3.9882492E-4,-2.4741174E-5,-1.0190672E-3,8.1434473E-4,1.1874148E-4,1.4244434E-3,-1.1116883E-3,3.8395736E-3,1.6398844E-3,-1.1166631E-3,2.1791542E-3,-7.3642156E-4,-3.188915E-3,1.6274974E-3,4.6956356E-4,-3.8902073E-3,1.6736885E-4,3.6960861E-3,3.1303975E-4,9.420842E-4,-1.8203259E-3,-6.606076E-5,5.253948E-4,-9.182501E-4,-2.879457E-4,1.1037894E-3,2.703632E-3,5.260412E-4,-9.3236094E-4,-3.029383E-3,-1.2007429E-3,-2.8857627E-4,-1.0225857E-3,-4.998737E-4,-2.3049174E-3,-3.920605E-3,-6.092337E-4,-2.390117E-3,-9.102931E-4,-3.1592997E-3,-9.2195417E-4,-4.2941673E-3,-2.2497068E-3,-1.996983E-3,1.0532199E-3,8.513683E-5,1.0168238E-3,-2.243409E-3,6.2463095E-4,7.11711E-4,1.7024705E-3,-2.1821965E-4,-2.7988267E-3,6.5308635E-4,2.4894914E-3,1.0588283E-4,-4.7465166E-4,-1.4635411E-4,-2.1870274E-3,-1.1232645E-3,-2.2770895E-3],"categories":[],"categories_nodes":[],"categories_segments":[],"categories_sizes":[],"default_left":[0,0,0,0,0,0,0,0,0,0,0,0,0,0,0,0,0,0,0,0,0,0,0,0,0,0,0,0,0,0,0,0,0,0,0,0,0,0,0,0,0,0,0,0,0,0,0,0,0,0,0,0,0,0,0,0,0,0,0,0,0,0,0,0,0,0,0,0,0,0,0,0,0,0,0,0,0,0,0,0,0,0,0,0,0,0,0,0,0,0,0,0,0,0,0,0,0,0,0,0,0,0,0,0,0,0,0,0,0,0,0,0,0,0,0,0,0,0,0,0,0,0,0,0,0,0,0],"id":9,"left_children":[1,3,5,7,9,11,13,15,17,19,21,23,25,27,29,31,33,35,37,39,41,43,45,47,49,51,53,55,57,59,61,63,65,67,69,71,73,75,77,79,81,83,85,87,89,91,93,95,97,99,101,103,105,107,109,111,113,115,117,119,121,123,125,-1,-1,-1,-1,-1,-1,-1,-1,-1,-1,-1,-1,-1,-1,-1,-1,-1,-1,-1,-1,-1,-1,-1,-1,-1,-1,-1,-1,-1,-1,-1,-1,-1,-1,-1,-1,-1,-1,-1,-1,-1,-1,-1,-1,-1,-1,-1,-1,-1,-1,-1,-1,-1,-1,-1,-1,-1,-1,-1,-1,-1,-1,-1,-1],"loss_changes":[8.197559E-1,6.3246465E-1,5.996097E-1,2.1601087E-1,3.5192847E-1,2.624687E-1,2.3386672E-1,2.0706826E-1,1.0389066E-1,1.6302764E-1,2.4585676E-1,2.9619986E-1,7.073593E-2,7.43653E-2,2.1248256E-1,1.4753324E-1,1.07247956E-1,6.736106E-2,4.465074E-2,1.0055947E-1,8.04711E-2,2.871676E-1,7.37845E-2,1.7858097E-1,2.5731027E-2,5.8656305E-2,3.618157E-2,3.4905396E-2,4.6849936E-2,2.0982443E-1,2.2760928E-1,1.2399128E-1,1.38955E-1,8.758015E-2,5.483021E-2,5.3154886E-2,2.5441363E-2,9.088977E-3,1.9124217E-2,6.30115E-2,5.0477453E-2,3.7154227E-2,1.5333542E-2,1.8435924E-1,1.3255152E-1,3.6284298E-2,5.0041787E-2,5.904603E-2,1.3898644E-1,6.225668E-3,3.9981008E-3,3.987497E-2,1.0537624E-2,1.4076456E-2,2.0341545E-2,3.633164E-2,1.3869835E-2,4.3698847E-2,2.8471798E-3,8.182755E-2,1.0955086E-1,8.5519694E-2,4.5336425E-2,0E0,0E0,0E0,0E0,0E0,0E0,0E0,0E0,0E0,0E0,0E0,0E0,0E0,0E0,0E0,0E0,0E0,0E0,0E0,0E0,0E0,0E0,0E0,0E0,0E0,0E0,0E0,0E0,0E0,0E0,0E0,0E0,0E0,0E0,0E0,0E0,0E0,0E0,0E0,0E0,0E0,0E0,0E0,0E0,0E0,0E0,0E0,0E0,0E0,0E0,0E0,0E0,0E0,0E0,0E0,0E0,0E0,0E0,0E0,0E0,0E0,0E0,0E0,0E0],"parents":[2147483647,0,0,1,1,2,2,3,3,4,4,5,5,6,6,7,7,8,8,9,9,10,10,11,11,12,12,13,13,14,14,15,15,16,16,17,17,18,18,19,19,20,20,21,21,22,22,23,23,24,24,25,25,26,26,27,27,28,28,29,29,30,30,31,31,32,32,33,33,34,34,35,35,36,36,37,37,38,38,39,39,40,40,41,41,42,42,43,43,44,44,45,45,46,46,47,47,48,48,49,49,50,50,51,51,52,52,53,53,54,54,55,55,56,56,57,57,58,58,59,59,60,60,61,61,62,62],"right_children":[2,4,6,8,10,12,14,16,18,20,22,24,26,28,30,32,34,36,38,40,42,44,46,48,50,52,54,56,58,60,62,64,66,68,70,72,74,76,78,80,82,84,86,88,90,92,94,96,98,100,102,104,106,108,110,112,114,116,118,120,122,124,126,-1,-1,-1,-1,-1,-1,-1,-1,-1,-1,-1,-1,-1,-1,-1,-1,-1,-1,-1,-1,-1,-1,-1,-1,-1,-1,-1,-1,-1,-1,-1,-1,-1,-1,-1,-1,-1,-1,-1,-1,-1,-1,-1,-1,-1,-1,-1,-1,-1,-1,-1,-1,-1,-1,-1,-1,-1,-1,-1,-1,-1,-1,-1,-1],"split_conditions":[4.9446282E-1,-7.012852E-3,9.465578E-1,1.7580532E0,-6.9609106E-1,1.133476E0,-8.789922E-1,4.470293E-1,8.804573E-1,1.5974511E0,1.2454994E0,1.0723293E0,1.3600291E0,2.83864E-1,2.74328E-1,-1.4243153E0,3.852946E-1,2.8600044E0,7.9011315E-1,-4.928577E-1,2.5378873E0,-7.237365E-2,-3.8167048E-1,-1.8047618E0,-6.984503E-1,1.9109158E-1,-1.4959925E0,6.343821E-1,1.0204725E0,-5.4590034E-1,2.6605356E-1,1.6889803E-1,3.7000268E0,8.036317E-1,-1.1418727E-1,4.5200586E0,-5.539712E-1,4.652843E-1,7.3789775E-1,-6.708646E-1,-1.1198186E0,4.637246E-2,8.5882075E-2,-1.4941323E-1,-5.1522326E-1,5.390579E-1,3.3975527E0,-3.950465E-1,4.4997865E-1,-4.0185686E-2,1.359328E0,-9.4708866E-1,1.3937811E0,1.0167769E0,1.203239E0,5.020404E-1,1.7996473E0,-9.975807E-2,-3.9424092E-1,9.489852E-1,2.550047E-1,7.167234E-1,1.5179886E-1,1.3229917E-3,4.4391477E-3,6.387487E-4,-3.9882492E-4,-2.4741174E-5,-1.0190672E-3,8.1434473E-4,1.1874148E-4,1.4244434E-3,-1.1116883E-3,3.8395736E-3,1.6398844E-3,-1.1166631E-3,2.1791542E-3,-7.3642156E-4,-3.188915E-3,1.6274974E-3,4.6956356E-4,-3.8902073E-3,1.6736885E-4,3.6960861E-3,3.1303975E-4,9.420842E-4,-1.8203259E-3,-6.606076E-5,5.253948E-4,-9.182501E-4,-2.879457E-4,1.1037894E-3,2.703632E-3,5.260412E-4,-9.3236094E-4,-3.029383E-3,-1.2007429E-3,-2.8857627E-4,-1.0225857E-3,-4.998737E-4,-2.3049174E-3,-3.920605E-3,-6.092337E-4,-2.390117E-3,-9.102931E-4,-3.1592997E-3,-9.2195417E-4,-4.2941673E-3,-2.2497068E-3,-1.996983E-3,1.0532199E-3,8.513683E-5,1.0168238E-3,-2.243409E-3,6.2463095E-4,7.11711E-4,1.7024705E-3,-2.1821965E-4,-2.7988267E-3,6.5308635E-4,2.4894914E-3,1.0588283E-4,-4.7465166E-4,-1.4635411E-4,-2.1870274E-3,-1.1232645E-3,-2.2770895E-3],"split_indices":[64,27,64,41,68,39,68,79,9,22,80,49,39,56,27,48,71,98,5,19,23,56,49,40,22,9,14,21,21,76,49,24,100,22,46,0,26,0,13,69,12,19,87,53,73,12,102,17,74,13,0,85,31,38,8,87,22,22,0,17,26,8,21,0,0,0,0,0,0,0,0,0,0,0,0,0,0,0,0,0,0,0,0,0,0,0,0,0,0,0,0,0,0,0,0,0,0,0,0,0,0,0,0,0,0,0,0,0,0,0,0,0,0,0,0,0,0,0,0,0,0,0,0,0,0,0,0],"split_type":[0,0,0,0,0,0,0,0,0,0,0,0,0,0,0,0,0,0,0,0,0,0,0,0,0,0,0,0,0,0,0,0,0,0,0,0,0,0,0,0,0,0,0,0,0,0,0,0,0,0,0,0,0,0,0,0,0,0,0,0,0,0,0,0,0,0,0,0,0,0,0,0,0,0,0,0,0,0,0,0,0,0,0,0,0,0,0,0,0,0,0,0,0,0,0,0,0,0,0,0,0,0,0,0,0,0,0,0,0,0,0,0,0,0,0,0,0,0,0,0,0,0,0,0,0,0,0],"sum_hessian":[2.3107E4,1.5213E4,7.894E3,5.298E3,9.915E3,3.094E3,4.8E3,4.839E3,4.59E2,6.43E2,9.272E3,2.556E3,5.38E2,6.4E2,4.16E3,3.245E3,1.594E3,4.31E2,2.8E1,5.76E2,6.7E1,8.592E3,6.8E2,2.496E3,6E1,3.55E2,1.83E2,3.46E2,2.94E2,2.686E3,1.474E3,1.75E2,3.07E3,8.59E2,7.35E2,3.9E2,4.1E1,7E0,2.1E1,3.12E2,2.64E2,5.6E1,1.1E1,4.672E3,3.92E3,1.69E2,5.11E2,1.17E2,2.379E3,1.6E1,4.4E1,3.23E2,3.2E1,3.1E1,1.52E2,3.32E2,1.4E1,2.89E2,5E0,4.63E2,2.223E3,1.02E3,4.54E2,1.52E2,2.3E1,2.848E3,2.22E2,6.81E2,1.78E2,3.24E2,4.11E2,3.77E2,1.3E1,2.5E1,1.6E1,1E0,6E0,1.2E1,9E0,1.83E2,1.29E2,4E0,2.6E2,5E1,6E0,6E0,5E0,3.569E3,1.103E3,6.37E2,3.283E3,1.42E2,2.7E1,4.71E2,4E1,5.3E1,6.4E1,1.848E3,5.31E2,5E0,1.1E1,4.3E1,1E0,3.2E1,2.91E2,2.7E1,5E0,1.7E1,1.4E1,1.49E2,3E0,2.4E2,9.2E1,1.1E1,3E0,1.49E2,1.4E2,1E0,4E0,4.21E2,4.2E1,1.395E3,8.28E2,9.87E2,3.3E1,3.9E2,6.4E1],"tree_param":{"num_deleted":"0","num_feature":"111","num_nodes":"127","size_leaf_vector":"1"}},{"base_weights":[1.8676263E-5,4.0639904E-3,-7.411515E-3,-1.2087695E-3,1.1546256E-2,-1.6608102E-2,-6.8158505E-4,-3.3813787E-3,1.2613623E-2,-1.7370356E-2,1.3007112E-2,-2.2019732E-3,-2.3213293E-2,1.0015715E-2,-4.7376803E-3,1.0683678E-2,-5.280129E-3,-8.811403E-3,1.9503228E-2,-2.9030807E-2,3.223559E-2,4.4983428E-2,1.1783652E-2,4.1881046E-4,-3.7836123E-2,-5.42545E-2,-1.995407E-2,2.7997296E-3,2.6006266E-2,-1.4316294E-2,1.5093185E-3,4.0540766E-2,6.1265463E-3,3.7142236E-3,-8.822597E-3,3.5614646E-3,-4.7748435E-2,-3.4207625E-3,2.2633547E-2,-3.783865E-2,-1.6862642E-2,-1.6356448E-2,3.93656E-2,5.3082164E-2,1.5847567E-3,4.6693087E-2,1.0660527E-2,8.938419E-3,-8.990984E-3,-1.0124075E-2,-6.113826E-2,-6.703113E-2,-1.4008952E-2,-1.4613413E-2,-3.9004676E-2,1.6766412E-2,-6.897302E-3,1.878934E-2,5.5184253E-2,4.5824125E-3,-1.945693E-2,1.9811654E-2,-8.469567E-4,1.1159849E-3,2.9614803E-3,7.331591E-5,1.1735782E-3,-1.5636465E-3,2.4440812E-4,4.024844E-4,-4.1430717E-4,-5.0206244E-4,9.4178825E-4,-2.2260693E-3,2.0946143E-4,-4.91437E-4,7.71258E-4,1.0860398E-3,2.6204647E-4,-8.3357445E-4,-2.1718952E-3,2.3043991E-4,-1.207096E-3,2.6479407E-4,-1.6395084E-3,-1.2547521E-4,1.8543024E-3,1.384636E-3,2.9139437E-3,-2.0080484E-3,6.529659E-4,1.4237602E-3,3.554698E-3,4.6816157E-4,-1.4264483E-3,2.5144636E-3,2.8536268E-4,-1.095274E-3,-8.825329E-5,-1.3268257E-3,1.0726044E-3,-2.569513E-4,-3.0726355E-3,-2.2173023E-3,-3.711205E-3,-2.1415362E-3,-2.0444201E-4,-5.5912853E-4,-5.2003018E-3,-1.1864468E-3,-2.1474275E-3,8.1301254E-4,-8.144489E-5,-5.896652E-4,3.6225628E-4,2.2147982E-3,5.660609E-4,1.3060141E-3,3.361929E-3,4.5189456E-4,-1.1042682E-3,-9.918124E-4,-1.558407E-5,-2.2455139E-4,1.0685496E-3,1.9738642E-5,-1.0220084E-3],"categories":[],"categories_nodes":[],"categories_segments":[],"categories_sizes":[],"default_left":[0,0,0,0,0,0,0,0,0,0,0,0,0,0,0,0,0,0,0,0,0,0,0,0,0,0,0,0,0,0,0,0,0,0,0,0,0,0,0,0,0,0,0,0,0,0,0,0,0,0,0,0,0,0,0,0,0,0,0,0,0,0,0,0,0,0,0,0,0,0,0,0,0,0,0,0,0,0,0,0,0,0,0,0,0,0,0,0,0,0,0,0,0,0,0,0,0,0,0,0,0,0,0,0,0,0,0,0,0,0,0,0,0,0,0,0,0,0,0,0,0,0,0,0,0,0,0],"id":10,"left_children":[1,3,5,7,9,11,13,15,17,19,21,23,25,27,29,31,33,35,37,39,41,43,45,47,49,51,53,55,57,59,61,63,65,67,69,71,73,75,77,79,81,83,85,87,89,91,93,95,97,99,101,103,105,107,109,111,113,115,117,119,121,123,125,-1,-1,-1,-1,-1,-1,-1,-1,-1,-1,-1,-1,-1,-1,-1,-1,-1,-1,-1,-1,-1,-1,-1,-1,-1,-1,-1,-1,-1,-1,-1,-1,-1,-1,-1,-1,-1,-1,-1,-1,-1,-1,-1,-1,-1,-1,-1,-1,-1,-1,-1,-1,-1,-1,-1,-1,-1,-1,-1,-1,-1,-1,-1,-1],"loss_changes":[6.925239E-1,5.8856165E-1,5.0267863E-1,2.62871E-1,2.6073867E-1,3.2652175E-1,2.0358652E-1,2.0206082E-1,1.7568009E-1,1.7272884E-1,2.2915381E-1,1.0087639E-1,2.3697078E-1,1.4877716E-1,2.0358908E-1,1.2220805E-1,2.1239436E-1,1.3988125E-1,6.466088E-2,2.5191188E-2,2.039221E-2,7.583436E-2,2.212606E-1,8.08093E-2,4.7166534E-2,1.13728106E-1,2.162438E-1,1.206531E-1,8.3403885E-2,1.3056344E-1,8.885498E-2,4.8322648E-2,7.7886656E-2,1.934635E-1,1.3873246E-1,7.145543E-2,2.960436E-2,2.2174101E-2,5.736199E-2,3.7758827E-2,3.120037E-2,4.7988147E-3,1.5004203E-2,6.3910484E-2,2.7534768E-2,7.9221874E-2,2.653541E-1,5.1021323E-2,5.9707116E-2,3.0685727E-2,3.3818275E-2,4.5329094E-2,1.907147E-2,1.2029767E-1,6.232983E-2,2.4465874E-2,6.596037E-2,5.401475E-2,4.863882E-2,6.256262E-2,1.07479215E-1,4.138977E-2,6.0476586E-2,0E0,0E0,0E0,0E0,0E0,0E0,0E0,0E0,0E0,0E0,0E0,0E0,0E0,0E0,0E0,0E0,0E0,0E0,0E0,0E0,0E0,0E0,0E0,0E0,0E0,0E0,0E0,0E0,0E0,0E0,0E0,0E0,0E0,0E0,0E0,0E0,0E0,0E0,0E0,0E0,0E0,0E0,0E0,0E0,0E0,0E0,0E0,0E0,0E0,0E0,0E0,0E0,0E0,0E0,0E0,0E0,0E0,0E0,0E0,0E0,0E0,0E0,0E0,0E0],"parents":[2147483647,0,0,1,1,2,2,3,3,4,4,5,5,6,6,7,7,8,8,9,9,10,10,11,11,12,12,13,13,14,14,15,15,16,16,17,17,18,18,19,19,20,20,21,21,22,22,23,23,24,24,25,25,26,26,27,27,28,28,29,29,30,30,31,31,32,32,33,33,34,34,35,35,36,36,37,37,38,38,39,39,40,40,41,41,42,42,43,43,44,44,45,45,46,46,47,47,48,48,49,49,50,50,51,51,52,52,53,53,54,54,55,55,56,56,57,57,58,58,59,59,60,60,61,61,62,62],"right_children":[2,4,6,8,10,12,14,16,18,20,22,24,26,28,30,32,34,36,38,40,42,44,46,48,50,52,54,56,58,60,62,64,66,68,70,72,74,76,78,80,82,84,86,88,90,92,94,96,98,100,102,104,106,108,110,112,114,116,118,120,122,124,126,-1,-1,-1,-1,-1,-1,-1,-1,-1,-1,-1,-1,-1,-1,-1,-1,-1,-1,-1,-1,-1,-1,-1,-1,-1,-1,-1,-1,-1,-1,-1,-1,-1,-1,-1,-1,-1,-1,-1,-1,-1,-1,-1,-1,-1,-1,-1,-1,-1,-1,-1,-1,-1,-1,-1,-1,-1,-1,-1,-1,-1,-1,-1,-1],"split_conditions":[4.5862466E-1,-1.3694625E-1,9.7688144E-1,1.5928261E0,-1.7335489E0,-3.316493E-1,-5.1488066E-1,-6.3446933E-1,8.406765E-1,1.591308E0,-1.264299E0,3.7142155E0,-1.6992645E0,3.4434327E-1,8.8534003E-1,-7.037808E-1,-5.539712E-1,3.3082098E-1,-5.697918E-1,-2.745873E-1,-1.1918662E0,1.78757E0,-1.4243153E0,-9.3879396E-1,-4.9447358E-1,1.3963664E0,1.2445122E0,-9.618671E-1,5.93852E-1,-1.1727636E0,-9.603885E-1,3.7417185E-1,8.6584723E-1,-9.0110046E-1,-9.932128E-1,1.6250662E0,1.9359193E0,1.5400434E0,1.253811E0,-4.4627285E-1,-2.0008497E-1,-1.0323832E0,-7.4500126E-1,-2.4611184E-1,-9.742447E-1,1.4687554E0,3.8109784E0,-2.6620197E0,-2.510704E-1,-5.815885E-1,-2.908976E0,3.40815E-2,-1.1513858E0,3.6546474E0,5.475821E-2,7.427901E-1,3.6162663E-1,-8.9204913E-1,3.467003E-1,3.294014E-1,-2.1904637E-1,-1.131811E0,1.9682992E0,1.1159849E-3,2.9614803E-3,7.331591E-5,1.1735782E-3,-1.5636465E-3,2.4440812E-4,4.024844E-4,-4.1430717E-4,-5.0206244E-4,9.4178825E-4,-2.2260693E-3,2.0946143E-4,-4.91437E-4,7.71258E-4,1.0860398E-3,2.6204647E-4,-8.3357445E-4,-2.1718952E-3,2.3043991E-4,-1.207096E-3,2.6479407E-4,-1.6395084E-3,-1.2547521E-4,1.8543024E-3,1.384636E-3,2.9139437E-3,-2.0080484E-3,6.529659E-4,1.4237602E-3,3.554698E-3,4.6816157E-4,-1.4264483E-3,2.5144636E-3,2.8536268E-4,-1.095274E-3,-8.825329E-5,-1.3268257E-3,1.0726044E-3,-2.569513E-4,-3.0726355E-3,-2.2173023E-3,-3.711205E-3,-2.1415362E-3,-2.0444201E-4,-5.5912853E-4,-5.2003018E-3,-1.1864468E-3,-2.1474275E-3,8.1301254E-4,-8.144489E-5,-5.896652E-4,3.6225628E-4,2.2147982E-3,5.660609E-4,1.3060141E-3,3.361929E-3,4.5189456E-4,-1.1042682E-3,-9.918124E-4,-1.558407E-5,-2.2455139E-4,1.0685496E-3,1.9738642E-5,-1.0220084E-3],"split_indices":[64,53,64,43,78,79,76,21,39,41,64,95,51,42,62,48,26,4,0,16,11,19,48,43,77,28,39,42,22,42,63,90,4,52,78,41,25,69,16,13,22,6,12,85,87,22,56,13,7,78,42,23,18,21,23,6,22,85,90,21,45,26,23,0,0,0,0,0,0,0,0,0,0,0,0,0,0,0,0,0,0,0,0,0,0,0,0,0,0,0,0,0,0,0,0,0,0,0,0,0,0,0,0,0,0,0,0,0,0,0,0,0,0,0,0,0,0,0,0,0,0,0,0,0,0,0,0],"split_type":[0,0,0,0,0,0,0,0,0,0,0,0,0,0,0,0,0,0,0,0,0,0,0,0,0,0,0,0,0,0,0,0,0,0,0,0,0,0,0,0,0,0,0,0,0,0,0,0,0,0,0,0,0,0,0,0,0,0,0,0,0,0,0,0,0,0,0,0,0,0,0,0,0,0,0,0,0,0,0,0,0,0,0,0,0,0,0,0,0,0,0,0,0,0,0,0,0,0,0,0,0,0,0,0,0,0,0,0,0,0,0,0,0,0,0,0,0,0,0,0,0,0,0,0,0,0,0],"sum_hessian":[2.3038E4,1.4917E4,8.121E3,8.751E3,6.166E3,3.431E3,4.69E3,7.563E3,1.188E3,2.96E2,5.87E3,1.079E3,2.352E3,1.289E3,3.401E3,8.99E2,6.664E3,2.89E2,8.99E2,2.4E2,5.6E1,2.15E2,5.655E3,1.006E3,7.3E1,2.22E2,2.13E3,8.89E2,4E2,1.342E3,2.059E3,1.18E2,7.81E2,1.883E3,4.781E3,2.2E2,6.9E1,1.08E2,7.91E2,1.38E2,1.02E2,7E0,4.9E1,1.81E2,3.4E1,1.75E2,5.48E3,5.28E2,4.78E2,3.4E1,3.9E1,1.68E2,5.4E1,1.665E3,4.65E2,3.64E2,5.25E2,3.22E2,7.8E1,2.87E2,1.055E3,2.34E2,1.825E3,8.7E1,3.1E1,6.6E2,1.21E2,9.9E1,1.784E3,3.59E2,4.422E3,1.22E2,9.8E1,6E1,9E0,7.8E1,3E1,6.17E2,1.74E2,6.9E1,6.9E1,3.8E1,6.4E1,4E0,3E0,7E0,4.2E1,9.5E1,8.6E1,7E0,2.7E1,1.4E2,3.5E1,5.36E3,1.2E2,1.6E1,5.12E2,1.28E2,3.5E2,2.1E1,1.3E1,9E0,3E1,1.18E2,5E1,9E0,4.5E1,1.657E3,8E0,2.86E2,1.79E2,3.06E2,5.8E1,3.52E2,1.73E2,3.5E1,2.87E2,4.5E1,3.3E1,2.38E2,4.9E1,8.24E2,2.31E2,5E1,1.84E2,1.732E3,9.3E1],"tree_param":{"num_deleted":"0","num_feature":"111","num_nodes":"127","size_leaf_vector":"1"}},{"base_weights":[3.9893952E-5,4.2438535E-3,-7.4956063E-3,-5.581571E-4,1.1312346E-2,1.7741386E-2,-9.818985E-3,8.782988E-3,-3.6243042E-3,4.582363E-2,1.0306022E-2,1.3237201E-2,3.9431915E-2,-7.645269E-3,-3.051168E-2,-4.4268E-2,1.0232292E-2,1.7500173E-2,-4.9129156E-3,3.378163E-2,8.787127E-2,1.140075E-2,-2.6506882E-2,1.5184261E-2,-2.5481382E-2,1.111517E-1,2.958749E-2,-6.73973E-3,-6.093349E-2,-5.101661E-2,-2.338917E-2,-2.5683034E-2,-9.144835E-2,1.7055865E-2,2.0063743E-3,6.569169E-2,1.1174947E-2,-7.4659875E-3,5.519592E-3,6.0005464E-2,2.6535882E-2,9.241545E-2,1.0911135E-3,9.431508E-3,2.9905848E-2,-3.0619234E-2,5.455489E-3,2.6117565E-2,8.662552E-3,-7.701999E-2,-7.92449E-3,1.21700406E-1,1.2762531E-3,3.624798E-2,-4.6225324E-2,-9.1113625E-3,6.3188057E-3,-4.2279936E-2,-7.8214854E-2,-5.367993E-2,3.694176E-2,-1.6388861E-2,-4.335825E-2,1.474605E-4,-1.5413088E-3,-4.162737E-3,-1.10284E-3,2.4926296E-4,1.0044649E-3,-5.798739E-4,3.1192906E-4,3.4717284E-4,3.4720036E-3,4.9286737E-5,1.3539186E-3,-2.5348016E-4,-1.2681244E-3,5.9196725E-5,1.291306E-3,1.373944E-3,2.9834583E-3,9.482602E-4,3.710335E-3,1.5552359E-3,3.9302944E-3,4.9073197E-4,-3.7486266E-4,1.3985682E-3,-1.8805586E-4,-5.5996125E-4,-1.4980227E-3,1.2787442E-3,-9.701794E-4,8.486313E-4,2.1601638E-3,2.8520377E-4,3.772536E-3,-1.781202E-4,-4.206247E-3,8.661518E-4,-1.0549227E-3,1.6951687E-3,5.333069E-3,1.608487E-3,-1.8211424E-3,-2.6400967E-3,-2.0013379E-4,-3.0513512E-4,-1.1289135E-3,6.8993504E-5,1.2260287E-3,-3.5973713E-3,-1.2588447E-3,-1.4726735E-3,-3.4428968E-3,-2.6842686E-3,-1.5078392E-3,4.1777085E-4,1.9031775E-3,-1.216018E-4,-1.0716359E-3,-9.907342E-4,-3.1079322E-3],"categories":[],"categories_nodes":[],"categories_segments":[],"categories_sizes":[],"default_left":[0,0,0,0,0,0,0,0,0,0,0,0,0,0,0,0,0,0,0,0,0,0,0,0,0,0,0,0,0,0,0,0,0,0,0,0,0,0,0,0,0,0,0,0,0,0,0,0,0,0,0,0,0,0,0,0,0,0,0,0,0,0,0,0,0,0,0,0,0,0,0,0,0,0,0,0,0,0,0,0,0,0,0,0,0,0,0,0,0,0,0,0,0,0,0,0,0,0,0,0,0,0,0,0,0,0,0,0,0,0,0,0,0,0,0,0,0,0,0,0,0,0,0],"id":11,"left_children":[1,3,5,7,9,11,13,15,17,19,21,23,25,27,29,31,33,35,37,39,41,43,45,47,49,51,53,55,57,59,61,63,65,67,69,71,73,75,77,79,81,83,-1,85,87,89,91,93,95,97,99,101,-1,103,105,107,109,111,113,115,117,119,121,-1,-1,-1,-1,-1,-1,-1,-1,-1,-1,-1,-1,-1,-1,-1,-1,-1,-1,-1,-1,-1,-1,-1,-1,-1,-1,-1,-1,-1,-1,-1,-1,-1,-1,-1,-1,-1,-1,-1,-1,-1,-1,-1,-1,-1,-1,-1,-1,-1,-1,-1,-1,-1,-1,-1,-1,-1,-1,-1,-1],"loss_changes":[7.289325E-1,5.013441E-1,4.833273E-1,2.5196096E-1,2.0703655E-1,6.737824E-2,3.3918607E-1,1.676052E-1,1.8037231E-1,8.260262E-2,2.3432481E-1,4.3885462E-2,8.073005E-2,3.291678E-1,1.0352212E-1,4.850837E-2,1.1879332E-1,1.15403175E-1,1.6632311E-1,2.3679212E-2,7.667005E-3,2.0524526E-1,2.2249043E-2,3.899087E-2,2.4725674E-2,7.820085E-3,5.5200316E-2,2.0808336E-1,3.344196E-2,4.508707E-2,7.393715E-2,1.6369803E-2,1.00289285E-2,1.0073149E-1,9.1969505E-2,5.2198008E-2,7.6154575E-2,1.370534E-1,1.3271627E-1,7.912934E-3,1.766207E-2,6.81293E-3,0E0,2.720977E-1,9.504455E-2,1.6392902E-2,1.6529461E-2,2.6876464E-2,4.474219E-2,1.3824049E-2,1.25759775E-2,5.416274E-3,0E0,3.3600286E-2,7.007027E-3,1.60909E-1,1.15415886E-1,2.6529633E-2,1.5697807E-2,3.588611E-2,1.1942973E-3,5.5043943E-2,8.617169E-2,0E0,0E0,0E0,0E0,0E0,0E0,0E0,0E0,0E0,0E0,0E0,0E0,0E0,0E0,0E0,0E0,0E0,0E0,0E0,0E0,0E0,0E0,0E0,0E0,0E0,0E0,0E0,0E0,0E0,0E0,0E0,0E0,0E0,0E0,0E0,0E0,0E0,0E0,0E0,0E0,0E0,0E0,0E0,0E0,0E0,0E0,0E0,0E0,0E0,0E0,0E0,0E0,0E0,0E0,0E0,0E0,0E0,0E0,0E0,0E0],"parents":[2147483647,0,0,1,1,2,2,3,3,4,4,5,5,6,6,7,7,8,8,9,9,10,10,11,11,12,12,13,13,14,14,15,15,16,16,17,17,18,18,19,19,20,20,21,21,22,22,23,23,24,24,25,25,26,26,27,27,28,28,29,29,30,30,31,31,32,32,33,33,34,34,35,35,36,36,37,37,38,38,39,39,40,40,41,41,43,43,44,44,45,45,46,46,47,47,48,48,49,49,50,50,51,51,53,53,54,54,55,55,56,56,57,57,58,58,59,59,60,60,61,61,62,62],"right_children":[2,4,6,8,10,12,14,16,18,20,22,24,26,28,30,32,34,36,38,40,42,44,46,48,50,52,54,56,58,60,62,64,66,68,70,72,74,76,78,80,82,84,-1,86,88,90,92,94,96,98,100,102,-1,104,106,108,110,112,114,116,118,120,122,-1,-1,-1,-1,-1,-1,-1,-1,-1,-1,-1,-1,-1,-1,-1,-1,-1,-1,-1,-1,-1,-1,-1,-1,-1,-1,-1,-1,-1,-1,-1,-1,-1,-1,-1,-1,-1,-1,-1,-1,-1,-1,-1,-1,-1,-1,-1,-1,-1,-1,-1,-1,-1,-1,-1,-1,-1,-1,-1,-1],"split_conditions":[4.5035496E-1,-1.3694625E-1,-8.789922E-1,-6.6953915E-1,-1.4243153E0,8.2430404E-1,-3.7669414E-1,-1.194706E0,-8.2283735E-1,1.4687554E0,3.8109784E0,1.4643055E0,-7.722382E-1,1.2404143E0,-1.0318136E0,3.263208E-1,1.6381544E-1,-1.8778895E0,1.4519044E0,-1.9285679E0,4.2520366E0,1.7424799E0,1.3852628E0,-9.7419095E-1,-2.7540648E-1,2.8610234E0,6.114955E-1,-1.3110471E-1,-1.0162431E0,4.8425765E0,9.4429815E-1,-9.3537426E-1,7.719247E-1,-2.41277E-1,-6.4471805E-1,-6.984503E-1,3.7142155E0,1.4708833E0,1.1323205E0,-3.5711503E-1,4.881427E0,-1.002706E0,1.0911135E-3,1.1847769E0,1.9746231E0,-5.072253E-1,-5.606534E-1,-4.4820392E-1,1.8196063E0,-6.444098E-2,-1.8694898E-1,-9.3266606E-1,1.2762531E-3,1.861687E0,4.4398236E-1,2.1489057E-1,-5.17181E-1,-1.0505041E0,-1.1129445E0,4.7638234E-1,-5.9792256E-1,7.1727663E-1,-1.8166332E-1,1.474605E-4,-1.5413088E-3,-4.162737E-3,-1.10284E-3,2.4926296E-4,1.0044649E-3,-5.798739E-4,3.1192906E-4,3.4717284E-4,3.4720036E-3,4.9286737E-5,1.3539186E-3,-2.5348016E-4,-1.2681244E-3,5.9196725E-5,1.291306E-3,1.373944E-3,2.9834583E-3,9.482602E-4,3.710335E-3,1.5552359E-3,3.9302944E-3,4.9073197E-4,-3.7486266E-4,1.3985682E-3,-1.8805586E-4,-5.5996125E-4,-1.4980227E-3,1.2787442E-3,-9.701794E-4,8.486313E-4,2.1601638E-3,2.8520377E-4,3.772536E-3,-1.781202E-4,-4.206247E-3,8.661518E-4,-1.0549227E-3,1.6951687E-3,5.333069E-3,1.608487E-3,-1.8211424E-3,-2.6400967E-3,-2.0013379E-4,-3.0513512E-4,-1.1289135E-3,6.8993504E-5,1.2260287E-3,-3.5973713E-3,-1.2588447E-3,-1.4726735E-3,-3.4428968E-3,-2.6842686E-3,-1.5078392E-3,4.1777085E-4,1.9031775E-3,-1.216018E-4,-1.0716359E-3,-9.907342E-4,-3.1079322E-3],"split_indices":[64,53,68,26,48,87,57,41,21,22,56,13,8,49,48,22,42,50,57,94,105,47,22,20,42,34,8,43,26,107,22,22,90,24,52,22,95,47,85,9,109,24,0,41,17,1,17,19,17,22,90,51,0,19,9,47,53,21,22,89,0,26,94,0,0,0,0,0,0,0,0,0,0,0,0,0,0,0,0,0,0,0,0,0,0,0,0,0,0,0,0,0,0,0,0,0,0,0,0,0,0,0,0,0,0,0,0,0,0,0,0,0,0,0,0,0,0,0,0,0,0,0,0],"split_type":[0,0,0,0,0,0,0,0,0,0,0,0,0,0,0,0,0,0,0,0,0,0,0,0,0,0,0,0,0,0,0,0,0,0,0,0,0,0,0,0,0,0,0,0,0,0,0,0,0,0,0,0,0,0,0,0,0,0,0,0,0,0,0,0,0,0,0,0,0,0,0,0,0,0,0,0,0,0,0,0,0,0,0,0,0,0,0,0,0,0,0,0,0,0,0,0,0,0,0,0,0,0,0,0,0,0,0,0,0,0,0,0,0,0,0,0,0,0,0,0,0,0,0],"sum_hessian":[2.3008E4,1.4769E4,8.239E3,8.795E3,5.974E3,6.94E2,7.545E3,2.173E3,6.622E3,1.68E2,5.806E3,5.76E2,1.18E2,6.829E3,7.16E2,5.7E1,2.116E3,3.8E2,6.242E3,1.32E2,3.6E1,5.639E3,1.67E2,5.49E2,2.7E1,1.3E1,1.05E2,6.716E3,1.13E2,1.83E2,5.33E2,4.2E1,1.5E1,1.156E3,9.6E2,4.3E1,3.37E2,5.015E3,1.227E3,2.7E1,1.05E2,3.3E1,3E0,5.098E3,5.41E2,1.48E2,1.9E1,2.04E2,3.45E2,6E0,2.1E1,1.1E1,2E0,9.7E1,8E0,5.684E3,1.032E3,5.6E1,5.7E1,1.78E2,5E0,3.96E2,1.37E2,1.3E1,2.9E1,1.2E1,3E0,4.94E2,6.62E2,2.49E2,7.11E2,1.2E1,3.1E1,2.35E2,1.02E2,4.793E3,2.22E2,1.067E3,1.6E2,1.1E1,1.6E1,1.02E2,3E0,4E0,2.9E1,4.43E3,6.68E2,4.72E2,6.9E1,4.4E1,1.04E2,1E1,9E0,1.75E2,2.9E1,3.4E2,5E0,2E0,4E0,8E0,1.3E1,2E0,9E0,9.3E1,4E0,5E0,3E0,5.276E3,4.08E2,8.69E2,1.63E2,9E0,4.7E1,1E1,4.7E1,9.5E1,8.3E1,2E0,3E0,1.74E2,2.22E2,9E1,4.7E1],"tree_param":{"num_deleted":"0","num_feature":"111","num_nodes":"123","size_leaf_vector":"1"}},{"base_weights":[-2.6810367E-4,-1.6291481E-3,1.709811E-2,2.5551496E-2,-2.356833E-3,2.1908201E-2,-4.881546E-3,2.0814177E-2,5.2912768E-2,-6.93412E-3,2.216304E-3,2.5042357E-2,-1.4533185E-2,7.4693426E-3,-3.9996333E-2,1.3858864E-2,3.6276E-2,2.000024E-2,8.378184E-2,-3.487582E-3,-1.8190917E-2,1.0944843E-2,-3.0019658E-3,1.948934E-2,3.916517E-2,-1.5996184E-3,-3.389718E-2,3.340896E-3,6.504487E-2,-4.635198E-2,6.3337624E-2,-5.735427E-3,1.719077E-2,5.7534866E-2,2.8408986E-2,2.8507717E-2,-4.6955142E-2,1.3201292E-2,9.0863965E-2,8.6899305E-4,-1.31692095E-2,-1.6220266E-2,-5.8062654E-2,8.518378E-3,3.0437758E-2,7.6815756E-3,-8.542444E-3,5.4908574E-2,1.7764974E-2,8.813727E-2,3.4742877E-2,3.6092818E-2,-9.648005E-3,-1.5730377E-2,-8.696756E-2,-2.481767E-3,4.4866834E-2,7.62964E-2,1.5029084E-2,-2.8880658E-2,-6.7713045E-2,3.420735E-3,-5.0770724E-4,-5.018833E-4,1.4770777E-3,7.6698326E-4,-1.0255607E-3,2.982352E-3,1.4276314E-3,1.2818732E-3,1.2931306E-4,7.8877364E-4,3.232378E-3,-5.279976E-4,-2.0837581E-3,1.5606601E-3,-6.8057404E-4,3.8856643E-3,5.2874413E-4,-1.8602857E-4,3.6215404E-4,-1.8875292E-3,-3.817334E-4,5.374434E-4,-7.409823E-4,-1.4706457E-3,-2.8108305E-3,5.506329E-4,4.236695E-6,-3.036761E-4,1.3860096E-3,4.644159E-4,-8.639441E-4,-1.4202076E-4,-6.6387816E-4,-5.2549766E-4,2.66458E-3,6.327142E-4,2.2383938E-3,1.9204534E-3,4.151735E-3,-2.4244044E-5,1.5208909E-3,2.1095697E-3,-4.1539356E-4,1.3120979E-4,-1.3233146E-3,1.3495069E-3,-1.1014236E-3,-3.6457134E-3,-9.0429484E-4,2.359237E-3,-2.9765125E-4,2.9794E-3,-7.741884E-4,7.2553795E-4,3.197381E-3,1.3228088E-4,7.133639E-4,-2.7996156E-4,-2.1477826E-3,-2.850954E-3,9.246543E-4],"categories":[],"categories_nodes":[],"categories_segments":[],"categories_sizes":[],"default_left":[0,0,0,0,0,0,0,0,0,0,0,0,0,0,0,0,0,0,0,0,0,0,0,0,0,0,0,0,0,0,0,0,0,0,0,0,0,0,0,0,0,0,0,0,0,0,0,0,0,0,0,0,0,0,0,0,0,0,0,0,0,0,0,0,0,0,0,0,0,0,0,0,0,0,0,0,0,0,0,0,0,0,0,0,0,0,0,0,0,0,0,0,0,0,0,0,0,0,0,0,0,0,0,0,0,0,0,0,0,0,0,0,0,0,0,0,0,0,0,0,0,0,0],"id":12,"left_children":[1,3,5,7,9,11,13,15,17,19,21,23,25,27,29,31,33,35,37,39,41,43,45,47,49,51,53,55,57,59,61,63,65,67,69,71,73,75,77,79,81,83,85,87,89,91,93,95,97,99,101,103,105,107,109,111,113,115,117,119,121,-1,-1,-1,-1,-1,-1,-1,-1,-1,-1,-1,-1,-1,-1,-1,-1,-1,-1,-1,-1,-1,-1,-1,-1,-1,-1,-1,-1,-1,-1,-1,-1,-1,-1,-1,-1,-1,-1,-1,-1,-1,-1,-1,-1,-1,-1,-1,-1,-1,-1,-1,-1,-1,-1,-1,-1,-1,-1,-1,-1,-1,-1],"loss_changes":[5.473474E-1,4.2479333E-1,1.7804071E-1,7.148537E-2,4.3781984E-1,1.5809202E-1,1.3170949E-1,5.100982E-2,8.1634626E-2,4.0548134E-1,4.766003E-1,9.899223E-2,2.749479E-2,5.3264625E-2,5.4819405E-2,2.1773659E-2,2.3117572E-2,2.469306E-2,1.9794643E-2,3.3761007E-1,1.9156265E-1,1.8491581E-1,3.8771355E-1,5.490887E-2,7.446951E-2,2.0673566E-2,4.1053202E-2,5.1129367E-2,7.2946474E-3,2.6034862E-2,9.517502E-3,1.4702792E-2,2.4622008E-2,1.1841953E-2,9.97097E-3,1.5413439E-2,1.7967168E-4,4.5639565E-3,1.723826E-2,2.4946998E-1,3.059479E-1,1.5988386E-1,2.7315289E-2,1.5375179E-1,6.962931E-2,2.5758767E-1,1.7335609E-1,3.432989E-2,6.411415E-2,1.3235018E-2,3.8277686E-2,9.83193E-3,1.7074935E-2,2.0784339E-2,8.95448E-4,5.713637E-2,5.089687E-2,1.0891482E-3,7.254444E-5,2.2971831E-2,1.2320623E-2,0E0,0E0,0E0,0E0,0E0,0E0,0E0,0E0,0E0,0E0,0E0,0E0,0E0,0E0,0E0,0E0,0E0,0E0,0E0,0E0,0E0,0E0,0E0,0E0,0E0,0E0,0E0,0E0,0E0,0E0,0E0,0E0,0E0,0E0,0E0,0E0,0E0,0E0,0E0,0E0,0E0,0E0,0E0,0E0,0E0,0E0,0E0,0E0,0E0,0E0,0E0,0E0,0E0,0E0,0E0,0E0,0E0,0E0,0E0,0E0,0E0,0E0],"parents":[2147483647,0,0,1,1,2,2,3,3,4,4,5,5,6,6,7,7,8,8,9,9,10,10,11,11,12,12,13,13,14,14,15,15,16,16,17,17,18,18,19,19,20,20,21,21,22,22,23,23,24,24,25,25,26,26,27,27,28,28,29,29,30,30,31,31,32,32,33,33,34,34,35,35,36,36,37,37,38,38,39,39,40,40,41,41,42,42,43,43,44,44,45,45,46,46,47,47,48,48,49,49,50,50,51,51,52,52,53,53,54,54,55,55,56,56,57,57,58,58,59,59,60,60],"right_children":[2,4,6,8,10,12,14,16,18,20,22,24,26,28,30,32,34,36,38,40,42,44,46,48,50,52,54,56,58,60,62,64,66,68,70,72,74,76,78,80,82,84,86,88,90,92,94,96,98,100,102,104,106,108,110,112,114,116,118,120,122,-1,-1,-1,-1,-1,-1,-1,-1,-1,-1,-1,-1,-1,-1,-1,-1,-1,-1,-1,-1,-1,-1,-1,-1,-1,-1,-1,-1,-1,-1,-1,-1,-1,-1,-1,-1,-1,-1,-1,-1,-1,-1,-1,-1,-1,-1,-1,-1,-1,-1,-1,-1,-1,-1,-1,-1,-1,-1,-1,-1,-1,-1],"split_conditions":[1.7424799E0,-8.983049E-1,8.328446E-1,1.0952287E0,-1.7727657E-1,2.3147206E0,4.104657E-1,1.0785936E0,4.2219868E-1,9.4841254E-1,-2.8991448E-2,2.3237996E0,-1.0699454E-1,4.8425765E0,2.575723E0,-1.5634617E0,-1.5177861E0,7.2242856E-2,-4.644187E-2,-3.2943004E-1,-4.4965714E-1,2.8600044E0,-6.0394174E-1,-1.4556158E0,-9.1373265E-1,1.8574237E0,2.5364518E0,1.010491E0,1.3650775E0,3.467003E-1,1.544815E0,4.3237874E-1,2.5378873E0,-1.8096749E0,4.984768E-1,3.376938E-2,1.00095525E-1,-5.1415384E-1,1.0451387E0,-3.4733614E-1,-1.362947E0,-1.4112132E0,-3.661481E-1,3.308331E-1,-4.0290278E-1,1.5922415E0,2.5687167E-1,-2.2939599E-1,2.4526052E0,-3.3518824E-1,-5.0966096E-1,-9.202445E-1,7.8190887E-1,-1.1420652E0,2.2302153E0,-2.1968896E0,-2.2029677E-1,-2.0000385E-1,5.743399E-1,3.9775378E-1,2.6193855E0,3.420735E-3,-5.0770724E-4,-5.018833E-4,1.4770777E-3,7.6698326E-4,-1.0255607E-3,2.982352E-3,1.4276314E-3,1.2818732E-3,1.2931306E-4,7.8877364E-4,3.232378E-3,-5.279976E-4,-2.0837581E-3,1.5606601E-3,-6.8057404E-4,3.8856643E-3,5.2874413E-4,-1.8602857E-4,3.6215404E-4,-1.8875292E-3,-3.817334E-4,5.374434E-4,-7.409823E-4,-1.4706457E-3,-2.8108305E-3,5.506329E-4,4.236695E-6,-3.036761E-4,1.3860096E-3,4.644159E-4,-8.639441E-4,-1.4202076E-4,-6.6387816E-4,-5.2549766E-4,2.66458E-3,6.327142E-4,2.2383938E-3,1.9204534E-3,4.151735E-3,-2.4244044E-5,1.5208909E-3,2.1095697E-3,-4.1539356E-4,1.3120979E-4,-1.3233146E-3,1.3495069E-3,-1.1014236E-3,-3.6457134E-3,-9.0429484E-4,2.359237E-3,-2.9765125E-4,2.9794E-3,-7.741884E-4,7.2553795E-4,3.197381E-3,1.3228088E-4,7.133639E-4,-2.7996156E-4,-2.1477826E-3,-2.850954E-3,9.246543E-4],"split_indices":[47,68,26,87,57,17,3,40,23,26,69,57,85,107,24,40,20,0,39,50,68,98,62,87,91,57,20,89,11,90,3,24,23,14,85,0,0,0,85,42,26,72,21,44,53,48,20,5,18,0,21,38,9,70,9,89,0,8,5,14,17,0,0,0,0,0,0,0,0,0,0,0,0,0,0,0,0,0,0,0,0,0,0,0,0,0,0,0,0,0,0,0,0,0,0,0,0,0,0,0,0,0,0,0,0,0,0,0,0,0,0,0,0,0,0,0,0,0,0,0,0,0,0],"split_type":[0,0,0,0,0,0,0,0,0,0,0,0,0,0,0,0,0,0,0,0,0,0,0,0,0,0,0,0,0,0,0,0,0,0,0,0,0,0,0,0,0,0,0,0,0,0,0,0,0,0,0,0,0,0,0,0,0,0,0,0,0,0,0,0,0,0,0,0,0,0,0,0,0,0,0,0,0,0,0,0,0,0,0,0,0,0,0,0,0,0,0,0,0,0,0,0,0,0,0,0,0,0,0,0,0,0,0,0,0,0,0,0,0,0,0,0,0,0,0,0,0,0,0],"sum_hessian":[2.3155E4,2.1473E4,1.682E3,5.59E2,2.0914E4,1.38E3,3.02E2,4.78E2,8.1E1,1.0452E4,1.0462E4,1.271E3,1.09E2,2.24E2,7.8E1,3.31E2,1.47E2,4E1,4.1E1,8.003E3,2.449E3,3.914E3,6.548E3,9.14E2,3.57E2,6.6E1,4.3E1,2.1E2,1.4E1,7.4E1,4E0,4.8E1,2.83E2,3.8E1,1.09E2,3.6E1,4E0,4E0,3.7E1,5.52E3,2.483E3,2.335E3,1.14E2,3.482E3,4.32E2,2.236E3,4.312E3,4.1E1,8.73E2,2.8E1,3.29E2,1.1E1,5.5E1,3.3E1,1E1,1.85E2,2.5E1,1.1E1,3E0,4.2E1,3.2E1,3E0,1E0,4.2E1,6E0,2.71E2,1.2E1,2E1,1.8E1,9.5E1,1.4E1,3.2E1,4E0,1E0,3E0,2E0,2E0,3.4E1,3E0,3.297E3,2.223E3,2.38E2,2.245E3,1.68E2,2.167E3,4.3E1,7.1E1,2.144E3,1.338E3,4.3E1,3.89E2,1.972E3,2.64E2,2.663E3,1.649E3,6E0,3.5E1,8.32E2,4.1E1,9E0,1.9E1,2.8E1,3.01E2,8E0,3E0,3.6E1,1.9E1,6E0,2.7E1,9E0,1E0,1.3E1,1.72E2,1.7E1,8E0,1E0,1E1,1E0,2E0,2.3E1,1.9E1,3.1E1,1E0],"tree_param":{"num_deleted":"0","num_feature":"111","num_nodes":"123","size_leaf_vector":"1"}},{"base_weights":[7.7305645E-5,4.067124E-3,-7.0324014E-3,1.1645909E-2,-6.732718E-5,-1.5272407E-2,-1.083811E-3,1.3296563E-2,-1.0134907E-2,1.945648E-2,-1.4869946E-3,-3.3898894E-3,-2.0955227E-2,1.532162E-2,-3.521355E-3,1.1059217E-2,3.0674586E-2,-3.1290352E-3,-2.8197365E-2,1.0338294E-2,3.7856814E-2,-2.312383E-3,2.8059876E-2,-3.2449838E-2,1.9542227E-4,-1.839312E-2,-5.2230515E-2,1.0275498E-2,4.407712E-2,-6.4952237E-6,-1.7775118E-2,1.3410517E-2,-2.8217407E-3,3.7755873E-2,9.8629985E-3,-8.745264E-3,2.2677204E-2,-1.8867876E-2,-6.845048E-2,1.1380641E-2,-4.203211E-3,6.731242E-2,2.406737E-2,6.857773E-4,-8.693965E-3,2.9384507E-2,-5.843296E-2,-4.0377308E-2,4.4904675E-2,2.49216E-3,-3.3092614E-2,-4.946926E-2,-1.5623685E-2,-3.1116264E-2,-6.410051E-2,1.1319895E-2,-5.9678074E-2,5.1376455E-2,-5.293991E-2,-1.4902265E-2,3.3776788E-3,-4.0231063E-3,-2.7802005E-2,5.1566423E-4,3.329435E-3,-1.2343548E-3,5.8762314E-5,1.6845993E-3,-7.009383E-5,-1.9856742E-4,9.90404E-4,-1.3870317E-3,-1.3251975E-4,-8.1689475E-5,1.5577248E-3,-5.288234E-4,-3.640817E-3,-1.5972755E-3,-3.8280366E-3,6.417656E-4,-3.8878614E-4,2.8565626E-3,5.3952306E-5,1.1454573E-3,-2.3788314E-3,3.2699513E-4,-8.9627756E-5,-9.329947E-4,-1.2550992E-4,7.069317E-4,1.5406684E-3,-7.1101723E-4,-2.6424127E-3,-3.113201E-3,-9.309291E-4,3.7336217E-3,3.607668E-4,6.957917E-4,-2.5012116E-5,3.2109296E-4,-2.1160191E-3,-1.2757416E-3,-2.5021117E-3,-6.003301E-4,-5.030577E-3,-1.785155E-3,8.776759E-5,-1.9775832E-3,-3.669421E-3,5.329822E-4,-8.01737E-4,3.0128154E-4,-2.814221E-3,1.2453606E-3,3.3422797E-3,-1.0791082E-3,-2.6266854E-3,-6.619471E-4,2.1262038E-3,8.67407E-4,5.0122202E-5,-4.130099E-4,3.7590295E-4,-1.271985E-3,9.970249E-5],"categories":[],"categories_nodes":[],"categories_segments":[],"categories_sizes":[],"default_left":[0,0,0,0,0,0,0,0,0,0,0,0,0,0,0,0,0,0,0,0,0,0,0,0,0,0,0,0,0,0,0,0,0,0,0,0,0,0,0,0,0,0,0,0,0,0,0,0,0,0,0,0,0,0,0,0,0,0,0,0,0,0,0,0,0,0,0,0,0,0,0,0,0,0,0,0,0,0,0,0,0,0,0,0,0,0,0,0,0,0,0,0,0,0,0,0,0,0,0,0,0,0,0,0,0,0,0,0,0,0,0,0,0,0,0,0,0,0,0,0,0,0,0,0,0],"id":13,"left_children":[1,3,5,7,9,11,13,15,17,19,21,23,25,27,29,31,33,35,37,39,41,43,45,47,49,51,53,55,57,59,61,63,65,67,69,71,73,75,77,79,-1,81,83,85,87,89,91,93,95,97,99,101,103,105,107,109,111,113,115,117,