{"learner":{"attributes":{"scikit_learn":"{\"_estimator_type\": \"regressor\"}"},"feature_names":[],"feature_types":[],"gradient_booster":{"model":{"cats":{"enc":[],"feature_segments":[],"sorted_idx":[]},"gbtree_model_param":{"num_parallel_tree":"1","num_trees":"400"},"iteration_indptr":[0,1,2,3,4,5,6,7,8,9,10,11,12,13,14,15,16,17,18,19,20,21,22,23,24,25,26,27,28,29,30,31,32,33,34,35,36,37,38,39,40,41,42,43,44,45,46,47,48,49,50,51,52,53,54,55,56,57,58,59,60,61,62,63,64,65,66,67,68,69,70,71,72,73,74,75,76,77,78,79,80,81,82,83,84,85,86,87,88,89,90,91,92,93,94,95,96,97,98,99,100,101,102,103,104,105,106,107,108,109,110,111,112,113,114,115,116,117,118,119,120,121,122,123,124,125,126,127,128,129,130,131,132,133,134,135,136,137,138,139,140,141,142,143,144,145,146,147,148,149,150,151,152,153,154,155,156,157,158,159,160,161,162,163,164,165,166,167,168,169,170,171,172,173,174,175,176,177,178,179,180,181,182,183,184,185,186,187,188,189,190,191,192,193,194,195,196,197,198,199,200,201,202,203,204,205,206,207,208,209,210,211,212,213,214,215,216,217,218,219,220,221,222,223,224,225,226,227,228,229,230,231,232,233,234,235,236,237,238,239,240,241,242,243,244,245,246,247,248,249,250,251,252,253,254,255,256,257,258,259,260,261,262,263,264,265,266,267,268,269,270,271,272,273,274,275,276,277,278,279,280,281,282,283,284,285,286,287,288,289,290,291,292,293,294,295,296,297,298,299,300,301,302,303,304,305,306,307,308,309,310,311,312,313,314,315,316,317,318,319,320,321,322,323,324,325,326,327,328,329,330,331,332,333,334,335,336,337,338,339,340,341,342,343,344,345,346,347,348,349,350,351,352,353,354,355,356,357,358,359,360,361,362,363,364,365,366,367,368,369,370,371,372,373,374,375,376,377,378,379,380,381,382,383,384,385,386,387,388,389,390,391,392,393,394,395,396,397,398,399,400],"tree_info":[0,0,0,0,0,0,0,0,0,0,0,0,0,0,0,0,0,0,0,0,0,0,0,0,0,0,0,0,0,0,0,0,0,0,0,0,0,0,0,0,0,0,0,0,0,0,0,0,0,0,0,0,0,0,0,0,0,0,0,0,0,0,0,0,0,0,0,0,0,0,0,0,0,0,0,0,0,0,0,0,0,0,0,0,0,0,0,0,0,0,0,0,0,0,0,0,0,0,0,0,0,0,0,0,0,0,0,0,0,0,0,0,0,0,0,0,0,0,0,0,0,0,0,0,0,0,0,0,0,0,0,0,0,0,0,0,0,0,0,0,0,0,0,0,0,0,0,0,0,0,0,0,0,0,0,0,0,0,0,0,0,0,0,0,0,0,0,0,0,0,0,0,0,0,0,0,0,0,0,0,0,0,0,0,0,0,0,0,0,0,0,0,0,0,0,0,0,0,0,0,0,0,0,0,0,0,0,0,0,0,0,0,0,0,0,0,0,0,0,0,0,0,0,0,0,0,0,0,0,0,0,0,0,0,0,0,0,0,0,0,0,0,0,0,0,0,0,0,0,0,0,0,0,0,0,0,0,0,0,0,0,0,0,0,0,0,0,0,0,0,0,0,0,0,0,0,0,0,0,0,0,0,0,0,0,0,0,0,0,0,0,0,0,0,0,0,0,0,0,0,0,0,0,0,0,0,0,0,0,0,0,0,0,0,0,0,0,0,0,0,0,0,0,0,0,0,0,0,0,0,0,0,0,0,0,0,0,0,0,0,0,0,0,0,0,0,0,0,0,0,0,0,0,0,0,0,0,0,0,0,0,0,0,0,0,0,0,0,0,0,0,0,0,0,0,0,0,0,0,0,0,0,0,0,0,0,0,0,0,0,0,0,0,0,0,0,0,0,0,0],"trees":[{"base_weights":[-2.5560078E-4,5.858798E-3,-1.1957675E-2,1.8555518E-2,-9.693865E-4,-2.6192695E-2,-1.8879228E-3,1.5404612E-2,4.3482695E-2,2.8288208E-2,-2.9844246E-3,-2.2853296E-2,-8.2673386E-2,2.2390444E-2,-5.766172E-3,2.2513531E-2,7.7374834E-3,5.3360052E-2,1.5344743E-2,1.464054E-2,5.120289E-2,-4.1161934E-3,3.962804E-2,-5.6215752E-2,-1.9341448E-2,-8.644539E-2,2.4514968E-2,1.3307197E-2,3.8745664E-2,-1.2423391E-2,8.735406E-3,2.4099242E-2,-2.4063224E-2,1.2162004E-2,-8.519886E-3,5.8558725E-2,1.8796442E-2,2.1712795E-2,-5.637405E-2,4.783376E-2,1.13265775E-2,7.355244E-2,3.2867625E-2,-8.565136E-3,3.2295755E-3,-6.650133E-2,4.1258927E-2,-8.8668466E-2,-3.912152E-3,-1.5923148E-2,-4.2699922E-2,-4.244944E-2,-9.146737E-2,3.6152427E-3,2.0470475E-3,1.5625963E-2,-4.520382E-2,2.0086288E-2,5.8579486E-2,-3.6287636E-2,-6.8851686E-3,1.7226653E-3,2.7958108E-2,2.3692478E-3,8.904341E-4,-2.8767908E-4,-2.8769725E-3,-1.447388E-4,7.4486574E-4,-5.5012346E-4,1.2133858E-3,1.7032756E-3,3.0885483E-3,4.231574E-3,3.512993E-4,6.7258225E-4,4.1152416E-3,-2.7016555E-3,1.345689E-4,2.2629683E-3,-7.068745E-4,-1.9570275E-3,5.264657E-4,3.208714E-3,9.60851E-4,1.4990835E-3,-1.7305464E-3,-5.361825E-4,-1.1956148E-5,-3.34284E-5,6.1667355E-4,-3.2520108E-3,-4.4208977E-4,1.6958407E-3,-2.447496E-3,-2.2059225E-3,-3.933227E-3,1.644373E-4,-3.918863E-3,-5.36281E-4,-1.9433952E-3,-1.523951E-3,-3.417024E-3,-2.529047E-3,-4.012205E-4,-3.722021E-3,8.538201E-4,3.4162795E-4,-3.2173164E-4,3.4984626E-4,1.3075365E-3,4.6794236E-4,-3.220604E-3,2.2959716E-3,5.1472546E-4,1.8320201E-3,4.0984987E-3,-9.284774E-4,-2.4861477E-3,-1.6989465E-3,-1.5109435E-4,-2.5500602E-3,1.20748555E-4,5.7628413E-4,1.7003042E-3],"categories":[],"categories_nodes":[],"categories_segments":[],"categories_sizes":[],"default_left":[0,0,0,0,0,0,0,0,0,0,0,0,0,0,0,0,0,0,0,0,0,0,0,0,0,0,0,0,0,0,0,0,0,0,0,0,0,0,0,0,0,0,0,0,0,0,0,0,0,0,0,0,0,0,0,0,0,0,0,0,0,0,0,0,0,0,0,0,0,0,0,0,0,0,0,0,0,0,0,0,0,0,0,0,0,0,0,0,0,0,0,0,0,0,0,0,0,0,0,0,0,0,0,0,0,0,0,0,0,0,0,0,0,0,0,0,0,0,0,0,0,0,0,0,0],"id":0,"left_children":[1,3,5,7,9,11,13,15,17,19,21,23,25,27,29,31,33,35,37,39,41,43,45,47,49,51,53,55,57,59,61,63,65,67,69,71,73,75,77,79,81,83,85,87,89,91,93,95,97,99,101,103,105,107,-1,109,111,113,115,117,119,121,123,-1,-1,-1,-1,-1,-1,-1,-1,-1,-1,-1,-1,-1,-1,-1,-1,-1,-1,-1,-1,-1,-1,-1,-1,-1,-1,-1,-1,-1,-1,-1,-1,-1,-1,-1,-1,-1,-1,-1,-1,-1,-1,-1,-1,-1,-1,-1,-1,-1,-1,-1,-1,-1,-1,-1,-1,-1,-1,-1,-1,-1,-1],"loss_changes":[1.6531163E0,1.3156228E0,1.1365184E0,4.1615915E-1,5.8191293E-1,6.176996E-1,4.3749094E-1,2.567078E-1,1.6454887E-1,1.9814795E-1,4.4549555E-1,3.6247218E-1,7.610881E-2,9.4561875E-2,3.8684857E-1,1.8116093E-1,1.633152E-1,7.796061E-2,7.247066E-2,4.3458648E-2,9.470153E-2,2.9402506E-1,4.4111103E-2,5.003843E-1,2.2360826E-1,3.5224915E-2,3.7154704E-3,5.6739464E-2,8.320311E-2,3.626766E-1,1.6993946E-1,1.5142798E-1,6.48883E-2,1.8192151E-1,9.923731E-2,1.1056638E-1,5.046837E-2,5.552183E-2,8.899748E-3,2.1611512E-2,4.1000847E-2,3.3068478E-2,4.7943383E-2,2.241374E-1,1.6816762E-1,2.383802E-3,3.008598E-2,5.352366E-2,8.643247E-2,2.0085627E-1,6.712359E-2,1.2837E-2,3.0205011E-2,3.558133E-4,0E0,4.6433873E-2,3.3090647E-2,3.1311758E-2,5.6992948E-2,1.7341536E-1,2.4648263E-1,7.8685835E-2,6.583062E-2,0E0,0E0,0E0,0E0,0E0,0E0,0E0,0E0,0E0,0E0,0E0,0E0,0E0,0E0,0E0,0E0,0E0,0E0,0E0,0E0,0E0,0E0,0E0,0E0,0E0,0E0,0E0,0E0,0E0,0E0,0E0,0E0,0E0,0E0,0E0,0E0,0E0,0E0,0E0,0E0,0E0,0E0,0E0,0E0,0E0,0E0,0E0,0E0,0E0,0E0,0E0,0E0,0E0,0E0,0E0,0E0,0E0,0E0,0E0,0E0,0E0,0E0],"parents":[2147483647,0,0,1,1,2,2,3,3,4,4,5,5,6,6,7,7,8,8,9,9,10,10,11,11,12,12,13,13,14,14,15,15,16,16,17,17,18,18,19,19,20,20,21,21,22,22,23,23,24,24,25,25,26,26,27,27,28,28,29,29,30,30,31,31,32,32,33,33,34,34,35,35,36,36,37,37,38,38,39,39,40,40,41,41,42,42,43,43,44,44,45,45,46,46,47,47,48,48,49,49,50,50,51,51,52,52,53,53,55,55,56,56,57,57,58,58,59,59,60,60,61,61,62,62],"right_children":[2,4,6,8,10,12,14,16,18,20,22,24,26,28,30,32,34,36,38,40,42,44,46,48,50,52,54,56,58,60,62,64,66,68,70,72,74,76,78,80,82,84,86,88,90,92,94,96,98,100,102,104,106,108,-1,110,112,114,116,118,120,122,124,-1,-1,-1,-1,-1,-1,-1,-1,-1,-1,-1,-1,-1,-1,-1,-1,-1,-1,-1,-1,-1,-1,-1,-1,-1,-1,-1,-1,-1,-1,-1,-1,-1,-1,-1,-1,-1,-1,-1,-1,-1,-1,-1,-1,-1,-1,-1,-1,-1,-1,-1,-1,-1,-1,-1,-1,-1,-1,-1,-1,-1,-1],"split_conditions":[4.944204E-1,-7.0625003E-3,9.7681874E-1,1.9331577E0,-6.960822E-1,1.3598846E0,-8.78985E-1,2.729355E-1,4.806095E-1,3.3420697E-1,1.8548139E0,-1.69952E0,4.846326E0,2.7130392E-1,8.683604E-1,3.4200714E0,-1.8093853E-1,1.7874445E0,2.3060722E0,-1.1883711E0,-6.7081624E-1,2.1254842E-1,-9.1336536E-1,-2.3748556E-1,1.1333357E0,-1.149819E0,-2.040624E-1,9.102025E-1,-1.08213276E-1,1.6152461E-1,-6.06273E-1,-7.6120025E-1,1.064191E0,-1.00515E0,2.1517189E0,2.7276793E-1,-7.825013E-2,2.7114472E0,3.063529E0,-9.7562313E-1,-2.0132911E0,3.0340478E-1,4.8399205E0,1.4960122E-1,-1.2029795E-1,1.5024858E0,2.4187105E0,-8.868003E-1,1.1747524E0,-5.0125825E-1,2.1241702E-1,-8.0541915E-1,1.1148764E0,-1.3053573E0,2.0470475E-3,4.7995555E-1,-9.216974E-4,-3.038678E-2,8.5530084E-1,-8.706925E-3,-1.4406079E0,-2.3748338E0,1.3547762E-1,2.3692478E-3,8.904341E-4,-2.8767908E-4,-2.8769725E-3,-1.447388E-4,7.4486574E-4,-5.5012346E-4,1.2133858E-3,1.7032756E-3,3.0885483E-3,4.231574E-3,3.512993E-4,6.7258225E-4,4.1152416E-3,-2.7016555E-3,1.345689E-4,2.2629683E-3,-7.068745E-4,-1.9570275E-3,5.264657E-4,3.208714E-3,9.60851E-4,1.4990835E-3,-1.7305464E-3,-5.361825E-4,-1.1956148E-5,-3.34284E-5,6.1667355E-4,-3.2520108E-3,-4.4208977E-4,1.6958407E-3,-2.447496E-3,-2.2059225E-3,-3.933227E-3,1.644373E-4,-3.918863E-3,-5.36281E-4,-1.9433952E-3,-1.523951E-3,-3.417024E-3,-2.529047E-3,-4.012205E-4,-3.722021E-3,8.538201E-4,3.4162795E-4,-3.2173164E-4,3.4984626E-4,1.3075365E-3,4.6794236E-4,-3.220604E-3,2.2959716E-3,5.1472546E-4,1.8320201E-3,4.0984987E-3,-9.284774E-4,-2.4861477E-3,-1.6989465E-3,-1.5109435E-4,-2.5500602E-3,1.20748555E-4,5.7628413E-4,1.7003042E-3],"split_indices":[60,27,60,47,63,39,63,75,73,22,75,49,105,57,39,64,60,19,17,88,64,55,65,58,39,23,7,20,22,58,64,49,16,60,42,17,7,15,21,39,6,17,102,42,50,0,13,23,24,43,9,24,7,5,0,82,13,65,82,57,74,17,88,0,0,0,0,0,0,0,0,0,0,0,0,0,0,0,0,0,0,0,0,0,0,0,0,0,0,0,0,0,0,0,0,0,0,0,0,0,0,0,0,0,0,0,0,0,0,0,0,0,0,0,0,0,0,0,0,0,0,0,0,0,0],"split_type":[0,0,0,0,0,0,0,0,0,0,0,0,0,0,0,0,0,0,0,0,0,0,0,0,0,0,0,0,0,0,0,0,0,0,0,0,0,0,0,0,0,0,0,0,0,0,0,0,0,0,0,0,0,0,0,0,0,0,0,0,0,0,0,0,0,0,0,0,0,0,0,0,0,0,0,0,0,0,0,0,0,0,0,0,0,0,0,0,0,0,0,0,0,0,0,0,0,0,0,0,0,0,0,0,0,0,0,0,0,0,0,0,0,0,0,0,0,0,0,0,0,0,0,0,0],"sum_hessian":[2.3102E4,1.5174E4,7.928E3,5.306E3,9.868E3,3.284E3,4.644E3,4.712E3,5.94E2,6.35E2,9.233E3,3.102E3,1.82E2,6.39E2,4.005E3,2.444E3,2.268E3,4.39E2,1.55E2,3.99E2,2.36E2,8.995E3,2.38E2,2.94E2,2.808E3,1.76E2,6E0,4.12E2,2.27E2,2.745E3,1.26E3,2.364E3,8E1,1.783E3,4.85E2,3.81E2,5.8E1,1.43E2,1.2E1,3.5E1,3.64E2,1.05E2,1.31E2,5.602E3,3.393E3,3E0,2.35E2,1.81E2,1.13E2,2.451E3,3.57E2,1.9E1,1.57E2,4E0,2E0,3.97E2,1.5E1,1.18E2,1.09E2,5.16E2,2.229E3,9.24E2,3.36E2,1.16E2,2.248E3,6E1,2E1,5.18E2,1.265E3,4.28E2,5.7E1,2.07E2,1.74E2,5E0,5.3E1,1.36E2,7E0,1E1,2E0,3.1E1,4E0,1E1,3.54E2,9.2E1,1.3E1,1.24E2,7E0,3.533E3,2.069E3,2.545E3,8.48E2,2E0,1E0,2.33E2,2E0,4.2E1,1.39E2,1.05E2,8E0,2.277E3,1.74E2,3.24E2,3.3E1,1.1E1,8E0,1.55E2,2E0,3E0,1E0,2.84E2,1.13E2,6E0,9E0,1.8E1,1E2,8.6E1,2.3E1,3.44E2,1.72E2,1.78E2,2.051E3,1.7E1,9.07E2,1.75E2,1.61E2],"tree_param":{"num_deleted":"0","num_feature":"109","num_nodes":"125","size_leaf_vector":"1"}},{"base_weights":[1.2493874E-4,9.181289E-3,-6.191413E-3,2.2410383E-2,-5.3481635E-4,5.3181834E-6,-1.801485E-2,1.914961E-2,4.527535E-2,1.14013925E-2,-8.707094E-3,1.2711856E-3,-3.7497096E-2,-4.1977514E-2,-1.4606307E-2,2.7003175E-2,1.0739942E-2,1.8925618E-2,5.2996617E-2,1.564606E-2,-2.5107939E-2,-3.7666254E-3,-2.5029711E-2,-9.2608435E-3,6.9253305E-3,-8.2207605E-2,-6.189806E-3,-8.3957456E-2,-2.4945084E-2,-1.2449024E-2,-4.357295E-2,5.678253E-2,2.4829214E-2,1.3195748E-2,-2.4526607E-2,8.758021E-3,4.912641E-2,5.8280014E-2,3.9516906E-3,1.9852513E-2,-9.573958E-3,6.1918073E-3,-4.4713277E-2,1.6068356E-2,-7.840112E-3,-1.6394803E-2,-5.8144934E-2,-1.6848426E-4,-1.995953E-2,-3.1674724E-2,8.704826E-3,-8.788355E-2,2.2784019E-2,-2.6087645E-2,4.2455E-3,-5.3039473E-2,-9.963497E-2,7.3543563E-3,-3.7041776E-2,-1.4661483E-2,2.2897936E-2,5.7322517E-2,-4.593972E-2,1.501447E-3,3.5440659E-3,8.2469184E-4,1.7860262E-3,-3.7535746E-4,6.295579E-4,9.1228104E-4,-1.5932126E-3,-1.06053325E-4,1.5717375E-3,2.224202E-3,-1.0222739E-3,2.4790554E-3,6.6158763E-4,-1.8082265E-3,6.4470153E-4,3.1930668E-4,1.0279292E-3,-6.930111E-4,1.8066621E-3,9.855187E-4,-7.177198E-4,-1.9625265E-3,1.15771116E-4,1.0274837E-3,9.963437E-5,-6.966712E-4,-1.824749E-5,-2.1912494E-4,-9.864635E-4,-2.661285E-3,-4.4797122E-4,-9.789929E-4,1.5507815E-4,-1.6916663E-3,-3.5708322E-4,-1.9997975E-3,8.0629275E-4,1.0859892E-3,2.209225E-4,-4.0921206E-3,-2.7378579E-3,8.0429316E-5,1.9924594E-3,-1.1875152E-3,1.2695057E-3,3.413572E-4,-1.2023458E-3,-2.226407E-3,1.979226E-3,-4.049816E-3,1.5502578E-3,5.4865715E-4,-2.4327617E-3,-1.0443908E-3,-2.762911E-3,-5.450798E-4,-2.2038582E-3,1.7085421E-4,2.0275412E-3,2.7184982E-3,-1.3034277E-4,-2.9136646E-3,-1.573511E-3],"categories":[],"categories_nodes":[],"categories_segments":[],"categories_sizes":[],"default_left":[0,0,0,0,0,0,0,0,0,0,0,0,0,0,0,0,0,0,0,0,0,0,0,0,0,0,0,0,0,0,0,0,0,0,0,0,0,0,0,0,0,0,0,0,0,0,0,0,0,0,0,0,0,0,0,0,0,0,0,0,0,0,0,0,0,0,0,0,0,0,0,0,0,0,0,0,0,0,0,0,0,0,0,0,0,0,0,0,0,0,0,0,0,0,0,0,0,0,0,0,0,0,0,0,0,0,0,0,0,0,0,0,0,0,0,0,0,0,0,0,0,0,0,0,0,0,0],"id":1,"left_children":[1,3,5,7,9,11,13,15,17,19,21,23,25,27,29,31,33,35,37,39,41,43,45,47,49,51,53,55,57,59,61,63,65,67,69,71,73,75,77,79,81,83,85,87,89,91,93,95,97,99,101,103,105,107,109,111,113,115,117,119,121,123,125,-1,-1,-1,-1,-1,-1,-1,-1,-1,-1,-1,-1,-1,-1,-1,-1,-1,-1,-1,-1,-1,-1,-1,-1,-1,-1,-1,-1,-1,-1,-1,-1,-1,-1,-1,-1,-1,-1,-1,-1,-1,-1,-1,-1,-1,-1,-1,-1,-1,-1,-1,-1,-1,-1,-1,-1,-1,-1,-1,-1,-1,-1,-1,-1],"loss_changes":[1.3322026E0,1.2299662E0,1.0052187E0,3.012395E-1,5.3835815E-1,4.2744783E-1,3.847425E-1,2.3404074E-1,1.0174084E-1,3.479905E-1,2.6408684E-1,5.187413E-1,4.1102204E-1,4.176227E-1,2.5766307E-1,1.1732149E-1,1.4885607E-1,3.5189815E-2,1.0082805E-1,2.1342453E-1,1.4386913E-1,2.0341256E-1,2.166523E-1,2.960084E-1,3.8960296E-1,7.4109495E-2,3.6240123E-2,7.663262E-2,1.6398257E-1,3.011853E-1,7.092911E-2,7.261208E-2,1.419245E-1,9.2256784E-2,8.203899E-2,3.0762445E-2,1.5452631E-2,5.3284287E-2,2.4052203E-2,1.19350076E-1,1.2298417E-1,4.095477E-2,2.99626E-2,5.5962726E-2,1.4764163E-1,5.446367E-2,6.107247E-2,1.6194572E-1,3.4405905E-1,2.3840132E-1,3.178766E-1,2.5229037E-2,3.8299877E-3,1.3433311E-2,1.717428E-2,1.8605903E-2,2.8662443E-2,5.0712492E-2,1.04996175E-1,1.5071362E-1,1.172886E-1,4.733514E-3,4.6863973E-2,0E0,0E0,0E0,0E0,0E0,0E0,0E0,0E0,0E0,0E0,0E0,0E0,0E0,0E0,0E0,0E0,0E0,0E0,0E0,0E0,0E0,0E0,0E0,0E0,0E0,0E0,0E0,0E0,0E0,0E0,0E0,0E0,0E0,0E0,0E0,0E0,0E0,0E0,0E0,0E0,0E0,0E0,0E0,0E0,0E0,0E0,0E0,0E0,0E0,0E0,0E0,0E0,0E0,0E0,0E0,0E0,0E0,0E0,0E0,0E0,0E0,0E0,0E0,0E0],"parents":[2147483647,0,0,1,1,2,2,3,3,4,4,5,5,6,6,7,7,8,8,9,9,10,10,11,11,12,12,13,13,14,14,15,15,16,16,17,17,18,18,19,19,20,20,21,21,22,22,23,23,24,24,25,25,26,26,27,27,28,28,29,29,30,30,31,31,32,32,33,33,34,34,35,35,36,36,37,37,38,38,39,39,40,40,41,41,42,42,43,43,44,44,45,45,46,46,47,47,48,48,49,49,50,50,51,51,52,52,53,53,54,54,55,55,56,56,57,57,58,58,59,59,60,60,61,61,62,62],"right_children":[2,4,6,8,10,12,14,16,18,20,22,24,26,28,30,32,34,36,38,40,42,44,46,48,50,52,54,56,58,60,62,64,66,68,70,72,74,76,78,80,82,84,86,88,90,92,94,96,98,100,102,104,106,108,110,112,114,116,118,120,122,124,126,-1,-1,-1,-1,-1,-1,-1,-1,-1,-1,-1,-1,-1,-1,-1,-1,-1,-1,-1,-1,-1,-1,-1,-1,-1,-1,-1,-1,-1,-1,-1,-1,-1,-1,-1,-1,-1,-1,-1,-1,-1,-1,-1,-1,-1,-1,-1,-1,-1,-1,-1,-1,-1,-1,-1,-1,-1,-1,-1,-1,-1,-1,-1,-1],"split_conditions":[-3.428221E-1,-7.0625003E-3,6.016418E-1,1.9331577E0,-6.040183E-1,1.6626538E0,-1.0928563E0,2.729355E-1,-4.7588882E-1,1.5921919E0,6.1357343E-1,-5.109619E-1,-1.4787896E0,-7.963885E-3,1.211694E0,-1.4243603E0,3.7138023E0,3.7191698E-1,1.7826041E0,-6.997937E-1,-2.1882752E-1,-1.132051E0,1.067191E0,-2.0942124E-2,-9.970572E-1,4.846326E0,-1.3632101E0,-5.7372284E-1,1.1795394E0,8.683604E-1,-1.693655E0,4.3712464E-1,9.597653E-1,-1.5636209E0,-5.3847367E-1,7.6073605E-1,2.1959498E0,3.6986072E0,-8.6759883E-1,-4.051919E-1,2.8854291E0,-1.3376999E-1,3.3647716E0,3.0781266E-1,3.7048274E-1,-3.3764887E-1,4.728378E-1,-9.685568E-1,-7.853125E-1,-1.2476306E0,-9.0340877E-1,-4.9722242E-1,-2.2831821E-1,4.846326E0,6.92062E-1,-5.902491E-1,4.846326E0,1.149834E0,5.1465774E-1,2.531901E0,5.4767653E-2,-6.1527133E-1,-1.849612E-1,1.501447E-3,3.5440659E-3,8.2469184E-4,1.7860262E-3,-3.7535746E-4,6.295579E-4,9.1228104E-4,-1.5932126E-3,-1.06053325E-4,1.5717375E-3,2.224202E-3,-1.0222739E-3,2.4790554E-3,6.6158763E-4,-1.8082265E-3,6.4470153E-4,3.1930668E-4,1.0279292E-3,-6.930111E-4,1.8066621E-3,9.855187E-4,-7.177198E-4,-1.9625265E-3,1.15771116E-4,1.0274837E-3,9.963437E-5,-6.966712E-4,-1.824749E-5,-2.1912494E-4,-9.864635E-4,-2.661285E-3,-4.4797122E-4,-9.789929E-4,1.5507815E-4,-1.6916663E-3,-3.5708322E-4,-1.9997975E-3,8.0629275E-4,1.0859892E-3,2.209225E-4,-4.0921206E-3,-2.7378579E-3,8.0429316E-5,1.9924594E-3,-1.1875152E-3,1.2695057E-3,3.413572E-4,-1.2023458E-3,-2.226407E-3,1.979226E-3,-4.049816E-3,1.5502578E-3,5.4865715E-4,-2.4327617E-3,-1.0443908E-3,-2.762911E-3,-5.450798E-4,-2.2038582E-3,1.7085421E-4,2.0275412E-3,2.7184982E-3,-1.3034277E-4,-2.9136646E-3,-1.573511E-3],"split_indices":[56,27,26,47,58,42,45,75,42,48,72,42,26,30,42,48,93,1,16,56,22,26,21,71,50,105,26,22,26,39,22,22,71,40,69,13,31,98,80,2,99,42,104,42,26,22,75,45,26,26,19,15,23,105,16,22,105,23,22,23,22,0,65,0,0,0,0,0,0,0,0,0,0,0,0,0,0,0,0,0,0,0,0,0,0,0,0,0,0,0,0,0,0,0,0,0,0,0,0,0,0,0,0,0,0,0,0,0,0,0,0,0,0,0,0,0,0,0,0,0,0,0,0,0,0,0,0],"split_type":[0,0,0,0,0,0,0,0,0,0,0,0,0,0,0,0,0,0,0,0,0,0,0,0,0,0,0,0,0,0,0,0,0,0,0,0,0,0,0,0,0,0,0,0,0,0,0,0,0,0,0,0,0,0,0,0,0,0,0,0,0,0,0,0,0,0,0,0,0,0,0,0,0,0,0,0,0,0,0,0,0,0,0,0,0,0,0,0,0,0,0,0,0,0,0,0,0,0,0,0,0,0,0,0,0,0,0,0,0,0,0,0,0,0,0,0,0,0,0,0,0,0,0,0,0,0,0],"sum_hessian":[2.3287E4,9.568E3,1.3719E4,4.051E3,5.517E3,9.002E3,4.717E3,3.547E3,5.04E2,2.242E3,3.275E3,8.709E3,2.93E2,5.86E2,4.131E3,1.833E3,1.714E3,1.15E2,3.89E2,2.009E3,2.33E2,2.515E3,7.6E2,3.042E3,5.667E3,1.2E2,1.73E2,1.68E2,4.18E2,3.846E3,2.85E2,1.23E2,1.71E3,1.603E3,1.11E2,8.7E1,2.8E1,3.51E2,3.8E1,1.722E3,2.87E2,9E1,1.43E2,4.28E2,2.087E3,6.04E2,1.56E2,1.645E3,1.397E3,2.49E2,5.418E3,1.14E2,6E0,5.9E1,1.14E2,5.8E1,1.1E2,1.14E2,3.04E2,3.62E3,2.26E2,6E0,2.79E2,7.8E1,4.5E1,1.412E3,2.98E2,1.62E2,1.441E3,2.7E1,8.4E1,6.4E1,2.3E1,2.6E1,2E0,3.22E2,2.9E1,7E0,3.1E1,5.69E2,1.153E3,2.52E2,3.5E1,5.1E1,3.9E1,1.31E2,1.2E1,2.5E2,1.78E2,9.08E2,1.179E3,2.61E2,3.43E2,1.32E2,2.4E1,2.34E2,1.411E3,4.61E2,9.36E2,1.84E2,6.5E1,7.96E2,4.622E3,6.3E1,5.1E1,4E0,2E0,5.6E1,3E0,1.02E2,1.2E1,5.7E1,1E0,1.09E2,1E0,1.05E2,9E0,2.28E2,7.6E1,3.531E3,8.9E1,1.36E2,9E1,5E0,1E0,5.3E1,2.26E2],"tree_param":{"num_deleted":"0","num_feature":"109","num_nodes":"127","size_leaf_vector":"1"}},{"base_weights":[4.4280023E-5,5.859031E-3,-1.0684209E-2,1.764205E-2,-3.4561692E-4,-7.5223492E-3,-4.3341856E-2,3.3346023E-2,1.4325045E-2,2.6782034E-2,-2.2427416E-3,2.0238152E-2,-1.0258185E-2,-7.063583E-2,-3.40615E-2,4.280001E-2,3.3491345E-3,1.7579E-2,-8.87579E-3,1.2270495E-2,4.6227198E-2,-4.050945E-3,1.9499917E-2,9.016686E-3,3.0809838E-2,-2.419251E-2,-4.5372276E-3,-9.364733E-2,-5.930275E-2,-2.6122352E-2,-5.7509016E-2,5.460933E-2,3.4095492E-2,-1.4377732E-2,2.2394722E-2,1.5922826E-2,4.4839203E-2,-2.1717656E-2,1.1664309E-2,-8.4060945E-2,1.3556486E-2,6.802702E-2,2.9301524E-2,6.109491E-4,-1.2707159E-2,9.624305E-3,3.327288E-2,2.2508878E-2,9.061692E-5,6.820993E-2,2.6594909E-2,-6.340454E-2,-1.7712595E-2,-2.5039313E-3,-3.093303E-2,-1.14833266E-1,-6.684692E-2,-6.1816756E-2,1.2893959E-2,-6.708142E-3,-3.523814E-2,-1.09283075E-1,-4.167564E-2,2.3390402E-3,4.5752712E-4,8.913973E-4,1.7209984E-3,9.3425624E-5,-1.6256168E-3,4.8736125E-4,1.9493455E-3,4.6543333E-5,7.7940687E-4,2.1350062E-3,-3.7175303E-4,-6.356512E-4,-2.1636956E-3,1.3512738E-4,1.6967134E-3,-1.187075E-4,-4.1436935E-3,3.7052235E-4,1.6687205E-3,3.0981407E-3,1.179409E-3,3.5294374E-3,9.688845E-4,2.1689112E-4,-4.1107438E-4,-1.3042466E-3,-3.4876E-4,5.957495E-4,-4.5769627E-4,1.0714106E-3,2.1460245E-3,5.2354083E-4,2.1263908E-3,-4.2731515E-3,6.9741705E-5,9.982684E-4,3.751893E-3,1.1144573E-3,-3.077709E-3,-2.9717619E-3,-9.0404385E-4,-2.4614544E-3,-5.7139935E-4,-1.1346269E-3,-2.9493734E-5,-2.1428352E-3,-8.045149E-4,-4.8066173E-3,-1.9519926E-3,-2.9871385E-3,-4.7523154E-5,-3.210661E-3,-1.8409662E-3,-5.79501E-4,1.4390983E-3,-3.8725205E-4,1.8767023E-3,-1.2059005E-3,-3.1554485E-3,-8.527299E-4,-4.460185E-3,-2.2133347E-3,-1.5899676E-4],"categories":[],"categories_nodes":[],"categories_segments":[],"categories_sizes":[],"default_left":[0,0,0,0,0,0,0,0,0,0,0,0,0,0,0,0,0,0,0,0,0,0,0,0,0,0,0,0,0,0,0,0,0,0,0,0,0,0,0,0,0,0,0,0,0,0,0,0,0,0,0,0,0,0,0,0,0,0,0,0,0,0,0,0,0,0,0,0,0,0,0,0,0,0,0,0,0,0,0,0,0,0,0,0,0,0,0,0,0,0,0,0,0,0,0,0,0,0,0,0,0,0,0,0,0,0,0,0,0,0,0,0,0,0,0,0,0,0,0,0,0,0,0,0,0,0,0],"id":2,"left_children":[1,3,5,7,9,11,13,15,17,19,21,23,25,27,29,31,33,35,37,39,41,43,45,47,49,51,53,55,57,59,61,63,65,67,69,71,73,75,77,79,81,83,85,87,89,91,93,95,97,99,101,103,105,107,109,111,113,115,117,119,121,123,125,-1,-1,-1,-1,-1,-1,-1,-1,-1,-1,-1,-1,-1,-1,-1,-1,-1,-1,-1,-1,-1,-1,-1,-1,-1,-1,-1,-1,-1,-1,-1,-1,-1,-1,-1,-1,-1,-1,-1,-1,-1,-1,-1,-1,-1,-1,-1,-1,-1,-1,-1,-1,-1,-1,-1,-1,-1,-1,-1,-1,-1,-1,-1,-1],"loss_changes":[1.4420569E0,1.0959904E0,8.386525E-1,2.6888037E-1,5.054933E-1,5.629076E-1,1.7920864E-1,2.5537133E-1,3.2259285E-1,1.8059185E-1,3.60992E-1,7.8611046E-2,5.3758603E-1,4.164964E-2,9.8462045E-2,6.8552256E-2,7.358523E-2,1.6840911E-1,1.3899802E-1,4.6851784E-2,9.910625E-2,3.4205127E-1,9.557143E-2,3.9017998E-2,5.2098423E-2,4.976567E-1,2.5662848E-1,2.525568E-2,2.3303479E-2,7.108486E-2,1.0611293E-1,4.7573626E-2,4.090962E-2,4.9694926E-2,2.7644768E-2,1.8573374E-1,9.938055E-2,6.025569E-2,5.158669E-2,7.6118894E-3,4.374551E-2,4.0950775E-2,4.4561654E-2,2.886961E-1,2.3517802E-1,4.5906387E-2,3.7430555E-2,3.6551975E-2,3.482531E-2,3.52882E-2,4.2663723E-2,1.2184453E-1,2.5237644E-1,2.029209E-1,8.2693726E-2,5.0510764E-3,1.4309153E-2,3.1270176E-2,3.681526E-3,2.1181129E-2,5.850345E-2,3.680855E-3,5.3845212E-2,0E0,0E0,0E0,0E0,0E0,0E0,0E0,0E0,0E0,0E0,0E0,0E0,0E0,0E0,0E0,0E0,0E0,0E0,0E0,0E0,0E0,0E0,0E0,0E0,0E0,0E0,0E0,0E0,0E0,0E0,0E0,0E0,0E0,0E0,0E0,0E0,0E0,0E0,0E0,0E0,0E0,0E0,0E0,0E0,0E0,0E0,0E0,0E0,0E0,0E0,0E0,0E0,0E0,0E0,0E0,0E0,0E0,0E0,0E0,0E0,0E0,0E0,0E0,0E0],"parents":[2147483647,0,0,1,1,2,2,3,3,4,4,5,5,6,6,7,7,8,8,9,9,10,10,11,11,12,12,13,13,14,14,15,15,16,16,17,17,18,18,19,19,20,20,21,21,22,22,23,23,24,24,25,25,26,26,27,27,28,28,29,29,30,30,31,31,32,32,33,33,34,34,35,35,36,36,37,37,38,38,39,39,40,40,41,41,42,42,43,43,44,44,45,45,46,46,47,47,48,48,49,49,50,50,51,51,52,52,53,53,54,54,55,55,56,56,57,57,58,58,59,59,60,60,61,61,62,62],"right_children":[2,4,6,8,10,12,14,16,18,20,22,24,26,28,30,32,34,36,38,40,42,44,46,48,50,52,54,56,58,60,62,64,66,68,70,72,74,76,78,80,82,84,86,88,90,92,94,96,98,100,102,104,106,108,110,112,114,116,118,120,122,124,126,-1,-1,-1,-1,-1,-1,-1,-1,-1,-1,-1,-1,-1,-1,-1,-1,-1,-1,-1,-1,-1,-1,-1,-1,-1,-1,-1,-1,-1,-1,-1,-1,-1,-1,-1,-1,-1,-1,-1,-1,-1,-1,-1,-1,-1,-1,-1,-1,-1,-1,-1,-1,-1,-1,-1,-1,-1,-1,-1,-1,-1,-1,-1,-1],"split_conditions":[4.5858374E-1,-7.0625003E-3,-3.7675673E-1,-8.77536E-1,-6.960822E-1,-8.78985E-1,-1.0318593E0,9.4838035E-1,-2.801749E-1,2.2468315E-1,1.245495E0,2.8394914E-1,9.19304E-2,-1.0451508E0,9.646336E-1,-1.3773415E0,7.192284E-1,2.733627E0,-2.9267618E-1,-1.1187879E0,-6.7081624E-1,6.373376E-2,-2.2002442E-1,-2.696166E-1,-1.7383581E0,-1.6743076E0,1.0573125E0,1.62348E-1,5.1569824E0,6.016418E-1,-3.9531955E-1,1.9758312E0,-7.1504015E-1,2.5893283E-1,1.1673297E0,-1.0354723E0,1.7826041E0,2.1981815E-1,9.70737E-1,5.626047E-1,2.1433827E-2,1.22272275E-1,-2.0421948E0,6.368785E-1,-5.1539415E-1,4.306858E-1,5.880513E-1,7.3521423E-1,-1.1360836E0,-1.1165366E-1,2.6339953E0,1.3963506E0,-1.3632101E0,-1.3302687E0,-2.56039E-1,-1.175186E-1,2.0127213E0,-5.816984E-1,-5.5229896E-1,4.1722918E0,1.9111605E-1,-3.2000296E0,8.9988345E-1,2.3390402E-3,4.5752712E-4,8.913973E-4,1.7209984E-3,9.3425624E-5,-1.6256168E-3,4.8736125E-4,1.9493455E-3,4.6543333E-5,7.7940687E-4,2.1350062E-3,-3.7175303E-4,-6.356512E-4,-2.1636956E-3,1.3512738E-4,1.6967134E-3,-1.187075E-4,-4.1436935E-3,3.7052235E-4,1.6687205E-3,3.0981407E-3,1.179409E-3,3.5294374E-3,9.688845E-4,2.1689112E-4,-4.1107438E-4,-1.3042466E-3,-3.4876E-4,5.957495E-4,-4.5769627E-4,1.0714106E-3,2.1460245E-3,5.2354083E-4,2.1263908E-3,-4.2731515E-3,6.9741705E-5,9.982684E-4,3.751893E-3,1.1144573E-3,-3.077709E-3,-2.9717619E-3,-9.0404385E-4,-2.4614544E-3,-5.7139935E-4,-1.1346269E-3,-2.9493734E-5,-2.1428352E-3,-8.045149E-4,-4.8066173E-3,-1.9519926E-3,-2.9871385E-3,-4.7523154E-5,-3.210661E-3,-1.8409662E-3,-5.79501E-4,1.4390983E-3,-3.8725205E-4,1.8767023E-3,-1.2059005E-3,-3.1554485E-3,-8.527299E-4,-4.460185E-3,-2.2133347E-3,-1.5899676E-4],"split_indices":[60,27,54,75,63,63,48,26,60,22,75,53,58,15,22,72,42,48,24,12,64,53,50,8,20,49,70,87,36,26,38,17,53,22,6,60,16,3,16,3,0,25,17,72,68,19,24,82,24,42,22,30,26,57,8,9,38,21,0,106,9,13,89,0,0,0,0,0,0,0,0,0,0,0,0,0,0,0,0,0,0,0,0,0,0,0,0,0,0,0,0,0,0,0,0,0,0,0,0,0,0,0,0,0,0,0,0,0,0,0,0,0,0,0,0,0,0,0,0,0,0,0,0,0,0,0,0],"split_type":[0,0,0,0,0,0,0,0,0,0,0,0,0,0,0,0,0,0,0,0,0,0,0,0,0,0,0,0,0,0,0,0,0,0,0,0,0,0,0,0,0,0,0,0,0,0,0,0,0,0,0,0,0,0,0,0,0,0,0,0,0,0,0,0,0,0,0,0,0,0,0,0,0,0,0,0,0,0,0,0,0,0,0,0,0,0,0,0,0,0,0,0,0,0,0,0,0,0,0,0,0,0,0,0,0,0,0,0,0,0,0,0,0,0,0,0,0,0,0,0,0,0,0,0,0,0,0],"sum_hessian":[2.3114E4,1.499E4,8.124E3,5.17E3,9.82E3,7.408E3,7.16E2,9E2,4.27E3,6.41E2,9.179E3,6.64E2,6.744E3,1.8E2,5.36E2,6.84E2,2.16E2,3.745E3,5.25E2,3.68E2,2.73E2,8.475E3,7.04E2,3.23E2,3.41E2,1.962E3,4.782E3,5.7E1,1.23E2,4.02E2,1.34E2,2.88E2,3.96E2,1.12E2,1.04E2,3.532E3,2.13E2,3.23E2,2.02E2,4E0,3.64E2,1.18E2,1.55E2,5.509E3,2.966E3,4.11E2,2.93E2,1.28E2,1.95E2,3.3E1,3.08E2,2.77E2,1.685E3,4.441E3,3.41E2,3E1,2.7E1,1.19E2,4E0,1.29E2,2.73E2,3E1,1.04E2,2.64E2,2.4E1,1.72E2,2.24E2,6.9E1,4.3E1,7.6E1,2.8E1,6.87E2,2.845E3,1.84E2,2.9E1,2.75E2,4.8E1,1.6E2,4.2E1,1E0,3E0,3.17E2,4.7E1,9.4E1,2.4E1,1.1E1,1.44E2,3.821E3,1.688E3,4.94E2,2.472E3,3.29E2,8.2E1,2.24E2,6.9E1,9.9E1,2.9E1,2E0,1.93E2,1.3E1,2E1,3.05E2,3E0,2.18E2,5.9E1,1.21E2,1.564E3,2.83E2,4.158E3,1.09E2,2.32E2,2.7E1,3E0,2.4E1,3E0,5.3E1,6.6E1,2E0,2E0,1.23E2,6E0,2.46E2,2.7E1,1E0,2.9E1,7.6E1,2.8E1],"tree_param":{"num_deleted":"0","num_feature":"109","num_nodes":"127","size_leaf_vector":"1"}},{"base_weights":[1.870446E-4,5.8660754E-3,-1.0259917E-2,3.5232566E-3,2.337636E-2,-1.7078929E-2,4.0178834E-3,1.7033013E-2,-9.2429E-4,3.1153046E-2,-5.6567206E-3,-1.3928265E-2,-5.0837036E-2,2.0552998E-2,5.7122804E-4,1.0206586E-2,3.13138E-2,7.5810603E-3,-4.4338824E-3,3.5495725E-2,-1.2553232E-2,2.2942026E-3,-5.860152E-2,1.9313566E-2,-1.6736455E-2,-4.03871E-2,-6.8934076E-2,1.736803E-2,6.5094456E-2,-2.7878862E-3,2.1353869E-2,5.790666E-3,2.5704386E-2,7.493764E-2,2.7868321E-2,-4.508866E-2,9.685894E-3,-3.1266094E-3,-3.0473081E-2,2.9132256E-2,5.164297E-2,3.547474E-3,-3.9126217E-2,-3.8708362E-3,4.422056E-2,1.5580908E-2,-6.738546E-2,3.6305975E-2,5.569375E-3,-3.1507853E-2,-1.1841628E-2,-6.910289E-2,-3.3248752E-2,-7.380509E-2,2.6944729E-2,-3.3050913E-3,2.2305531E-2,-2.436056E-2,8.395988E-2,2.46158E-2,-4.685876E-3,3.170583E-2,6.8722186E-3,-7.581482E-4,3.6747893E-4,-1.274499E-4,1.1739118E-3,1.9512939E-3,3.8685377E-3,2.4713639E-3,9.820584E-4,-9.2056824E-4,-2.769115E-3,4.966223E-4,-5.2374357E-4,-2.7542282E-4,3.6671496E-4,-3.5289576E-4,-1.6839387E-3,1.7037961E-3,9.4860006E-4,2.2150949E-3,4.1858683E-4,-3.4000483E-4,1.2156875E-3,8.36426E-4,-2.140682E-3,-5.3492526E-4,1.0256631E-3,2.3728398E-4,2.4471916E-3,-7.2573416E-4,3.6840443E-3,-1.9758453E-3,-3.625032E-3,2.6623427E-3,1.1220527E-3,3.1167167E-4,-2.5140482E-3,-2.5484455E-3,-8.528757E-4,-2.0860857E-4,-1.0070201E-3,-8.649231E-4,-3.1340544E-3,-3.2017415E-3,-1.1568886E-3,-3.4679258E-3,-2.1417036E-3,3.0338924E-5,2.3795173E-3,-2.5541487E-3,1.9687276E-4,2.6770085E-3,7.439558E-4,-1.4129566E-3,6.091244E-4,4.2632697E-3,1.2760324E-3,3.5991732E-3,7.1905536E-4,-1.135256E-3,-1.2048387E-4,9.900094E-4,3.088079E-3,5.197123E-4,-8.6538E-4],"categories":[],"categories_nodes":[],"categories_segments":[],"categories_sizes":[],"default_left":[0,0,0,0,0,0,0,0,0,0,0,0,0,0,0,0,0,0,0,0,0,0,0,0,0,0,0,0,0,0,0,0,0,0,0,0,0,0,0,0,0,0,0,0,0,0,0,0,0,0,0,0,0,0,0,0,0,0,0,0,0,0,0,0,0,0,0,0,0,0,0,0,0,0,0,0,0,0,0,0,0,0,0,0,0,0,0,0,0,0,0,0,0,0,0,0,0,0,0,0,0,0,0,0,0,0,0,0,0,0,0,0,0,0,0,0,0,0,0,0,0,0,0,0,0,0,0],"id":3,"left_children":[1,3,5,7,9,11,13,15,17,19,21,23,25,27,29,31,33,35,37,39,41,43,45,47,49,51,53,55,57,59,61,63,65,67,69,71,73,75,77,79,81,83,85,87,89,91,93,95,97,99,101,103,105,107,109,111,113,115,117,119,121,123,125,-1,-1,-1,-1,-1,-1,-1,-1,-1,-1,-1,-1,-1,-1,-1,-1,-1,-1,-1,-1,-1,-1,-1,-1,-1,-1,-1,-1,-1,-1,-1,-1,-1,-1,-1,-1,-1,-1,-1,-1,-1,-1,-1,-1,-1,-1,-1,-1,-1,-1,-1,-1,-1,-1,-1,-1,-1,-1,-1,-1,-1,-1,-1,-1],"loss_changes":[1.3745264E0,6.1563826E-1,7.944328E-1,7.9548466E-1,4.0003473E-1,5.8661413E-1,1.5033011E-1,3.1933945E-1,2.9737255E-1,2.6559925E-1,1.5799446E-1,4.7192413E-1,8.6288214E-2,6.341718E-2,1.5252732E-1,1.5178135E-1,1.572349E-1,3.230421E-1,2.3995717E-1,1.29094E-1,5.447496E-2,8.469335E-2,3.2978997E-2,9.181531E-2,3.364886E-1,5.9402376E-2,8.185017E-2,4.3557078E-2,5.2673504E-2,9.7949766E-2,4.535581E-2,1.4547838E-1,5.188164E-2,3.913766E-2,1.0917717E-1,5.8087125E-2,1.742053E-1,3.1043965E-1,8.445069E-2,6.564832E-2,5.4472446E-2,2.6131475E-2,4.2590134E-2,8.0547504E-2,2.6909478E-2,1.7154546E-2,1.3918862E-2,4.20845E-2,3.379065E-2,3.788185E-1,3.0920228E-1,2.4213612E-2,4.68826E-2,3.794098E-2,7.6245414E-3,4.165891E-2,5.5649072E-2,3.142065E-3,2.6041806E-2,5.1327527E-2,6.9718E-2,5.4101363E-2,2.2614263E-2,0E0,0E0,0E0,0E0,0E0,0E0,0E0,0E0,0E0,0E0,0E0,0E0,0E0,0E0,0E0,0E0,0E0,0E0,0E0,0E0,0E0,0E0,0E0,0E0,0E0,0E0,0E0,0E0,0E0,0E0,0E0,0E0,0E0,0E0,0E0,0E0,0E0,0E0,0E0,0E0,0E0,0E0,0E0,0E0,0E0,0E0,0E0,0E0,0E0,0E0,0E0,0E0,0E0,0E0,0E0,0E0,0E0,0E0,0E0,0E0,0E0,0E0,0E0,0E0],"parents":[2147483647,0,0,1,1,2,2,3,3,4,4,5,5,6,6,7,7,8,8,9,9,10,10,11,11,12,12,13,13,14,14,15,15,16,16,17,17,18,18,19,19,20,20,21,21,22,22,23,23,24,24,25,25,26,26,27,27,28,28,29,29,30,30,31,31,32,32,33,33,34,34,35,35,36,36,37,37,38,38,39,39,40,40,41,41,42,42,43,43,44,44,45,45,46,46,47,47,48,48,49,49,50,50,51,51,52,52,53,53,54,54,55,55,56,56,57,57,58,58,59,59,60,60,61,61,62,62],"right_children":[2,4,6,8,10,12,14,16,18,20,22,24,26,28,30,32,34,36,38,40,42,44,46,48,50,52,54,56,58,60,62,64,66,68,70,72,74,76,78,80,82,84,86,88,90,92,94,96,98,100,102,104,106,108,110,112,114,116,118,120,122,124,126,-1,-1,-1,-1,-1,-1,-1,-1,-1,-1,-1,-1,-1,-1,-1,-1,-1,-1,-1,-1,-1,-1,-1,-1,-1,-1,-1,-1,-1,-1,-1,-1,-1,-1,-1,-1,-1,-1,-1,-1,-1,-1,-1,-1,-1,-1,-1,-1,-1,-1,-1,-1,-1,-1,-1,-1,-1,-1,-1,-1,-1,-1,-1,-1],"split_conditions":[4.5858374E-1,1.8372504E0,9.085102E-1,-6.989921E-1,8.328008E-1,1.2443699E0,-8.2463944E-1,2.5893283E-1,-5.5415344E-1,2.3060722E0,8.791156E-1,-8.6296856E-1,1.3598846E0,1.0003525E0,1.327588E0,-5.825399E-1,-1.4243603E0,-9.15899E-1,1.5802081E0,2.3238187E0,-1.1229061E-1,1.3620476E0,-4.1571245E-1,-4.7913158E-1,-1.2613305E-1,-1.849612E-1,4.846326E0,-8.2321286E-1,-4.6560794E-2,-9.6091855E-1,-2.6845992E-1,-1.2476306E0,-1.2186323E0,1.1387441E0,-2.4181223E0,4.9141977E-2,1.5701921E0,1.1212881E0,-2.1882752E-1,-5.2807814E-1,1.7826041E0,9.2961156E-1,1.9572803E-1,1.0901138E0,-4.6898544E-2,3.9073434E-1,1.7760733E-1,-1.6569289E0,9.102025E-1,-1.185495E0,-4.7193018E-1,-6.7172235E-1,-9.481612E-1,5.0415766E-1,-2.2831821E-1,-6.5433383E-1,-6.159585E-1,3.709213E-1,6.7530906E-1,-9.134167E-1,-1.0476608E0,1.4693544E0,2.9617736E-1,-7.581482E-4,3.6747893E-4,-1.274499E-4,1.1739118E-3,1.9512939E-3,3.8685377E-3,2.4713639E-3,9.820584E-4,-9.2056824E-4,-2.769115E-3,4.966223E-4,-5.2374357E-4,-2.7542282E-4,3.6671496E-4,-3.5289576E-4,-1.6839387E-3,1.7037961E-3,9.4860006E-4,2.2150949E-3,4.1858683E-4,-3.4000483E-4,1.2156875E-3,8.36426E-4,-2.140682E-3,-5.3492526E-4,1.0256631E-3,2.3728398E-4,2.4471916E-3,-7.2573416E-4,3.6840443E-3,-1.9758453E-3,-3.625032E-3,2.6623427E-3,1.1220527E-3,3.1167167E-4,-2.5140482E-3,-2.5484455E-3,-8.528757E-4,-2.0860857E-4,-1.0070201E-3,-8.649231E-4,-3.1340544E-3,-3.2017415E-3,-1.1568886E-3,-3.4679258E-3,-2.1417036E-3,3.0338924E-5,2.3795173E-3,-2.5541487E-3,1.9687276E-4,2.6770085E-3,7.439558E-4,-1.4129566E-3,6.091244E-4,4.2632697E-3,1.2760324E-3,3.5991732E-3,7.1905536E-4,-1.135256E-3,-1.2048387E-4,9.900094E-4,3.088079E-3,5.197123E-4,-8.6538E-4],"split_indices":[60,63,58,48,26,39,71,22,26,17,9,63,39,17,39,45,48,43,48,54,85,86,12,13,58,65,105,86,39,59,44,26,86,22,58,23,45,54,22,72,16,88,22,11,8,13,86,20,20,43,45,19,85,87,23,9,86,9,13,24,24,84,0,0,0,0,0,0,0,0,0,0,0,0,0,0,0,0,0,0,0,0,0,0,0,0,0,0,0,0,0,0,0,0,0,0,0,0,0,0,0,0,0,0,0,0,0,0,0,0,0,0,0,0,0,0,0,0,0,0,0,0,0,0,0,0,0],"split_type":[0,0,0,0,0,0,0,0,0,0,0,0,0,0,0,0,0,0,0,0,0,0,0,0,0,0,0,0,0,0,0,0,0,0,0,0,0,0,0,0,0,0,0,0,0,0,0,0,0,0,0,0,0,0,0,0,0,0,0,0,0,0,0,0,0,0,0,0,0,0,0,0,0,0,0,0,0,0,0,0,0,0,0,0,0,0,0,0,0,0,0,0,0,0,0,0,0,0,0,0,0,0,0,0,0,0,0,0,0,0,0,0,0,0,0,0,0,0,0,0,0,0,0,0,0,0,0],"sum_hessian":[2.3166E4,1.5008E4,8.158E3,1.3238E4,1.77E3,5.521E3,2.637E3,3.278E3,9.96E3,1.396E3,3.74E2,5.051E3,4.7E2,4.54E2,2.183E3,2.219E3,1.059E3,2.909E3,7.051E3,1.27E3,1.26E2,3.26E2,4.8E1,3.93E2,4.658E3,3E2,1.7E2,4.25E2,2.9E1,1.88E3,3.03E2,1.728E3,4.91E2,7.6E1,9.83E2,1.11E2,2.798E3,6.715E3,3.36E2,9.13E2,3.57E2,7.9E1,4.7E1,2.85E2,4.1E1,5E0,4.3E1,1.75E2,2.18E2,1.158E3,3.5E3,5.8E1,2.42E2,1.62E2,8E0,8.2E1,3.43E2,5E0,2.4E1,1.21E2,1.759E3,1.76E2,1.27E2,2.08E2,1.52E3,5.5E1,4.36E2,3.6E1,4E1,8.6E1,8.97E2,5.9E1,5.2E1,2.499E3,2.99E2,5.143E3,1.572E3,1.18E2,2.18E2,2.6E2,6.53E2,3.27E2,3E1,5.5E1,2.4E1,9E0,3.8E1,2.16E2,6.9E1,1.3E1,2.8E1,4E0,1E0,2.6E1,1.7E1,3.6E1,1.39E2,2.12E2,6E0,2.77E2,8.81E2,2.339E3,1.161E3,1E1,4.8E1,1.9E1,2.23E2,9.7E1,6.5E1,5E0,3E0,9E0,7.3E1,2.5E1,3.18E2,4E0,1E0,1.6E1,8E0,1E1,1.11E2,1.15E2,1.644E3,1.54E2,2.2E1,1.05E2,2.2E1],"tree_param":{"num_deleted":"0","num_feature":"109","num_nodes":"127","size_leaf_vector":"1"}},{"base_weights":[1.4182261E-5,5.2493834E-3,-1.0136499E-2,1.6097978E-2,-5.789204E-4,-2.2317067E-2,-1.6635018E-3,1.3889649E-2,3.9480872E-2,-4.7133216E-3,9.802576E-3,-6.722968E-2,-1.9816263E-2,1.7181961E-3,-2.092314E-2,1.8882157E-2,4.0119067E-3,3.465296E-2,8.54945E-2,1.0998377E-2,-7.623759E-3,-3.4671836E-2,1.267576E-2,-1.049634E-1,-6.0307946E-2,-1.6329309E-2,-4.7963504E-2,4.5798486E-3,-1.9915158E-2,-9.103546E-3,-5.387783E-2,2.076058E-2,-6.872239E-3,6.0250694E-3,-3.3801425E-2,3.7496567E-2,-2.7036313E-2,1.0909194E-1,5.5578526E-2,-2.0549702E-2,1.4839264E-2,1.0682974E-2,-9.481952E-3,-3.9874602E-2,5.360041E-2,-8.042594E-3,1.7728288E-2,-4.8034047E-3,-5.7819117E-2,-7.453677E-2,-4.7637455E-2,-8.4411865E-3,-2.6175989E-2,-9.67867E-2,-3.7678827E-2,1.2758373E-4,2.0829557E-2,5.5375148E-2,-2.43491E-2,-3.0313138E-2,1.6212445E-3,-6.0084287E-2,-2.9098618E-4,7.559783E-4,1.8763175E-3,2.1104129E-4,-1.1339807E-3,1.3895698E-4,1.1311217E-3,-2.5826397E-3,1.4450912E-3,1.3609912E-3,3.1089792E-3,1.3209507E-3,-2.033807E-3,4.541461E-3,1.6646327E-3,2.524194E-3,3.126168E-4,4.4937752E-4,-2.3057049E-3,9.617698E-4,3.2661832E-4,1.0247354E-3,-5.4730477E-5,-5.099068E-4,-1.0851473E-5,-1.2936582E-3,-2.88774E-3,9.5394615E-4,2.7784056E-3,-8.12149E-4,4.8494476E-4,8.900068E-4,-4.8495378E-5,-2.639231E-3,-8.8890997E-4,-3.1268476E-3,-9.823313E-4,1.8022263E-4,-2.1724238E-3,-1.2337131E-3,-2.0744938E-4,-3.9791595E-4,-1.4491725E-3,-2.2104506E-3,-4.399487E-3,-2.4313862E-3,-1.0637598E-3,1.9001371E-4,-4.4163538E-4,1.8743662E-3,6.59167E-4,3.1040816E-3,-1.7342466E-4,-7.7256886E-4,-2.0012604E-3,-9.983067E-4,-3.55883E-3,-5.803314E-4,3.78743E-4,-2.0299084E-3,-4.0038433E-3,-1.235917E-3,1.9792665E-3],"categories":[],"categories_nodes":[],"categories_segments":[],"categories_sizes":[],"default_left":[0,0,0,0,0,0,0,0,0,0,0,0,0,0,0,0,0,0,0,0,0,0,0,0,0,0,0,0,0,0,0,0,0,0,0,0,0,0,0,0,0,0,0,0,0,0,0,0,0,0,0,0,0,0,0,0,0,0,0,0,0,0,0,0,0,0,0,0,0,0,0,0,0,0,0,0,0,0,0,0,0,0,0,0,0,0,0,0,0,0,0,0,0,0,0,0,0,0,0,0,0,0,0,0,0,0,0,0,0,0,0,0,0,0,0,0,0,0,0,0,0,0,0,0,0],"id":4,"left_children":[1,3,5,7,9,11,13,15,17,19,21,23,25,27,29,31,33,35,37,39,41,43,45,47,49,51,53,55,57,59,61,63,65,67,69,71,73,75,77,79,81,83,85,87,89,91,93,-1,95,97,99,101,103,105,107,109,111,113,115,117,119,121,123,-1,-1,-1,-1,-1,-1,-1,-1,-1,-1,-1,-1,-1,-1,-1,-1,-1,-1,-1,-1,-1,-1,-1,-1,-1,-1,-1,-1,-1,-1,-1,-1,-1,-1,-1,-1,-1,-1,-1,-1,-1,-1,-1,-1,-1,-1,-1,-1,-1,-1,-1,-1,-1,-1,-1,-1,-1,-1,-1,-1,-1,-1],"loss_changes":[1.2300516E0,9.6557796E-1,8.1281257E-1,2.7503884E-1,4.2646903E-1,3.615662E-1,3.026312E-1,2.4048144E-1,9.922624E-2,3.250264E-1,3.6206588E-1,3.8070858E-2,2.9974627E-1,2.4481018E-1,2.6983023E-1,1.5688634E-1,1.24971546E-1,7.433945E-2,2.429226E-2,1.3492772E-1,2.0406982E-1,8.112997E-2,2.784869E-1,1.0879368E-2,2.277112E-2,2.1151239E-1,1.6557127E-1,2.526366E-1,1.555791E-1,1.1651297E-1,6.0845435E-2,1.4607716E-1,5.7811074E-2,8.8293515E-2,1.8089269E-1,5.322051E-2,2.8848384E-2,2.1728277E-3,7.0559084E-3,1.4330254E-1,6.068304E-2,9.956962E-2,1.6374913E-1,3.734964E-2,3.0620191E-3,1.2931618E-1,1.8314135E-1,0E0,8.5793063E-4,1.02503E-2,2.8081298E-2,1.103082E-1,1.973728E-1,2.5714934E-2,7.009831E-2,1.4161955E-1,8.427006E-2,3.484326E-2,5.5541217E-2,5.1811427E-2,4.3299023E-2,5.6186378E-2,3.199665E-2,0E0,0E0,0E0,0E0,0E0,0E0,0E0,0E0,0E0,0E0,0E0,0E0,0E0,0E0,0E0,0E0,0E0,0E0,0E0,0E0,0E0,0E0,0E0,0E0,0E0,0E0,0E0,0E0,0E0,0E0,0E0,0E0,0E0,0E0,0E0,0E0,0E0,0E0,0E0,0E0,0E0,0E0,0E0,0E0,0E0,0E0,0E0,0E0,0E0,0E0,0E0,0E0,0E0,0E0,0E0,0E0,0E0,0E0,0E0,0E0,0E0,0E0],"parents":[2147483647,0,0,1,1,2,2,3,3,4,4,5,5,6,6,7,7,8,8,9,9,10,10,11,11,12,12,13,13,14,14,15,15,16,16,17,17,18,18,19,19,20,20,21,21,22,22,23,23,24,24,25,25,26,26,27,27,28,28,29,29,30,30,31,31,32,32,33,33,34,34,35,35,36,36,37,37,38,38,39,39,40,40,41,41,42,42,43,43,44,44,45,45,46,46,48,48,49,49,50,50,51,51,52,52,53,53,54,54,55,55,56,56,57,57,58,58,59,59,60,60,61,61,62,62],"right_children":[2,4,6,8,10,12,14,16,18,20,22,24,26,28,30,32,34,36,38,40,42,44,46,48,50,52,54,56,58,60,62,64,66,68,70,72,74,76,78,80,82,84,86,88,90,92,94,-1,96,98,100,102,104,106,108,110,112,114,116,118,120,122,124,-1,-1,-1,-1,-1,-1,-1,-1,-1,-1,-1,-1,-1,-1,-1,-1,-1,-1,-1,-1,-1,-1,-1,-1,-1,-1,-1,-1,-1,-1,-1,-1,-1,-1,-1,-1,-1,-1,-1,-1,-1,-1,-1,-1,-1,-1,-1,-1,-1,-1,-1,-1,-1,-1,-1,-1,-1,-1,-1,-1,-1,-1],"split_conditions":[4.944204E-1,-7.0625003E-3,9.7681874E-1,1.7580241E0,-1.2029795E-1,-1.0318593E0,2.4789988E-1,4.4701162E-1,2.8596716E0,-1.132051E0,-1.733419E0,-1.5408303E0,1.0104878E0,7.672006E-2,-8.706925E-3,3.6986072E0,2.525439E0,2.3491855E0,2.393052E-1,-3.1912324E-1,-6.7032504E-1,4.8399205E0,-6.828109E-1,1.62348E-1,-1.7768691E-1,-2.694732E-1,-1.4182755E0,1.3902384E-1,-1.3509071E0,-1.3348708E0,1.4570349E-2,4.149346E-1,2.6445395E-1,2.8596716E0,4.6979326E-1,1.4102252E0,-1.3348596E0,1.533887E0,5.133264E-1,1.0169299E-1,-2.1439804E-1,6.016418E-1,6.211394E-1,1.1196806E0,2.8586578E-1,-1.8992701E-1,1.1847365E0,-4.8034047E-3,7.678032E-1,1.2740868E0,-1.761275E0,-3.9059412E-1,6.791095E-1,-8.6181325E-1,-2.29791E-1,-4.390922E-2,-9.557231E-1,-3.5487747E-1,3.709213E-1,4.1335484E-1,-9.66707E-1,-1.5081571E-1,6.7997515E-1,7.559783E-4,1.8763175E-3,2.1104129E-4,-1.1339807E-3,1.3895698E-4,1.1311217E-3,-2.5826397E-3,1.4450912E-3,1.3609912E-3,3.1089792E-3,1.3209507E-3,-2.033807E-3,4.541461E-3,1.6646327E-3,2.524194E-3,3.126168E-4,4.4937752E-4,-2.3057049E-3,9.617698E-4,3.2661832E-4,1.0247354E-3,-5.4730477E-5,-5.099068E-4,-1.0851473E-5,-1.2936582E-3,-2.88774E-3,9.5394615E-4,2.7784056E-3,-8.12149E-4,4.8494476E-4,8.900068E-4,-4.8495378E-5,-2.639231E-3,-8.8890997E-4,-3.1268476E-3,-9.823313E-4,1.8022263E-4,-2.1724238E-3,-1.2337131E-3,-2.0744938E-4,-3.9791595E-4,-1.4491725E-3,-2.2104506E-3,-4.399487E-3,-2.4313862E-3,-1.0637598E-3,1.9001371E-4,-4.4163538E-4,1.8743662E-3,6.59167E-4,3.1040816E-3,-1.7342466E-4,-7.7256886E-4,-2.0012604E-3,-9.983067E-4,-3.55883E-3,-5.803314E-4,3.78743E-4,-2.0299084E-3,-4.0038433E-3,-1.235917E-3,1.9792665E-3],"split_indices":[60,27,60,41,50,48,47,74,96,26,73,14,69,49,57,98,20,15,57,42,21,102,42,87,31,23,42,42,80,41,8,74,6,96,57,86,87,16,12,23,17,26,84,23,5,21,41,0,1,88,11,58,60,23,7,47,41,21,9,21,57,8,23,0,0,0,0,0,0,0,0,0,0,0,0,0,0,0,0,0,0,0,0,0,0,0,0,0,0,0,0,0,0,0,0,0,0,0,0,0,0,0,0,0,0,0,0,0,0,0,0,0,0,0,0,0,0,0,0,0,0,0,0,0,0],"split_type":[0,0,0,0,0,0,0,0,0,0,0,0,0,0,0,0,0,0,0,0,0,0,0,0,0,0,0,0,0,0,0,0,0,0,0,0,0,0,0,0,0,0,0,0,0,0,0,0,0,0,0,0,0,0,0,0,0,0,0,0,0,0,0,0,0,0,0,0,0,0,0,0,0,0,0,0,0,0,0,0,0,0,0,0,0,0,0,0,0,0,0,0,0,0,0,0,0,0,0,0,0,0,0,0,0,0,0,0,0,0,0,0,0,0,0,0,0,0,0,0,0,0,0,0,0],"sum_hessian":[2.3145E4,1.527E4,7.875E3,5.336E3,9.934E3,3.23E3,4.645E3,4.877E3,4.59E2,7.105E3,2.829E3,1.69E2,3.061E3,3.952E3,6.93E2,3.239E3,1.638E3,4.17E2,4.2E1,1.11E3,5.995E3,1.71E2,2.658E3,2.4E1,1.45E2,2.725E3,3.36E2,3.491E3,4.61E2,5.11E2,1.82E2,3.019E3,2.2E2,1.556E3,8.2E1,3.99E2,1.8E1,2.2E1,2E1,1.2E2,9.9E2,5.52E2,5.443E3,1.62E2,9E0,5.21E2,2.137E3,1.7E1,7E0,6.6E1,7.9E1,1.514E3,1.211E3,5.7E1,2.79E2,2.741E3,7.5E2,2.5E1,4.36E2,1.71E2,3.4E2,1.63E2,1.9E1,2.82E3,1.99E2,1.41E2,7.9E1,1.397E3,1.59E2,5.7E1,2.5E1,3.69E2,3E1,5E0,1.3E1,2E1,2E0,1.7E1,3E0,6.5E1,5.5E1,4.15E2,5.75E2,2.46E2,3.06E2,4.018E3,1.425E3,1.33E2,2.9E1,4E0,5E0,3.24E2,1.97E2,1.725E3,4.12E2,5E0,2E0,6.1E1,5E0,9E0,7E1,1.91E2,1.323E3,4.64E2,7.47E2,1.5E1,4.2E1,8.9E1,1.9E2,1.939E3,8.02E2,1.06E2,6.44E2,1.8E1,7E0,3.66E2,7E1,1.58E2,1.3E1,1.11E2,2.29E2,1.34E2,2.9E1,1.2E1,7E0],"tree_param":{"num_deleted":"0","num_feature":"109","num_nodes":"125","size_leaf_vector":"1"}},{"base_weights":[-5.71463E-5,6.959204E-3,-6.588762E-3,1.6399326E-2,-5.122586E-4,-1.0382192E-3,-1.7982237E-2,1.4092676E-2,3.8631912E-2,9.889009E-3,-6.275694E-3,4.6501882E-4,-3.86835E-2,2.2051925E-2,-1.9768784E-2,1.9321278E-2,3.80575E-3,4.2069227E-2,-2.925342E-2,1.3926711E-2,-2.6189186E-2,1.2425454E-2,-9.44411E-3,-5.0924234E-3,1.0684549E-2,-6.903419E-2,-1.7915383E-2,1.4528198E-2,7.1663715E-2,-1.7819414E-2,-5.017602E-2,2.240725E-2,3.3071192E-3,5.774981E-3,-3.459246E-2,4.4820584E-2,-1.8363014E-2,3.487023E-2,-5.3936485E-2,1.8666856E-2,2.2028401E-4,2.9498425E-3,-4.3241926E-2,1.4802266E-2,-5.5340752E-2,-1.7421E-2,-1.8679431E-3,1.865294E-2,-7.135258E-3,5.062693E-3,2.089566E-2,-7.385405E-2,2.3454128E-2,-1.2629418E-2,-5.8846567E-2,2.8876156E-2,-2.7764007E-3,1.9294083E-2,9.481661E-2,-1.493998E-2,-3.9721373E-2,-9.470454E-2,-3.6068458E-2,7.2010263E-4,1.4576949E-3,3.2435235E-4,-1.4972346E-3,1.3520136E-4,1.0545983E-3,-2.1516334E-3,2.763268E-3,1.5246171E-3,2.799559E-3,-2.1405966E-4,-1.6705107E-3,4.0110445E-4,2.5860474E-3,1.4617207E-4,-2.8775132E-3,7.763966E-4,-2.4466168E-3,-1.9542208E-4,1.0204873E-3,8.4941037E-4,-7.8975834E-4,-1.4532051E-3,-3.096935E-3,1.1799803E-3,3.6297625E-4,1.177315E-3,-2.6558083E-3,-5.2065175E-4,-1.335909E-3,-3.1692832E-4,7.7075005E-4,-9.719166E-4,9.88726E-4,1.6560343E-5,-5.5527105E-4,1.2700938E-4,1.3525189E-3,1.6934368E-3,6.035852E-4,-8.433159E-4,-3.1177145E-3,1.6076898E-3,3.409913E-5,-9.323747E-4,3.7393867E-4,-8.983022E-4,-3.1804917E-3,1.3704684E-3,-1.7661429E-3,6.906263E-4,-4.3600684E-4,1.1374766E-3,-8.941148E-4,5.0097564E-3,3.5652838E-4,-2.6963495E-3,-5.579218E-4,-3.383207E-3,-1.3868193E-3,-2.3290007E-3,-4.2896867E-3,-2.4306042E-5,-1.8388863E-3],"categories":[],"categories_nodes":[],"categories_segments":[],"categories_sizes":[],"default_left":[0,0,0,0,0,0,0,0,0,0,0,0,0,0,0,0,0,0,0,0,0,0,0,0,0,0,0,0,0,0,0,0,0,0,0,0,0,0,0,0,0,0,0,0,0,0,0,0,0,0,0,0,0,0,0,0,0,0,0,0,0,0,0,0,0,0,0,0,0,0,0,0,0,0,0,0,0,0,0,0,0,0,0,0,0,0,0,0,0,0,0,0,0,0,0,0,0,0,0,0,0,0,0,0,0,0,0,0,0,0,0,0,0,0,0,0,0,0,0,0,0,0,0,0,0,0,0],"id":5,"left_children":[1,3,5,7,9,11,13,15,17,19,21,23,25,27,29,31,33,35,37,39,41,43,45,47,49,51,53,55,57,59,61,63,65,67,69,71,73,75,77,79,81,83,85,87,89,91,93,95,97,99,101,103,105,107,109,111,113,115,117,119,121,123,125,-1,-1,-1,-1,-1,-1,-1,-1,-1,-1,-1,-1,-1,-1,-1,-1,-1,-1,-1,-1,-1,-1,-1,-1,-1,-1,-1,-1,-1,-1,-1,-1,-1,-1,-1,-1,-1,-1,-1,-1,-1,-1,-1,-1,-1,-1,-1,-1,-1,-1,-1,-1,-1,-1,-1,-1,-1,-1,-1,-1,-1,-1,-1,-1],"loss_changes":[1.0656868E0,7.9073733E-1,7.615803E-1,2.5345922E-1,3.7527058E-1,4.5833895E-1,2.8259385E-1,2.4137294E-1,1.0973525E-1,3.2550687E-1,2.3878853E-1,4.4242632E-1,1.9479477E-1,6.2040724E-2,2.2298753E-1,1.4699757E-1,1.146808E-1,7.448101E-2,3.8284443E-2,1.3045657E-1,1.1193013E-1,9.48826E-2,2.0816341E-1,2.449037E-1,1.5741464E-1,5.7900727E-2,3.949992E-2,3.6826447E-2,2.4845786E-2,2.2335136E-1,1.3918298E-1,1.5358567E-1,9.45881E-2,7.096933E-2,1.5100372E-1,6.8885684E-2,5.8658356E-3,4.530562E-3,1.7886981E-2,8.969283E-2,6.688811E-2,3.527638E-2,3.0735433E-2,4.7296114E-2,2.0696718E-2,1.1765081E-1,2.2643596E-1,1.0480304E-1,2.366833E-1,9.599587E-2,1.2060735E-1,2.4249256E-2,2.6139002E-3,3.9181873E-2,1.4006466E-2,3.337054E-2,1.1259759E-2,3.681816E-3,3.8090795E-2,1.6248262E-1,9.0417266E-2,1.8453658E-2,6.107968E-2,0E0,0E0,0E0,0E0,0E0,0E0,0E0,0E0,0E0,0E0,0E0,0E0,0E0,0E0,0E0,0E0,0E0,0E0,0E0,0E0,0E0,0E0,0E0,0E0,0E0,0E0,0E0,0E0,0E0,0E0,0E0,0E0,0E0,0E0,0E0,0E0,0E0,0E0,0E0,0E0,0E0,0E0,0E0,0E0,0E0,0E0,0E0,0E0,0E0,0E0,0E0,0E0,0E0,0E0,0E0,0E0,0E0,0E0,0E0,0E0,0E0,0E0,0E0,0E0],"parents":[2147483647,0,0,1,1,2,2,3,3,4,4,5,5,6,6,7,7,8,8,9,9,10,10,11,11,12,12,13,13,14,14,15,15,16,16,17,17,18,18,19,19,20,20,21,21,22,22,23,23,24,24,25,25,26,26,27,27,28,28,29,29,30,30,31,31,32,32,33,33,34,34,35,35,36,36,37,37,38,38,39,39,40,40,41,41,42,42,43,43,44,44,45,45,46,46,47,47,48,48,49,49,50,50,51,51,52,52,53,53,54,54,55,55,56,56,57,57,58,58,59,59,60,60,61,61,62,62],"right_children":[2,4,6,8,10,12,14,16,18,20,22,24,26,28,30,32,34,36,38,40,42,44,46,48,50,52,54,56,58,60,62,64,66,68,70,72,74,76,78,80,82,84,86,88,90,92,94,96,98,100,102,104,106,108,110,112,114,116,118,120,122,124,126,-1,-1,-1,-1,-1,-1,-1,-1,-1,-1,-1,-1,-1,-1,-1,-1,-1,-1,-1,-1,-1,-1,-1,-1,-1,-1,-1,-1,-1,-1,-1,-1,-1,-1,-1,-1,-1,-1,-1,-1,-1,-1,-1,-1,-1,-1,-1,-1,-1,-1,-1,-1,-1,-1,-1,-1,-1,-1,-1,-1,-1,-1,-1,-1],"split_conditions":[-9.231583E-2,-7.0625003E-3,6.016418E-1,1.7580241E0,-6.040183E-1,1.6506763E0,-8.78985E-1,4.4701162E-1,2.6246243E0,1.5921919E0,-1.2476306E0,7.2860844E-2,-1.4787896E0,1.4722456E0,8.21344E-1,-3.3186248E-1,2.525439E0,3.4340687E0,-1.2903404E0,1.1293896E0,-2.1882752E-1,2.8458705E0,3.7048274E-1,-9.027138E-1,5.485366E-1,4.846326E0,1.8653276E0,1.1943068E-1,-4.5492423E-1,1.211694E0,-7.101211E-1,3.070868E-1,1.8037988E0,2.8596716E0,-5.381391E-2,1.4322004E-1,1.7946136E0,1.6370522E0,-6.697329E-1,5.325017E0,8.525286E-1,9.2283994E-1,6.1352533E-1,-2.2169982E-1,-5.9455717E-1,7.340962E-1,6.843762E-1,-1.4787896E0,-2.0942124E-2,1.460263E0,-9.0340877E-1,-1.4428601E0,-1.594369E0,1.3963506E0,-4.4606066E-1,2.4747746E0,-5.9585106E-1,2.9741576E-1,1.1847632E0,-1.2812021E0,-1.0439105E0,-7.1158063E-1,-8.700577E-1,7.2010263E-4,1.4576949E-3,3.2435235E-4,-1.4972346E-3,1.3520136E-4,1.0545983E-3,-2.1516334E-3,2.763268E-3,1.5246171E-3,2.799559E-3,-2.1405966E-4,-1.6705107E-3,4.0110445E-4,2.5860474E-3,1.4617207E-4,-2.8775132E-3,7.763966E-4,-2.4466168E-3,-1.9542208E-4,1.0204873E-3,8.4941037E-4,-7.8975834E-4,-1.4532051E-3,-3.096935E-3,1.1799803E-3,3.6297625E-4,1.177315E-3,-2.6558083E-3,-5.2065175E-4,-1.335909E-3,-3.1692832E-4,7.7075005E-4,-9.719166E-4,9.88726E-4,1.6560343E-5,-5.5527105E-4,1.2700938E-4,1.3525189E-3,1.6934368E-3,6.035852E-4,-8.433159E-4,-3.1177145E-3,1.6076898E-3,3.409913E-5,-9.323747E-4,3.7393867E-4,-8.983022E-4,-3.1804917E-3,1.3704684E-3,-1.7661429E-3,6.906263E-4,-4.3600684E-4,1.1374766E-3,-8.941148E-4,5.0097564E-3,3.5652838E-4,-2.6963495E-3,-5.579218E-4,-3.383207E-3,-1.3868193E-3,-2.3290007E-3,-4.2896867E-3,-2.4306042E-5,-1.8388863E-3],"split_indices":[56,27,26,41,58,42,63,74,19,48,26,42,26,82,69,56,20,0,88,49,22,24,26,48,57,105,22,86,17,42,30,24,25,96,50,78,24,6,26,8,18,41,31,8,18,24,82,26,71,59,19,22,26,30,80,22,16,6,11,45,65,22,22,0,0,0,0,0,0,0,0,0,0,0,0,0,0,0,0,0,0,0,0,0,0,0,0,0,0,0,0,0,0,0,0,0,0,0,0,0,0,0,0,0,0,0,0,0,0,0,0,0,0,0,0,0,0,0,0,0,0,0,0,0,0,0,0],"split_type":[0,0,0,0,0,0,0,0,0,0,0,0,0,0,0,0,0,0,0,0,0,0,0,0,0,0,0,0,0,0,0,0,0,0,0,0,0,0,0,0,0,0,0,0,0,0,0,0,0,0,0,0,0,0,0,0,0,0,0,0,0,0,0,0,0,0,0,0,0,0,0,0,0,0,0,0,0,0,0,0,0,0,0,0,0,0,0,0,0,0,0,0,0,0,0,0,0,0,0,0,0,0,0,0,0,0,0,0,0,0,0,0,0,0,0,0,0,0,0,0,0,0,0,0,0,0,0],"sum_hessian":[2.3252E4,1.121E4,1.2042E4,4.952E3,6.258E3,8.098E3,3.944E3,4.488E3,4.64E2,2.231E3,4.027E3,7.788E3,3.1E2,1.68E2,3.776E3,2.975E3,1.513E3,4.42E2,2.2E1,2.007E3,2.24E2,5.83E2,3.444E3,5.045E3,2.743E3,1.25E2,1.85E2,1.47E2,2.1E1,3.55E3,2.26E2,2.494E3,4.81E2,1.44E3,7.3E1,4.23E2,1.9E1,6E0,1.6E1,1.491E3,5.16E2,8.3E1,1.41E2,5.64E2,1.9E1,1.677E3,1.767E3,3.99E2,4.646E3,1.77E3,9.73E2,1.19E2,6E0,1.65E2,2E1,8E1,6.7E1,7E0,1.4E1,3.139E3,4.11E2,5.3E1,1.73E2,1.9E3,5.94E2,4.31E2,5E1,1.291E3,1.49E2,6.2E1,1.1E1,3.36E2,8.7E1,1.3E1,6E0,4E0,2E0,4E0,1.2E1,1.478E3,1.3E1,4.3E2,8.6E1,4.6E1,3.7E1,1.19E2,2.2E1,1.57E2,4.07E2,2E0,1.7E1,1.316E3,3.61E2,1.374E3,3.93E2,4.9E1,3.5E2,2.193E3,2.453E3,1.662E3,1.08E2,2.06E2,7.67E2,9E0,1.1E2,3E0,3E0,1.11E2,5.4E1,8E0,1.2E1,7.5E1,5E0,1.9E1,4.8E1,6E0,1E0,1E1,4E0,5.7E1,3.082E3,4E1,3.71E2,1.5E1,3.8E1,3.8E1,1.35E2],"tree_param":{"num_deleted":"0","num_feature":"109","num_nodes":"127","size_leaf_vector":"1"}},{"base_weights":[-6.728444E-5,4.517732E-3,-8.834657E-3,1.44193545E-2,-8.300267E-4,-6.1939294E-3,-3.930412E-2,1.2219647E-2,3.78496E-2,2.2183394E-2,-2.7175273E-3,-1.0817604E-2,9.283627E-3,-3.017971E-2,-6.406919E-2,1.7175466E-2,2.3462833E-3,4.187819E-2,-3.3117276E-2,1.1721171E-2,4.1312937E-2,-3.8201306E-3,3.1333435E-2,-8.946869E-3,-4.599283E-2,6.9592833E-3,3.9364625E-2,-2.1625245E-2,-4.4660866E-2,-6.68326E-2,9.431536E-3,1.8922938E-2,-6.03305E-3,4.5741694E-3,-2.6107468E-2,3.7259795E-2,8.066579E-2,2.558215E-2,-5.7366062E-2,-2.7397018E-2,1.5508838E-2,6.674088E-2,2.724211E-2,-6.350691E-5,-1.1677867E-2,2.68668E-2,6.8404295E-2,3.385441E-2,-9.939765E-3,-9.142769E-2,-3.4631666E-2,4.3953415E-3,2.7990974E-2,6.1290126E-2,1.5657071E-2,-1.9287102E-2,-6.089892E-2,-1.1779281E-2,-5.6667056E-2,-4.121507E-2,-7.482842E-2,2.4055425E-2,-1.229104E-3,-7.823178E-4,7.987432E-4,-5.425249E-4,1.426492E-3,8.154636E-5,9.848457E-4,-2.1010519E-3,7.80719E-4,1.9523456E-4,1.6391267E-3,4.065283E-3,2.2476916E-3,2.0474642E-4,1.7906388E-3,-9.450846E-4,-3.27978E-3,-1.313502E-3,8.207419E-4,1.9317701E-3,4.883211E-4,2.7930299E-3,-6.0716033E-5,1.1886975E-3,-1.8312939E-3,-3.2581156E-4,1.6390685E-4,-7.8314514E-4,-1.1099032E-5,7.8652933E-4,1.8922564E-3,1.4854645E-3,4.257445E-3,7.3902E-4,2.4528548E-3,3.604225E-4,-4.9638987E-4,-3.7875723E-3,-8.970561E-5,-1.7760291E-3,-4.397072E-4,-1.8588773E-3,2.1295025E-4,8.484486E-4,3.2159602E-3,1.3494521E-3,4.028813E-3,3.223676E-3,-2.534323E-4,-8.344816E-4,1.2041628E-3,-2.6113468E-3,-8.0548425E-4,-1.9316339E-3,2.737842E-4,-2.861248E-3,-1.4829981E-3,-2.4251535E-4,-2.1560842E-3,-3.0656594E-3,9.296397E-4,1.1628119E-3,2.805135E-4,2.9628974E-4,-3.7823003E-4],"categories":[],"categories_nodes":[],"categories_segments":[],"categories_sizes":[],"default_left":[0,0,0,0,0,0,0,0,0,0,0,0,0,0,0,0,0,0,0,0,0,0,0,0,0,0,0,0,0,0,0,0,0,0,0,0,0,0,0,0,0,0,0,0,0,0,0,0,0,0,0,0,0,0,0,0,0,0,0,0,0,0,0,0,0,0,0,0,0,0,0,0,0,0,0,0,0,0,0,0,0,0,0,0,0,0,0,0,0,0,0,0,0,0,0,0,0,0,0,0,0,0,0,0,0,0,0,0,0,0,0,0,0,0,0,0,0,0,0,0,0,0,0,0,0,0,0],"id":6,"left_children":[1,3,5,7,9,11,13,15,17,19,21,23,25,27,29,31,33,35,37,39,41,43,45,47,49,51,53,55,57,59,61,63,65,67,69,71,73,75,77,79,81,83,85,87,89,91,93,95,97,99,101,103,105,107,109,111,113,115,117,119,121,123,125,-1,-1,-1,-1,-1,-1,-1,-1,-1,-1,-1,-1,-1,-1,-1,-1,-1,-1,-1,-1,-1,-1,-1,-1,-1,-1,-1,-1,-1,-1,-1,-1,-1,-1,-1,-1,-1,-1,-1,-1,-1,-1,-1,-1,-1,-1,-1,-1,-1,-1,-1,-1,-1,-1,-1,-1,-1,-1,-1,-1,-1,-1,-1,-1],"loss_changes":[9.264558E-1,8.013268E-1,6.365293E-1,2.7305877E-1,4.2692402E-1,5.213666E-1,1.4065135E-1,2.3741984E-1,1.3146973E-1,1.4861822E-1,3.4113827E-1,3.6868048E-1,1.1690961E-1,5.6389987E-2,3.4956396E-2,1.3115144E-1,1.0300417E-1,7.420224E-2,3.705228E-2,7.1989395E-2,9.228122E-2,2.5973308E-1,4.5353085E-2,2.2671911E-1,1.4291632E-1,8.3836675E-2,6.1416358E-2,2.5730908E-2,6.684029E-2,3.0303717E-2,1.1208667E-3,1.2130332E-1,7.1754664E-2,7.6498754E-2,1.4325893E-1,4.6393633E-2,1.7379403E-2,2.9114024E-3,1.3019584E-2,1.1883289E-2,4.7134735E-2,1.9688934E-2,3.22704E-2,2.0026481E-1,2.5633875E-1,3.6762744E-2,3.1722337E-2,4.9978882E-2,2.4383569E-1,1.607734E-2,5.2164167E-2,6.584424E-2,5.8342665E-2,6.396213E-2,8.476874E-2,2.2253111E-2,1.5450604E-3,3.2289937E-2,3.3750474E-2,1.7958261E-2,2.3651242E-2,5.2533927E-5,4.2528193E-4,0E0,0E0,0E0,0E0,0E0,0E0,0E0,0E0,0E0,0E0,0E0,0E0,0E0,0E0,0E0,0E0,0E0,0E0,0E0,0E0,0E0,0E0,0E0,0E0,0E0,0E0,0E0,0E0,0E0,0E0,0E0,0E0,0E0,0E0,0E0,0E0,0E0,0E0,0E0,0E0,0E0,0E0,0E0,0E0,0E0,0E0,0E0,0E0,0E0,0E0,0E0,0E0,0E0,0E0,0E0,0E0,0E0,0E0,0E0,0E0,0E0,0E0,0E0,0E0],"parents":[2147483647,0,0,1,1,2,2,3,3,4,4,5,5,6,6,7,7,8,8,9,9,10,10,11,11,12,12,13,13,14,14,15,15,16,16,17,17,18,18,19,19,20,20,21,21,22,22,23,23,24,24,25,25,26,26,27,27,28,28,29,29,30,30,31,31,32,32,33,33,34,34,35,35,36,36,37,37,38,38,39,39,40,40,41,41,42,42,43,43,44,44,45,45,46,46,47,47,48,48,49,49,50,50,51,51,52,52,53,53,54,54,55,55,56,56,57,57,58,58,59,59,60,60,61,61,62,62],"right_children":[2,4,6,8,10,12,14,16,18,20,22,24,26,28,30,32,34,36,38,40,42,44,46,48,50,52,54,56,58,60,62,64,66,68,70,72,74,76,78,80,82,84,86,88,90,92,94,96,98,100,102,104,106,108,110,112,114,116,118,120,122,124,126,-1,-1,-1,-1,-1,-1,-1,-1,-1,-1,-1,-1,-1,-1,-1,-1,-1,-1,-1,-1,-1,-1,-1,-1,-1,-1,-1,-1,-1,-1,-1,-1,-1,-1,-1,-1,-1,-1,-1,-1,-1,-1,-1,-1,-1,-1,-1,-1,-1,-1,-1,-1,-1,-1,-1,-1,-1,-1,-1,-1,-1,-1,-1,-1],"split_conditions":[4.944204E-1,-7.0625003E-3,-3.7675673E-1,1.7580241E0,-9.027138E-1,9.5605624E-1,1.3598846E0,4.4701162E-1,2.4368412E0,6.788983E-1,1.8548139E0,1.0104878E0,3.3971698E0,3.3420697E-1,4.846326E0,3.6986072E0,1.4661255E0,2.8596716E0,-1.2903404E0,-1.2039225E0,9.723373E-1,6.1357343E-1,2.8596716E0,-1.3579684E0,-7.101211E-1,5.4638094E-1,1.8727013E0,4.5399043E-1,-9.3572885E-1,-9.6625423E-1,-1.6614611E-1,-9.241534E-1,5.404514E-1,2.8596716E0,4.6979326E-1,-1.2186323E0,2.393052E-1,8.5848916E-1,1.1404511E0,3.6986072E0,-1.6896386E0,1.3711281E0,1.744179E0,-5.727386E-1,4.9069536E-1,7.4937475E-1,5.9663445E-1,4.090819E-1,-1.235309E0,4.846326E0,7.403676E-1,-2.1064105E0,5.89035E-1,2.8097806E-2,-5.627972E-1,1.2850512E0,4.0181786E-1,-5.257604E-1,-1.3509217E-1,-5.527365E-1,1.1148764E0,-3.2075056E-1,-1.3053573E0,-7.823178E-4,7.987432E-4,-5.425249E-4,1.426492E-3,8.154636E-5,9.848457E-4,-2.1010519E-3,7.80719E-4,1.9523456E-4,1.6391267E-3,4.065283E-3,2.2476916E-3,2.0474642E-4,1.7906388E-3,-9.450846E-4,-3.27978E-3,-1.313502E-3,8.207419E-4,1.9317701E-3,4.883211E-4,2.7930299E-3,-6.0716033E-5,1.1886975E-3,-1.8312939E-3,-3.2581156E-4,1.6390685E-4,-7.8314514E-4,-1.1099032E-5,7.8652933E-4,1.8922564E-3,1.4854645E-3,4.257445E-3,7.3902E-4,2.4528548E-3,3.604225E-4,-4.9638987E-4,-3.7875723E-3,-8.970561E-5,-1.7760291E-3,-4.397072E-4,-1.8588773E-3,2.1295025E-4,8.484486E-4,3.2159602E-3,1.3494521E-3,4.028813E-3,3.223676E-3,-2.534323E-4,-8.344816E-4,1.2041628E-3,-2.6113468E-3,-8.0548425E-4,-1.9316339E-3,2.737842E-4,-2.861248E-3,-1.4829981E-3,-2.4251535E-4,-2.1560842E-3,-3.0656594E-3,9.296397E-4,1.1628119E-3,2.805135E-4,2.9628974E-4,-3.7823003E-4],"split_indices":[60,27,54,41,48,39,39,74,19,22,75,69,100,22,105,98,22,96,88,41,56,72,96,64,30,55,60,9,6,22,9,58,22,96,57,86,57,6,12,98,18,21,21,39,75,86,21,22,54,105,87,19,17,73,1,12,40,87,86,1,7,0,5,0,0,0,0,0,0,0,0,0,0,0,0,0,0,0,0,0,0,0,0,0,0,0,0,0,0,0,0,0,0,0,0,0,0,0,0,0,0,0,0,0,0,0,0,0,0,0,0,0,0,0,0,0,0,0,0,0,0,0,0,0,0,0,0],"split_type":[0,0,0,0,0,0,0,0,0,0,0,0,0,0,0,0,0,0,0,0,0,0,0,0,0,0,0,0,0,0,0,0,0,0,0,0,0,0,0,0,0,0,0,0,0,0,0,0,0,0,0,0,0,0,0,0,0,0,0,0,0,0,0,0,0,0,0,0,0,0,0,0,0,0,0,0,0,0,0,0,0,0,0,0,0,0,0,0,0,0,0,0,0,0,0,0,0,0,0,0,0,0,0,0,0,0,0,0,0,0,0,0,0,0,0,0,0,0,0,0,0,0,0,0,0,0,0],"sum_hessian":[2.3045E4,1.5132E4,7.913E3,5.306E3,9.826E3,7.283E3,6.3E2,4.852E3,4.54E2,7.44E2,9.082E3,5.608E3,1.675E3,4.62E2,1.68E2,3.23E3,1.622E3,4.3E2,2.4E1,4.82E2,2.62E2,8.798E3,2.84E2,5.326E3,2.82E2,1.556E3,1.19E2,2.92E2,1.7E2,1.62E2,6E0,3.004E3,2.26E2,1.505E3,1.17E2,3.86E2,4.4E1,7E0,1.7E1,4.2E1,4.4E2,9.2E1,1.7E2,5.953E3,2.845E3,2.55E2,2.9E1,1.2E2,5.206E3,5.5E1,2.27E2,1.388E3,1.68E2,6.1E1,5.8E1,2.77E2,1.5E1,4.6E1,1.24E2,4E1,1.22E2,2E0,4E0,7.9E1,2.925E3,1.92E2,3.4E1,1.337E3,1.68E2,7.4E1,4.3E1,4E1,3.46E2,2.2E1,2.2E1,4E0,3E0,8E0,9E0,3.8E1,4E0,3.9E1,4.01E2,8.8E1,4E0,1.65E2,5E0,2.023E3,3.93E3,1.68E3,1.165E3,1.9E2,6.5E1,1.7E1,1.2E1,7.8E1,4.2E1,6E2,4.606E3,5.3E1,2E0,1.6E2,6.7E1,2.4E1,1.364E3,1.5E2,1.8E1,3.7E1,2.4E1,1.4E1,4.4E1,2.69E2,8E0,1.3E1,2E0,1.5E1,3.1E1,6.9E1,5.5E1,1.1E1,2.9E1,1.2E2,2E0,1E0,1E0,2E0,2E0],"tree_param":{"num_deleted":"0","num_feature":"109","num_nodes":"127","size_leaf_vector":"1"}},{"base_weights":[-5.8004534E-5,4.494711E-3,-8.754125E-3,1.3982869E-2,-5.820086E-4,-2.0069284E-2,-1.3795972E-3,1.8657066E-2,4.487428E-3,2.0293457E-2,-2.3008324E-3,-1.5774492E-2,-4.4476584E-2,1.960807E-2,-4.485403E-3,4.030617E-2,1.6775452E-2,6.463907E-3,-3.2869622E-2,9.670286E-3,3.6125842E-2,-3.8743566E-3,1.793436E-2,-1.2524886E-2,-4.9236424E-2,-3.1488135E-2,-5.695071E-2,4.1626465E-2,1.4681376E-2,-9.376133E-3,6.6510946E-3,4.3847386E-2,-3.6986128E-3,1.5295757E-2,4.4142377E-2,1.0336881E-2,-1.121277E-2,-4.4783898E-2,4.631945E-2,1.0644824E-2,-4.085566E-3,6.569599E-2,2.5714299E-2,-8.0432226E-5,-1.3010216E-2,1.4583773E-3,2.7041178E-2,-3.2440133E-2,-9.2994245E-3,-2.073816E-2,-7.755894E-2,-7.4164584E-2,-2.620737E-2,-4.6755247E-2,-8.227414E-2,3.1401273E-2,7.82365E-2,2.7008966E-2,8.084784E-3,7.728505E-3,-1.5018806E-2,9.822404E-4,2.2591824E-2,1.8384173E-3,-1.1594788E-3,7.794255E-4,-3.4568878E-3,5.340777E-4,1.4182645E-3,2.0352015E-3,-1.1009839E-3,-4.6374946E-4,5.736495E-4,-1.0667705E-3,-1.2298148E-4,-2.1320744E-3,1.0198593E-3,3.8839064E-3,7.4418995E-4,-9.963353E-4,5.484278E-4,2.738398E-3,-2.9425812E-3,9.3063817E-4,3.275579E-3,1.728656E-4,-3.315002E-4,-1.0317959E-3,-2.8914667E-4,1.3939418E-4,-3.0721622E-3,-3.1178147E-3,1.1188893E-3,-7.97056E-4,-2.0480868E-3,1.7597714E-4,-5.295083E-4,-1.0532653E-4,-1.6154047E-3,-2.6525613E-3,-4.753536E-3,-7.835455E-4,-3.3450883E-3,-8.62747E-4,-2.8485989E-3,-2.0195176E-3,7.505264E-4,-3.9490066E-3,-2.3477473E-3,2.1503496E-3,8.790076E-4,3.4227022E-3,-1.8075585E-3,8.4473594E-4,2.790473E-3,4.7938598E-4,-8.3125394E-4,3.5344105E-4,-1.6732633E-3,-1.3357577E-3,-3.472756E-4,-9.350311E-4,1.712548E-4,7.491388E-4,3.0752444E-3],"categories":[],"categories_nodes":[],"categories_segments":[],"categories_sizes":[],"default_left":[0,0,0,0,0,0,0,0,0,0,0,0,0,0,0,0,0,0,0,0,0,0,0,0,0,0,0,0,0,0,0,0,0,0,0,0,0,0,0,0,0,0,0,0,0,0,0,0,0,0,0,0,0,0,0,0,0,0,0,0,0,0,0,0,0,0,0,0,0,0,0,0,0,0,0,0,0,0,0,0,0,0,0,0,0,0,0,0,0,0,0,0,0,0,0,0,0,0,0,0,0,0,0,0,0,0,0,0,0,0,0,0,0,0,0,0,0,0,0,0,0,0,0,0,0],"id":7,"left_children":[1,3,5,7,9,11,13,15,17,19,21,23,25,27,29,31,33,35,37,39,41,43,45,47,49,51,53,55,57,59,61,63,65,67,69,71,73,75,77,79,-1,81,83,85,87,89,91,93,95,97,99,101,103,105,107,109,111,113,115,117,119,121,123,-1,-1,-1,-1,-1,-1,-1,-1,-1,-1,-1,-1,-1,-1,-1,-1,-1,-1,-1,-1,-1,-1,-1,-1,-1,-1,-1,-1,-1,-1,-1,-1,-1,-1,-1,-1,-1,-1,-1,-1,-1,-1,-1,-1,-1,-1,-1,-1,-1,-1,-1,-1,-1,-1,-1,-1,-1,-1,-1,-1,-1,-1],"loss_changes":[9.1629297E-1,7.317391E-1,6.63602E-1,2.3492718E-1,3.5516343E-1,3.2823682E-1,3.1401223E-1,1.4385259E-1,1.2927684E-1,1.2629783E-1,2.9125142E-1,2.8971404E-1,7.4193954E-2,6.675361E-2,2.2860003E-1,4.426214E-2,1.3158047E-1,1.1383012E-1,8.510066E-2,5.0338317E-2,9.128767E-2,2.941302E-1,9.898941E-2,1.561127E-1,1.8887728E-1,5.0340876E-2,5.7601094E-2,3.9844215E-2,4.1173577E-2,2.8155643E-1,1.1573623E-1,4.1654766E-2,4.3877445E-2,1.2101233E-1,8.2039386E-2,1.1986223E-1,3.7528776E-2,4.745473E-2,1.508116E-2,4.9283214E-2,0E0,3.5059273E-2,2.9040411E-2,2.1669622E-1,1.8386248E-1,3.7696548E-2,4.3723315E-2,7.85712E-2,1.1319131E-1,4.222292E-2,4.6893E-2,1.1272654E-2,4.188949E-2,4.3011606E-2,2.0196289E-2,1.7785542E-2,2.558285E-2,4.310216E-2,3.773621E-2,4.010917E-2,2.550666E-1,7.612088E-2,6.903234E-2,0E0,0E0,0E0,0E0,0E0,0E0,0E0,0E0,0E0,0E0,0E0,0E0,0E0,0E0,0E0,0E0,0E0,0E0,0E0,0E0,0E0,0E0,0E0,0E0,0E0,0E0,0E0,0E0,0E0,0E0,0E0,0E0,0E0,0E0,0E0,0E0,0E0,0E0,0E0,0E0,0E0,0E0,0E0,0E0,0E0,0E0,0E0,0E0,0E0,0E0,0E0,0E0,0E0,0E0,0E0,0E0,0E0,0E0,0E0,0E0,0E0,0E0],"parents":[2147483647,0,0,1,1,2,2,3,3,4,4,5,5,6,6,7,7,8,8,9,9,10,10,11,11,12,12,13,13,14,14,15,15,16,16,17,17,18,18,19,19,20,20,21,21,22,22,23,23,24,24,25,25,26,26,27,27,28,28,29,29,30,30,31,31,32,32,33,33,34,34,35,35,36,36,37,37,38,38,39,39,41,41,42,42,43,43,44,44,45,45,46,46,47,47,48,48,49,49,50,50,51,51,52,52,53,53,54,54,55,55,56,56,57,57,58,58,59,59,60,60,61,61,62,62],"right_children":[2,4,6,8,10,12,14,16,18,20,22,24,26,28,30,32,34,36,38,40,42,44,46,48,50,52,54,56,58,60,62,64,66,68,70,72,74,76,78,80,-1,82,84,86,88,90,92,94,96,98,100,102,104,106,108,110,112,114,116,118,120,122,124,-1,-1,-1,-1,-1,-1,-1,-1,-1,-1,-1,-1,-1,-1,-1,-1,-1,-1,-1,-1,-1,-1,-1,-1,-1,-1,-1,-1,-1,-1,-1,-1,-1,-1,-1,-1,-1,-1,-1,-1,-1,-1,-1,-1,-1,-1,-1,-1,-1,-1,-1,-1,-1,-1,-1,-1,-1,-1,-1,-1,-1,-1],"split_conditions":[4.944204E-1,-7.0625003E-3,9.4649637E-1,4.4701162E-1,-1.69952E0,1.2443699E0,-8.78985E-1,-2.061366E0,2.381695E0,5.404514E-1,1.245495E0,8.1969476E-1,8.8247195E-2,-9.2211485E-1,8.683604E-1,5.0534916E-1,2.733627E0,-1.8093853E-1,6.858074E-1,1.2842892E0,-1.2266903E0,6.368785E-1,2.2569256E-2,-3.1223097E-1,-6.790591E-1,-9.5065093E-1,5.1465774E-1,5.9023404E-1,-2.7949917E-1,-1.1727674E0,-6.06273E-1,2.8877635E0,2.6987891E0,1.3048664E0,2.055713E0,-1.2201614E0,-4.2459643E-1,-4.1759074E-1,-5.744399E-1,-6.828109E-1,-4.085566E-3,4.8399205E0,3.1717303E0,6.373376E-2,-1.1879647E-1,3.2209399E0,-1.5383699E0,-8.451613E-1,-8.275252E-1,2.7426043E-1,2.1911065E-1,-6.0397863E-1,1.9111605E-1,4.846326E0,4.641837E-1,-7.8732044E-1,1.7743517E0,-4.0907748E-2,2.2851603E-1,1.2832985E0,-1.3331272E-1,-4.0416068E-1,3.3971698E0,1.8384173E-3,-1.1594788E-3,7.794255E-4,-3.4568878E-3,5.340777E-4,1.4182645E-3,2.0352015E-3,-1.1009839E-3,-4.6374946E-4,5.736495E-4,-1.0667705E-3,-1.2298148E-4,-2.1320744E-3,1.0198593E-3,3.8839064E-3,7.4418995E-4,-9.963353E-4,5.484278E-4,2.738398E-3,-2.9425812E-3,9.3063817E-4,3.275579E-3,1.728656E-4,-3.315002E-4,-1.0317959E-3,-2.8914667E-4,1.3939418E-4,-3.0721622E-3,-3.1178147E-3,1.1188893E-3,-7.97056E-4,-2.0480868E-3,1.7597714E-4,-5.295083E-4,-1.0532653E-4,-1.6154047E-3,-2.6525613E-3,-4.753536E-3,-7.835455E-4,-3.3450883E-3,-8.62747E-4,-2.8485989E-3,-2.0195176E-3,7.505264E-4,-3.9490066E-3,-2.3477473E-3,2.1503496E-3,8.790076E-4,3.4227022E-3,-1.8075585E-3,8.4473594E-4,2.790473E-3,4.7938598E-4,-8.3125394E-4,3.5344105E-4,-1.6732633E-3,-1.3357577E-3,-3.472756E-4,-9.350311E-4,1.712548E-4,7.491388E-4,3.0752444E-3],"split_indices":[60,27,60,74,49,39,63,75,20,22,75,60,44,63,39,65,48,60,58,24,39,72,74,8,39,80,22,22,8,42,64,3,24,71,16,60,80,38,84,42,0,102,65,53,67,24,65,5,74,27,24,1,9,105,87,24,5,11,3,20,39,7,100,0,0,0,0,0,0,0,0,0,0,0,0,0,0,0,0,0,0,0,0,0,0,0,0,0,0,0,0,0,0,0,0,0,0,0,0,0,0,0,0,0,0,0,0,0,0,0,0,0,0,0,0,0,0,0,0,0,0,0,0,0,0],"split_type":[0,0,0,0,0,0,0,0,0,0,0,0,0,0,0,0,0,0,0,0,0,0,0,0,0,0,0,0,0,0,0,0,0,0,0,0,0,0,0,0,0,0,0,0,0,0,0,0,0,0,0,0,0,0,0,0,0,0,0,0,0,0,0,0,0,0,0,0,0,0,0,0,0,0,0,0,0,0,0,0,0,0,0,0,0,0,0,0,0,0,0,0,0,0,0,0,0,0,0,0,0,0,0,0,0,0,0,0,0,0,0,0,0,0,0,0,0,0,0,0,0,0,0,0,0],"sum_hessian":[2.3142E4,1.519E4,7.952E3,5.294E3,9.896E3,3.137E3,4.815E3,3.547E3,1.747E3,7.52E2,9.144E3,2.669E3,4.68E2,6.2E2,4.195E3,2.82E2,3.265E3,1.66E3,8.7E1,4.51E2,3.01E2,8.485E3,6.59E2,2.434E3,2.35E2,2.31E2,2.37E2,1.12E2,5.08E2,2.915E3,1.28E3,2.61E2,2.1E1,3.099E3,1.66E2,1.362E3,2.98E2,7.6E1,1.1E1,4.48E2,3E0,7.7E1,2.24E2,5.996E3,2.489E3,2.35E2,4.24E2,3.38E2,2.096E3,1.18E2,1.17E2,2.4E1,2.07E2,1.71E2,6.6E1,8.9E1,2.3E1,1.76E2,3.32E2,7.23E2,2.192E3,9.45E2,3.35E2,2.54E2,7E0,1.7E1,4E0,2.828E3,2.71E2,1.52E2,1.4E1,2.1E2,1.152E3,1.02E2,1.96E2,6.8E1,8E0,3E0,8E0,3.5E1,4.13E2,7.6E1,1E0,2.16E2,8E0,3.903E3,2.093E3,7.74E2,1.715E3,2.3E2,5E0,3E0,4.21E2,2.04E2,1.34E2,4.68E2,1.628E3,6.2E1,5.6E1,9.4E1,2.3E1,4E0,2E1,1.89E2,1.8E1,1.62E2,9E0,3.7E1,2.9E1,2.5E1,6.4E1,2.2E1,1E0,1.56E2,2E1,2.93E2,3.9E1,7.08E2,1.5E1,5.61E2,1.631E3,1.12E2,8.33E2,3.14E2,2.1E1],"tree_param":{"num_deleted":"0","num_feature":"109","num_nodes":"125","size_leaf_vector":"1"}},{"base_weights":[3.422422E-5,4.2878953E-3,-8.07962E-3,-1.1278699E-3,1.1799274E-2,-1.4236097E-2,4.3508406E-3,-3.6876379E-3,1.2101369E-2,-1.4281053E-2,1.3334767E-2,1.7967055E-2,-1.6507084E-2,9.069094E-3,-4.185842E-3,1.799814E-2,-5.0399364E-3,-4.4196486E-4,2.0512953E-2,-2.6330294E-2,1.16499E-2,4.248586E-2,1.21874E-2,3.790534E-2,6.4935386E-3,-3.2634173E-2,-1.22528775E-2,1.6246114E-2,1.3099748E-3,-1.1343793E-2,5.117478E-3,5.0805666E-2,1.0440492E-2,-1.2005458E-2,-1.2888674E-3,3.3665393E-3,-4.885385E-2,2.2705344E-2,-3.8565364E-2,-3.742098E-3,-3.091922E-2,1.8499332E-2,-4.2461056E-2,4.964587E-2,-8.111676E-3,4.247327E-2,1.1020788E-2,7.602688E-2,2.971301E-2,9.149391E-3,-6.6358164E-2,-6.0439173E-2,-1.8257825E-2,-2.3322925E-3,-1.7840901E-2,-8.842005E-3,2.0170528E-2,-3.006512E-3,1.7162496E-2,-1.0542847E-2,-4.5693037E-3,-1.0527632E-2,1.2694751E-2,3.2365539E-3,1.4683596E-3,-3.95169E-4,9.1447815E-4,8.901542E-5,-7.1596314E-4,3.6003883E-5,-1.1120061E-3,2.9085737E-4,-1.5691296E-3,-3.5551062E-3,-1.113896E-3,-9.55464E-5,1.0658001E-3,-1.0712984E-3,-3.0055132E-3,-5.2170095E-4,1.78493E-3,-1.8273705E-3,-7.9712854E-4,2.7986758E-5,1.4656397E-3,-8.095129E-4,-3.4961547E-3,1.496843E-3,2.6652887E-3,2.2375428E-3,-9.5145E-4,3.498558E-3,1.3979159E-3,5.033949E-4,-3.2102916E-4,-2.8017975E-4,3.3872095E-3,1.8350863E-3,6.313975E-4,1.406495E-4,1.0605576E-3,-7.878529E-4,-2.8084153E-3,-2.5280449E-3,2.404075E-4,-1.5070612E-3,-4.628741E-4,-1.4238763E-3,2.7370565E-5,-9.989234E-4,-3.5402004E-4,-5.667098E-4,9.7036466E-4,-4.8899E-4,8.906374E-4,-8.1724786E-5,-2.8258055E-3,8.490406E-4,-7.783861E-4,-3.346386E-4,-1.6024475E-3,2.4013147E-3,-6.193646E-4,-6.3768384E-4,7.578601E-4],"categories":[],"categories_nodes":[],"categories_segments":[],"categories_sizes":[],"default_left":[0,0,0,0,0,0,0,0,0,0,0,0,0,0,0,0,0,0,0,0,0,0,0,0,0,0,0,0,0,0,0,0,0,0,0,0,0,0,0,0,0,0,0,0,0,0,0,0,0,0,0,0,0,0,0,0,0,0,0,0,0,0,0,0,0,0,0,0,0,0,0,0,0,0,0,0,0,0,0,0,0,0,0,0,0,0,0,0,0,0,0,0,0,0,0,0,0,0,0,0,0,0,0,0,0,0,0,0,0,0,0,0,0,0,0,0,0,0,0,0,0,0,0,0,0],"id":8,"left_children":[1,3,5,7,9,11,13,15,17,19,21,23,25,27,29,31,33,35,37,39,41,43,45,47,49,51,53,55,57,59,61,63,65,67,69,71,73,75,77,79,81,83,85,87,89,91,93,95,97,99,101,103,105,107,109,111,113,115,117,119,-1,121,123,-1,-1,-1,-1,-1,-1,-1,-1,-1,-1,-1,-1,-1,-1,-1,-1,-1,-1,-1,-1,-1,-1,-1,-1,-1,-1,-1,-1,-1,-1,-1,-1,-1,-1,-1,-1,-1,-1,-1,-1,-1,-1,-1,-1,-1,-1,-1,-1,-1,-1,-1,-1,-1,-1,-1,-1,-1,-1,-1,-1,-1,-1],"loss_changes":[7.983692E-1,6.1737084E-1,6.089175E-1,2.986893E-1,2.548039E-1,3.8943672E-1,1.0621138E-1,2.1680722E-1,1.5088739E-1,1.1091345E-1,2.0033145E-1,8.004941E-2,3.406502E-1,9.453584E-2,6.25886E-2,1.07078895E-1,1.8175808E-1,1.0618116E-1,1.11747116E-1,2.4968952E-2,4.2666607E-2,8.264008E-2,2.0371485E-1,3.7715927E-2,4.3947425E-2,4.1342115E-1,2.181009E-1,8.701669E-2,5.5956617E-2,4.2554453E-2,4.8619483E-2,3.140816E-2,8.957566E-2,2.0426625E-1,2.6250494E-1,8.910447E-2,3.2836832E-2,8.172351E-2,1.13464445E-2,1.9474374E-2,3.1708404E-2,3.2588832E-2,1.1215204E-2,3.8829803E-2,3.044542E-2,6.939763E-2,1.6591424E-1,1.6400158E-2,2.3365326E-2,2.1133097E-2,5.5126846E-5,6.516588E-2,8.849956E-2,1.4241333E-1,1.6117203E-1,2.1498257E-2,5.206564E-2,4.1755177E-2,2.6455645E-2,3.3593055E-2,0E0,4.779364E-2,4.9714454E-2,0E0,0E0,0E0,0E0,0E0,0E0,0E0,0E0,0E0,0E0,0E0,0E0,0E0,0E0,0E0,0E0,0E0,0E0,0E0,0E0,0E0,0E0,0E0,0E0,0E0,0E0,0E0,0E0,0E0,0E0,0E0,0E0,0E0,0E0,0E0,0E0,0E0,0E0,0E0,0E0,0E0,0E0,0E0,0E0,0E0,0E0,0E0,0E0,0E0,0E0,0E0,0E0,0E0,0E0,0E0,0E0,0E0,0E0,0E0,0E0,0E0,0E0],"parents":[2147483647,0,0,1,1,2,2,3,3,4,4,5,5,6,6,7,7,8,8,9,9,10,10,11,11,12,12,13,13,14,14,15,15,16,16,17,17,18,18,19,19,20,20,21,21,22,22,23,23,24,24,25,25,26,26,27,27,28,28,29,29,30,30,31,31,32,32,33,33,34,34,35,35,36,36,37,37,38,38,39,39,40,40,41,41,42,42,43,43,44,44,45,45,46,46,47,47,48,48,49,49,50,50,51,51,52,52,53,53,54,54,55,55,56,56,57,57,58,58,59,59,61,61,62,62],"right_children":[2,4,6,8,10,12,14,16,18,20,22,24,26,28,30,32,34,36,38,40,42,44,46,48,50,52,54,56,58,60,62,64,66,68,70,72,74,76,78,80,82,84,86,88,90,92,94,96,98,100,102,104,106,108,110,112,114,116,118,120,-1,122,124,-1,-1,-1,-1,-1,-1,-1,-1,-1,-1,-1,-1,-1,-1,-1,-1,-1,-1,-1,-1,-1,-1,-1,-1,-1,-1,-1,-1,-1,-1,-1,-1,-1,-1,-1,-1,-1,-1,-1,-1,-1,-1,-1,-1,-1,-1,-1,-1,-1,-1,-1,-1,-1,-1,-1,-1,-1,-1,-1,-1,-1,-1],"split_conditions":[4.944204E-1,-1.3691896E-1,9.085102E-1,1.3766832E0,-2.1165624E0,-8.6296856E-1,4.9102417E-1,-8.1469715E-1,8.405414E-1,-7.790908E-1,-1.2642674E0,-5.3894675E-1,-1.4933187E-1,5.3715706E-2,1.739008E0,-7.0382684E-1,3.562244E-2,1.9415283E0,3.0441613E0,-8.7912214E-1,1.2205176E0,1.9758312E0,-1.4243603E0,-1.5900035E0,6.472129E-1,-1.0846372E0,-1.1727674E0,-7.953945E-1,1.3963506E0,3.3128724E0,-2.0674083E-1,-1.2525182E0,-2.5065008E-1,-5.4826117E-1,1.2987953E0,3.7138023E0,-6.412408E-1,-5.5449325E-1,3.4164143E0,5.229028E-1,-6.130641E-1,-2.2976767E-1,1.8632604E0,2.368497E-1,-5.31293E-1,-2.1545799E0,1.0214335E0,-2.436577E0,-1.109257E0,5.8263916E-1,-8.237624E-2,4.846326E0,-4.8190898E-1,-8.575155E-1,2.453647E-1,8.418148E-1,-1.5234917E0,4.0689597E0,1.480886E-1,3.7138023E0,-4.5693037E-3,-1.716862E0,-3.038678E-2,3.2365539E-3,1.4683596E-3,-3.95169E-4,9.1447815E-4,8.901542E-5,-7.1596314E-4,3.6003883E-5,-1.1120061E-3,2.9085737E-4,-1.5691296E-3,-3.5551062E-3,-1.113896E-3,-9.55464E-5,1.0658001E-3,-1.0712984E-3,-3.0055132E-3,-5.2170095E-4,1.78493E-3,-1.8273705E-3,-7.9712854E-4,2.7986758E-5,1.4656397E-3,-8.095129E-4,-3.4961547E-3,1.496843E-3,2.6652887E-3,2.2375428E-3,-9.5145E-4,3.498558E-3,1.3979159E-3,5.033949E-4,-3.2102916E-4,-2.8017975E-4,3.3872095E-3,1.8350863E-3,6.313975E-4,1.406495E-4,1.0605576E-3,-7.878529E-4,-2.8084153E-3,-2.5280449E-3,2.404075E-4,-1.5070612E-3,-4.628741E-4,-1.4238763E-3,2.7370565E-5,-9.989234E-4,-3.5402004E-4,-5.667098E-4,9.7036466E-4,-4.8899E-4,8.906374E-4,-8.1724786E-5,-2.8258055E-3,8.490406E-4,-7.783861E-4,-3.346386E-4,-1.6024475E-3,2.4013147E-3,-6.193646E-4,-6.3768384E-4,7.578601E-4],"split_indices":[60,50,58,63,57,63,73,21,39,44,60,13,58,75,58,48,42,8,17,17,16,17,48,21,21,45,42,53,30,13,7,21,64,40,63,93,16,0,14,88,16,6,5,82,4,15,4,5,41,82,7,105,73,39,50,13,18,92,7,93,0,11,65,0,0,0,0,0,0,0,0,0,0,0,0,0,0,0,0,0,0,0,0,0,0,0,0,0,0,0,0,0,0,0,0,0,0,0,0,0,0,0,0,0,0,0,0,0,0,0,0,0,0,0,0,0,0,0,0,0,0,0,0,0,0],"split_type":[0,0,0,0,0,0,0,0,0,0,0,0,0,0,0,0,0,0,0,0,0,0,0,0,0,0,0,0,0,0,0,0,0,0,0,0,0,0,0,0,0,0,0,0,0,0,0,0,0,0,0,0,0,0,0,0,0,0,0,0,0,0,0,0,0,0,0,0,0,0,0,0,0,0,0,0,0,0,0,0,0,0,0,0,0,0,0,0,0,0,0,0,0,0,0,0,0,0,0,0,0,0,0,0,0,0,0,0,0,0,0,0,0,0,0,0,0,0,0,0,0,0,0,0,0],"sum_hessian":[2.313E4,1.5175E4,7.955E3,8.818E3,6.357E3,5.32E3,2.635E3,7.389E3,1.429E3,3.53E2,6.004E3,3.5E2,4.97E3,1.697E3,9.38E2,4.33E2,6.956E3,5.74E2,8.55E2,2.41E2,1.12E2,2.26E2,5.778E3,1.27E2,2.23E2,1.036E3,3.934E3,8.81E2,8.16E2,5.3E2,4.08E2,8E1,3.53E2,2.434E3,4.522E3,5.33E2,4.1E1,8.25E2,3E1,4.1E1,2E2,1E2,1.2E1,1.98E2,2.8E1,2.13E2,5.565E3,2.1E1,1.06E2,2.16E2,7E0,3.52E2,6.84E2,1.418E3,2.516E3,1.19E2,7.62E2,6.42E2,1.74E2,5.27E2,3E0,1.33E2,2.75E2,2.4E1,5.6E1,1.34E2,2.19E2,7.13E2,1.721E3,4.178E3,3.44E2,4.89E2,4.4E1,1.3E1,2.8E1,1.12E2,7.13E2,2.4E1,6E0,3.5E1,6E0,8.4E1,1.16E2,5.1E1,4.9E1,9E0,3E0,1.17E2,8.1E1,5E0,2.3E1,2.9E1,1.84E2,5.143E3,4.22E2,2E0,1.9E1,4.8E1,5.8E1,1.64E2,5.2E1,1E0,6E0,3.38E2,1.4E1,1.74E2,5.1E2,1.17E2,1.301E3,1.402E3,1.114E3,1.03E2,1.6E1,4.6E1,7.16E2,6.34E2,8E0,1.57E2,1.7E1,4.92E2,3.5E1,8E0,1.25E2,4.9E1,2.26E2],"tree_param":{"num_deleted":"0","num_feature":"109","num_nodes":"125","size_leaf_vector":"1"}},{"base_weights":[2.738566E-4,7.181884E-3,-4.627975E-3,1.6766464E-2,-8.340514E-5,6.18416E-4,-1.4900427E-2,1.4023099E-2,3.6682677E-2,5.5217757E-3,-1.0852629E-2,-6.2381113E-3,4.2835125E-3,1.8481169E-2,-1.6194666E-2,2.0523656E-2,6.904456E-3,2.249073E-2,4.7843717E-2,1.5404465E-2,-5.542628E-3,-7.1192444E-3,-3.521136E-2,-3.343199E-2,-4.1007027E-3,1.3714607E-2,-1.1239223E-3,6.1466433E-3,3.9528508E-2,-1.321754E-2,-3.0364532E-2,2.250068E-2,-5.0821477E-3,-3.235651E-3,1.4120606E-2,1.0676968E-2,4.4598766E-2,5.7789594E-2,1.7322607E-2,1.262675E-2,3.8765654E-2,7.8576375E-3,-1.1718145E-2,9.007468E-3,-1.3210381E-2,-1.241596E-2,-5.158848E-2,-5.7323862E-2,-2.2414438E-2,-2.607474E-3,-3.657847E-2,3.387537E-2,9.063162E-3,-4.4501625E-2,1.1283454E-3,1.144609E-2,-4.210716E-2,2.5587939E-2,9.664359E-2,-1.603508E-2,1.569428E-3,-4.4781547E-2,-1.7577203E-2,7.811386E-4,1.6339482E-3,2.1032433E-4,-1.2115488E-3,-5.1927916E-4,3.088237E-4,7.1807584E-4,-3.522563E-4,2.3946505E-4,3.6334815E-3,2.286609E-3,4.2336748E-4,2.4186487E-3,1.5480146E-4,-2.1470807E-4,1.7774034E-3,5.4555497E-4,-2.1162927E-3,5.220748E-4,2.0962486E-3,-1.3456494E-4,8.077105E-4,3.4873668E-4,-6.812364E-4,5.205276E-4,-1.6559081E-3,-9.1317535E-4,-1.9969139E-4,-1.8937644E-3,1.9908062E-4,-9.916546E-4,-2.3732737E-3,1.0741411E-3,-2.510007E-3,-1.0076708E-3,1.627944E-3,-4.7768335E-5,-1.4429415E-3,-5.236345E-4,-2.8081231E-3,1.3787205E-4,1.5834986E-3,-2.3180856E-3,3.9368487E-4,-2.26348E-3,-7.7612844E-4,1.5078364E-3,-4.193637E-6,3.636484E-4,3.3508725E-3,-1.0231349E-3,-3.1063124E-3,3.438084E-6,1.7144282E-3,4.483175E-3,5.190565E-4,2.92955E-4,-7.0696004E-4,-8.114562E-5,2.5434827E-3,-1.3543924E-3,-3.2685262E-3,-8.9192856E-4,2.339786E-3],"categories":[],"categories_nodes":[],"categories_segments":[],"categories_sizes":[],"default_left":[0,0,0,0,0,0,0,0,0,0,0,0,0,0,0,0,0,0,0,0,0,0,0,0,0,0,0,0,0,0,0,0,0,0,0,0,0,0,0,0,0,0,0,0,0,0,0,0,0,0,0,0,0,0,0,0,0,0,0,0,0,0,0,0,0,0,0,0,0,0,0,0,0,0,0,0,0,0,0,0,0,0,0,0,0,0,0,0,0,0,0,0,0,0,0,0,0,0,0,0,0,0,0,0,0,0,0,0,0,0,0,0,0,0,0,0,0,0,0,0,0,0,0,0,0,0,0],"id":9,"left_children":[1,3,5,7,9,11,13,15,17,19,21,23,25,27,29,31,33,35,37,39,41,43,45,47,49,51,53,55,57,59,61,63,65,67,69,71,73,75,77,79,81,83,85,87,89,91,93,95,97,99,101,103,105,107,109,111,113,115,117,119,121,123,125,-1,-1,-1,-1,-1,-1,-1,-1,-1,-1,-1,-1,-1,-1,-1,-1,-1,-1,-1,-1,-1,-1,-1,-1,-1,-1,-1,-1,-1,-1,-1,-1,-1,-1,-1,-1,-1,-1,-1,-1,-1,-1,-1,-1,-1,-1,-1,-1,-1,-1,-1,-1,-1,-1,-1,-1,-1,-1,-1,-1,-1,-1,-1,-1],"loss_changes":[7.823805E-1,6.677986E-1,7.283771E-1,2.2541142E-1,3.2940292E-1,2.2486334E-1,1.9769716E-1,1.6811472E-1,7.812244E-2,3.925284E-1,1.6962619E-1,1.8103674E-1,2.9738492E-1,4.4150162E-2,1.8517268E-1,9.6298635E-2,1.2714638E-1,5.750557E-2,8.3691895E-2,1.22543305E-1,1.4027664E-1,1.5934983E-1,9.194359E-2,5.8468312E-2,1.4010867E-1,1.9896838E-1,3.6221743E-1,2.8355276E-2,4.7688738E-2,1.5155298E-1,1.3987571E-1,9.540081E-2,3.586727E-2,7.730445E-2,8.931577E-2,5.4349005E-2,3.2308057E-2,3.0073762E-2,4.3301858E-2,1.1321491E-1,6.981686E-2,7.4123606E-2,1.2609507E-1,9.038827E-2,9.2927724E-2,6.402361E-2,2.8409064E-2,3.4115955E-2,2.8545126E-2,1.3073157E-1,9.93807E-2,6.904036E-2,9.077585E-2,5.441028E-2,1.5896247E-1,1.609993E-2,4.4773407E-3,2.2901788E-2,1.4043257E-2,1.170854E-1,1.3022178E-1,1.4163512E-1,1.4711358E-1,0E0,0E0,0E0,0E0,0E0,0E0,0E0,0E0,0E0,0E0,0E0,0E0,0E0,0E0,0E0,0E0,0E0,0E0,0E0,0E0,0E0,0E0,0E0,0E0,0E0,0E0,0E0,0E0,0E0,0E0,0E0,0E0,0E0,0E0,0E0,0E0,0E0,0E0,0E0,0E0,0E0,0E0,0E0,0E0,0E0,0E0,0E0,0E0,0E0,0E0,0E0,0E0,0E0,0E0,0E0,0E0,0E0,0E0,0E0,0E0,0E0,0E0,0E0,0E0],"parents":[2147483647,0,0,1,1,2,2,3,3,4,4,5,5,6,6,7,7,8,8,9,9,10,10,11,11,12,12,13,13,14,14,15,15,16,16,17,17,18,18,19,19,20,20,21,21,22,22,23,23,24,24,25,25,26,26,27,27,28,28,29,29,30,30,31,31,32,32,33,33,34,34,35,35,36,36,37,37,38,38,39,39,40,40,41,41,42,42,43,43,44,44,45,45,46,46,47,47,48,48,49,49,50,50,51,51,52,52,53,53,54,54,55,55,56,56,57,57,58,58,59,59,60,60,61,61,62,62],"right_children":[2,4,6,8,10,12,14,16,18,20,22,24,26,28,30,32,34,36,38,40,42,44,46,48,50,52,54,56,58,60,62,64,66,68,70,72,74,76,78,80,82,84,86,88,90,92,94,96,98,100,102,104,106,108,110,112,114,116,118,120,122,124,126,-1,-1,-1,-1,-1,-1,-1,-1,-1,-1,-1,-1,-1,-1,-1,-1,-1,-1,-1,-1,-1,-1,-1,-1,-1,-1,-1,-1,-1,-1,-1,-1,-1,-1,-1,-1,-1,-1,-1,-1,-1,-1,-1,-1,-1,-1,-1,-1,-1,-1,-1,-1,-1,-1,-1,-1,-1,-1,-1,-1,-1,-1,-1,-1],"split_conditions":[-3.3186248E-1,-7.0625003E-3,6.016418E-1,1.9331577E0,1.1615144E0,-5.079754E-1,-8.78985E-1,2.729355E-1,8.376957E-2,-6.997937E-1,1.1387441E0,-1.6956271E0,-6.592575E-1,5.4767653E-2,8.001402E-1,3.6986072E0,-3.9102325E-1,2.3338395E-1,1.6867741E0,2.8854291E0,1.013991E-1,-5.516963E-2,1.2679955E0,-2.1632162E-1,-2.605035E-1,-8.429818E-1,-1.0318593E0,2.9741576E-1,1.3927992E-1,6.9030225E-1,-6.157818E-1,9.597653E-1,2.4197422E-1,1.3595655E-2,8.4650403E-1,4.247138E0,4.7184315E-1,3.6986072E0,-9.721885E-1,4.204189E0,-4.2413834E-1,7.766396E-2,-5.3618383E-1,1.3384877E0,4.6887647E-2,-5.635445E-1,-2.5126988E-1,-1.1540926E0,1.1170589E0,1.1526066E0,1.517412E-1,-1.098129E0,-1.1187879E0,-1.4787896E0,-9.2211485E-1,2.034831E0,6.754529E-2,5.7735705E-1,6.42767E-1,-7.792214E-1,3.3971698E0,1.5262779E0,8.669607E-1,7.811386E-4,1.6339482E-3,2.1032433E-4,-1.2115488E-3,-5.1927916E-4,3.088237E-4,7.1807584E-4,-3.522563E-4,2.3946505E-4,3.6334815E-3,2.286609E-3,4.2336748E-4,2.4186487E-3,1.5480146E-4,-2.1470807E-4,1.7774034E-3,5.4555497E-4,-2.1162927E-3,5.220748E-4,2.0962486E-3,-1.3456494E-4,8.077105E-4,3.4873668E-4,-6.812364E-4,5.205276E-4,-1.6559081E-3,-9.1317535E-4,-1.9969139E-4,-1.8937644E-3,1.9908062E-4,-9.916546E-4,-2.3732737E-3,1.0741411E-3,-2.510007E-3,-1.0076708E-3,1.627944E-3,-4.7768335E-5,-1.4429415E-3,-5.236345E-4,-2.8081231E-3,1.3787205E-4,1.5834986E-3,-2.3180856E-3,3.9368487E-4,-2.26348E-3,-7.7612844E-4,1.5078364E-3,-4.193637E-6,3.636484E-4,3.3508725E-3,-1.0231349E-3,-3.1063124E-3,3.438084E-6,1.7144282E-3,4.483175E-3,5.190565E-4,2.92955E-4,-7.0696004E-4,-8.114562E-5,2.5434827E-3,-1.3543924E-3,-3.2685262E-3,-8.9192856E-4,2.339786E-3],"split_indices":[56,27,26,47,63,42,63,75,17,56,22,46,39,22,22,98,24,84,17,99,63,42,63,8,43,19,48,6,80,75,43,71,70,54,2,103,23,98,38,8,2,21,70,17,46,70,24,86,8,70,22,21,12,26,63,84,15,38,14,70,100,26,42,0,0,0,0,0,0,0,0,0,0,0,0,0,0,0,0,0,0,0,0,0,0,0,0,0,0,0,0,0,0,0,0,0,0,0,0,0,0,0,0,0,0,0,0,0,0,0,0,0,0,0,0,0,0,0,0,0,0,0,0,0,0,0,0],"split_type":[0,0,0,0,0,0,0,0,0,0,0,0,0,0,0,0,0,0,0,0,0,0,0,0,0,0,0,0,0,0,0,0,0,0,0,0,0,0,0,0,0,0,0,0,0,0,0,0,0,0,0,0,0,0,0,0,0,0,0,0,0,0,0,0,0,0,0,0,0,0,0,0,0,0,0,0,0,0,0,0,0,0,0,0,0,0,0,0,0,0,0,0,0,0,0,0,0,0,0,0,0,0,0,0,0,0,0,0,0,0,0,0,0,0,0,0,0,0,0,0,0,0,0,0,0,0,0],"sum_hessian":[2.3103E4,9.589E3,1.3514E4,4.134E3,5.455E3,8.946E3,4.568E3,3.635E3,4.99E2,3.588E3,1.867E3,3.116E3,5.83E3,1.7E2,4.398E3,1.899E3,1.736E3,2.21E2,2.78E2,1.895E3,1.693E3,1.62E3,2.47E2,2.26E2,2.89E3,2.124E3,3.706E3,1.08E2,6.2E1,3.636E3,7.62E2,1.763E3,1.36E2,7.22E2,1.014E3,1.45E2,7.6E1,2.09E2,6.9E1,1.695E3,2E2,5.34E2,1.159E3,4.44E2,1.176E3,1.04E2,1.43E2,7E1,1.56E2,2.764E3,1.26E2,3.97E2,1.727E3,1.82E2,3.524E3,9.8E1,1E1,5.1E1,1.1E1,3.054E3,5.82E2,3.57E2,4.05E2,1.519E3,2.44E2,9.7E1,3.9E1,3.82E2,3.4E2,8.69E2,1.45E2,1.38E2,7E0,5.5E1,2.1E1,1.99E2,1E1,3.8E1,3.1E1,1.67E3,2.5E1,7E1,1.3E2,2.8E2,2.54E2,2.39E2,9.2E2,4.12E2,3.2E1,5.41E2,6.35E2,3.4E1,7E1,3.3E1,1.1E2,4E0,6.6E1,1.5E2,6E0,2.653E3,1.11E2,7.5E1,5.1E1,6.3E1,3.34E2,1.9E1,1.708E3,1.22E2,6E1,1.14E2,3.41E3,9.6E1,2E0,8E0,2E0,2.1E1,3E1,9E0,2E0,2E2,2.854E3,5.51E2,3.1E1,2.77E2,8E1,3.82E2,2.3E1],"tree_param":{"num_deleted":"0","num_feature":"109","num_nodes":"127","size_leaf_vector":"1"}},{"base_weights":[7.709152E-5,4.210947E-3,-7.51319E-3,-1.3428709E-3,1.2100634E-2,-1.30659435E-2,3.8745494E-3,1.075194E-2,-5.19814E-3,-1.5123348E-2,1.3501579E-2,1.8322978E-2,-1.5530831E-2,2.420755E-2,1.8413286E-3,-1.1136146E-2,1.4345882E-2,-7.1995063E-3,7.0932535E-3,-2.8726492E-2,4.1390054E-2,4.5610074E-2,1.2510991E-2,4.0430076E-2,1.1064444E-2,-1.31018665E-2,-3.957762E-2,4.7760222E-2,1.8133897E-2,1.51605215E-2,-9.363592E-4,-2.3347612E-2,8.88551E-3,1.8252227E-2,-5.402218E-3,9.309744E-3,-9.179981E-3,7.08055E-2,4.890839E-3,-3.1387396E-2,3.6677435E-2,-3.7974946E-3,5.30081E-2,3.2687366E-2,8.010835E-2,1.3379386E-2,-2.7879553E-2,7.2006285E-2,2.1744782E-2,1.2482467E-2,-2.4294176E-3,-3.9864006E-3,-1.8281374E-2,-3.1985827E-2,-5.7098087E-2,3.5217308E-2,9.959347E-2,1.3097361E-2,5.5010006E-2,2.0646293E-2,-1.3886522E-2,-3.3535815E-3,1.7284224E-2,-4.4720463E-4,-1.6170614E-3,3.1416826E-3,2.2554105E-4,6.402388E-4,1.5637253E-3,1.7312211E-3,-3.9874797E-4,1.4350074E-3,1.2362508E-4,-1.055748E-4,-4.868372E-4,3.422115E-5,3.6468771E-3,3.835143E-4,-8.099799E-4,-1.0271983E-3,-1.96689E-3,1.6558668E-4,2.7354907E-3,-1.661679E-3,9.99422E-4,1.5287343E-3,3.4055894E-3,1.0966174E-3,2.3397864E-3,2.6020168E-3,4.2086975E-3,1.6168087E-3,4.907909E-4,-9.0458547E-4,-3.6120308E-3,-1.1031389E-4,3.0594112E-3,2.1127013E-3,5.0438056E-4,4.0406216E-4,1.5155E-3,-2.718244E-4,3.644544E-4,-2.0172854E-3,-6.548505E-4,-1.5140576E-3,-3.835986E-4,-2.6846784E-3,-5.221005E-4,1.6066693E-3,-3.3807574E-4,1.1711464E-3,4.1889194E-3,8.5676805E-4,-1.6272358E-4,2.974309E-3,-2.2192441E-3,-5.8791775E-5,1.0456525E-3,-9.827819E-4,1.1324534E-3,-2.2813065E-3,-1.0583057E-4,5.327278E-4,2.2826295E-3],"categories":[],"categories_nodes":[],"categories_segments":[],"categories_sizes":[],"default_left":[0,0,0,0,0,0,0,0,0,0,0,0,0,0,0,0,0,0,0,0,0,0,0,0,0,0,0,0,0,0,0,0,0,0,0,0,0,0,0,0,0,0,0,0,0,0,0,0,0,0,0,0,0,0,0,0,0,0,0,0,0,0,0,0,0,0,0,0,0,0,0,0,0,0,0,0,0,0,0,0,0,0,0,0,0,0,0,0,0,0,0,0,0,0,0,0,0,0,0,0,0,0,0,0,0,0,0,0,0,0,0,0,0,0,0,0,0,0,0,0,0,0,0,0,0],"id":10,"left_children":[1,3,5,7,9,11,13,15,17,19,21,23,25,27,29,31,33,35,37,39,41,43,45,47,49,51,53,55,57,59,61,63,65,67,69,71,73,75,77,79,81,83,85,87,89,91,93,95,97,99,-1,101,103,105,107,109,111,113,115,117,119,121,123,-1,-1,-1,-1,-1,-1,-1,-1,-1,-1,-1,-1,-1,-1,-1,-1,-1,-1,-1,-1,-1,-1,-1,-1,-1,-1,-1,-1,-1,-1,-1,-1,-1,-1,-1,-1,-1,-1,-1,-1,-1,-1,-1,-1,-1,-1,-1,-1,-1,-1,-1,-1,-1,-1,-1,-1,-1,-1,-1,-1,-1,-1],"loss_changes":[7.227724E-1,6.5347236E-1,5.136316E-1,4.0819743E-1,2.3518056E-1,4.227255E-1,1.1004779E-1,1.6661386E-1,1.6334307E-1,2.3335451E-1,1.8581438E-1,6.341778E-2,2.9520535E-1,3.3752188E-2,8.961986E-2,7.3311105E-2,1.4034438E-1,1.8674785E-1,1.30152E-1,4.361543E-2,3.1175762E-2,7.5398445E-2,1.9980913E-1,5.6255296E-2,3.140411E-2,2.1710974E-1,5.9891105E-2,2.8349452E-2,3.5310723E-2,6.689309E-2,8.8364586E-2,3.8200267E-2,2.5340948E-2,7.043797E-2,6.734643E-2,1.0099983E-1,9.96981E-2,4.4085562E-2,1.0647033E-1,2.2591144E-2,1.0034574E-2,1.5161163E-2,1.9081369E-2,1.5947342E-2,1.0925829E-2,1.6654122E-1,3.7394963E-2,1.2266204E-2,1.7217042E-2,1.7521486E-2,0E0,6.1434887E-2,1.792944E-1,4.246217E-2,6.0462832E-2,9.201117E-3,1.7998368E-4,2.465701E-2,5.3293735E-2,4.28164E-2,3.0899256E-2,6.7138225E-2,3.6317013E-2,0E0,0E0,0E0,0E0,0E0,0E0,0E0,0E0,0E0,0E0,0E0,0E0,0E0,0E0,0E0,0E0,0E0,0E0,0E0,0E0,0E0,0E0,0E0,0E0,0E0,0E0,0E0,0E0,0E0,0E0,0E0,0E0,0E0,0E0,0E0,0E0,0E0,0E0,0E0,0E0,0E0,0E0,0E0,0E0,0E0,0E0,0E0,0E0,0E0,0E0,0E0,0E0,0E0,0E0,0E0,0E0,0E0,0E0,0E0,0E0,0E0,0E0],"parents":[2147483647,0,0,1,1,2,2,3,3,4,4,5,5,6,6,7,7,8,8,9,9,10,10,11,11,12,12,13,13,14,14,15,15,16,16,17,17,18,18,19,19,20,20,21,21,22,22,23,23,24,24,25,25,26,26,27,27,28,28,29,29,30,30,31,31,32,32,33,33,34,34,35,35,36,36,37,37,38,38,39,39,40,40,41,41,42,42,43,43,44,44,45,45,46,46,47,47,48,48,49,49,51,51,52,52,53,53,54,54,55,55,56,56,57,57,58,58,59,59,60,60,61,61,62,62],"right_children":[2,4,6,8,10,12,14,16,18,20,22,24,26,28,30,32,34,36,38,40,42,44,46,48,50,52,54,56,58,60,62,64,66,68,70,72,74,76,78,80,82,84,86,88,90,92,94,96,98,100,-1,102,104,106,108,110,112,114,116,118,120,122,124,-1,-1,-1,-1,-1,-1,-1,-1,-1,-1,-1,-1,-1,-1,-1,-1,-1,-1,-1,-1,-1,-1,-1,-1,-1,-1,-1,-1,-1,-1,-1,-1,-1,-1,-1,-1,-1,-1,-1,-1,-1,-1,-1,-1,-1,-1,-1,-1,-1,-1,-1,-1,-1,-1,-1,-1,-1,-1,-1,-1,-1,-1],"split_conditions":[4.5858374E-1,-1.3691896E-1,9.085102E-1,-6.697329E-1,-1.733419E0,-8.6296856E-1,-9.6091855E-1,8.152985E-2,1.3766832E0,3.39935E-1,-1.4243603E0,-1.2717158E0,1.2443699E0,-1.1263497E0,-8.2463944E-1,-3.4883717E-1,1.3290038E0,-6.7032504E-1,-1.5324963E0,4.8399205E0,-1.2585506E0,1.1111584E0,3.8113098E0,-7.101211E-1,8.297039E-1,-3.3340982E-1,5.52417E-1,2.1755058E-1,9.770205E-1,2.3744179E-2,1.327588E0,-9.536186E-2,-1.1134382E0,1.2439653E0,-7.358028E-1,-7.0382684E-1,-3.3199403E-1,-2.3940545E-1,8.791156E-1,-9.183534E-2,2.8586578E-1,-4.4191148E-2,1.9111605E-1,2.8596716E0,1.6273168E-1,-1.2642674E0,1.2575854E0,-6.6508436E-1,-1.8116698E0,3.8857508E-1,-2.4294176E-3,9.5605624E-1,-1.3632101E0,-2.097637E-1,3.3850214E-1,1.5256695E0,-1.0581857E0,-1.4912067E-1,3.714562E0,-8.2321286E-1,7.6396376E-1,-2.3748338E0,1.8059735E0,-4.4720463E-4,-1.6170614E-3,3.1416826E-3,2.2554105E-4,6.402388E-4,1.5637253E-3,1.7312211E-3,-3.9874797E-4,1.4350074E-3,1.2362508E-4,-1.055748E-4,-4.868372E-4,3.422115E-5,3.6468771E-3,3.835143E-4,-8.099799E-4,-1.0271983E-3,-1.96689E-3,1.6558668E-4,2.7354907E-3,-1.661679E-3,9.99422E-4,1.5287343E-3,3.4055894E-3,1.0966174E-3,2.3397864E-3,2.6020168E-3,4.2086975E-3,1.6168087E-3,4.907909E-4,-9.0458547E-4,-3.6120308E-3,-1.1031389E-4,3.0594112E-3,2.1127013E-3,5.0438056E-4,4.0406216E-4,1.5155E-3,-2.718244E-4,3.644544E-4,-2.0172854E-3,-6.548505E-4,-1.5140576E-3,-3.835986E-4,-2.6846784E-3,-5.221005E-4,1.6066693E-3,-3.3807574E-4,1.1711464E-3,4.1889194E-3,8.5676805E-4,-1.6272358E-4,2.974309E-3,-2.2192441E-3,-5.8791775E-5,1.0456525E-3,-9.827819E-4,1.1324534E-3,-2.2813065E-3,-1.0583057E-4,5.327278E-4,2.2826295E-3],"split_indices":[60,50,58,26,73,63,59,47,63,40,48,20,39,21,71,50,39,21,82,102,65,22,53,30,20,71,22,14,17,26,39,24,13,80,19,48,5,5,9,26,5,86,9,96,24,60,17,12,25,24,0,39,26,21,86,86,7,8,17,86,22,17,82,0,0,0,0,0,0,0,0,0,0,0,0,0,0,0,0,0,0,0,0,0,0,0,0,0,0,0,0,0,0,0,0,0,0,0,0,0,0,0,0,0,0,0,0,0,0,0,0,0,0,0,0,0,0,0,0,0,0,0,0,0,0],"split_type":[0,0,0,0,0,0,0,0,0,0,0,0,0,0,0,0,0,0,0,0,0,0,0,0,0,0,0,0,0,0,0,0,0,0,0,0,0,0,0,0,0,0,0,0,0,0,0,0,0,0,0,0,0,0,0,0,0,0,0,0,0,0,0,0,0,0,0,0,0,0,0,0,0,0,0,0,0,0,0,0,0,0,0,0,0,0,0,0,0,0,0,0,0,0,0,0,0,0,0,0,0,0,0,0,0,0,0,0,0,0,0,0,0,0,0,0,0,0,0,0,0,0,0,0,0],"sum_hessian":[2.3033E4,1.4912E4,8.121E3,8.752E3,6.16E3,5.459E3,2.662E3,2.115E3,6.637E3,3.01E2,5.859E3,3.97E2,5.062E3,2.41E2,2.421E3,2.98E2,1.817E3,5.708E3,9.29E2,2.43E2,5.8E1,1.74E2,5.685E3,9.7E1,3E2,4.599E3,4.63E2,4.8E1,1.93E2,4.17E2,2.004E3,1.85E2,1.13E2,1.517E3,3E2,6.11E2,5.097E3,3E1,8.99E2,2.34E2,9E0,1.2E1,4.6E1,1.28E2,4.6E1,5.566E3,1.19E2,3.5E1,6.2E1,2.95E2,5E0,1.667E3,2.932E3,3.25E2,1.38E2,4E1,8E0,1.71E2,2.2E1,3.51E2,6.6E1,1.77E3,2.34E2,1.09E2,7.6E1,4E0,1.09E2,1.371E3,1.46E2,2.5E1,2.75E2,1.15E2,4.96E2,1.6E3,3.497E3,7E0,2.3E1,7.58E2,1.41E2,1.79E2,5.5E1,5E0,4E0,5E0,7E0,3.3E1,1.3E1,1.08E2,2E1,3.1E1,1.5E1,2.18E2,5.348E3,1.11E2,8E0,2E0,3.3E1,1.3E1,4.9E1,2.71E2,2.4E1,1.373E3,2.94E2,1.63E2,2.769E3,2.57E2,6.8E1,1.12E2,2.6E1,3.6E1,4E0,1E0,7E0,1.15E2,5.6E1,1.9E1,3E0,7E1,2.81E2,5.3E1,1.3E1,2.2E1,1.748E3,2.14E2,2E1],"tree_param":{"num_deleted":"0","num_feature":"109","num_nodes":"125","size_leaf_vector":"1"}},{"base_weights":[-6.530816E-5,5.5425344E-3,-5.2857646E-3,1.3120157E-2,-3.095493E-4,-6.034074E-4,-1.4733347E-2,1.100127E-2,3.409287E-2,1.3131263E-2,-4.1068387E-3,5.1987247E-4,-2.8727483E-2,2.0936115E-2,-1.5818575E-2,5.1526427E-3,1.714525E-2,3.7835333E-2,-2.2727089E-2,1.4047486E-2,-8.422318E-2,7.313352E-3,-8.583216E-3,-3.7736963E-3,8.434503E-3,-5.7035092E-2,-9.389388E-3,1.4099561E-2,9.267728E-2,-4.9297884E-2,-1.41549455E-2,8.160218E-3,-1.5052831E-2,3.8454436E-2,1.5311292E-2,2.30943E-2,4.606113E-2,3.1129979E-2,-3.883038E-2,1.1285125E-2,5.2657228E-2,-9.24781E-2,-1.0352301E-3,-1.2180709E-2,1.2904898E-2,-1.5969824E-2,-2.656622E-3,-7.0205826E-4,-1.53462E-2,2.4429906E-2,5.5619967E-3,-6.014738E-2,1.4197784E-2,-5.2333223E-3,-4.4987362E-2,8.323821E-3,7.6707825E-2,2.6261646E-2,4.6955785E-3,-1.20467385E-2,-6.9084115E-2,-1.1076552E-2,-2.8435465E-2,-1.7817784E-4,5.7062437E-4,-3.305216E-4,-2.2108604E-3,1.1604974E-3,4.6420204E-3,3.1765777E-4,7.94142E-4,1.0919225E-3,-7.9969555E-4,2.3284475E-3,1.153402E-3,5.436087E-5,2.1247377E-3,2.0454228E-3,-2.0153502E-3,7.022505E-4,-6.761027E-5,1.3130393E-3,4.6879295E-3,-1.0542265E-3,-3.858191E-3,2.2681437E-5,-1.7169295E-3,7.286552E-4,-2.2868766E-4,-3.9033967E-4,-1.1992024E-3,-2.3528069E-4,9.563262E-4,-1.4257974E-3,1.5970685E-5,-1.6843442E-4,-1.2945327E-3,1.986184E-3,6.453092E-4,3.3405505E-4,-3.9564472E-4,-2.606584E-3,-1.212449E-3,8.189444E-4,-3.4362698E-4,-5.8538304E-4,4.7620438E-4,2.1401311E-4,-2.5338908E-3,5.021946E-4,-1.6761024E-3,4.1447133E-3,-4.660586E-4,-5.73141E-4,2.960643E-3,-9.356716E-5,-3.1882902E-3,-2.460601E-3,-4.417395E-3,-5.007117E-4,9.3561574E-4,-9.857368E-4,-2.3350741E-3],"categories":[],"categories_nodes":[],"categories_segments":[],"categories_sizes":[],"default_left":[0,0,0,0,0,0,0,0,0,0,0,0,0,0,0,0,0,0,0,0,0,0,0,0,0,0,0,0,0,0,0,0,0,0,0,0,0,0,0,0,0,0,0,0,0,0,0,0,0,0,0,0,0,0,0,0,0,0,0,0,0,0,0,0,0,0,0,0,0,0,0,0,0,0,0,0,0,0,0,0,0,0,0,0,0,0,0,0,0,0,0,0,0,0,0,0,0,0,0,0,0,0,0,0,0,0,0,0,0,0,0,0,0,0,0,0,0,0,0,0,0,0,0],"id":11,"left_children":[1,3,5,7,9,11,13,15,17,19,21,23,25,27,29,31,33,35,37,39,41,43,45,47,49,51,53,55,57,59,61,63,65,67,69,71,73,75,77,79,81,83,-1,85,87,89,91,93,95,97,99,101,103,105,107,109,111,113,-1,115,117,119,121,-1,-1,-1,-1,-1,-1,-1,-1,-1,-1,-1,-1,-1,-1,-1,-1,-1,-1,-1,-1,-1,-1,-1,-1,-1,-1,-1,-1,-1,-1,-1,-1,-1,-1,-1,-1,-1,-1,-1,-1,-1,-1,-1,-1,-1,-1,-1,-1,-1,-1,-1,-1,-1,-1,-1,-1,-1,-1,-1,-1],"loss_changes":[6.734829E-1,4.9183315E-1,5.270301E-1,2.1439761E-1,3.195049E-1,2.517021E-1,1.5315634E-1,1.5769714E-1,9.5062375E-2,1.2418766E-1,2.495848E-1,2.6040202E-1,1.6697353E-1,5.6077387E-2,2.1273363E-1,1.369149E-1,8.308178E-2,4.937911E-2,2.549252E-2,1.452018E-1,3.8675442E-3,1.5003487E-1,1.5348497E-1,1.7658445E-1,1.2369098E-1,2.8344423E-2,2.683896E-2,3.841527E-2,1.3329916E-2,1.3257563E-1,1.6023082E-1,1.5101783E-1,7.928158E-2,1.20453015E-1,6.5890014E-2,2.7895808E-2,5.3994656E-2,4.5101345E-3,2.5443427E-2,1.0393965E-1,1.12626374E-1,3.502965E-4,0E0,1.20337E-1,1.0583988E-1,1.3554916E-1,1.669633E-1,1.5113884E-1,1.9731377E-1,8.500935E-2,9.861972E-2,1.5838444E-2,1.0339807E-3,2.6759483E-2,1.7898642E-2,2.177709E-2,2.2607043E-2,8.813983E-3,0E0,4.184993E-2,3.0139148E-2,1.4961642E-1,7.202113E-2,0E0,0E0,0E0,0E0,0E0,0E0,0E0,0E0,0E0,0E0,0E0,0E0,0E0,0E0,0E0,0E0,0E0,0E0,0E0,0E0,0E0,0E0,0E0,0E0,0E0,0E0,0E0,0E0,0E0,0E0,0E0,0E0,0E0,0E0,0E0,0E0,0E0,0E0,0E0,0E0,0E0,0E0,0E0,0E0,0E0,0E0,0E0,0E0,0E0,0E0,0E0,0E0,0E0,0E0,0E0,0E0,0E0,0E0,0E0,0E0],"parents":[2147483647,0,0,1,1,2,2,3,3,4,4,5,5,6,6,7,7,8,8,9,9,10,10,11,11,12,12,13,13,14,14,15,15,16,16,17,17,18,18,19,19,20,20,21,21,22,22,23,23,24,24,25,25,26,26,27,27,28,28,29,29,30,30,31,31,32,32,33,33,34,34,35,35,36,36,37,37,38,38,39,39,40,40,41,41,43,43,44,44,45,45,46,46,47,47,48,48,49,49,50,50,51,51,52,52,53,53,54,54,55,55,56,56,57,57,59,59,60,60,61,61,62,62],"right_children":[2,4,6,8,10,12,14,16,18,20,22,24,26,28,30,32,34,36,38,40,42,44,46,48,50,52,54,56,58,60,62,64,66,68,70,72,74,76,78,80,82,84,-1,86,88,90,92,94,96,98,100,102,104,106,108,110,112,114,-1,116,118,120,122,-1,-1,-1,-1,-1,-1,-1,-1,-1,-1,-1,-1,-1,-1,-1,-1,-1,-1,-1,-1,-1,-1,-1,-1,-1,-1,-1,-1,-1,-1,-1,-1,-1,-1,-1,-1,-1,-1,-1,-1,-1,-1,-1,-1,-1,-1,-1,-1,-1,-1,-1,-1,-1,-1,-1,-1,-1,-1,-1,-1],"split_conditions":[-9.231583E-2,-7.0625003E-3,6.016418E-1,1.7580241E0,-8.128009E-1,1.6506763E0,-2.0384054E0,-2.1700159E-2,2.4368412E0,2.8865986E0,-9.0089196E-1,7.2860844E-2,-1.4787896E0,3.3971698E0,-1.7218003E0,1.6090328E0,-1.4243603E0,-4.0907748E-2,-1.2903404E0,1.0852493E0,6.3460934E-1,1.9588234E-1,3.7048274E-1,-7.547431E-2,-9.0340877E-1,4.846326E0,1.8653276E0,7.092096E-1,2.701707E-1,1.2951189E0,6.454815E-1,-3.1158251E-3,8.791156E-1,1.6273168E-1,4.0473353E-2,3.0465896E0,-5.5415344E-1,1.051138E0,-5.380565E-1,1.0507402E0,1.9308739E0,1.578297E-1,-1.0352301E-3,9.509456E-2,1.4315035E0,6.472129E-1,2.8854291E0,-2.6793196E0,-1.5325338E-2,-1.1102176E0,8.3012587E-1,4.0722227E-1,-1.7245948E-1,1.3963506E0,-9.060412E-1,1.4756857E0,-1.0911298E-2,2.9617736E-1,4.6955785E-3,1.5533679E0,3.8857508E-1,1.1472437E0,2.8854291E0,-1.7817784E-4,5.7062437E-4,-3.305216E-4,-2.2108604E-3,1.1604974E-3,4.6420204E-3,3.1765777E-4,7.94142E-4,1.0919225E-3,-7.9969555E-4,2.3284475E-3,1.153402E-3,5.436087E-5,2.1247377E-3,2.0454228E-3,-2.0153502E-3,7.022505E-4,-6.761027E-5,1.3130393E-3,4.6879295E-3,-1.0542265E-3,-3.858191E-3,2.2681437E-5,-1.7169295E-3,7.286552E-4,-2.2868766E-4,-3.9033967E-4,-1.1992024E-3,-2.3528069E-4,9.563262E-4,-1.4257974E-3,1.5970685E-5,-1.6843442E-4,-1.2945327E-3,1.986184E-3,6.453092E-4,3.3405505E-4,-3.9564472E-4,-2.606584E-3,-1.212449E-3,8.189444E-4,-3.4362698E-4,-5.8538304E-4,4.7620438E-4,2.1401311E-4,-2.5338908E-3,5.021946E-4,-1.6761024E-3,4.1447133E-3,-4.660586E-4,-5.73141E-4,2.960643E-3,-9.356716E-5,-3.1882902E-3,-2.460601E-3,-4.417395E-3,-5.007117E-4,9.3561574E-4,-9.857368E-4,-2.3350741E-3],"split_indices":[56,27,26,41,58,42,66,40,19,23,26,42,26,100,49,43,48,11,88,9,40,47,26,47,19,105,22,16,88,26,42,54,9,24,54,0,26,11,3,49,21,39,0,24,43,21,99,59,75,41,42,14,5,30,15,23,24,0,0,22,24,39,99,0,0,0,0,0,0,0,0,0,0,0,0,0,0,0,0,0,0,0,0,0,0,0,0,0,0,0,0,0,0,0,0,0,0,0,0,0,0,0,0,0,0,0,0,0,0,0,0,0,0,0,0,0,0,0,0,0,0,0,0],"split_type":[0,0,0,0,0,0,0,0,0,0,0,0,0,0,0,0,0,0,0,0,0,0,0,0,0,0,0,0,0,0,0,0,0,0,0,0,0,0,0,0,0,0,0,0,0,0,0,0,0,0,0,0,0,0,0,0,0,0,0,0,0,0,0,0,0,0,0,0,0,0,0,0,0,0,0,0,0,0,0,0,0,0,0,0,0,0,0,0,0,0,0,0,0,0,0,0,0,0,0,0,0,0,0,0,0,0,0,0,0,0,0,0,0,0,0,0,0,0,0,0,0,0,0],"sum_hessian":[2.3003E4,1.109E4,1.1913E4,4.832E3,6.258E3,7.966E3,3.947E3,4.39E3,4.42E2,1.378E3,4.88E3,7.661E3,3.05E2,1.16E2,3.831E3,2.25E3,2.14E3,4.15E2,2.7E1,1.366E3,1.2E1,1.374E3,3.506E3,4.967E3,2.694E3,1.23E2,1.82E2,1.07E2,9E0,1.8E2,3.651E3,1.959E3,2.91E2,1.68E2,1.972E3,1.5E2,2.65E2,6E0,2.1E1,1.276E3,9E1,1E1,2E0,3.06E2,1.068E3,1.56E3,1.946E3,3.926E3,1.041E3,4.09E2,2.285E3,1.18E2,5E0,1.64E2,1.8E1,9.9E1,8E0,3E0,6E0,6.3E1,1.17E2,3.005E3,6.46E2,6.39E2,1.32E3,2.5E2,4.1E1,1.51E2,1.7E1,7.53E2,1.219E3,1.37E2,1.3E1,1.54E2,1.11E2,3E0,3E0,2E0,1.9E1,8.6E2,4.16E2,7E1,2E1,1E0,9E0,2.17E2,8.9E1,8.31E2,2.37E2,1.082E3,4.78E2,1.736E3,2.1E2,1.19E2,3.807E3,6.3E2,4.11E2,1E2,3.09E2,1.936E3,3.49E2,1E2,1.8E1,4E0,1E0,1.06E2,5.8E1,5E0,1.3E1,9.2E1,7E0,6E0,2E0,2E0,1E0,5.6E1,7E0,1.01E2,1.6E1,2.885E3,1.2E2,5.75E2,7.1E1],"tree_param":{"num_deleted":"0","num_feature":"109","num_nodes":"123","size_leaf_vector":"1"}},{"base_weights":[-2.362092E-4,3.8126528E-3,-7.960647E-3,-1.0561999E-3,1.0557953E-2,-1.6800396E-2,-1.670613E-3,8.397878E-3,-4.0271636E-3,1.7869972E-2,6.768732E-3,-1.3416979E-2,-3.629161E-2,1.4967384E-2,-4.2083384E-3,1.832175E-2,1.7150218E-3,1.8375967E-2,-5.359122E-3,2.3997795E-2,7.925799E-3,3.7692163E-2,5.0235474E-3,-1.0334848E-2,-3.5298754E-2,-3.19698E-2,-5.7046857E-2,1.6527763E-2,-5.3309485E-2,3.2160795E-4,-1.5180294E-2,9.428199E-3,2.4390891E-2,1.4614115E-2,-5.426807E-3,2.5831835E-2,-1.469237E-2,-7.7978354E-3,4.7239163E-3,2.4868408E-2,-5.4796524E-2,9.636522E-3,-6.97822E-2,2.9258622E-2,8.092126E-2,-5.6315796E-3,1.1586172E-2,-4.214977E-2,-8.667373E-3,-2.271322E-2,-6.060063E-2,-4.1127115E-2,-1.9957706E-2,-6.6565305E-2,-3.2301437E-2,3.591344E-2,1.2225608E-2,-8.20403E-4,-6.755011E-2,4.8436653E-3,-1.5588255E-2,-2.6678242E-2,-7.7183316E-3,4.8268013E-4,-1.6940095E-3,8.4812794E-4,2.1973986E-3,1.7254877E-4,1.3159718E-3,-9.026452E-4,1.8138088E-4,1.4078564E-3,9.572819E-5,-4.357492E-3,-2.3067201E-4,-2.5014192E-4,-1.009254E-3,-1.7374901E-4,5.093535E-4,1.2926693E-3,6.3881476E-4,-3.2387914E-3,-8.166664E-5,-3.456256E-4,6.059247E-4,-3.51077E-4,-3.2559251E-3,2.019844E-3,7.788121E-4,1.1316284E-3,3.6201738E-3,-9.84004E-4,5.62097E-5,5.518001E-4,-7.447028E-4,-2.6612573E-3,-7.4533495E-4,-2.1541647E-3,-3.0249776E-4,-2.1837305E-3,-6.100083E-4,-4.0088743E-3,-2.1827319E-3,-2.8433858E-3,-1.3217864E-3,-9.337246E-4,1.3424424E-3,-2.7936613E-3,-1.6227238E-4,-2.3159017E-3,1.0098858E-5,1.137551E-3,2.8848832E-3,4.1580692E-4,2.1218457E-3,-6.8690284E-4,4.1418042E-4,-3.4311946E-4,-2.9035807E-3,7.312546E-4,8.100402E-5,-1.9364976E-3,-3.0307626E-4,9.816554E-4,-1.1377608E-3,-1.7192552E-3,-2.2506126E-4],"categories":[],"categories_nodes":[],"categories_segments":[],"categories_sizes":[],"default_left":[0,0,0,0,0,0,0,0,0,0,0,0,0,0,0,0,0,0,0,0,0,0,0,0,0,0,0,0,0,0,0,0,0,0,0,0,0,0,0,0,0,0,0,0,0,0,0,0,0,0,0,0,0,0,0,0,0,0,0,0,0,0,0,0,0,0,0,0,0,0,0,0,0,0,0,0,0,0,0,0,0,0,0,0,0,0,0,0,0,0,0,0,0,0,0,0,0,0,0,0,0,0,0,0,0,0,0,0,0,0,0,0,0,0,0,0,0,0,0,0,0,0,0,0,0,0,0],"id":12,"left_children":[1,3,5,7,9,11,13,15,17,19,21,23,25,27,29,31,33,35,37,39,41,43,45,47,49,51,53,55,57,59,61,63,65,67,69,71,73,75,77,79,81,83,85,87,89,91,93,95,97,99,101,103,105,107,109,111,113,115,117,119,121,123,125,-1,-1,-1,-1,-1,-1,-1,-1,-1,-1,-1,-1,-1,-1,-1,-1,-1,-1,-1,-1,-1,-1,-1,-1,-1,-1,-1,-1,-1,-1,-1,-1,-1,-1,-1,-1,-1,-1,-1,-1,-1,-1,-1,-1,-1,-1,-1,-1,-1,-1,-1,-1,-1,-1,-1,-1,-1,-1,-1,-1,-1,-1,-1,-1],"loss_changes":[7.240822E-1,4.9887925E-1,4.4267768E-1,2.4785179E-1,1.7631632E-1,2.1779722E-1,1.9652504E-1,1.3990335E-1,2.004445E-1,1.3222396E-1,2.2625658E-1,1.8995792E-1,4.2039692E-2,6.650838E-2,2.0070304E-1,4.5595825E-2,1.1633867E-1,9.333007E-2,1.5588598E-1,9.35604E-2,1.1101009E-1,7.9297006E-2,2.7787966E-1,1.3093495E-1,1.0943991E-1,4.394859E-2,1.739952E-2,4.985124E-2,1.0409266E-2,2.0576714E-1,1.0103488E-1,4.7786117E-2,4.7907233E-2,8.461317E-2,1.3890617E-1,6.751956E-2,5.825505E-2,1.3725391E-1,8.9754716E-2,8.763027E-2,2.054619E-2,8.202953E-2,1.2040965E-2,3.8306013E-2,1.5596643E-2,2.0225391E-1,1.6430897E-1,6.928466E-2,1.1707358E-1,5.484099E-2,2.2017032E-2,5.334097E-2,3.3033974E-2,1.1799365E-2,2.0845948E-2,2.7449518E-2,3.6434658E-2,9.087499E-4,2.6463605E-3,8.431065E-2,1.6609064E-1,4.2663395E-2,5.2646413E-2,0E0,0E0,0E0,0E0,0E0,0E0,0E0,0E0,0E0,0E0,0E0,0E0,0E0,0E0,0E0,0E0,0E0,0E0,0E0,0E0,0E0,0E0,0E0,0E0,0E0,0E0,0E0,0E0,0E0,0E0,0E0,0E0,0E0,0E0,0E0,0E0,0E0,0E0,0E0,0E0,0E0,0E0,0E0,0E0,0E0,0E0,0E0,0E0,0E0,0E0,0E0,0E0,0E0,0E0,0E0,0E0,0E0,0E0,0E0,0E0,0E0,0E0,0E0,0E0],"parents":[2147483647,0,0,1,1,2,2,3,3,4,4,5,5,6,6,7,7,8,8,9,9,10,10,11,11,12,12,13,13,14,14,15,15,16,16,17,17,18,18,19,19,20,20,21,21,22,22,23,23,24,24,25,25,26,26,27,27,28,28,29,29,30,30,31,31,32,32,33,33,34,34,35,35,36,36,37,37,38,38,39,39,40,40,41,41,42,42,43,43,44,44,45,45,46,46,47,47,48,48,49,49,50,50,51,51,52,52,53,53,54,54,55,55,56,56,57,57,58,58,59,59,60,60,61,61,62,62],"right_children":[2,4,6,8,10,12,14,16,18,20,22,24,26,28,30,32,34,36,38,40,42,44,46,48,50,52,54,56,58,60,62,64,66,68,70,72,74,76,78,80,82,84,86,88,90,92,94,96,98,100,102,104,106,108,110,112,114,116,118,120,122,124,126,-1,-1,-1,-1,-1,-1,-1,-1,-1,-1,-1,-1,-1,-1,-1,-1,-1,-1,-1,-1,-1,-1,-1,-1,-1,-1,-1,-1,-1,-1,-1,-1,-1,-1,-1,-1,-1,-1,-1,-1,-1,-1,-1,-1,-1,-1,-1,-1,-1,-1,-1,-1,-1,-1,-1,-1,-1,-1,-1,-1,-1,-1,-1,-1],"split_conditions":[4.944204E-1,-1.3691896E-1,9.7681874E-1,-6.697329E-1,-6.743634E-1,1.2443699E0,-8.78985E-1,-9.445053E-1,-8.1469715E-1,-3.8039774E-1,-1.4243603E0,1.0104878E0,4.3387878E-1,1.1123497E0,6.016418E-1,3.915999E-1,-1.7451587E-1,1.4106984E0,1.451897E0,5.3489437E0,2.233988E0,-1.0222599E-1,-1.062449E-1,-1.8049675E0,1.2951189E0,4.7487193E-1,5.916859E-2,-7.101211E-1,-9.216974E-4,1.3995521E0,1.4564599E0,2.072248E0,1.2439653E0,3.0337957E-1,8.7275E-1,-3.093621E-1,-1.300514E0,1.2727981E0,1.2240503E-1,2.3744179E-2,5.5531173E0,-1.0640624E-1,-6.1957425E-1,-1.9855844E0,-4.6929348E-1,-5.466458E-1,3.7138023E0,-2.857212E-1,-1.790691E0,-9.16449E-1,-9.015517E-1,-1.2542138E0,6.7122483E-1,1.539864E0,3.4325486E-1,1.4722456E0,4.8874598E0,-5.109042E-1,-5.73768E-1,-8.2463944E-1,-1.3632101E0,-1.8931161E0,-1.0476608E0,4.8268013E-4,-1.6940095E-3,8.4812794E-4,2.1973986E-3,1.7254877E-4,1.3159718E-3,-9.026452E-4,1.8138088E-4,1.4078564E-3,9.572819E-5,-4.357492E-3,-2.3067201E-4,-2.5014192E-4,-1.009254E-3,-1.7374901E-4,5.093535E-4,1.2926693E-3,6.3881476E-4,-3.2387914E-3,-8.166664E-5,-3.456256E-4,6.059247E-4,-3.51077E-4,-3.2559251E-3,2.019844E-3,7.788121E-4,1.1316284E-3,3.6201738E-3,-9.84004E-4,5.62097E-5,5.518001E-4,-7.447028E-4,-2.6612573E-3,-7.4533495E-4,-2.1541647E-3,-3.0249776E-4,-2.1837305E-3,-6.100083E-4,-4.0088743E-3,-2.1827319E-3,-2.8433858E-3,-1.3217864E-3,-9.337246E-4,1.3424424E-3,-2.7936613E-3,-1.6227238E-4,-2.3159017E-3,1.0098858E-5,1.137551E-3,2.8848832E-3,4.1580692E-4,2.1218457E-3,-6.8690284E-4,4.1418042E-4,-3.4311946E-4,-2.9035807E-3,7.312546E-4,8.100402E-5,-1.9364976E-3,-3.0307626E-4,9.816554E-4,-1.1377608E-3,-1.7192552E-3,-2.2506126E-4],"split_indices":[60,50,60,26,60,39,63,60,21,56,48,69,13,20,26,41,59,26,54,7,9,24,44,40,26,87,21,30,13,27,60,17,80,82,49,50,7,63,24,26,1,56,48,14,80,66,93,17,49,17,14,14,7,92,69,82,107,1,1,71,26,14,24,0,0,0,0,0,0,0,0,0,0,0,0,0,0,0,0,0,0,0,0,0,0,0,0,0,0,0,0,0,0,0,0,0,0,0,0,0,0,0,0,0,0,0,0,0,0,0,0,0,0,0,0,0,0,0,0,0,0,0,0,0,0,0,0],"split_type":[0,0,0,0,0,0,0,0,0,0,0,0,0,0,0,0,0,0,0,0,0,0,0,0,0,0,0,0,0,0,0,0,0,0,0,0,0,0,0,0,0,0,0,0,0,0,0,0,0,0,0,0,0,0,0,0,0,0,0,0,0,0,0,0,0,0,0,0,0,0,0,0,0,0,0,0,0,0,0,0,0,0,0,0,0,0,0,0,0,0,0,0,0,0,0,0,0,0,0,0,0,0,0,0,0,0,0,0,0,0,0,0,0,0,0,0,0,0,0,0,0,0,0,0,0,0,0],"sum_hessian":[2.315E4,1.5189E4,7.961E3,8.822E3,6.367E3,3.309E3,4.652E3,2.109E3,6.713E3,2.172E3,4.195E3,2.821E3,4.88E2,6.15E2,4.037E3,8.48E2,1.261E3,3.76E2,6.337E3,1.343E3,8.29E2,2.23E2,3.972E3,2.474E3,3.47E2,4.06E2,8.2E1,6.02E2,1.3E1,2.858E3,1.179E3,3.45E2,5.03E2,4.49E2,8.12E2,3.07E2,6.9E1,5.103E3,1.234E3,1.329E3,1.4E1,8.12E2,1.7E1,1.88E2,3.5E1,1.514E3,2.458E3,1.22E2,2.352E3,2.33E2,1.14E2,2.29E2,1.77E2,5.8E1,2.4E1,1.08E2,4.94E2,3E0,1E1,2.226E3,6.32E2,4.63E2,7.16E2,3.29E2,1.6E1,4.57E2,4.6E1,2.88E2,1.61E2,2.98E2,5.14E2,2.19E2,8.8E1,5E0,6.4E1,4.689E3,4.14E2,5.79E2,6.55E2,7.22E2,6.07E2,9E0,5E0,1.88E2,6.24E2,3E0,1.4E1,5.8E1,1.3E2,6E0,2.9E1,4.09E2,1.105E3,2.291E3,1.67E2,5.9E1,6.3E1,5.5E1,2.297E3,4.3E1,1.9E2,1.3E1,1.01E2,4.7E1,1.82E2,1.67E2,1E1,5.5E1,3E0,1.3E1,1.1E1,9.1E1,1.7E1,4.74E2,2E1,1E0,2E0,1E0,9E0,3.85E2,1.841E3,1.23E2,5.09E2,1.5E1,4.48E2,3.9E1,6.77E2],"tree_param":{"num_deleted":"0","num_feature":"109","num_nodes":"127","size_leaf_vector":"1"}},{"base_weights":[1.3763382E-4,3.9015918E-3,-6.571929E-3,-1.0290557E-3,1.0955944E-2,-4.384369E-3,-3.0130014E-2,-3.1223064E-3,1.1119786E-2,-1.5411994E-2,1.2318853E-2,-7.960808E-3,7.740495E-3,-2.216229E-2,-5.3464253E-2,-1.1358336E-3,-1.4832054E-2,-5.9724553E-3,1.7494597E-2,3.302308E-2,-2.740657E-2,3.8208075E-2,1.0928515E-2,-6.4006527E-3,-3.733969E-2,7.1072094E-3,6.768368E-2,-1.0152487E-3,-3.2114476E-2,-9.754979E-3,-6.1164223E-2,5.1201787E-3,-4.330408E-3,-2.6346987E-2,-4.3488257E-3,1.0819456E-3,