{"learner":{"attributes":{"scikit_learn":"{\"_estimator_type\": \"regressor\"}"},"feature_names":[],"feature_types":[],"gradient_booster":{"model":{"cats":{"enc":[],"feature_segments":[],"sorted_idx":[]},"gbtree_model_param":{"num_parallel_tree":"1","num_trees":"400"},"iteration_indptr":[0,1,2,3,4,5,6,7,8,9,10,11,12,13,14,15,16,17,18,19,20,21,22,23,24,25,26,27,28,29,30,31,32,33,34,35,36,37,38,39,40,41,42,43,44,45,46,47,48,49,50,51,52,53,54,55,56,57,58,59,60,61,62,63,64,65,66,67,68,69,70,71,72,73,74,75,76,77,78,79,80,81,82,83,84,85,86,87,88,89,90,91,92,93,94,95,96,97,98,99,100,101,102,103,104,105,106,107,108,109,110,111,112,113,114,115,116,117,118,119,120,121,122,123,124,125,126,127,128,129,130,131,132,133,134,135,136,137,138,139,140,141,142,143,144,145,146,147,148,149,150,151,152,153,154,155,156,157,158,159,160,161,162,163,164,165,166,167,168,169,170,171,172,173,174,175,176,177,178,179,180,181,182,183,184,185,186,187,188,189,190,191,192,193,194,195,196,197,198,199,200,201,202,203,204,205,206,207,208,209,210,211,212,213,214,215,216,217,218,219,220,221,222,223,224,225,226,227,228,229,230,231,232,233,234,235,236,237,238,239,240,241,242,243,244,245,246,247,248,249,250,251,252,253,254,255,256,257,258,259,260,261,262,263,264,265,266,267,268,269,270,271,272,273,274,275,276,277,278,279,280,281,282,283,284,285,286,287,288,289,290,291,292,293,294,295,296,297,298,299,300,301,302,303,304,305,306,307,308,309,310,311,312,313,314,315,316,317,318,319,320,321,322,323,324,325,326,327,328,329,330,331,332,333,334,335,336,337,338,339,340,341,342,343,344,345,346,347,348,349,350,351,352,353,354,355,356,357,358,359,360,361,362,363,364,365,366,367,368,369,370,371,372,373,374,375,376,377,378,379,380,381,382,383,384,385,386,387,388,389,390,391,392,393,394,395,396,397,398,399,400],"tree_info":[0,0,0,0,0,0,0,0,0,0,0,0,0,0,0,0,0,0,0,0,0,0,0,0,0,0,0,0,0,0,0,0,0,0,0,0,0,0,0,0,0,0,0,0,0,0,0,0,0,0,0,0,0,0,0,0,0,0,0,0,0,0,0,0,0,0,0,0,0,0,0,0,0,0,0,0,0,0,0,0,0,0,0,0,0,0,0,0,0,0,0,0,0,0,0,0,0,0,0,0,0,0,0,0,0,0,0,0,0,0,0,0,0,0,0,0,0,0,0,0,0,0,0,0,0,0,0,0,0,0,0,0,0,0,0,0,0,0,0,0,0,0,0,0,0,0,0,0,0,0,0,0,0,0,0,0,0,0,0,0,0,0,0,0,0,0,0,0,0,0,0,0,0,0,0,0,0,0,0,0,0,0,0,0,0,0,0,0,0,0,0,0,0,0,0,0,0,0,0,0,0,0,0,0,0,0,0,0,0,0,0,0,0,0,0,0,0,0,0,0,0,0,0,0,0,0,0,0,0,0,0,0,0,0,0,0,0,0,0,0,0,0,0,0,0,0,0,0,0,0,0,0,0,0,0,0,0,0,0,0,0,0,0,0,0,0,0,0,0,0,0,0,0,0,0,0,0,0,0,0,0,0,0,0,0,0,0,0,0,0,0,0,0,0,0,0,0,0,0,0,0,0,0,0,0,0,0,0,0,0,0,0,0,0,0,0,0,0,0,0,0,0,0,0,0,0,0,0,0,0,0,0,0,0,0,0,0,0,0,0,0,0,0,0,0,0,0,0,0,0,0,0,0,0,0,0,0,0,0,0,0,0,0,0,0,0,0,0,0,0,0,0,0,0,0,0,0,0,0,0,0,0,0,0,0,0,0,0,0,0,0,0,0,0,0,0,0,0,0,0],"trees":[{"base_weights":[-1.4809602E-4,6.6924165E-3,-9.271292E-3,1.540895E-2,2.2783423E-4,-6.4513297E-3,-5.2995786E-2,2.2464974E-2,-2.1533193E-3,4.03237E-3,-1.8192612E-2,-1.4401319E-2,4.0605008E-3,-4.0928327E-2,-8.012188E-2,1.910528E-2,4.613307E-2,4.2406875E-3,-1.8988427E-2,1.4675729E-2,-2.0134677E-3,-1.1000057E-2,-4.9305443E-2,-1.0606865E-2,-4.543447E-2,-4.8068345E-2,6.3777887E-3,-3.1149667E-2,-5.7661626E-2,-8.530601E-2,3.0158924E-2,1.1808022E-2,2.6379284E-2,5.5619974E-2,1.3606078E-2,-3.8774684E-2,7.640026E-3,-2.417782E-2,4.2492393E-2,5.393857E-3,2.5129028E-2,1.3307831E-2,-8.9372145E-3,8.642672E-3,-1.857022E-2,-6.646412E-4,-5.9415586E-2,-5.6417294E-2,-9.42281E-3,-8.562726E-2,-2.7624628E-2,-3.5504322E-2,-8.703952E-2,1.6357386E-2,-3.9214888E-3,-3.6712043E-2,-2.2505906E-3,-1.639741E-2,-7.115417E-2,-9.879479E-2,-6.0156975E-2,-2.384282E-4,2.7286087E-3,-2.7313395E-4,6.22616E-4,8.4786175E-4,1.574234E-3,2.4028586E-3,3.1730135E-5,1.005464E-4,1.9702085E-3,-9.70812E-4,-2.8525144E-3,2.0533724E-4,1.194259E-3,-1.293571E-3,1.0830591E-3,2.3718185E-3,-1.9442008E-3,5.043333E-4,-3.6552973E-4,3.3147451E-3,9.2409155E-4,7.5378123E-4,-3.989584E-4,-4.7176098E-4,9.6162275E-4,6.622942E-5,2.027649E-3,-6.386166E-4,-2.474994E-3,-7.341882E-4,1.8625698E-3,-2.6975423E-3,-9.6617965E-4,-1.4740868E-3,-3.0275767E-3,-1.7264703E-3,-3.2362345E-4,-4.5884773E-3,-2.8342444E-3,-1.4983668E-3,-1.4550379E-4,-4.187353E-3,-1.1059417E-3,-4.056229E-3,-1.9318606E-3,3.49217E-4,1.1485042E-3,-5.465494E-4,2.7098047E-4,-6.9911295E-4,-1.8232585E-3,-6.197189E-4,1.2207667E-3,-2.300943E-3,-8.568433E-5,-1.1295491E-3,-3.092364E-3,-4.085248E-3,-1.6895194E-3,-1.3010275E-3,-3.1776512E-3,3.5081097E-4,-4.8682216E-4],"categories":[],"categories_nodes":[],"categories_segments":[],"categories_sizes":[],"default_left":[0,0,0,0,0,0,0,0,0,0,0,0,0,0,0,0,0,0,0,0,0,0,0,0,0,0,0,0,0,0,0,0,0,0,0,0,0,0,0,0,0,0,0,0,0,0,0,0,0,0,0,0,0,0,0,0,0,0,0,0,0,0,0,0,0,0,0,0,0,0,0,0,0,0,0,0,0,0,0,0,0,0,0,0,0,0,0,0,0,0,0,0,0,0,0,0,0,0,0,0,0,0,0,0,0,0,0,0,0,0,0,0,0,0,0,0,0,0,0,0,0,0,0,0,0],"id":0,"left_children":[1,3,5,7,9,11,13,15,17,19,21,23,25,27,29,31,33,35,37,39,41,43,45,47,49,51,53,55,57,59,61,63,65,67,69,71,73,75,77,79,81,83,85,87,89,91,93,95,97,99,101,103,105,107,109,111,113,115,117,119,121,123,-1,-1,-1,-1,-1,-1,-1,-1,-1,-1,-1,-1,-1,-1,-1,-1,-1,-1,-1,-1,-1,-1,-1,-1,-1,-1,-1,-1,-1,-1,-1,-1,-1,-1,-1,-1,-1,-1,-1,-1,-1,-1,-1,-1,-1,-1,-1,-1,-1,-1,-1,-1,-1,-1,-1,-1,-1,-1,-1,-1,-1,-1,-1],"loss_changes":[1.4450415E0,7.4565953E-1,1.2230549E0,6.9833636E-1,5.326207E-1,7.7908814E-1,1.9345391E-1,3.1877947E-1,1.7403288E-1,4.0535775E-1,2.9059634E-1,6.245558E-1,4.8530865E-1,6.660092E-2,1.07767224E-1,1.8663716E-1,1.5322483E-1,1.7167054E-1,1.4300379E-1,2.2127822E-1,4.263516E-1,1.5748367E-1,1.1995137E-1,2.5608766E-1,4.1138268E-1,8.0637306E-2,3.9526337E-1,4.267621E-2,8.4017396E-2,5.3761363E-2,1.0427561E-2,1.2334834E-1,1.1773491E-1,9.415972E-2,4.495579E-2,3.8856596E-2,6.0379192E-2,1.728009E-1,5.6457117E-2,1.2697342E-1,1.23651326E-1,1.6144723E-1,2.6106033E-1,8.6584285E-2,8.519146E-2,3.6780402E-2,5.551654E-2,4.2081E-2,2.0699507E-1,6.791377E-2,9.4696164E-2,6.829877E-2,1.792264E-2,1.8378597E-1,1.97349E-1,3.7246317E-2,1.956662E-2,2.2741148E-2,2.8193176E-2,1.7008781E-2,3.1518534E-2,7.516969E-4,0E0,0E0,0E0,0E0,0E0,0E0,0E0,0E0,0E0,0E0,0E0,0E0,0E0,0E0,0E0,0E0,0E0,0E0,0E0,0E0,0E0,0E0,0E0,0E0,0E0,0E0,0E0,0E0,0E0,0E0,0E0,0E0,0E0,0E0,0E0,0E0,0E0,0E0,0E0,0E0,0E0,0E0,0E0,0E0,0E0,0E0,0E0,0E0,0E0,0E0,0E0,0E0,0E0,0E0,0E0,0E0,0E0,0E0,0E0,0E0,0E0,0E0,0E0],"parents":[2147483647,0,0,1,1,2,2,3,3,4,4,5,5,6,6,7,7,8,8,9,9,10,10,11,11,12,12,13,13,14,14,15,15,16,16,17,17,18,18,19,19,20,20,21,21,22,22,23,23,24,24,25,25,26,26,27,27,28,28,29,29,30,30,31,31,32,32,33,33,34,34,35,35,36,36,37,37,38,38,39,39,40,40,41,41,42,42,43,43,44,44,45,45,46,46,47,47,48,48,49,49,50,50,51,51,52,52,53,53,54,54,55,55,56,56,57,57,58,58,59,59,60,60,61,61],"right_children":[2,4,6,8,10,12,14,16,18,20,22,24,26,28,30,32,34,36,38,40,42,44,46,48,50,52,54,56,58,60,62,64,66,68,70,72,74,76,78,80,82,84,86,88,90,92,94,96,98,100,102,104,106,108,110,112,114,116,118,120,122,124,-1,-1,-1,-1,-1,-1,-1,-1,-1,-1,-1,-1,-1,-1,-1,-1,-1,-1,-1,-1,-1,-1,-1,-1,-1,-1,-1,-1,-1,-1,-1,-1,-1,-1,-1,-1,-1,-1,-1,-1,-1,-1,-1,-1,-1,-1,-1,-1,-1,-1,-1,-1,-1,-1,-1,-1,-1,-1,-1,-1,-1,-1,-1],"split_conditions":[1.9346285E-1,-4.082207E-3,1.2131737E0,-3.6179978E-1,1.2379895E0,-3.5214108E-1,1.3588897E0,2.530503E0,7.3314583E-1,-6.160094E-1,6.9407636E-1,1.4092838E0,-9.9894196E-1,3.4780255E-1,4.845676E0,4.7794193E-2,1.4437202E0,-8.0625427E-1,1.5632942E-1,-2.2333777E-1,-3.316225E-2,-3.2074323E-1,3.4047744E-1,-2.8302984E0,2.769695E-1,6.6644996E-1,-9.3504235E-2,8.2997936E-1,-1.4260758E0,-1.5693854E-1,-2.2435282E-1,-1.0074795E0,2.7356476E-1,2.0563567E0,1.4292489E-1,6.455756E-1,7.8835376E-2,4.048182E-1,9.705002E-1,-6.689693E-1,-1.7618773E0,7.156893E-1,1.6937984E0,8.3733356E-1,3.7142718E0,1.5174648E0,7.8262985E-1,-2.3564465E-1,-1.9869303E0,1.640482E0,-1.0726991E0,-1.3763113E0,8.1967306E-1,2.1878256E-1,-8.378966E-1,7.156893E-1,6.24272E-1,-3.400258E-1,-5.6110024E-1,4.153615E0,-1.25325E-1,-1.3054651E0,2.7286087E-3,-2.7313395E-4,6.22616E-4,8.4786175E-4,1.574234E-3,2.4028586E-3,3.1730135E-5,1.005464E-4,1.9702085E-3,-9.70812E-4,-2.8525144E-3,2.0533724E-4,1.194259E-3,-1.293571E-3,1.0830591E-3,2.3718185E-3,-1.9442008E-3,5.043333E-4,-3.6552973E-4,3.3147451E-3,9.2409155E-4,7.5378123E-4,-3.989584E-4,-4.7176098E-4,9.6162275E-4,6.622942E-5,2.027649E-3,-6.386166E-4,-2.474994E-3,-7.341882E-4,1.8625698E-3,-2.6975423E-3,-9.6617965E-4,-1.4740868E-3,-3.0275767E-3,-1.7264703E-3,-3.2362345E-4,-4.5884773E-3,-2.8342444E-3,-1.4983668E-3,-1.4550379E-4,-4.187353E-3,-1.1059417E-3,-4.056229E-3,-1.9318606E-3,3.49217E-4,1.1485042E-3,-5.465494E-4,2.7098047E-4,-6.9911295E-4,-1.8232585E-3,-6.197189E-4,1.2207667E-3,-2.300943E-3,-8.568433E-5,-1.1295491E-3,-3.092364E-3,-4.085248E-3,-1.6895194E-3,-1.3010275E-3,-3.1776512E-3,3.5081097E-4,-4.8682216E-4],"split_indices":[65,31,46,63,72,46,43,72,22,66,23,30,57,23,118,44,49,66,65,57,73,46,21,75,31,26,30,26,105,26,23,62,22,16,90,25,65,66,90,63,26,30,96,24,106,24,9,22,62,30,45,16,98,22,45,30,92,21,0,115,13,5,0,0,0,0,0,0,0,0,0,0,0,0,0,0,0,0,0,0,0,0,0,0,0,0,0,0,0,0,0,0,0,0,0,0,0,0,0,0,0,0,0,0,0,0,0,0,0,0,0,0,0,0,0,0,0,0,0,0,0,0,0,0,0],"split_type":[0,0,0,0,0,0,0,0,0,0,0,0,0,0,0,0,0,0,0,0,0,0,0,0,0,0,0,0,0,0,0,0,0,0,0,0,0,0,0,0,0,0,0,0,0,0,0,0,0,0,0,0,0,0,0,0,0,0,0,0,0,0,0,0,0,0,0,0,0,0,0,0,0,0,0,0,0,0,0,0,0,0,0,0,0,0,0,0,0,0,0,0,0,0,0,0,0,0,0,0,0,0,0,0,0,0,0,0,0,0,0,0,0,0,0,0,0,0,0,0,0,0,0,0,0],"sum_hessian":[2.3153E4,1.3232E4,9.921E3,5.634E3,7.598E3,9.321E3,6E2,4.019E3,1.615E3,6.298E3,1.3E3,5.307E3,4.014E3,4.17E2,1.83E2,3.521E3,4.98E2,1.171E3,4.44E2,2.281E3,4.017E3,1.057E3,2.43E2,4.73E3,5.77E2,1.7E2,3.844E3,2.65E2,1.52E2,1.75E2,8E0,1.759E3,1.762E3,3.85E2,1.13E2,8.5E1,1.086E3,4.1E2,3.4E1,1.209E3,1.072E3,1.25E3,2.767E3,2.94E2,7.63E2,4.2E1,2.01E2,1.18E2,4.612E3,1.76E2,4.01E2,1.3E2,4E1,1.952E3,1.892E3,2.22E2,4.3E1,3.8E1,1.14E2,1.12E2,6.3E1,5E0,3E0,2.95E2,1.464E3,1.261E3,5.01E2,3.56E2,2.9E1,8.7E1,2.6E1,6E1,2.5E1,9.77E2,1.09E2,3.54E2,5.6E1,2.9E1,5E0,8.08E2,4.01E2,3.5E1,1.037E3,1.01E3,2.4E2,2.547E3,2.2E2,2.53E2,4.1E1,7.21E2,4.2E1,3.1E1,1.1E1,1.63E2,3.8E1,6E1,5.8E1,1.74E2,4.438E3,5.7E1,1.19E2,2.84E2,1.17E2,1.2E1,1.18E2,2.8E1,1.2E1,1.208E3,7.44E2,9.9E2,9.02E2,7.1E1,1.51E2,3.1E1,1.2E1,9E0,2.9E1,1.5E1,9.9E1,1.05E2,7E0,2.7E1,3.6E1,3E0,2E0],"tree_param":{"num_deleted":"0","num_feature":"122","num_nodes":"125","size_leaf_vector":"1"}},{"base_weights":[1.5312165E-4,5.6752856E-3,-1.0472722E-2,3.7551203E-3,2.8790692E-2,-2.3750685E-2,-1.2836953E-3,1.8027376E-2,-6.545197E-4,3.2089118E-2,-3.1098539E-2,-1.8587036E-2,-5.527707E-2,2.3567207E-2,-4.8060333E-3,1.091739E-2,3.3009607E-2,-3.607494E-2,3.0557264E-4,3.667725E-2,3.2781638E-4,-1.7632606E-2,-7.2116286E-2,-4.433365E-2,-1.26165105E-2,-4.3121003E-2,-7.494004E-2,1.2438311E-2,4.0738724E-2,-1.140515E-2,6.0005602E-3,6.1905584E-3,2.7786473E-2,7.478966E-2,2.8227776E-2,-2.0188758E-2,-8.670728E-2,1.14629E-2,-3.2220066E-3,2.6799554E-2,5.2712843E-2,3.024077E-2,-1.9502023E-2,9.163452E-3,-3.1316992E-2,-5.267335E-4,-7.5386256E-2,-7.8139775E-2,-1.7160956E-2,-9.750516E-3,-4.6201445E-2,-3.8537253E-2,-8.095108E-2,-7.949854E-2,2.958596E-2,1.6252344E-2,-1.8194215E-2,2.6697692E-2,6.623769E-2,-3.1727936E-2,-5.9500006E-3,-1.4066816E-3,2.720406E-2,3.915101E-4,-7.022344E-4,8.566852E-4,1.7952363E-3,2.1178317E-3,4.2540855E-3,-2.2011128E-4,1.3349687E-3,8.123345E-4,-1.1096498E-3,-3.4882838E-4,-3.764548E-3,8.993455E-4,2.1194408E-4,2.5923914E-4,-2.6843135E-4,1.318206E-3,3.9470982E-4,8.556851E-4,2.477866E-3,-4.890138E-4,2.0061594E-3,-1.3772846E-3,8.2008226E-4,-1.1715923E-3,1.3120266E-3,-1.6284604E-3,1.1022277E-3,-3.13224E-3,-7.4859307E-4,-1.7747006E-3,-3.5482093E-3,-7.55164E-4,3.4369456E-3,-8.111585E-5,-7.6165755E-4,-4.0422156E-3,-1.3244316E-3,-1.6871451E-3,-5.7124493E-5,-2.3349807E-4,-3.4443142E-3,-3.6993506E-3,-2.3290368E-3,-8.4651765E-5,2.4726915E-3,-1.421429E-3,7.1502954E-4,3.9848438E-4,-1.9935474E-3,2.4005247E-3,8.076658E-4,3.104824E-3,-8.937211E-4,-6.989999E-4,-1.9700897E-3,-1.4848621E-3,-1.1257499E-4,-2.5925372E-4,6.032736E-4,5.5129244E-4,1.5090806E-3],"categories":[],"categories_nodes":[],"categories_segments":[],"categories_sizes":[],"default_left":[0,0,0,0,0,0,0,0,0,0,0,0,0,0,0,0,0,0,0,0,0,0,0,0,0,0,0,0,0,0,0,0,0,0,0,0,0,0,0,0,0,0,0,0,0,0,0,0,0,0,0,0,0,0,0,0,0,0,0,0,0,0,0,0,0,0,0,0,0,0,0,0,0,0,0,0,0,0,0,0,0,0,0,0,0,0,0,0,0,0,0,0,0,0,0,0,0,0,0,0,0,0,0,0,0,0,0,0,0,0,0,0,0,0,0,0,0,0,0,0,0,0,0,0,0],"id":1,"left_children":[1,3,5,7,9,11,13,15,17,19,21,23,25,27,29,31,33,35,37,39,41,43,45,47,49,51,53,55,57,59,61,63,65,67,69,71,73,75,77,79,81,83,85,87,89,-1,91,93,95,97,99,101,103,105,107,109,111,113,115,117,119,121,123,-1,-1,-1,-1,-1,-1,-1,-1,-1,-1,-1,-1,-1,-1,-1,-1,-1,-1,-1,-1,-1,-1,-1,-1,-1,-1,-1,-1,-1,-1,-1,-1,-1,-1,-1,-1,-1,-1,-1,-1,-1,-1,-1,-1,-1,-1,-1,-1,-1,-1,-1,-1,-1,-1,-1,-1,-1,-1,-1,-1,-1,-1],"loss_changes":[1.369772E0,6.8169606E-1,9.7398776E-1,8.926891E-1,2.3370045E-1,5.304855E-1,4.131828E-1,3.5628033E-1,3.6854354E-1,1.6276264E-1,3.2973617E-2,4.3093508E-1,1.0648072E-1,1.1147791E-1,2.948804E-1,1.8099117E-1,2.130574E-1,2.2829494E-1,4.153463E-1,1.531806E-1,8.4819764E-2,1.788798E-2,1.8986538E-3,4.8368168E-1,2.1900913E-1,4.64738E-2,8.5259676E-2,4.2005256E-2,8.057895E-2,2.843987E-1,2.4630749E-1,1.5187865E-1,5.3152293E-2,7.020825E-2,1.6822118E-1,6.7545414E-2,3.84562E-2,1.7209637E-1,2.7146524E-1,6.2835395E-2,1.05971575E-1,4.881445E-2,5.207069E-2,1.6412502E-2,1.8820409E-2,0E0,8.5104257E-4,7.991707E-2,5.3693764E-2,1.5078044E-1,1.2518927E-1,3.466773E-2,1.1117667E-2,4.0745497E-2,8.305269E-3,2.7370252E-2,3.6136173E-2,3.1300984E-2,8.3407104E-2,1.3476598E-1,1.978237E-1,9.741023E-2,5.682203E-2,0E0,0E0,0E0,0E0,0E0,0E0,0E0,0E0,0E0,0E0,0E0,0E0,0E0,0E0,0E0,0E0,0E0,0E0,0E0,0E0,0E0,0E0,0E0,0E0,0E0,0E0,0E0,0E0,0E0,0E0,0E0,0E0,0E0,0E0,0E0,0E0,0E0,0E0,0E0,0E0,0E0,0E0,0E0,0E0,0E0,0E0,0E0,0E0,0E0,0E0,0E0,0E0,0E0,0E0,0E0,0E0,0E0,0E0,0E0,0E0,0E0,0E0],"parents":[2147483647,0,0,1,1,2,2,3,3,4,4,5,5,6,6,7,7,8,8,9,9,10,10,11,11,12,12,13,13,14,14,15,15,16,16,17,17,18,18,19,19,20,20,21,21,22,22,23,23,24,24,25,25,26,26,27,27,28,28,29,29,30,30,31,31,32,32,33,33,34,34,35,35,36,36,37,37,38,38,39,39,40,40,41,41,42,42,43,43,44,44,46,46,47,47,48,48,49,49,50,50,51,51,52,52,53,53,54,54,55,55,56,56,57,57,58,58,59,59,60,60,61,61,62,62],"right_children":[2,4,6,8,10,12,14,16,18,20,22,24,26,28,30,32,34,36,38,40,42,44,46,48,50,52,54,56,58,60,62,64,66,68,70,72,74,76,78,80,82,84,86,88,90,-1,92,94,96,98,100,102,104,106,108,110,112,114,116,118,120,122,124,-1,-1,-1,-1,-1,-1,-1,-1,-1,-1,-1,-1,-1,-1,-1,-1,-1,-1,-1,-1,-1,-1,-1,-1,-1,-1,-1,-1,-1,-1,-1,-1,-1,-1,-1,-1,-1,-1,-1,-1,-1,-1,-1,-1,-1,-1,-1,-1,-1,-1,-1,-1,-1,-1,-1,-1,-1,-1,-1,-1,-1,-1],"split_conditions":[4.9659154E-1,1.8344935E0,9.789526E-1,-7.001044E-1,8.3128834E-1,1.2433292E0,-8.7965024E-1,2.7356476E-1,-1.6576188E0,1.5635644E0,4.4646913E-1,-2.4015959E-1,1.3588897E0,2.5874296E-1,7.7307254E-1,-5.9562576E-1,-1.4210349E0,3.275786E-1,-6.714996E-1,2.2658124E0,1.7857176E0,-4.7285733E-1,-3.094444E-1,-1.1869682E0,-5.1802635E-1,1.9120945E-1,4.845676E0,2.1170236E-1,1.5390667E-1,1.6353123E-1,-5.624613E-1,2.0949924E-2,-1.1247735E-2,7.11063E-1,-1.0979049E0,-8.6207277E-1,-4.9860913E-1,-9.4222283E-1,-1.0383812E0,-1.044465E-1,-6.823962E-1,2.2705505E0,1.1719811E-1,-3.6652845E-1,3.86141E-1,-5.267335E-4,3.210222E0,-8.4664756E-1,2.8277671E0,-2.7305886E-1,-1.0589584E0,8.712945E-1,-8.981321E-1,-1.948702E-1,-2.2435282E-1,-1.0781465E0,3.6572171E-3,-3.1492323E-2,2.139049E0,1.5099666E-1,-1.4351406E0,5.6288475E-1,-4.4932878E-1,3.915101E-4,-7.022344E-4,8.566852E-4,1.7952363E-3,2.1178317E-3,4.2540855E-3,-2.2011128E-4,1.3349687E-3,8.123345E-4,-1.1096498E-3,-3.4882838E-4,-3.764548E-3,8.993455E-4,2.1194408E-4,2.5923914E-4,-2.6843135E-4,1.318206E-3,3.9470982E-4,8.556851E-4,2.477866E-3,-4.890138E-4,2.0061594E-3,-1.3772846E-3,8.2008226E-4,-1.1715923E-3,1.3120266E-3,-1.6284604E-3,1.1022277E-3,-3.13224E-3,-7.4859307E-4,-1.7747006E-3,-3.5482093E-3,-7.55164E-4,3.4369456E-3,-8.111585E-5,-7.6165755E-4,-4.0422156E-3,-1.3244316E-3,-1.6871451E-3,-5.7124493E-5,-2.3349807E-4,-3.4443142E-3,-3.6993506E-3,-2.3290368E-3,-8.4651765E-5,2.4726915E-3,-1.421429E-3,7.1502954E-4,3.9848438E-4,-1.9935474E-3,2.4005247E-3,8.076658E-4,3.104824E-3,-8.937211E-4,-6.989999E-4,-1.9700897E-3,-1.4848621E-3,-1.1257499E-4,-2.5925372E-4,6.032736E-4,5.5129244E-4,1.5090806E-3],"split_indices":[68,51,68,52,30,43,72,22,54,25,3,66,43,64,43,49,52,22,30,61,16,22,5,47,47,9,118,9,22,66,73,55,7,23,53,96,24,68,65,93,96,74,56,21,0,0,7,23,21,23,26,26,23,26,23,24,13,77,23,53,86,96,22,0,0,0,0,0,0,0,0,0,0,0,0,0,0,0,0,0,0,0,0,0,0,0,0,0,0,0,0,0,0,0,0,0,0,0,0,0,0,0,0,0,0,0,0,0,0,0,0,0,0,0,0,0,0,0,0,0,0,0,0,0,0],"split_type":[0,0,0,0,0,0,0,0,0,0,0,0,0,0,0,0,0,0,0,0,0,0,0,0,0,0,0,0,0,0,0,0,0,0,0,0,0,0,0,0,0,0,0,0,0,0,0,0,0,0,0,0,0,0,0,0,0,0,0,0,0,0,0,0,0,0,0,0,0,0,0,0,0,0,0,0,0,0,0,0,0,0,0,0,0,0,0,0,0,0,0,0,0,0,0,0,0,0,0,0,0,0,0,0,0,0,0,0,0,0,0,0,0,0,0,0,0,0,0,0,0,0,0,0,0],"sum_hessian":[2.3342E4,1.536E4,7.982E3,1.4183E4,1.177E3,3.264E3,4.718E3,3.347E3,1.0836E4,1.116E3,6.1E1,2.806E3,4.58E2,5.85E2,4.133E3,2.271E3,1.076E3,2.85E2,1.0551E4,9.75E2,1.41E2,4.7E1,1.4E1,5.27E2,2.279E3,2.85E2,1.73E2,3.56E2,2.29E2,2.566E3,1.567E3,1.775E3,4.96E2,1.09E2,9.67E2,2.18E2,6.7E1,2.534E3,8.017E3,6.05E2,3.7E2,5.6E1,8.5E1,1.6E1,3.1E1,1E0,1.3E1,2.34E2,2.93E2,2.101E3,1.78E2,2.56E2,2.9E1,1.66E2,7E0,3.17E2,3.9E1,1.49E2,8E1,5.42E2,2.024E3,1.162E3,4.05E2,1.542E3,2.33E2,3.63E2,1.33E2,6.6E1,4.3E1,1.28E2,8.39E2,3.4E1,1.84E2,6E0,6.1E1,9.08E2,1.626E3,2.12E3,5.897E3,4.43E2,1.62E2,8.5E1,2.85E2,1.8E1,3.8E1,6.2E1,2.3E1,6E0,1E1,2.7E1,4E0,1.2E1,1E0,5.7E1,1.77E2,2.89E2,4E0,1.148E3,9.53E2,3.3E1,1.45E2,2.33E2,2.3E1,2E0,2.7E1,1.01E2,6.5E1,4E0,3E0,9E0,3.08E2,2.1E1,1.8E1,2.3E1,1.26E2,7.1E1,9E0,3E2,2.42E2,1.84E2,1.84E3,8.89E2,2.73E2,1.79E2,2.26E2],"tree_param":{"num_deleted":"0","num_feature":"122","num_nodes":"125","size_leaf_vector":"1"}},{"base_weights":[5.2693536E-5,5.5543347E-3,-1.0134559E-2,1.6923985E-2,-4.9105973E-4,-6.7783548E-3,-4.4849623E-2,2.1388693E-2,3.042707E-3,2.7806006E-2,-2.4730337E-3,2.1965377E-2,-9.601878E-3,-7.275632E-2,-3.534223E-2,1.7933432E-2,4.48777E-2,-3.35203E-2,7.056566E-3,1.175584E-2,5.05096E-2,1.98732E-6,-1.765201E-2,4.1389205E-2,1.5236599E-2,-2.3261402E-2,-4.008255E-3,-5.8636025E-2,-9.1931194E-2,-2.5427284E-2,-6.0223233E-2,5.7287175E-2,1.6545348E-2,5.214173E-2,1.9726604E-2,-2.4432927E-2,-1.2630346E-1,1.6187897E-2,-4.3803877E-3,-9.516772E-2,1.3444274E-2,6.99408E-2,3.4782145E-2,1.1849763E-2,-5.4273317E-3,-9.326383E-3,-4.0906787E-2,2.6252035E-2,8.413991E-2,1.6816016E-2,-4.960466E-2,-6.1760288E-2,-1.6834902E-2,9.260266E-4,-1.9547341E-2,-3.839716E-2,-7.216162E-2,-1.0081992E-1,-3.1049507E-2,-4.51062E-3,-3.558554E-2,-1.2737554E-2,-7.2283715E-2,1.920727E-3,4.5118635E-3,8.005794E-4,-1.8639253E-4,2.2978224E-3,4.3995352E-4,3.9816607E-4,2.1803707E-3,-6.846827E-4,-2.763489E-3,-9.1644295E-4,-5.374064E-3,3.4293273E-4,1.3377076E-3,4.4826904E-4,-1.2016034E-3,-4.4986024E-3,-1.7362044E-4,8.4327057E-4,-2.9330995E-4,3.0016324E-3,5.403883E-4,4.3527666E-3,1.1923878E-3,7.295346E-4,-4.171013E-5,-3.228038E-6,-5.945779E-4,3.7877393E-4,-7.177924E-4,7.1510207E-4,-1.7703519E-3,2.1658684E-3,8.9267525E-4,3.6020002E-3,1.01058045E-4,5.1807635E-4,1.6245912E-3,4.4573026E-4,-2.5147428E-3,-2.866334E-3,-9.70923E-4,-2.2258295E-3,-5.515561E-4,2.0388071E-4,-3.7279804E-4,-1.1417498E-3,-1.3347928E-4,-1.7658112E-3,1.2622968E-3,-6.587918E-4,-3.2455442E-3,-5.129302E-3,-3.3102036E-3,-1.6648367E-3,1.4932917E-3,-3.6259388E-4,1.987213E-3,-1.818061E-3,-5.0122995E-4,-1.6844865E-3,6.263363E-4,-1.5603966E-3,-3.2216965E-3],"categories":[],"categories_nodes":[],"categories_segments":[],"categories_sizes":[],"default_left":[0,0,0,0,0,0,0,0,0,0,0,0,0,0,0,0,0,0,0,0,0,0,0,0,0,0,0,0,0,0,0,0,0,0,0,0,0,0,0,0,0,0,0,0,0,0,0,0,0,0,0,0,0,0,0,0,0,0,0,0,0,0,0,0,0,0,0,0,0,0,0,0,0,0,0,0,0,0,0,0,0,0,0,0,0,0,0,0,0,0,0,0,0,0,0,0,0,0,0,0,0,0,0,0,0,0,0,0,0,0,0,0,0,0,0,0,0,0,0,0,0,0,0,0,0,0,0],"id":2,"left_children":[1,3,5,7,9,11,13,15,17,19,21,23,25,27,29,31,33,35,37,39,41,43,45,47,49,51,53,55,57,59,61,63,65,67,69,71,73,75,77,79,81,83,85,87,89,91,93,95,97,99,101,103,105,107,109,111,113,115,117,119,121,123,125,-1,-1,-1,-1,-1,-1,-1,-1,-1,-1,-1,-1,-1,-1,-1,-1,-1,-1,-1,-1,-1,-1,-1,-1,-1,-1,-1,-1,-1,-1,-1,-1,-1,-1,-1,-1,-1,-1,-1,-1,-1,-1,-1,-1,-1,-1,-1,-1,-1,-1,-1,-1,-1,-1,-1,-1,-1,-1,-1,-1,-1,-1,-1,-1],"loss_changes":[1.298432E0,1.0339742E0,9.462301E-1,3.2357275E-1,5.509263E-1,6.015151E-1,1.8739772E-1,3.1986082E-1,1.8691367E-1,2.3371318E-1,3.4487695E-1,8.6022526E-2,5.1541966E-1,4.3616116E-2,1.3069654E-1,1.8729436E-1,9.141672E-2,1.0315159E-1,1.19857416E-1,6.952104E-2,7.885772E-2,5.078486E-1,2.487953E-1,1.0780236E-1,5.1425382E-2,4.8388994E-1,3.6713433E-1,2.6519686E-2,3.745663E-2,8.164306E-2,8.6129785E-2,5.4782182E-2,2.4506027E-1,8.4908485E-2,3.8547277E-2,3.6712833E-2,6.075129E-3,8.353883E-2,2.0431659E-1,8.938249E-3,5.934383E-2,3.2946527E-2,5.16098E-2,2.0436701E-1,2.731718E-1,1.5389812E-1,6.758976E-2,1.2732379E-2,2.0995587E-2,4.3891147E-2,1.0369621E-2,1.0215497E-1,1.9795677E-1,1.5539245E-1,1.681982E-1,1.9487947E-2,3.0160159E-2,2.1576464E-2,9.505616E-3,3.1793684E-2,5.834219E-2,2.735126E-2,3.010863E-2,0E0,0E0,0E0,0E0,0E0,0E0,0E0,0E0,0E0,0E0,0E0,0E0,0E0,0E0,0E0,0E0,0E0,0E0,0E0,0E0,0E0,0E0,0E0,0E0,0E0,0E0,0E0,0E0,0E0,0E0,0E0,0E0,0E0,0E0,0E0,0E0,0E0,0E0,0E0,0E0,0E0,0E0,0E0,0E0,0E0,0E0,0E0,0E0,0E0,0E0,0E0,0E0,0E0,0E0,0E0,0E0,0E0,0E0,0E0,0E0,0E0,0E0,0E0,0E0],"parents":[2147483647,0,0,1,1,2,2,3,3,4,4,5,5,6,6,7,7,8,8,9,9,10,10,11,11,12,12,13,13,14,14,15,15,16,16,17,17,18,18,19,19,20,20,21,21,22,22,23,23,24,24,25,25,26,26,27,27,28,28,29,29,30,30,31,31,32,32,33,33,34,34,35,35,36,36,37,37,38,38,39,39,40,40,41,41,42,42,43,43,44,44,45,45,46,46,47,47,48,48,49,49,50,50,51,51,52,52,53,53,54,54,55,55,56,56,57,57,58,58,59,59,60,60,61,61,62,62],"right_children":[2,4,6,8,10,12,14,16,18,20,22,24,26,28,30,32,34,36,38,40,42,44,46,48,50,52,54,56,58,60,62,64,66,68,70,72,74,76,78,80,82,84,86,88,90,92,94,96,98,100,102,104,106,108,110,112,114,116,118,120,122,124,126,-1,-1,-1,-1,-1,-1,-1,-1,-1,-1,-1,-1,-1,-1,-1,-1,-1,-1,-1,-1,-1,-1,-1,-1,-1,-1,-1,-1,-1,-1,-1,-1,-1,-1,-1,-1,-1,-1,-1,-1,-1,-1,-1,-1,-1,-1,-1,-1,-1,-1,-1,-1,-1,-1,-1,-1,-1,-1,-1,-1,-1,-1,-1,-1],"split_conditions":[4.6075767E-1,-4.082207E-3,-3.7982482E-1,-3.6179978E-1,-6.948368E-1,-8.716232E-1,-1.0309352E0,2.530503E0,-8.0625427E-1,2.3981681E-1,1.2379895E0,-7.0703506E-1,9.39299E-2,-2.0029448E-1,6.825996E-1,-1.4210349E0,1.4116316E0,9.4688743E-1,4.8449114E-1,-1.1199906E0,-1.6218426E0,-7.0031315E-1,5.505529E-1,4.6595484E-1,1.1678238E0,-1.6754346E0,-2.6566342E-1,-2.1449555E-1,-8.573244E-2,6.000902E-1,-1.4698553E0,1.6792387E-1,-2.8069872E-1,1.969712E0,1.4292489E-1,1.4266691E0,-1.015873E0,7.569538E-2,6.1625177E-1,4.263867E-2,2.3818086E-1,5.6250745E-1,-1.8084638E-1,-6.160094E-1,9.5181115E-2,-1.3375792E-1,-7.9932266E-1,-1.1667733E0,2.8618033E0,4.3124285E-1,-2.7248604E0,1.3980198E0,-1.3650941E0,6.000902E-1,-8.537334E-1,-2.2388883E-1,-4.0100765E-1,-3.3076566E-1,3.9681174E-2,4.174515E0,5.448007E-1,-1.044465E-1,-9.346119E-1,1.920727E-3,4.5118635E-3,8.005794E-4,-1.8639253E-4,2.2978224E-3,4.3995352E-4,3.9816607E-4,2.1803707E-3,-6.846827E-4,-2.763489E-3,-9.1644295E-4,-5.374064E-3,3.4293273E-4,1.3377076E-3,4.4826904E-4,-1.2016034E-3,-4.4986024E-3,-1.7362044E-4,8.4327057E-4,-2.9330995E-4,3.0016324E-3,5.403883E-4,4.3527666E-3,1.1923878E-3,7.295346E-4,-4.171013E-5,-3.228038E-6,-5.945779E-4,3.7877393E-4,-7.177924E-4,7.1510207E-4,-1.7703519E-3,2.1658684E-3,8.9267525E-4,3.6020002E-3,1.01058045E-4,5.1807635E-4,1.6245912E-3,4.4573026E-4,-2.5147428E-3,-2.866334E-3,-9.70923E-4,-2.2258295E-3,-5.515561E-4,2.0388071E-4,-3.7279804E-4,-1.1417498E-3,-1.3347928E-4,-1.7658112E-3,1.2622968E-3,-6.587918E-4,-3.2455442E-3,-5.129302E-3,-3.3102036E-3,-1.6648367E-3,1.4932917E-3,-3.6259388E-4,1.987213E-3,-1.818061E-3,-5.0122995E-4,-1.6844865E-3,6.263363E-4,-1.5603966E-3,-3.2216965E-3],"split_indices":[68,31,61,63,72,72,52,72,66,22,72,32,66,22,22,52,62,30,30,12,54,63,20,22,21,55,54,94,93,30,105,24,68,17,90,25,9,27,21,7,25,25,93,66,72,46,57,98,38,24,15,32,30,30,45,94,9,99,8,119,26,93,6,0,0,0,0,0,0,0,0,0,0,0,0,0,0,0,0,0,0,0,0,0,0,0,0,0,0,0,0,0,0,0,0,0,0,0,0,0,0,0,0,0,0,0,0,0,0,0,0,0,0,0,0,0,0,0,0,0,0,0,0,0,0,0,0],"split_type":[0,0,0,0,0,0,0,0,0,0,0,0,0,0,0,0,0,0,0,0,0,0,0,0,0,0,0,0,0,0,0,0,0,0,0,0,0,0,0,0,0,0,0,0,0,0,0,0,0,0,0,0,0,0,0,0,0,0,0,0,0,0,0,0,0,0,0,0,0,0,0,0,0,0,0,0,0,0,0,0,0,0,0,0,0,0,0,0,0,0,0,0,0,0,0,0,0,0,0,0,0,0,0,0,0,0,0,0,0,0,0,0,0,0,0,0,0,0,0,0,0,0,0,0,0,0,0],"sum_hessian":[2.3165E4,1.5042E4,8.123E3,5.221E3,9.821E3,7.408E3,7.15E2,3.95E3,1.271E3,6.42E2,9.179E3,6.62E2,6.746E3,1.8E2,5.35E2,3.445E3,5.05E2,1.25E2,1.146E3,3.77E2,2.65E2,7.893E3,1.286E3,1.69E2,4.93E2,1.959E3,4.787E3,1.06E2,7.4E1,3.84E2,1.51E2,1.16E2,3.329E3,3.91E2,1.14E2,1.15E2,1E1,6.37E2,5.09E2,5E0,3.72E2,1.17E2,1.48E2,2.48E3,5.413E3,9.48E2,3.38E2,1.26E2,4.3E1,4.82E2,1.1E1,2.79E2,1.68E3,3.634E3,1.153E3,4.4E1,6.2E1,6.4E1,1E1,1.26E2,2.58E2,3.1E1,1.2E2,1.01E2,1.5E1,2.861E3,4.68E2,3.46E2,4.5E1,9E1,2.4E1,1E2,1.5E1,1E0,9E0,4.43E2,1.94E2,3.17E2,1.92E2,4E0,1E0,2.72E2,1E2,1.07E2,1E1,8E0,1.4E2,1.658E3,8.22E2,3.456E3,1.957E3,2.98E2,6.5E2,1.8E1,3.2E2,1.4E1,1.12E2,4E1,3E0,4.16E2,6.6E1,2E0,9E0,2.2E2,5.9E1,1.21E2,1.559E3,2.583E3,1.051E3,7.41E2,4.12E2,4.1E1,3E0,9E0,5.3E1,2.3E1,4.1E1,9E0,1E0,1.17E2,9E0,1.8E2,7.8E1,1.5E1,1.6E1,2.5E1,9.5E1],"tree_param":{"num_deleted":"0","num_feature":"122","num_nodes":"127","size_leaf_vector":"1"}},{"base_weights":[-3.005827E-5,8.720763E-3,-5.9876577E-3,2.0770516E-2,-3.7098886E-4,1.2994706E-4,-1.7515346E-2,1.5306924E-2,3.2547303E-2,1.018014E-2,-7.6588676E-3,-5.852661E-2,1.2624006E-3,-3.5350207E-2,-1.3962736E-2,2.2621833E-2,7.4772215E-3,4.607246E-2,1.8758308E-2,1.769515E-2,-6.1588045E-3,-2.4295833E-3,-2.4513286E-2,-7.299163E-2,-2.6691437E-2,-9.381127E-3,7.1012336E-3,-5.359831E-3,-4.3868702E-2,-1.2585311E-2,-6.390872E-2,3.573483E-2,1.6979378E-2,-1.3670397E-3,1.7893782E-2,9.338049E-3,4.9886927E-2,2.6790585E-2,-1.3018086E-2,6.8495967E-3,2.325315E-2,1.794448E-2,-1.3996735E-2,2.0451006E-3,-2.4011942E-2,-1.5372431E-2,-5.8181237E-2,-7.692647E-2,1.2623931E-2,-3.152832E-2,2.7983077E-2,-7.756329E-4,-1.9712003E-2,-2.9508267E-2,8.744856E-3,-1.6247846E-2,5.849933E-2,-3.869394E-2,-6.7725904E-2,-1.42438775E-2,2.2917412E-2,-1.6721357E-2,-1.02015026E-1,7.6381525E-4,1.6481914E-3,1.7546734E-3,5.5519794E-4,-4.935078E-4,4.451461E-4,2.6964203E-3,6.341069E-4,1.4430668E-3,-9.76749E-4,2.0842082E-3,3.4253168E-4,1.2430588E-3,-7.198805E-4,-1.701371E-3,2.7305094E-4,1.9430458E-4,2.2164113E-3,1.0255526E-3,-1.856982E-4,1.0648345E-3,-8.121732E-4,-7.215592E-4,8.2614366E-4,-5.117079E-5,1.1299426E-3,-6.624578E-4,-1.5560362E-3,-2.365398E-4,-1.0188862E-3,-2.724477E-3,-4.3892866E-4,-3.5703974E-3,-2.2023898E-3,7.539073E-4,-3.698966E-4,-1.3825902E-3,5.116397E-4,2.2937949E-3,-1.7892822E-3,-1.0333833E-3,1.3062255E-4,-1.9317503E-3,-4.273862E-4,-1.8275644E-3,7.6996937E-4,1.0570295E-3,2.2694592E-4,-1.1225734E-3,3.0814877E-4,-5.6414417E-4,3.910632E-3,-1.1000715E-3,-1.816007E-3,-1.6486373E-3,-3.3749228E-3,-5.155187E-4,-2.0388605E-3,7.028234E-4,3.7454145E-3,-2.3828265E-3,-2.763029E-4,-2.471305E-3,-4.6219365E-3],"categories":[],"categories_nodes":[],"categories_segments":[],"categories_sizes":[],"default_left":[0,0,0,0,0,0,0,0,0,0,0,0,0,0,0,0,0,0,0,0,0,0,0,0,0,0,0,0,0,0,0,0,0,0,0,0,0,0,0,0,0,0,0,0,0,0,0,0,0,0,0,0,0,0,0,0,0,0,0,0,0,0,0,0,0,0,0,0,0,0,0,0,0,0,0,0,0,0,0,0,0,0,0,0,0,0,0,0,0,0,0,0,0,0,0,0,0,0,0,0,0,0,0,0,0,0,0,0,0,0,0,0,0,0,0,0,0,0,0,0,0,0,0,0,0,0,0],"id":3,"left_children":[1,3,5,7,9,11,13,15,17,19,21,23,25,27,29,31,33,35,37,39,41,43,45,47,49,51,53,55,57,59,61,63,65,67,69,71,73,75,77,79,81,83,85,87,89,91,93,95,97,99,101,103,105,107,109,111,113,115,117,119,121,123,125,-1,-1,-1,-1,-1,-1,-1,-1,-1,-1,-1,-1,-1,-1,-1,-1,-1,-1,-1,-1,-1,-1,-1,-1,-1,-1,-1,-1,-1,-1,-1,-1,-1,-1,-1,-1,-1,-1,-1,-1,-1,-1,-1,-1,-1,-1,-1,-1,-1,-1,-1,-1,-1,-1,-1,-1,-1,-1,-1,-1,-1,-1,-1,-1],"loss_changes":[1.2106532E0,1.0304668E0,9.743321E-1,2.5977147E-1,4.123908E-1,5.996998E-1,3.0300236E-1,1.5819228E-1,2.3804021E-1,2.6913607E-1,2.7950954E-1,7.679665E-2,5.504918E-1,2.0286584E-1,2.74108E-1,1.05124176E-1,1.23197965E-1,9.005308E-2,1.6267934E-1,9.032032E-2,1.3079478E-1,2.339519E-1,2.3022869E-1,4.038644E-2,1.5427247E-2,2.789601E-1,3.4444314E-1,1.240185E-1,7.37983E-2,2.2938359E-1,1.9069475E-1,3.8259506E-2,8.281028E-2,9.938751E-2,6.098774E-2,5.684274E-2,5.3179145E-2,9.80722E-2,7.584951E-2,4.9064174E-2,6.61363E-2,5.695695E-2,7.348659E-2,1.7486593E-1,4.5502722E-2,5.640471E-2,7.426196E-2,2.5290906E-2,9.910234E-4,7.305324E-3,1.32403895E-2,1.735567E-1,3.674168E-1,1.9495817E-1,2.9715168E-1,4.3235756E-2,7.550123E-2,3.710568E-2,4.462588E-2,1.8444723E-1,6.4147085E-2,2.0193689E-2,2.4985492E-2,0E0,0E0,0E0,0E0,0E0,0E0,0E0,0E0,0E0,0E0,0E0,0E0,0E0,0E0,0E0,0E0,0E0,0E0,0E0,0E0,0E0,0E0,0E0,0E0,0E0,0E0,0E0,0E0,0E0,0E0,0E0,0E0,0E0,0E0,0E0,0E0,0E0,0E0,0E0,0E0,0E0,0E0,0E0,0E0,0E0,0E0,0E0,0E0,0E0,0E0,0E0,0E0,0E0,0E0,0E0,0E0,0E0,0E0,0E0,0E0,0E0,0E0,0E0,0E0],"parents":[2147483647,0,0,1,1,2,2,3,3,4,4,5,5,6,6,7,7,8,8,9,9,10,10,11,11,12,12,13,13,14,14,15,15,16,16,17,17,18,18,19,19,20,20,21,21,22,22,23,23,24,24,25,25,26,26,27,27,28,28,29,29,30,30,31,31,32,32,33,33,34,34,35,35,36,36,37,37,38,38,39,39,40,40,41,41,42,42,43,43,44,44,45,45,46,46,47,47,48,48,49,49,50,50,51,51,52,52,53,53,54,54,55,55,56,56,57,57,58,58,59,59,60,60,61,61,62,62],"right_children":[2,4,6,8,10,12,14,16,18,20,22,24,26,28,30,32,34,36,38,40,42,44,46,48,50,52,54,56,58,60,62,64,66,68,70,72,74,76,78,80,82,84,86,88,90,92,94,96,98,100,102,104,106,108,110,112,114,116,118,120,122,124,126,-1,-1,-1,-1,-1,-1,-1,-1,-1,-1,-1,-1,-1,-1,-1,-1,-1,-1,-1,-1,-1,-1,-1,-1,-1,-1,-1,-1,-1,-1,-1,-1,-1,-1,-1,-1,-1,-1,-1,-1,-1,-1,-1,-1,-1,-1,-1,-1,-1,-1,-1,-1,-1,-1,-1,-1,-1,-1,-1,-1,-1,-1,-1,-1],"split_conditions":[-3.6179978E-1,-4.082207E-3,6.000902E-1,1.7443202E-2,-6.160094E-1,-1.187355E0,-6.655674E-1,2.8127825E-1,-2.0910332E-1,1.1256721E0,6.14878E-1,-1.4806931E0,-5.083715E-1,-1.1282891E0,1.130573E0,-5.270472E-1,-4.2118126E-1,-8.6207277E-1,8.0705434E-1,-2.4607491E-1,-5.559005E-1,6.538804E-1,7.788436E-1,4.845676E0,8.473783E-1,-2.1176705E-2,-9.9894196E-1,7.854522E-1,1.640482E0,8.6717105E-1,1.2936847E0,-1.4442179E0,-1.9182541E0,3.3820805E-3,-1.0370791E0,4.719626E-1,2.2958515E0,3.2187014E0,1.8647287E0,2.1938636E0,1.1994586E0,8.7852645E-1,2.8859894E0,1.6188515E0,5.653832E-1,-2.3564465E-1,8.0607593E-1,-1.2262811E-1,-1.6972212E-1,4.8726192E-1,2.4775476E0,-9.7048473E-1,-9.0269774E-1,-1.249495E0,-8.99546E-1,1.4092838E0,1.1780856E0,-3.8717744E-1,-5.792577E-1,2.2569153E0,1.1790287E0,-1.1503385E0,-6.9901305E-1,7.6381525E-4,1.6481914E-3,1.7546734E-3,5.5519794E-4,-4.935078E-4,4.451461E-4,2.6964203E-3,6.341069E-4,1.4430668E-3,-9.76749E-4,2.0842082E-3,3.4253168E-4,1.2430588E-3,-7.198805E-4,-1.701371E-3,2.7305094E-4,1.9430458E-4,2.2164113E-3,1.0255526E-3,-1.856982E-4,1.0648345E-3,-8.121732E-4,-7.215592E-4,8.2614366E-4,-5.117079E-5,1.1299426E-3,-6.624578E-4,-1.5560362E-3,-2.365398E-4,-1.0188862E-3,-2.724477E-3,-4.3892866E-4,-3.5703974E-3,-2.2023898E-3,7.539073E-4,-3.698966E-4,-1.3825902E-3,5.116397E-4,2.2937949E-3,-1.7892822E-3,-1.0333833E-3,1.3062255E-4,-1.9317503E-3,-4.273862E-4,-1.8275644E-3,7.6996937E-4,1.0570295E-3,2.2694592E-4,-1.1225734E-3,3.0814877E-4,-5.6414417E-4,3.910632E-3,-1.1000715E-3,-1.816007E-3,-1.6486373E-3,-3.3749228E-3,-5.155187E-4,-2.0388605E-3,7.028234E-4,3.7454145E-3,-2.3828265E-3,-2.763029E-4,-2.471305E-3,-4.6219365E-3],"split_indices":[63,31,30,27,66,74,74,87,30,55,84,30,46,31,81,53,24,96,2,83,30,86,27,118,2,83,57,17,30,43,30,47,84,61,20,24,62,24,1,21,22,96,112,96,21,22,83,93,5,6,1,49,30,30,19,30,30,5,22,20,24,18,22,0,0,0,0,0,0,0,0,0,0,0,0,0,0,0,0,0,0,0,0,0,0,0,0,0,0,0,0,0,0,0,0,0,0,0,0,0,0,0,0,0,0,0,0,0,0,0,0,0,0,0,0,0,0,0,0,0,0,0,0,0,0,0,0],"split_type":[0,0,0,0,0,0,0,0,0,0,0,0,0,0,0,0,0,0,0,0,0,0,0,0,0,0,0,0,0,0,0,0,0,0,0,0,0,0,0,0,0,0,0,0,0,0,0,0,0,0,0,0,0,0,0,0,0,0,0,0,0,0,0,0,0,0,0,0,0,0,0,0,0,0,0,0,0,0,0,0,0,0,0,0,0,0,0,0,0,0,0,0,0,0,0,0,0,0,0,0,0,0,0,0,0,0,0,0,0,0,0,0,0,0,0,0,0,0,0,0,0,0,0,0,0,0,0],"sum_hessian":[2.322E4,9.405E3,1.3815E4,4.044E3,5.361E3,9.026E3,4.789E3,2.764E3,1.28E3,2.19E3,3.171E3,1.7E2,8.856E3,7.94E2,3.995E3,1.428E3,1.336E3,6.45E2,6.35E2,1.5E3,6.9E2,2.421E3,7.5E2,1.16E2,5.4E1,3.137E3,5.719E3,1.76E2,6.18E2,3.889E3,1.06E2,4.28E2,1E3,7.23E2,6.13E2,6.1E1,5.84E2,5.07E2,1.28E2,5.09E2,9.91E2,1.69E2,5.21E2,2.006E3,4.15E2,5.91E2,1.59E2,1.11E2,5E0,5E1,4E0,1.712E3,1.425E3,2.45E2,5.474E3,1.51E2,2.5E1,5.1E2,1.08E2,3.716E3,1.73E2,4.8E1,5.8E1,1.07E2,3.21E2,1.02E2,8.98E2,3.85E2,3.38E2,2.3E1,5.9E2,3.4E1,2.7E1,5.54E2,3E1,4.63E2,4.4E1,5.1E1,7.7E1,4.9E2,1.9E1,9.13E2,7.8E1,1.38E2,3.1E1,4.67E2,5.4E1,1.781E3,2.25E2,2.78E2,1.37E2,3.06E2,2.85E2,1.31E2,2.8E1,6.9E1,4.2E1,4E0,1E0,4.7E1,3E0,3E0,1E0,2.37E2,1.475E3,3.41E2,1.084E3,1.84E2,6.1E1,8.09E2,4.665E3,1.01E2,5E1,9E0,1.6E1,1.93E2,3.17E2,4.3E1,6.5E1,3.585E3,1.31E2,1.62E2,1.1E1,8E0,4E1,1.6E1,4.2E1],"tree_param":{"num_deleted":"0","num_feature":"122","num_nodes":"127","size_leaf_vector":"1"}},{"base_weights":[4.064224E-5,4.980883E-3,-9.570092E-3,1.5270561E-2,-5.9310737E-4,-2.127394E-2,-1.4312622E-3,1.9636748E-2,2.2767321E-3,2.5401412E-2,-2.4329918E-3,-1.6716484E-2,-4.8612084E-2,1.996242E-2,-4.548184E-3,1.6628487E-2,4.1739807E-2,9.361074E-3,-1.0089624E-2,1.0237341E-2,4.443857E-2,-3.3905974E-3,3.3813953E-2,-4.2044982E-2,-1.0788532E-2,8.4739894E-4,-5.2056707E-2,5.3031174E-3,3.3506196E-2,-1.0795078E-2,5.6861937E-3,1.4012502E-2,3.859474E-2,5.0119967E-3,4.636198E-2,-1.1572595E-2,1.4520463E-2,8.677066E-3,-4.0161997E-2,-9.232884E-2,1.1909053E-2,6.405237E-2,2.7979437E-2,1.722398E-2,-5.119395E-3,2.8887223E-2,7.483125E-2,-7.2309755E-2,-1.8019566E-2,-8.409804E-3,-4.0738378E-2,2.7163543E-3,-1.4660915E-2,-4.2693947E-2,-6.8124875E-2,8.878765E-3,-3.7845705E-2,2.121283E-2,5.6286205E-2,-2.8470585E-2,-6.0933507E-3,-6.098165E-4,2.4157124E-2,1.7801994E-3,4.946907E-4,1.2119137E-3,2.5587108E-3,6.8333774E-4,-5.548677E-4,1.2003541E-4,1.9709626E-3,-3.0234442E-4,-2.56512E-3,2.057074E-4,1.1523175E-3,7.296336E-4,-1.2271613E-3,-2.8674984E-3,-1.2292482E-3,-1.7468694E-4,-4.3619093E-3,7.672234E-4,-2.0579518E-4,2.0749175E-3,3.756877E-3,8.153841E-4,2.8066991E-3,5.341432E-4,1.8821068E-3,-7.491925E-4,-1.2554349E-4,1.2131365E-3,-2.1887037E-3,1.5374225E-3,4.442278E-3,-2.3765801E-3,-4.0285704E-3,-8.030365E-4,1.6955315E-3,-7.158751E-5,-6.854535E-4,-3.924047E-3,-9.356211E-4,-3.655456E-4,-1.4410698E-3,-1.5934004E-3,-3.5837276E-3,-2.9158308E-3,1.1938013E-3,-2.5052582E-3,4.5432456E-4,-2.279834E-3,-1.5406092E-4,2.1018817E-3,6.163322E-4,2.5806334E-3,-8.5604435E-4,-5.410074E-4,-1.850981E-3,3.5215478E-4,-4.3744387E-4,-1.5021303E-4,1.2535928E-3,7.817958E-4,3.6359339E-3],"categories":[],"categories_nodes":[],"categories_segments":[],"categories_sizes":[],"default_left":[0,0,0,0,0,0,0,0,0,0,0,0,0,0,0,0,0,0,0,0,0,0,0,0,0,0,0,0,0,0,0,0,0,0,0,0,0,0,0,0,0,0,0,0,0,0,0,0,0,0,0,0,0,0,0,0,0,0,0,0,0,0,0,0,0,0,0,0,0,0,0,0,0,0,0,0,0,0,0,0,0,0,0,0,0,0,0,0,0,0,0,0,0,0,0,0,0,0,0,0,0,0,0,0,0,0,0,0,0,0,0,0,0,0,0,0,0,0,0,0,0,0,0,0,0],"id":4,"left_children":[1,3,5,7,9,11,13,15,17,19,21,23,25,27,29,31,33,35,37,39,41,43,45,47,49,51,53,55,57,59,61,63,65,67,69,71,73,75,77,79,81,83,85,87,89,91,93,95,97,99,101,-1,103,105,107,109,111,113,115,117,119,121,123,-1,-1,-1,-1,-1,-1,-1,-1,-1,-1,-1,-1,-1,-1,-1,-1,-1,-1,-1,-1,-1,-1,-1,-1,-1,-1,-1,-1,-1,-1,-1,-1,-1,-1,-1,-1,-1,-1,-1,-1,-1,-1,-1,-1,-1,-1,-1,-1,-1,-1,-1,-1,-1,-1,-1,-1,-1,-1,-1,-1,-1,-1],"loss_changes":[1.1012836E0,8.7868106E-1,7.5010777E-1,3.0535161E-1,4.7536555E-1,4.0162098E-1,3.0989745E-1,2.672013E-1,1.18802615E-1,1.8920836E-1,3.222955E-1,4.154511E-1,7.858431E-2,1.1716083E-1,2.5937393E-1,2.0333946E-1,8.1593096E-2,9.3268275E-2,2.7914178E-1,6.4025775E-2,9.215033E-2,3.2240212E-1,4.6135694E-2,3.804369E-1,1.5966818E-1,3.3235922E-2,6.1932206E-2,4.430725E-2,8.47792E-2,2.0916903E-1,1.7887363E-1,1.5858E-1,7.742703E-2,1.2774416E-2,5.389625E-2,3.5588864E-2,9.256932E-2,1.15359455E-1,5.4285884E-2,8.3475E-3,4.498966E-2,4.3148816E-2,4.9835473E-2,8.018598E-2,2.2491927E-1,2.7564928E-2,2.8692946E-2,7.89938E-2,3.737154E-2,1.20247856E-1,1.6190037E-1,0E0,2.738453E-3,3.330362E-2,7.555801E-2,4.7518246E-2,1.4102329E-2,3.574826E-2,6.978986E-2,1.4013413E-1,1.4373392E-1,1.1548926E-1,1.1858328E-1,0E0,0E0,0E0,0E0,0E0,0E0,0E0,0E0,0E0,0E0,0E0,0E0,0E0,0E0,0E0,0E0,0E0,0E0,0E0,0E0,0E0,0E0,0E0,0E0,0E0,0E0,0E0,0E0,0E0,0E0,0E0,0E0,0E0,0E0,0E0,0E0,0E0,0E0,0E0,0E0,0E0,0E0,0E0,0E0,0E0,0E0,0E0,0E0,0E0,0E0,0E0,0E0,0E0,0E0,0E0,0E0,0E0,0E0,0E0,0E0,0E0,0E0],"parents":[2147483647,0,0,1,1,2,2,3,3,4,4,5,5,6,6,7,7,8,8,9,9,10,10,11,11,12,12,13,13,14,14,15,15,16,16,17,17,18,18,19,19,20,20,21,21,22,22,23,23,24,24,25,25,26,26,27,27,28,28,29,29,30,30,31,31,32,32,33,33,34,34,35,35,36,36,37,37,38,38,39,39,40,40,41,41,42,42,43,43,44,44,45,45,46,46,47,47,48,48,49,49,50,50,52,52,53,53,54,54,55,55,56,56,57,57,58,58,59,59,60,60,61,61,62,62],"right_children":[2,4,6,8,10,12,14,16,18,20,22,24,26,28,30,32,34,36,38,40,42,44,46,48,50,52,54,56,58,60,62,64,66,68,70,72,74,76,78,80,82,84,86,88,90,92,94,96,98,100,102,-1,104,106,108,110,112,114,116,118,120,122,124,-1,-1,-1,-1,-1,-1,-1,-1,-1,-1,-1,-1,-1,-1,-1,-1,-1,-1,-1,-1,-1,-1,-1,-1,-1,-1,-1,-1,-1,-1,-1,-1,-1,-1,-1,-1,-1,-1,-1,-1,-1,-1,-1,-1,-1,-1,-1,-1,-1,-1,-1,-1,-1,-1,-1,-1,-1,-1,-1,-1,-1,-1],"split_conditions":[4.9659154E-1,-4.082207E-3,9.789526E-1,-3.6179978E-1,-6.948368E-1,1.2433292E0,-8.7965024E-1,1.9255558E0,6.000902E-1,2.1878256E-1,1.8568624E0,-2.4015959E-1,-1.4354795E0,-5.884718E-1,7.7307254E-1,2.858753E0,-7.569312E-1,-2.9621863E-1,6.494807E-1,-1.1199906E0,-1.6218426E0,-1.0530858E0,2.858753E0,-1.1869682E0,-5.1802635E-1,-6.331131E-1,1.3588897E0,6.333506E-1,1.5390667E-1,1.6353123E-1,-5.624613E-1,-1.4210349E0,-1.3095687E-1,-3.2086027E-1,-1.6796489E-1,1.2264098E0,-1.0699685E-1,1.9105715E-1,1.4038524E-2,-9.283831E-1,2.2777513E-1,1.5557798E0,1.0492779E0,2.8859894E0,-4.45555E-1,2.3016307E0,5.970799E-1,-1.4787602E-1,1.2772444E0,-2.5023514E-1,-1.0589584E0,2.7163543E-3,-4.2757135E-2,9.6901834E-1,4.845676E0,-1.1015928E0,-1.7805812E-1,-3.1492323E-2,2.139049E0,1.5099666E-1,-3.3488712E-1,1.2208952E0,3.3989782E0,1.7801994E-3,4.946907E-4,1.2119137E-3,2.5587108E-3,6.8333774E-4,-5.548677E-4,1.2003541E-4,1.9709626E-3,-3.0234442E-4,-2.56512E-3,2.057074E-4,1.1523175E-3,7.296336E-4,-1.2271613E-3,-2.8674984E-3,-1.2292482E-3,-1.7468694E-4,-4.3619093E-3,7.672234E-4,-2.0579518E-4,2.0749175E-3,3.756877E-3,8.153841E-4,2.8066991E-3,5.341432E-4,1.8821068E-3,-7.491925E-4,-1.2554349E-4,1.2131365E-3,-2.1887037E-3,1.5374225E-3,4.442278E-3,-2.3765801E-3,-4.0285704E-3,-8.030365E-4,1.6955315E-3,-7.158751E-5,-6.854535E-4,-3.924047E-3,-9.356211E-4,-3.655456E-4,-1.4410698E-3,-1.5934004E-3,-3.5837276E-3,-2.9158308E-3,1.1938013E-3,-2.5052582E-3,4.5432456E-4,-2.279834E-3,-1.5406092E-4,2.1018817E-3,6.163322E-4,2.5806334E-3,-8.5604435E-4,-5.410074E-4,-1.850981E-3,3.5215478E-4,-4.3744387E-4,-1.5021303E-4,1.2535928E-3,7.817958E-4,3.6359339E-3],"split_indices":[68,31,68,63,72,43,72,51,30,22,87,66,22,74,43,109,22,47,21,12,54,60,109,47,47,1,43,21,22,66,73,52,93,1,93,18,27,7,61,5,25,22,92,112,74,13,21,27,98,23,26,0,18,19,118,24,43,77,23,53,43,16,113,0,0,0,0,0,0,0,0,0,0,0,0,0,0,0,0,0,0,0,0,0,0,0,0,0,0,0,0,0,0,0,0,0,0,0,0,0,0,0,0,0,0,0,0,0,0,0,0,0,0,0,0,0,0,0,0,0,0,0,0,0,0],"split_type":[0,0,0,0,0,0,0,0,0,0,0,0,0,0,0,0,0,0,0,0,0,0,0,0,0,0,0,0,0,0,0,0,0,0,0,0,0,0,0,0,0,0,0,0,0,0,0,0,0,0,0,0,0,0,0,0,0,0,0,0,0,0,0,0,0,0,0,0,0,0,0,0,0,0,0,0,0,0,0,0,0,0,0,0,0,0,0,0,0,0,0,0,0,0,0,0,0,0,0,0,0,0,0,0,0,0,0,0,0,0,0,0,0,0,0,0,0,0,0,0,0,0,0,0,0],"sum_hessian":[2.3193E4,1.5319E4,7.874E3,5.382E3,9.937E3,3.229E3,4.645E3,4.028E3,1.354E3,6.56E2,9.281E3,2.769E3,4.6E2,5.9E2,4.055E3,3.547E3,4.81E2,8.61E2,4.93E2,3.66E2,2.9E2,9.043E3,2.38E2,5.24E2,2.245E3,3E1,4.3E2,2.84E2,3.06E2,2.518E3,1.537E3,3.171E3,3.76E2,5.4E1,4.27E2,1.7E2,6.91E2,3.04E2,1.89E2,5E0,3.61E2,1.31E2,1.59E2,6.99E2,8.344E3,2.14E2,2.4E1,2.31E2,2.93E2,2.081E3,1.64E2,5E0,2.5E1,2.74E2,1.56E2,2.63E2,2.1E1,2E2,1.06E2,5.28E2,1.99E3,1.147E3,3.9E2,1.61E2,3.01E3,2.85E2,9.1E1,3.3E1,2.1E1,2.7E1,4E2,1.59E2,1.1E1,4.18E2,2.73E2,2.45E2,5.9E1,4.2E1,1.47E2,1E0,4E0,2.53E2,1.08E2,9.5E1,3.6E1,1.36E2,2.3E1,6.2E2,7.9E1,1.059E3,7.285E3,2.11E2,3E0,1.3E1,1.1E1,1.61E2,7E1,2.84E2,9E0,1.184E3,8.97E2,3.7E1,1.27E2,2.1E1,4E0,2.6E2,1.4E1,1.49E2,7E0,8E0,2.55E2,1.3E1,8E0,3E1,1.7E2,9.6E1,1E1,2.88E2,2.4E2,4.88E2,1.502E3,1.045E3,1.02E2,3.66E2,2.4E1],"tree_param":{"num_deleted":"0","num_feature":"122","num_nodes":"125","size_leaf_vector":"1"}},{"base_weights":[-1.1568747E-4,5.019364E-3,-9.7971335E-3,1.4852561E-2,-3.963131E-4,-1.6472735E-2,3.9830776E-3,1.219028E-2,3.5396878E-2,2.4874466E-2,-2.092885E-3,6.056923E-3,-2.0843571E-2,1.9593883E-2,7.706254E-4,-2.6930219E-2,1.3776583E-2,4.3784823E-2,1.1412535E-2,1.0727917E-2,4.444158E-2,-3.081391E-3,3.532485E-2,-6.0942634E-3,1.964711E-2,-6.2168945E-2,-1.8400485E-2,2.3952749E-2,-1.0279006E-2,2.5259571E-2,-1.3576447E-3,-2.1001628E-2,-1.1163871E-1,1.1317428E-2,3.402954E-2,2.0639116E-2,5.1917113E-2,2.4387822E-2,-1.6504182E-2,6.5597534E-2,8.483241E-3,6.517231E-2,2.7693478E-2,2.535295E-3,-9.172488E-3,3.0298362E-2,7.4951395E-2,6.184612E-3,-1.9497076E-2,4.6204668E-2,1.1905395E-2,-6.442872E-2,2.6772844E-2,-5.7072815E-2,-1.672847E-2,2.6593627E-2,-8.888335E-3,-2.2290863E-2,3.3015177E-2,3.257325E-2,-3.8841693E-3,1.6611235E-2,-3.5929698E-3,3.6769765E-3,-9.6649036E-4,-4.720098E-3,-8.327519E-4,-5.639778E-4,5.367201E-4,2.5224967E-3,1.1460573E-3,3.8756568E-3,5.4586394E-4,2.2521475E-3,8.164703E-4,1.3242513E-3,-1.7553036E-3,2.33078E-3,-1.0279443E-3,4.167539E-3,4.8490096E-4,-1.5349794E-3,4.2863569E-4,2.1549934E-3,3.9340425E-3,8.0344506E-4,2.6084112E-3,-5.652181E-5,5.8390625E-4,-1.0535995E-3,-2.4552853E-4,1.2699631E-3,-2.1230427E-3,1.7443376E-3,4.315365E-3,5.546439E-4,-4.701292E-4,-1.2369022E-3,-2.4066003E-4,2.1942626E-3,-9.625917E-4,5.385997E-4,-1.3535249E-3,-1.646878E-3,-2.858837E-3,-6.944835E-4,1.9159693E-3,-8.555595E-4,-3.1367603E-3,1.24514E-4,-8.0100104E-4,9.899674E-4,3.8638678E-3,1.2144925E-3,-8.861714E-4,-1.0940358E-3,9.868634E-4,-1.1844625E-4,2.571002E-3,1.0377484E-3,3.8137236E-3,-1.1416159E-3,1.3014899E-3,1.718444E-4,1.7847719E-3,-1.6214233E-4,2.2076506E-3],"categories":[],"categories_nodes":[],"categories_segments":[],"categories_sizes":[],"default_left":[0,0,0,0,0,0,0,0,0,0,0,0,0,0,0,0,0,0,0,0,0,0,0,0,0,0,0,0,0,0,0,0,0,0,0,0,0,0,0,0,0,0,0,0,0,0,0,0,0,0,0,0,0,0,0,0,0,0,0,0,0,0,0,0,0,0,0,0,0,0,0,0,0,0,0,0,0,0,0,0,0,0,0,0,0,0,0,0,0,0,0,0,0,0,0,0,0,0,0,0,0,0,0,0,0,0,0,0,0,0,0,0,0,0,0,0,0,0,0,0,0,0,0,0,0,0,0],"id":5,"left_children":[1,3,5,7,9,11,13,15,17,19,21,23,25,27,29,31,33,35,37,39,41,43,45,47,49,51,53,55,57,59,61,63,65,67,69,71,73,75,77,79,81,83,85,87,89,91,93,95,97,99,101,103,105,107,109,111,113,115,117,119,121,123,125,-1,-1,-1,-1,-1,-1,-1,-1,-1,-1,-1,-1,-1,-1,-1,-1,-1,-1,-1,-1,-1,-1,-1,-1,-1,-1,-1,-1,-1,-1,-1,-1,-1,-1,-1,-1,-1,-1,-1,-1,-1,-1,-1,-1,-1,-1,-1,-1,-1,-1,-1,-1,-1,-1,-1,-1,-1,-1,-1,-1,-1,-1,-1,-1],"loss_changes":[1.1587502E0,8.110554E-1,7.4317044E-1,2.9541254E-1,4.2115748E-1,5.3601885E-1,1.3222772E-1,2.97624E-1,1.2423146E-1,1.7058998E-1,3.4058017E-1,1.4626586E-1,4.5903862E-1,5.8841556E-2,1.14070855E-1,9.156717E-2,2.2891784E-1,8.532494E-2,5.9083335E-2,4.3782745E-2,8.81201E-2,3.0686873E-1,4.4935316E-2,7.714003E-2,8.539115E-2,5.277598E-2,2.7740955E-1,3.432101E-2,3.089846E-2,3.7427418E-2,8.09546E-2,6.50386E-2,4.4787824E-3,2.1946216E-1,7.5951934E-2,6.319443E-2,4.570073E-2,6.7521416E-2,3.7247498E-2,2.7628087E-2,3.6713317E-2,3.7807465E-2,4.0073685E-2,2.2229262E-1,2.2398552E-1,2.7327046E-2,2.213277E-2,3.392135E-2,3.4314886E-2,5.8468744E-2,2.3641612E-2,3.7674665E-2,7.358513E-3,1.339078E-1,2.7006662E-1,4.460773E-2,1.629357E-2,1.1605838E-2,1.4810333E-2,5.5785373E-2,3.3257157E-2,7.6726094E-2,4.8742704E-2,0E0,0E0,0E0,0E0,0E0,0E0,0E0,0E0,0E0,0E0,0E0,0E0,0E0,0E0,0E0,0E0,0E0,0E0,0E0,0E0,0E0,0E0,0E0,0E0,0E0,0E0,0E0,0E0,0E0,0E0,0E0,0E0,0E0,0E0,0E0,0E0,0E0,0E0,0E0,0E0,0E0,0E0,0E0,0E0,0E0,0E0,0E0,0E0,0E0,0E0,0E0,0E0,0E0,0E0,0E0,0E0,0E0,0E0,0E0,0E0,0E0,0E0,0E0,0E0],"parents":[2147483647,0,0,1,1,2,2,3,3,4,4,5,5,6,6,7,7,8,8,9,9,10,10,11,11,12,12,13,13,14,14,15,15,16,16,17,17,18,18,19,19,20,20,21,21,22,22,23,23,24,24,25,25,26,26,27,27,28,28,29,29,30,30,31,31,32,32,33,33,34,34,35,35,36,36,37,37,38,38,39,39,40,40,41,41,42,42,43,43,44,44,45,45,46,46,47,47,48,48,49,49,50,50,51,51,52,52,53,53,54,54,55,55,56,56,57,57,58,58,59,59,60,60,61,61,62,62],"right_children":[2,4,6,8,10,12,14,16,18,20,22,24,26,28,30,32,34,36,38,40,42,44,46,48,50,52,54,56,58,60,62,64,66,68,70,72,74,76,78,80,82,84,86,88,90,92,94,96,98,100,102,104,106,108,110,112,114,116,118,120,122,124,126,-1,-1,-1,-1,-1,-1,-1,-1,-1,-1,-1,-1,-1,-1,-1,-1,-1,-1,-1,-1,-1,-1,-1,-1,-1,-1,-1,-1,-1,-1,-1,-1,-1,-1,-1,-1,-1,-1,-1,-1,-1,-1,-1,-1,-1,-1,-1,-1,-1,-1,-1,-1,-1,-1,-1,-1,-1,-1,-1,-1,-1,-1,-1,-1],"split_conditions":[4.772972E-1,-4.082207E-3,9.1059333E-1,1.9255558E0,-6.948368E-1,-8.624418E-1,-8.2572675E-1,-8.0625427E-1,4.741461E-1,2.3981681E-1,1.8568624E0,-1.39390435E-2,-1.4806931E0,2.2094838E-2,-9.586E-1,9.4688743E-1,2.858753E0,-6.823962E-1,-1.0954633E-1,-1.2213827E0,-1.6218426E0,-7.357117E-2,2.858753E0,-7.017484E-1,-8.970624E-1,1.1202532E0,-1.5381895E0,7.4821645E-1,7.6855516E-1,7.5380135E-1,-8.716232E-1,-1.98889E0,1.0258563E0,-1.2178577E0,-1.1158967E0,-1.2622E0,1.7171135E0,1.7478479E0,-9.112446E-1,-1.8496911E-1,-1.4619993E0,1.5985867E0,1.0492779E0,-2.0254442E-1,-5.145929E-1,2.3016307E0,9.334294E-1,9.62141E-2,4.741646E-1,3.041725E-1,2.143602E0,-6.844827E-1,7.3520744E-1,1.2936847E0,-1.2074081E0,1.9914074E0,-1.8265843E-1,-1.4972621E-1,-1.2666792E-1,9.706108E-1,1.0965226E0,6.24272E-1,2.1837642E0,3.6769765E-3,-9.6649036E-4,-4.720098E-3,-8.327519E-4,-5.639778E-4,5.367201E-4,2.5224967E-3,1.1460573E-3,3.8756568E-3,5.4586394E-4,2.2521475E-3,8.164703E-4,1.3242513E-3,-1.7553036E-3,2.33078E-3,-1.0279443E-3,4.167539E-3,4.8490096E-4,-1.5349794E-3,4.2863569E-4,2.1549934E-3,3.9340425E-3,8.0344506E-4,2.6084112E-3,-5.652181E-5,5.8390625E-4,-1.0535995E-3,-2.4552853E-4,1.2699631E-3,-2.1230427E-3,1.7443376E-3,4.315365E-3,5.546439E-4,-4.701292E-4,-1.2369022E-3,-2.4066003E-4,2.1942626E-3,-9.625917E-4,5.385997E-4,-1.3535249E-3,-1.646878E-3,-2.858837E-3,-6.944835E-4,1.9159693E-3,-8.555595E-4,-3.1367603E-3,1.24514E-4,-8.0100104E-4,9.899674E-4,3.8638678E-3,1.2144925E-3,-8.861714E-4,-1.0940358E-3,9.868634E-4,-1.1844625E-4,2.571002E-3,1.0377484E-3,3.8137236E-3,-1.1416159E-3,1.3014899E-3,1.718444E-4,1.7847719E-3,-1.6214233E-4,2.2076506E-3],"split_indices":[68,31,66,51,72,82,83,66,85,22,87,87,30,30,67,30,109,96,93,94,54,60,109,72,13,7,54,1,22,92,72,9,0,68,87,94,16,25,5,7,20,22,92,57,80,13,20,105,98,7,18,96,0,30,61,27,35,7,93,105,92,92,5,0,0,0,0,0,0,0,0,0,0,0,0,0,0,0,0,0,0,0,0,0,0,0,0,0,0,0,0,0,0,0,0,0,0,0,0,0,0,0,0,0,0,0,0,0,0,0,0,0,0,0,0,0,0,0,0,0,0,0,0,0,0,0,0],"split_type":[0,0,0,0,0,0,0,0,0,0,0,0,0,0,0,0,0,0,0,0,0,0,0,0,0,0,0,0,0,0,0,0,0,0,0,0,0,0,0,0,0,0,0,0,0,0,0,0,0,0,0,0,0,0,0,0,0,0,0,0,0,0,0,0,0,0,0,0,0,0,0,0,0,0,0,0,0,0,0,0,0,0,0,0,0,0,0,0,0,0,0,0,0,0,0,0,0,0,0,0,0,0,0,0,0,0,0,0,0,0,0,0,0,0,0,0,0,0,0,0,0,0,0,0,0,0,0],"sum_hessian":[2.3306E4,1.5229E4,8.077E3,5.408E3,9.821E3,5.441E3,2.636E3,4.789E3,6.19E2,6.17E2,9.204E3,8.84E2,4.557E3,4.49E2,2.187E3,1.86E2,4.603E3,4.58E2,1.61E2,3.59E2,2.58E2,8.968E3,2.36E2,4.67E2,4.17E2,2.53E2,4.304E3,3.92E2,5.7E1,1.74E2,2.013E3,1.75E2,1.1E1,4.106E3,4.97E2,1.2E2,3.38E2,1.1E2,5.1E1,1.3E1,3.46E2,1.14E2,1.44E2,4.666E3,4.302E3,2.11E2,2.5E1,2.44E2,2.23E2,9.3E1,3.24E2,2.47E2,6E0,1.77E2,4.127E3,3.63E2,2.9E1,4.5E1,1.2E1,1.39E2,3.5E1,2.22E2,1.791E3,4E0,1.71E2,1E1,1E0,3.13E2,3.793E3,7.6E1,4.21E2,9E0,1.11E2,2.96E2,4.2E1,9.8E1,1.2E1,5E0,4.6E1,7E0,6E0,1.5E1,3.31E2,8.7E1,2.7E1,1.21E2,2.3E1,3.516E3,1.15E3,6.45E2,3.657E3,2.08E2,3E0,1.4E1,1.1E1,1.71E2,7.3E1,1.2E2,1.03E2,8.3E1,1E1,3.14E2,1E1,5.9E1,1.88E2,2E0,4E0,6.7E1,1.1E2,5.88E2,3.539E3,3.55E2,8E0,7E0,2.2E1,4.1E1,4E0,6E0,6E0,1.27E2,1.2E1,2.1E1,1.4E1,1.55E2,6.7E1,1.778E3,1.3E1],"tree_param":{"num_deleted":"0","num_feature":"122","num_nodes":"127","size_leaf_vector":"1"}},{"base_weights":[1.6791317E-4,5.6228116E-3,-7.10916E-3,3.604422E-3,2.6051931E-2,-5.1377714E-3,-4.2793553E-2,1.061662E-2,-1.672123E-3,1.3851269E-2,3.9145563E-2,-1.1642612E-2,3.579898E-3,-3.3478573E-2,-6.1500106E-2,8.561016E-3,3.1600915E-2,8.76527E-3,-6.7535695E-3,2.1135615E-2,-1.9117E-2,4.5012183E-2,-1.3620904E-2,-8.512089E-3,-3.7195798E-2,-3.8390458E-2,5.5974005E-3,-6.0910314E-2,-2.8562985E-2,-6.549139E-2,4.1365992E-2,1.5884984E-2,4.3569193E-3,2.3968989E-2,5.4288276E-2,1.52655225E-2,-1.920342E-2,-1.0851365E-2,1.106518E-2,-1.2183134E-2,2.8003385E-2,3.3122405E-2,-3.5295453E-2,2.5751509E-2,5.619303E-2,-2.8933961E-2,4.1611522E-2,-6.3467743E-3,-2.6500499E-2,-6.5720856E-2,-2.4790602E-2,-3.2228075E-2,-4.0432485E-3,1.2936991E-2,-7.0731286E-3,-1.8744782E-2,-7.59517E-2,-6.733998E-2,-2.5215954E-2,-7.518343E-2,-3.33242E-2,2.5553696E-3,-3.9812343E-4,9.419739E-4,1.9740433E-4,7.6916534E-4,4.7746984E-5,1.7793945E-3,7.5162796E-4,1.7865332E-3,3.3601709E-3,7.7472866E-4,-2.667407E-4,-2.6617965E-4,-1.3968375E-3,-7.3673716E-4,-1.9804627E-4,-5.431002E-4,6.9053547E-4,4.7848662E-4,-1.1465929E-3,1.2791798E-3,-7.919622E-5,2.680367E-4,3.8014331E-3,-1.8277399E-3,-5.7450606E-4,-1.6252973E-4,1.2986704E-3,2.7947077E-3,1.7325587E-3,3.2470066E-3,-1.6541313E-3,-1.1682583E-3,2.6311025E-3,-1.2308055E-3,-1.9028506E-4,-5.872046E-4,-2.4378905E-3,-1.6520207E-3,-3.2829156E-3,-6.7270367E-4,-1.775116E-3,5.9772085E-4,-1.5180032E-3,3.5146254E-4,1.1243622E-3,2.4719667E-4,-6.5309135E-4,2.071458E-4,-2.7050944E-3,-1.7235471E-3,-3.3865902E-3,-3.5456507E-4,-3.167366E-3,-8.51356E-4,-2.3134672E-3,-2.7218433E-3,-4.305193E-3,-2.3765096E-3,-6.7965675E-4],"categories":[],"categories_nodes":[],"categories_segments":[],"categories_sizes":[],"default_left":[0,0,0,0,0,0,0,0,0,0,0,0,0,0,0,0,0,0,0,0,0,0,0,0,0,0,0,0,0,0,0,0,0,0,0,0,0,0,0,0,0,0,0,0,0,0,0,0,0,0,0,0,0,0,0,0,0,0,0,0,0,0,0,0,0,0,0,0,0,0,0,0,0,0,0,0,0,0,0,0,0,0,0,0,0,0,0,0,0,0,0,0,0,0,0,0,0,0,0,0,0,0,0,0,0,0,0,0,0,0,0,0,0,0,0,0,0,0,0,0,0],"id":6,"left_children":[1,3,5,7,9,11,13,15,17,19,21,23,25,27,29,31,33,35,37,39,41,43,45,47,49,51,53,55,57,59,61,63,65,67,69,71,73,75,77,79,81,83,85,87,89,91,93,95,97,99,101,103,-1,105,107,109,111,113,115,117,119,-1,-1,-1,-1,-1,-1,-1,-1,-1,-1,-1,-1,-1,-1,-1,-1,-1,-1,-1,-1,-1,-1,-1,-1,-1,-1,-1,-1,-1,-1,-1,-1,-1,-1,-1,-1,-1,-1,-1,-1,-1,-1,-1,-1,-1,-1,-1,-1,-1,-1,-1,-1,-1,-1,-1,-1,-1,-1,-1,-1],"loss_changes":[9.169709E-1,5.4431754E-1,6.960124E-1,4.4464892E-1,1.890822E-1,5.319537E-1,8.820319E-2,2.223081E-1,3.6378735E-1,1.4833786E-1,1.7768192E-1,4.2941558E-1,3.396782E-1,4.5185626E-2,7.291627E-2,1.4467776E-1,7.8347E-2,4.0862393E-1,3.3695012E-1,1.1589807E-1,9.5826186E-2,1.0945845E-1,5.0259072E-2,1.8628815E-1,2.0573217E-1,6.782603E-2,3.5589603E-1,3.155613E-2,3.6848947E-2,4.893595E-2,8.725157E-3,1.4372921E-1,1.4054587E-1,3.5922155E-2,2.9139787E-2,1.6417849E-1,8.339654E-2,1.6738066E-1,1.320494E-1,3.4965E-2,5.001521E-2,4.3530986E-2,1.8062495E-2,3.8372725E-2,5.4211736E-2,6.626099E-2,2.4169201E-2,1.6578971E-1,2.0839268E-1,6.7290306E-2,6.3283235E-2,4.618244E-2,0E0,1.5233064E-1,1.7229553E-1,1.7891802E-2,7.2327256E-3,1.5227847E-2,3.404227E-2,2.1855414E-2,1.6034428E-2,0E0,0E0,0E0,0E0,0E0,0E0,0E0,0E0,0E0,0E0,0E0,0E0,0E0,0E0,0E0,0E0,0E0,0E0,0E0,0E0,0E0,0E0,0E0,0E0,0E0,0E0,0E0,0E0,0E0,0E0,0E0,0E0,0E0,0E0,0E0,0E0,0E0,0E0,0E0,0E0,0E0,0E0,0E0,0E0,0E0,0E0,0E0,0E0,0E0,0E0,0E0,0E0,0E0,0E0,0E0,0E0,0E0,0E0,0E0,0E0],"parents":[2147483647,0,0,1,1,2,2,3,3,4,4,5,5,6,6,7,7,8,8,9,9,10,10,11,11,12,12,13,13,14,14,15,15,16,16,17,17,18,18,19,19,20,20,21,21,22,22,23,23,24,24,25,25,26,26,27,27,28,28,29,29,30,30,31,31,32,32,33,33,34,34,35,35,36,36,37,37,38,38,39,39,40,40,41,41,42,42,43,43,44,44,45,45,46,46,47,47,48,48,49,49,50,50,51,51,53,53,54,54,55,55,56,56,57,57,58,58,59,59,60,60],"right_children":[2,4,6,8,10,12,14,16,18,20,22,24,26,28,30,32,34,36,38,40,42,44,46,48,50,52,54,56,58,60,62,64,66,68,70,72,74,76,78,80,82,84,86,88,90,92,94,96,98,100,102,104,-1,106,108,110,112,114,116,118,120,-1,-1,-1,-1,-1,-1,-1,-1,-1,-1,-1,-1,-1,-1,-1,-1,-1,-1,-1,-1,-1,-1,-1,-1,-1,-1,-1,-1,-1,-1,-1,-1,-1,-1,-1,-1,-1,-1,-1,-1,-1,-1,-1,-1,-1,-1,-1,-1,-1,-1,-1,-1,-1,-1,-1,-1,-1,-1,-1,-1],"split_conditions":[1.9346285E-1,1.8344935E0,1.2195959E0,-3.316225E-2,2.2705505E0,-3.47609E-1,1.3588897E0,1.2106371E0,-6.160094E-1,7.5380135E-1,2.0528202E0,1.4092838E0,-9.9894196E-1,-1.6756742E-1,4.845676E0,-7.3580927E-1,9.280951E-1,1.18048E0,1.4085568E0,8.6717105E-1,1.412471E0,-4.5642582E-1,2.13734E0,2.8859894E0,2.769695E-1,3.3989782E0,3.6889207E-1,-1.4192003E-1,-1.0331054E0,-4.002015E-1,-1.6574691E-1,-2.1114476E-1,-4.95999E-1,-3.7012762E-1,4.12431E-1,-6.7835313E-1,1.4020683E0,-2.703947E-1,4.7308913E-1,3.1851003E-1,1.0150415E0,1.3960873E-1,1.6994064E0,-5.6908166E-1,-1.22636706E-1,-7.41152E-2,-1.2721015E0,-7.288053E-1,6.759334E-2,-3.8749912E-1,3.5082301E-1,-2.7630955E-1,-4.0432485E-3,7.0012987E-1,-6.6920424E-1,-6.6941965E-1,-6.744776E-1,-5.979791E-1,2.7614012E-1,2.8859894E0,-1.3794228E-1,2.5553696E-3,-3.9812343E-4,9.419739E-4,1.9740433E-4,7.6916534E-4,4.7746984E-5,1.7793945E-3,7.5162796E-4,1.7865332E-3,3.3601709E-3,7.7472866E-4,-2.667407E-4,-2.6617965E-4,-1.3968375E-3,-7.3673716E-4,-1.9804627E-4,-5.431002E-4,6.9053547E-4,4.7848662E-4,-1.1465929E-3,1.2791798E-3,-7.919622E-5,2.680367E-4,3.8014331E-3,-1.8277399E-3,-5.7450606E-4,-1.6252973E-4,1.2986704E-3,2.7947077E-3,1.7325587E-3,3.2470066E-3,-1.6541313E-3,-1.1682583E-3,2.6311025E-3,-1.2308055E-3,-1.9028506E-4,-5.872046E-4,-2.4378905E-3,-1.6520207E-3,-3.2829156E-3,-6.7270367E-4,-1.775116E-3,5.9772085E-4,-1.5180032E-3,3.5146254E-4,1.1243622E-3,2.4719667E-4,-6.5309135E-4,2.071458E-4,-2.7050944E-3,-1.7235471E-3,-3.3865902E-3,-3.5456507E-4,-3.167366E-3,-8.51356E-4,-2.3134672E-3,-2.7218433E-3,-4.305193E-3,-2.3765096E-3,-6.7965675E-4],"split_indices":[65,51,46,73,74,46,43,62,66,92,19,30,57,77,118,43,44,72,72,43,45,94,27,112,31,113,30,9,94,105,9,73,54,14,22,65,54,42,43,11,22,42,0,21,3,7,42,74,24,21,22,9,0,22,72,19,22,0,27,112,93,0,0,0,0,0,0,0,0,0,0,0,0,0,0,0,0,0,0,0,0,0,0,0,0,0,0,0,0,0,0,0,0,0,0,0,0,0,0,0,0,0,0,0,0,0,0,0,0,0,0,0,0,0,0,0,0,0,0,0,0],"split_type":[0,0,0,0,0,0,0,0,0,0,0,0,0,0,0,0,0,0,0,0,0,0,0,0,0,0,0,0,0,0,0,0,0,0,0,0,0,0,0,0,0,0,0,0,0,0,0,0,0,0,0,0,0,0,0,0,0,0,0,0,0,0,0,0,0,0,0,0,0,0,0,0,0,0,0,0,0,0,0,0,0,0,0,0,0,0,0,0,0,0,0,0,0,0,0,0,0,0,0,0,0,0,0,0,0,0,0,0,0,0,0,0,0,0,0,0,0,0,0,0,0],"sum_hessian":[2.3098E4,1.3202E4,9.896E3,1.2016E4,1.186E3,9.379E3,5.17E2,5.159E3,6.857E3,6.15E2,5.71E2,5.371E3,4.008E3,3.47E2,1.7E2,4.7E3,4.59E2,2.245E3,4.612E3,5.04E2,1.11E2,5.14E2,5.7E1,4.786E3,5.85E2,1.83E2,3.825E3,5.1E1,2.96E2,1.64E2,6E0,1.713E3,2.987E3,3.45E2,1.14E2,1.822E3,4.23E2,3.75E3,8.62E2,8.6E1,4.18E2,2.6E1,8.5E1,1.9E2,3.24E2,4.5E1,1.2E1,4.273E3,5.13E2,1.76E2,4.09E2,1.68E2,1.5E1,2.422E3,1.403E3,1.4E1,3.7E1,2.2E1,2.74E2,1.25E2,3.9E1,4E0,2E0,1.007E3,7.06E2,5.23E2,2.464E3,6.8E1,2.77E2,8.8E1,2.6E1,1.535E3,2.87E2,2.36E2,1.87E2,1.642E3,2.108E3,1.73E2,6.89E2,3.5E1,5.1E1,3.69E2,4.9E1,1.9E1,7E0,5.6E1,2.9E1,3.5E1,1.55E2,1.55E2,1.69E2,4E0,4.1E1,3E0,9E0,2.6E2,4.013E3,3.83E2,1.3E2,7.2E1,1.04E2,2.92E2,1.17E2,1.8E1,1.5E2,1.903E3,5.19E2,5.77E2,8.26E2,1E1,4E0,9E0,2.8E1,4E0,1.8E1,2.46E2,2.8E1,1.05E2,2E1,1.4E1,2.5E1],"tree_param":{"num_deleted":"0","num_feature":"122","num_nodes":"121","size_leaf_vector":"1"}},{"base_weights":[-2.7784192E-5,4.5123114E-3,-8.727822E-3,2.5515046E-3,1.795566E-2,-1.9487156E-2,-1.0747613E-3,1.4117205E-2,-1.3039846E-3,2.5323227E-2,-9.178941E-3,-1.7053442E-2,-6.04524E-2,-3.6408693E-2,2.826551E-4,8.540765E-3,3.180136E-2,-3.4492765E-2,-2.4331891E-4,2.8699093E-2,-1.9266373E-2,-4.546399E-2,-1.3009516E-3,-1.5230003E-2,-6.637904E-2,-6.348228E-2,2.5661856E-2,-1.4832089E-2,-7.258745E-2,-4.043146E-3,8.779475E-3,-1.7733397E-2,1.044091E-2,7.8108765E-2,2.7651591E-2,-1.9280825E-2,-7.929631E-2,9.2173135E-3,-3.2003755E-3,4.90873E-2,2.3974689E-2,-1.1759274E-2,-6.883122E-2,-3.6379814E-2,-1.07029706E-1,2.2032764E-3,-1.06946655E-1,-6.340771E-2,-1.4212637E-2,-5.3791888E-2,-1.0354679E-1,-3.0325396E-2,-7.190818E-2,-6.119E-4,2.4358998E-3,-2.0953736E-3,-3.360007E-2,-7.553559E-2,2.262901E-3,1.3015472E-3,-1.6404202E-2,4.391245E-3,2.8312635E-2,-9.6085214E-4,-2.5317402E-5,3.2837616E-4,1.1342218E-3,2.201786E-3,3.7219154E-3,1.1094439E-5,1.2932052E-3,5.6213466E-4,-1.0603964E-3,-3.4954532E-3,9.658667E-5,4.6192354E-4,-7.334818E-4,-6.8285895E-5,-1.006486E-3,7.009467E-4,2.1838497E-3,7.0030853E-4,1.4043634E-3,5.063173E-4,-8.457363E-4,-3.2527952E-3,1.626861E-4,-2.000537E-3,-3.486558E-4,-4.672452E-3,-5.7553954E-4,8.115518E-4,-4.702952E-4,-7.881601E-4,-4.5480207E-3,-1.835383E-3,-3.727292E-3,-1.8630737E-3,-5.110631E-4,-1.3044301E-3,-2.9488818E-3,-4.3160897E-3,1.938979E-4,-5.3666085E-5,-2.0537397E-3,-2.973365E-3,1.214815E-3,3.4671344E-4,-3.8750676E-4,-3.437108E-4,1.8433939E-3,-1.9047598E-3,-6.966656E-4,-1.4128046E-3,-3.37222E-3,-2.0038391E-5,1.417307E-3,-1.093921E-3,-3.025316E-4,-2.4089583E-3,2.2234315E-4,3.205706E-5,1.6031505E-3],"categories":[],"categories_nodes":[],"categories_segments":[],"categories_sizes":[],"default_left":[0,0,0,0,0,0,0,0,0,0,0,0,0,0,0,0,0,0,0,0,0,0,0,0,0,0,0,0,0,0,0,0,0,0,0,0,0,0,0,0,0,0,0,0,0,0,0,0,0,0,0,0,0,0,0,0,0,0,0,0,0,0,0,0,0,0,0,0,0,0,0,0,0,0,0,0,0,0,0,0,0,0,0,0,0,0,0,0,0,0,0,0,0,0,0,0,0,0,0,0,0,0,0,0,0,0,0,0,0,0,0,0,0,0,0,0,0,0,0,0,0,0,0],"id":7,"left_children":[1,3,5,7,9,11,13,15,17,19,21,23,25,27,29,31,33,35,37,39,41,43,45,47,49,51,53,55,57,59,61,63,65,67,69,71,73,75,77,79,81,83,85,87,89,91,93,95,97,99,101,103,105,107,-1,109,111,113,-1,115,117,119,121,-1,-1,-1,-1,-1,-1,-1,-1,-1,-1,-1,-1,-1,-1,-1,-1,-1,-1,-1,-1,-1,-1,-1,-1,-1,-1,-1,-1,-1,-1,-1,-1,-1,-1,-1,-1,-1,-1,-1,-1,-1,-1,-1,-1,-1,-1,-1,-1,-1,-1,-1,-1,-1,-1,-1,-1,-1,-1,-1,-1],"loss_changes":[9.162189E-1,4.0173036E-1,6.54926E-1,5.932182E-1,3.880694E-1,3.2856977E-1,2.229896E-1,3.2772064E-1,3.5123911E-1,2.3025948E-1,1.1856994E-1,2.7978855E-1,4.9898386E-2,1.3318914E-1,1.6462688E-1,1.2649468E-1,1.5099585E-1,2.090697E-1,2.705538E-1,1.3550425E-1,3.937612E-2,3.749253E-2,1.268463E-1,1.4673012E-1,4.6359867E-2,4.782778E-2,6.517672E-3,2.5985217E-2,2.864325E-2,1.9610539E-1,1.2939256E-1,1.837176E-2,9.411198E-2,1.727447E-2,9.38673E-2,5.627893E-2,5.1772445E-2,1.4811738E-1,2.4158278E-1,4.5296013E-2,8.248013E-2,2.2035394E-2,1.3076387E-2,2.4456106E-2,6.474875E-3,8.406379E-2,4.241124E-3,2.8072521E-2,1.3655823E-1,3.3478066E-2,1.3269901E-2,2.308008E-2,3.7490904E-2,5.050748E-4,0E0,2.1057032E-2,9.153105E-3,1.9241571E-2,0E0,1.2755202E-1,8.6484164E-2,9.348773E-2,8.9632854E-2,0E0,0E0,0E0,0E0,0E0,0E0,0E0,0E0,0E0,0E0,0E0,0E0,0E0,0E0,0E0,0E0,0E0,0E0,0E0,0E0,0E0,0E0,0E0,0E0,0E0,0E0,0E0,0E0,0E0,0E0,0E0,0E0,0E0,0E0,0E0,0E0,0E0,0E0,0E0,0E0,0E0,0E0,0E0,0E0,0E0,0E0,0E0,0E0,0E0,0E0,0E0,0E0,0E0,0E0,0E0,0E0,0E0,0E0,0E0,0E0],"parents":[2147483647,0,0,1,1,2,2,3,3,4,4,5,5,6,6,7,7,8,8,9,9,10,10,11,11,12,12,13,13,14,14,15,15,16,16,17,17,18,18,19,19,20,20,21,21,22,22,23,23,24,24,25,25,26,26,27,27,28,28,29,29,30,30,31,31,32,32,33,33,34,34,35,35,36,36,37,37,38,38,39,39,40,40,41,41,42,42,43,43,44,44,45,45,46,46,47,47,48,48,49,49,50,50,51,51,52,52,53,53,55,55,56,56,57,57,59,59,60,60,61,61,62,62],"right_children":[2,4,6,8,10,12,14,16,18,20,22,24,26,28,30,32,34,36,38,40,42,44,46,48,50,52,54,56,58,60,62,64,66,68,70,72,74,76,78,80,82,84,86,88,90,92,94,96,98,100,102,104,106,108,-1,110,112,114,-1,116,118,120,122,-1,-1,-1,-1,-1,-1,-1,-1,-1,-1,-1,-1,-1,-1,-1,-1,-1,-1,-1,-1,-1,-1,-1,-1,-1,-1,-1,-1,-1,-1,-1,-1,-1,-1,-1,-1,-1,-1,-1,-1,-1,-1,-1,-1,-1,-1,-1,-1,-1,-1,-1,-1,-1,-1,-1,-1,-1,-1,-1,-1],"split_conditions":[4.9659154E-1,1.3672634E0,9.789526E-1,-7.001044E-1,8.3128834E-1,1.3588897E0,-1.453858E0,5.451333E-1,-1.6576188E0,2.448327E0,2.2347277E-1,1.0765802E0,4.845676E0,3.988652E-1,8.6717105E-1,-2.133661E0,-1.4210349E0,3.3922422E-1,-6.714996E-1,-7.9818094E-1,1.6872495E0,7.8969866E-1,4.2251375E-1,-1.2829874E0,9.068596E-2,-1.004532E0,-9.238497E-2,-7.0703506E-1,1.9559884E0,7.156893E-1,8.478712E-1,-1.249495E0,1.139866E0,5.3982204E-1,-1.0979049E0,-8.3905184E-1,-4.175944E-1,2.2437522E0,1.5640479E0,-5.021992E-1,2.2705505E0,1.7216927E0,2.3109977E0,3.370956E-1,1.6994064E0,7.188E-1,-3.3736306E-1,-1.6983066E-1,-1.8053273E0,-1.0182968E0,1.6842351E0,2.8320867E-1,1.1202532E0,-1.3054651E0,2.4358998E-3,3.692086E0,2.7816308E-1,-5.2469754E-1,2.262901E-3,9.348756E-1,-5.576259E-1,-2.1041474E0,-8.5545224E-1,-9.6085214E-4,-2.5317402E-5,3.2837616E-4,1.1342218E-3,2.201786E-3,3.7219154E-3,1.1094439E-5,1.2932052E-3,5.6213466E-4,-1.0603964E-3,-3.4954532E-3,9.658667E-5,4.6192354E-4,-7.334818E-4,-6.8285895E-5,-1.006486E-3,7.009467E-4,2.1838497E-3,7.0030853E-4,1.4043634E-3,5.063173E-4,-8.457363E-4,-3.2527952E-3,1.626861E-4,-2.000537E-3,-3.486558E-4,-4.672452E-3,-5.7553954E-4,8.115518E-4,-4.702952E-4,-7.881601E-4,-4.5480207E-3,-1.835383E-3,-3.727292E-3,-1.8630737E-3,-5.110631E-4,-1.3044301E-3,-2.9488818E-3,-4.3160897E-3,1.938979E-4,-5.3666085E-5,-2.0537397E-3,-2.973365E-3,1.214815E-3,3.4671344E-4,-3.8750676E-4,-3.437108E-4,1.8433939E-3,-1.9047598E-3,-6.966656E-4,-1.4128046E-3,-3.37222E-3,-2.0038391E-5,1.417307E-3,-1.093921E-3,-3.025316E-4,-2.4089583E-3,2.2234315E-4,3.205706E-5,1.6031505E-3],"split_indices":[68,73,68,52,30,43,64,22,54,17,26,53,118,22,43,75,52,22,30,67,11,7,48,49,23,23,0,32,11,30,96,30,62,92,53,96,90,27,52,27,74,19,11,23,0,19,17,27,44,30,17,42,7,5,0,107,26,3,0,56,27,19,100,0,0,0,0,0,0,0,0,0,0,0,0,0,0,0,0,0,0,0,0,0,0,0,0,0,0,0,0,0,0,0,0,0,0,0,0,0,0,0,0,0,0,0,0,0,0,0,0,0,0,0,0,0,0,0,0,0,0,0,0],"split_type":[0,0,0,0,0,0,0,0,0,0,0,0,0,0,0,0,0,0,0,0,0,0,0,0,0,0,0,0,0,0,0,0,0,0,0,0,0,0,0,0,0,0,0,0,0,0,0,0,0,0,0,0,0,0,0,0,0,0,0,0,0,0,0,0,0,0,0,0,0,0,0,0,0,0,0,0,0,0,0,0,0,0,0,0,0,0,0,0,0,0,0,0,0,0,0,0,0,0,0,0,0,0,0,0,0,0,0,0,0,0,0,0,0,0,0,0,0,0,0,0,0,0,0],"sum_hessian":[2.3194E4,1.5241E4,7.953E3,1.3302E4,1.939E3,3.305E3,4.648E3,3.325E3,9.977E3,1.525E3,4.14E2,3.121E3,1.84E2,1.71E2,4.477E3,2.529E3,7.96E2,3.08E2,9.669E3,1.418E3,1.07E2,7.3E1,3.41E2,3.011E3,1.1E2,1.78E2,6E0,1.08E2,6.3E1,2.967E3,1.51E3,1.7E2,2.359E3,6.4E1,7.32E2,2.31E2,7.7E1,2.302E3,7.367E3,2.65E2,1.153E3,9.4E1,1.3E1,6.5E1,8E0,3.31E2,1E1,6.1E1,2.95E3,8.4E1,2.6E1,3.7E1,1.41E2,4E0,2E0,6.5E1,4.3E1,6.2E1,1E0,2.072E3,8.95E2,1.234E3,2.76E2,1.24E2,4.6E1,2.099E3,2.6E2,2.7E1,3.7E1,1.07E2,6.25E2,4.1E1,1.9E2,7E1,7E0,2.123E3,1.79E2,6.899E3,4.68E2,4E1,2.25E2,7.31E2,4.22E2,2.6E1,6.8E1,1.1E1,2E0,4.3E1,2.2E1,7E0,1E0,1.44E2,1.87E2,1E0,9E0,4E1,2.1E1,1.24E2,2.826E3,4.2E1,4.2E1,2.5E1,1E0,1.6E1,2.1E1,1.38E2,3E0,2E0,2E0,5.8E1,7E0,2.2E1,2.1E1,1.2E1,5E1,1.969E3,1.03E2,3.99E2,4.96E2,2.1E1,1.213E3,8.3E1,1.93E2],"tree_param":{"num_deleted":"0","num_feature":"122","num_nodes":"123","size_leaf_vector":"1"}},{"base_weights":[-2.2761598E-4,4.2692823E-3,-8.737749E-3,1.29617825E-2,-4.5916488E-4,-6.150666E-3,-3.76542E-2,-3.2156214E-2,1.4066276E-2,2.0633603E-2,-1.9705063E-3,-1.0405378E-2,8.302254E-3,-2.9694408E-2,-5.7844933E-2,-2.4178952E-2,-1.0086438E-1,1.9287884E-2,3.869094E-3,7.6174783E-3,3.846216E-2,-2.8540292E-3,3.0772008E-2,-8.704253E-3,-4.1457456E-2,2.5832464E-4,1.6155938E-2,-1.9840125E-2,-4.4319548E-2,-6.2127896E-2,3.281389E-2,-3.654164E-2,1.0897508E-2,-7.723969E-4,-4.242057E-3,3.0636597E-2,1.5788665E-2,5.587624E-3,-3.343736E-2,1.2989502E-2,-9.6449E-3,5.6964956E-2,2.2645488E-2,1.3419303E-2,-4.4659893E-3,2.5659358E-2,7.034414E-2,1.4116608E-2,-1.0540983E-2,-8.288181E-2,-3.1404547E-2,-6.6765875E-2,1.5770564E-3,4.212567E-3,2.9303938E-2,-2.5564354E-2,8.955855E-3,-1.734795E-2,-5.4627188E-2,-7.284852E-2,-4.253468E-2,-1.9555807E-3,2.4408235E-3,-1.545704E-3,2.8407976E-3,1.977967E-3,-1.1334103E-3,9.1811566E-4,1.9945165E-3,5.5953325E-4,1.6807384E-3,1.2307803E-4,1.1641752E-3,1.18383374E-4,-2.8731127E-3,-1.4075155E-3,6.4428133E-4,7.660598E-4,-9.369231E-4,2.663541E-3,6.808E-4,4.092057E-3,7.225159E-4,7.88149E-4,9.7174336E-5,-3.1581617E-4,6.982053E-5,1.2547036E-3,2.2724427E-4,1.4575158E-3,4.387618E-3,1.992975E-3,2.9334702E-4,3.7022252E-4,-5.297457E-4,-1.4877939E-3,-3.8213956E-3,-1.4543189E-3,1.1145804E-3,-7.4690103E-4,-3.0571197E-3,-7.066957E-5,1.0627774E-3,2.4015387E-4,-2.4369236E-3,1.0188634E-3,3.3557336E-3,-3.774507E-4,-1.4337399E-3,1.4916861E-3,-6.58213E-4,-1.5441091E-3,1.2473278E-3,5.720207E-4,-2.3157336E-3,-1.8274885E-3,-3.1712845E-3,9.592319E-4,-1.891579E-3,2.468012E-4,-3.7717327E-4],"categories":[],"categories_nodes":[],"categories_segments":[],"categories_sizes":[],"default_left":[0,0,0,0,0,0,0,0,0,0,0,0,0,0,0,0,0,0,0,0,0,0,0,0,0,0,0,0,0,0,0,0,0,0,0,0,0,0,0,0,0,0,0,0,0,0,0,0,0,0,0,0,0,0,0,0,0,0,0,0,0,0,0,0,0,0,0,0,0,0,0,0,0,0,0,0,0,0,0,0,0,0,0,0,0,0,0,0,0,0,0,0,0,0,0,0,0,0,0,0,0,0,0,0,0,0,0,0,0,0,0,0,0,0,0,0,0,0,0,0,0],"id":8,"left_children":[1,3,5,7,9,11,13,15,17,19,21,23,25,27,29,31,33,35,37,39,41,43,45,47,49,51,53,55,57,59,61,63,65,-1,-1,67,69,71,73,75,77,79,81,83,85,87,89,91,93,95,97,99,101,103,105,107,109,111,113,115,117,119,-1,-1,-1,-1,-1,-1,-1,-1,-1,-1,-1,-1,-1,-1,-1,-1,-1,-1,-1,-1,-1,-1,-1,-1,-1,-1,-1,-1,-1,-1,-1,-1,-1,-1,-1,-1,-1,-1,-1,-1,-1,-1,-1,-1,-1,-1,-1,-1,-1,-1,-1,-1,-1,-1,-1,-1,-1,-1,-1],"loss_changes":[8.8719404E-1,6.234415E-1,5.9936464E-1,2.6675737E-1,3.1324565E-1,4.525519E-1,1.0403216E-1,6.771839E-2,2.7770817E-1,1.5216962E-1,2.6533562E-1,2.999407E-1,1.0574991E-1,6.7433715E-2,7.387197E-2,5.070039E-2,3.4514964E-3,1.3652146E-1,1.1353733E-1,3.5456903E-2,7.977477E-2,2.3428518E-1,4.6953738E-2,2.2611663E-1,1.2024552E-1,7.3289685E-2,1.3288218E-1,4.720687E-2,5.1874876E-2,3.4080565E-2,8.945919E-3,2.2178896E-2,4.82883E-2,0E0,0E0,1.18811786E-1,1.2403214E-1,9.975196E-2,1.092016E-1,4.427338E-2,3.6553912E-2,4.7687113E-2,5.327174E-2,5.5549815E-2,1.730911E-1,2.434051E-2,3.2023445E-2,9.7000346E-2,2.671044E-1,2.939719E-2,7.11799E-2,6.0078353E-3,6.7988865E-2,5.2286677E-2,8.217302E-2,3.911811E-2,3.5176475E-2,5.690576E-2,3.167054E-2,1.612401E-2,2.1691434E-2,3.6182324E-4,0E0,0E0,0E0,0E0,0E0,0E0,0E0,0E0,0E0,0E0,0E0,0E0,0E0,0E0,0E0,0E0,0E0,0E0,0E0,0E0,0E0,0E0,0E0,0E0,0E0,0E0,0E0,0E0,0E0,0E0,0E0,0E0,0E0,0E0,0E0,0E0,0E0,0E0,0E0,0E0,0E0,0E0,0E0,0E0,0E0,0E0,0E0,0E0,0E0,0E0,0E0,0E0,0E0,0E0,0E0,0E0,0E0,0E0,0E0],"parents":[2147483647,0,0,1,1,2,2,3,3,4,4,5,5,6,6,7,7,8,8,9,9,10,10,11,11,12,12,13,13,14,14,15,15,16,16,17,17,18,18,19,19,20,20,21,21,22,22,23,23,24,24,25,25,26,26,27,27,28,28,29,29,30,30,31,31,32,32,35,35,36,36,37,37,38,38,39,39,40,40,41,41,42,42,43,43,44,44,45,45,46,46,47,47,48,48,49,49,50,50,51,51,52,52,53,53,54,54,55,55,56,56,57,57,58,58,59,59,60,60,61,61],"right_children":[2,4,6,8,10,12,14,16,18,20,22,24,26,28,30,32,34,36,38,40,42,44,46,48,50,52,54,56,58,60,62,64,66,-1,-1,68,70,72,74,76,78,80,82,84,86,88,90,92,94,96,98,100,102,104,106,108,110,112,114,116,118,120,-1,-1,-1,-1,-1,-1,-1,-1,-1,-1,-1,-1,-1,-1,-1,-1,-1,-1,-1,-1,-1,-1,-1,-1,-1,-1,-1,-1,-1,-1,-1,-1,-1,-1,-1,-1,-1,-1,-1,-1,-1,-1,-1,-1,-1,-1,-1,-1,-1,-1,-1,-1,-1,-1,-1,-1,-1,-1,-1],"split_conditions":[4.772972E-1,-4.082207E-3,-3.7982482E-1,-8.94417E-1,-6.948368E-1,9.549016E-1,1.3588897E0,9.4688743E-1,4.4902655E-1,2.1878256E-1,1.8568624E0,1.0105419E0,-5.653818E-1,5.392938E-2,4.845676E0,8.6666125E-1,-1.015873E0,-8.2061595E-1,2.5315154E0,9.797218E-2,-1.6218426E0,-9.885385E-1,2.858753E0,-8.7965024E-1,-7.0703506E-1,-2.3772502E0,4.4373527E-1,8.4652025E-1,-9.346119E-1,-1.5693854E-1,-2.2435282E-1,2.2688682E0,1.3202207E-1,-7.723969E-4,-4.242057E-3,1.8847802E-1,2.7115145E0,2.858753E0,1.0127308E0,-1.4619993E0,-7.6370996E-1,1.2026415E-1,-1.8084638E-1,6.4782804E-1,2.0942342E-1,3.971159E-1,9.334294E-1,-7.0703506E-1,-1.2330105E0,-8.54642E-1,3.3989782E0,1.304975E-1,8.439601E-1,1.404375E0,3.3989782E0,7.156893E-1,-4.175944E-1,-1.1843198E-1,-2.0061843E0,-4.029914E-1,-2.4977083E0,-1.6180137E0,2.4408235E-3,-1.545704E-3,2.8407976E-3,1.977967E-3,-1.1334103E-3,9.1811566E-4,1.9945165E-3,5.5953325E-4,1.6807384E-3,1.2307803E-4,1.1641752E-3,1.18383374E-4,-2.8731127E-3,-1.4075155E-3,6.4428133E-4,7.660598E-4,-9.369231E-4,2.663541E-3,6.808E-4,4.092057E-3,7.225159E-4,7.88149E-4,9.7174336E-5,-3.1581617E-4,6.982053E-5,1.2547036E-3,2.2724427E-4,1.4575158E-3,4.387618E-3,1.992975E-3,2.9334702E-4,3.7022252E-4,-5.297457E-4,-1.4877939E-3,-3.8213956E-3,-1.4543189E-3,1.1145804E-3,-7.4690103E-4,-3.0571197E-3,-7.066957E-5,1.0627774E-3,2.4015387E-4,-2.4369236E-3,1.0188634E-3,3.3557336E-3,-3.774507E-4,-1.4337399E-3,1.4916861E-3,-6.58213E-4,-1.5441091E-3,1.2473278E-3,5.720207E-4,-2.3157336E-3,-1.8274885E-3,-3.1712845E-3,9.592319E-4,-1.891579E-3,2.468012E-4,-3.7717327E-4],"split_indices":[68,31,61,66,72,43,43,30,86,22,87,81,54,23,118,23,9,81,20,17,54,60,109,72,32,17,63,26,6,26,23,7,5,0,0,24,52,109,87,20,23,25,93,98,62,16,20,32,61,23,113,22,92,11,113,30,90,93,15,8,9,5,0,0,0,0,0,0,0,0,0,0,0,0,0,0,0,0,0,0,0,0,0,0,0,0,0,0,0,0,0,0,0,0,0,0,0,0,0,0,0,0,0,0,0,0,0,0,0,0,0,0,0,0,0,0,0,0,0,0,0],"split_type":[0,0,0,0,0,0,0,0,0,0,0,0,0,0,0,0,0,0,0,0,0,0,0,0,0,0,0,0,0,0,0,0,0,0,0,0,0,0,0,0,0,0,0,0,0,0,0,0,0,0,0,0,0,0,0,0,0,0,0,0,0,0,0,0,0,0,0,0,0,0,0,0,0,0,0,0,0,0,0,0,0,0,0,0,0,0,0,0,0,0,0,0,0,0,0,0,0,0,0,0,0,0,0,0,0,0,0,0,0,0,0,0,0,0,0,0,0,0,0,0,0],"sum_hessian":[2.3181E4,1.5167E4,8.014E3,5.343E3,9.824E3,7.357E3,6.57E2,1.27E2,5.216E3,6.56E2,9.168E3,5.684E3,1.673E3,4.73E2,1.84E2,1.15E2,1.2E1,3.449E3,1.767E3,3.8E2,2.76E2,8.928E3,2.4E2,5.39E3,2.94E2,8.27E2,8.46E2,2.84E2,1.89E2,1.76E2,8E0,8.5E1,3E1,1E0,1.1E1,8.11E2,2.638E3,1.69E3,7.7E1,2.9E2,9E1,1.26E2,1.5E2,8.04E2,8.124E3,2.14E2,2.6E1,4.01E2,4.989E3,5.6E1,2.38E2,1.5E1,8.12E2,4.44E2,4.02E2,2.37E2,4.7E1,5.3E1,1.36E2,1.12E2,6.4E1,4E0,4E0,8.4E1,1E0,1.5E1,1.5E1,5.81E2,2.3E2,2.47E3,1.68E2,1.528E3,1.62E2,4E1,3.7E1,1.7E1,2.73E2,2.9E1,6.1E1,1.01E2,2.5E1,7E0,1.43E2,5.11E2,2.93E2,5.234E3,2.89E3,1.66E2,4.8E1,1.5E1,1.1E1,6.3E1,3.38E2,5.99E2,4.39E3,1.3E1,4.3E1,2.2E2,1.8E1,3E0,1.2E1,7.17E2,9.5E1,4.33E2,1.1E1,3.77E2,2.5E1,9.3E1,1.44E2,2.2E1,2.5E1,3.7E1,1.6E1,6E0,1.3E2,2.3E1,8.9E1,4E0,6E1,2E0,2E0],"tree_param":{"num_deleted":"0","num_feature":"122","num_nodes":"121","size_leaf_vector":"1"}},{"base_weights":[1.5614669E-4,4.5661856E-3,-8.2681775E-3,1.2555981E-2,2.3315332E-4,-1.780703E-2,-1.4120165E-3,1.6709736E-2,-1.795557E-5,2.7464453E-2,-9.247921E-4,-1.4069738E-2,-4.005279E-2,1.6753161E-2,-4.0381206E-3,9.435254E-3,2.3306172E-2,1.060667E-3,-1.0920637E-1,8.360458E-3,4.276156E-2,-2.5076366E-3,1.771766E-2,-1.2058041E-2,-6.095784E-2,-4.4681616E-2,-5.7633393E-3,6.710164E-3,2.6603194E-2,7.4767054E-4,-1.5510985E-2,1.8516568E-2,-6.9005E-4,2.5312629E-2,-1.0111608E-2,3.4820784E-3,-2.7793014E-2,-7.56949E-4,-4.6061175E-3,2.3597011E-2,-7.836815E-3,-5.0801232E-2,4.5140527E-2,1.5126958E-3,-1.024526E-2,-7.980347E-3,2.2410236E-2,-2.3989955E-2,-6.9068354E-3,-3.675931E-2,-8.257028E-2,-2.3914624E-2,-5.0496906E-2,7.7987527E-3,-4.894411E-2,9.713244E-3,-4.226379E-2,1.5127904E-2,3.7595123E-2,3.0211566E-3,-2.3278834E-2,-3.0299747E-2,-6.711892E-3,1.1557202E-3,4.1840278E-4,2.5688251E-4,-7.6175533E-4,1.3767326E-3,7.6380215E-4,-8.4242906E-4,1.3824962E-3,-2.0838596E-4,4.5927017E-4,-6.380656E-4,-3.0218023E-3,8.190845E-4,4.4147284E-3,-1.653366E-3,1.8607995E-4,1.6820317E-4,-3.1742263E-3,1.9332247E-3,-1.9183382E-4,-6.96471E-5,4.6139013E-4,-1.0905369E-3,-2.8383758E-4,1.2548222E-3,-6.0506526E-4,1.4348531E-3,6.941517E-4,-2.0623198E-3,-6.6767214E-4,-2.6161422E-4,-4.8869685E-3,-2.9698466E-3,-8.127762E-4,-1.589065E-3,-3.8768302E-3,-2.938378E-4,-1.7030287E-3,-1.5264633E-3,-2.4585153E-3,1.116727E-3,-6.609724E-4,-7.298489E-5,-2.2658124E-3,2.0288744E-4,1.6557086E-3,-2.1116226E-3,9.783211E-4,9.857041E-4,2.720323E-5,1.842453E-3,1.4439863E-4,-3.0065852E-4,3.2959814E-4,-2.7167907E-3,-7.618602E-4,-1.5307651E-3,-6.584054E-4,-1.8095033E-3,-1.811561E-4],"categories":[],"categories_nodes":[],"categories_segments":[],"categories_sizes":[],"default_left":[0,0,0,0,0,0,0,0,0,0,0,0,0,0,0,0,0,0,0,0,0,0,0,0,0,0,0,0,0,0,0,0,0,0,0,0,0,0,0,0,0,0,0,0,0,0,0,0,0,0,0,0,0,0,0,0,0,0,0,0,0,0,0,0,0,0,0,0,0,0,0,0,0,0,0,0,0,0,0,0,0,0,0,0,0,0,0,0,0,0,0,0,0,0,0,0,0,0,0,0,0,0,0,0,0,0,0,0,0,0,0,0,0,0,0,0,0,0,0,0,0,0,0],"id":9,"left_children":[1,3,5,7,9,11,13,15,17,19,21,23,25,27,29,31,33,35,37,39,41,43,45,47,49,51,53,55,57,59,61,63,65,67,69,71,73,-1,-1,75,77,79,81,83,85,87,89,91,93,95,97,99,101,103,105,107,109,111,113,115,117,119,121,-1,-1,-1,-1,-1,-1,-1,-1,-1,-1,-1,-1,-1,-1,-1,-1,-1,-1,-1,-1,-1,-1,-1,-1,-1,-1,-1,-1,-1,-1,-1,-1,-1,-1,-1,-1,-1,-1,-1,-1,-1,-1,-1,-1,-1,-1,-1,-1,-1,-1,-1,-1,-1,-1,-1,-1,-1,-1,-1,-1],"loss_changes":[8.6020863E-1,5.2615243E-1,5.202965E-1,2.791124E-1,3.1077677E-1,2.7603948E-1,2.2093555E-1,1.9253838E-1,1.5651847E-1,1.1712131E-1,2.7901405E-1,2.6809013E-1,7.561058E-2,5.769193E-2,2.2216423E-1,1.7582323E-1,1.4146602E-1,9.204127E-2,4.8002303E-3,4.4607237E-2,5.1929206E-2,2.7112013E-1,8.941537E-2,1.6787621E-1,5.8154494E-2,4.9634933E-2,3.4347754E-2,4.320868E-2,3.6641255E-2,1.5607627E-1,1.5477869E-1,8.396432E-2,1.18256055E-1,1.1183739E-1,5.9424844E-2,8.453998E-2,5.6470796E-2,0E0,0E0,2.2916675E-2,3.700638E-2,9.7577395E-3,3.4959555E-2,1.8707395E-1,1.5952158E-1,3.2814004E-2,4.1986346E-2,1.6492465E-1,7.99277E-2,3.3619337E-2,3.3654124E-2,2.8751072E-2,4.2022645E-2,2.2482796E-2,4.9769133E-3,4.0222272E-2,1.3231367E-2,2.005338E-2,4.2992547E-2,1.4359549E-1,4.5373335E-2,4.834023E-2,6.270279E-2,0E0,0E0,0E0,0E0,0E0,0E0,0E0,0E0,0E0,0E0,0E0,0E0,0E0,0E0,0E0,0E0,0E0,0E0,0E0,0E0,0E0,0E0,0E0,0E0,0E0,0E0,0E0,0E0,0E0,0E0,0E0,0E0,0E0,0E0,0E0,0E0,0E0,0E0,0E0,0E0,0E0,0E0,0E0,0E0,0E0,0E0,0E0,0E0,0E0,0E0,0E0,0E0,0E0,0E0,0E0,0E0,0E0,0E0,0E0,0E0],"parents":[2147483647,0,0,1,1,2,2,3,3,4,4,5,5,6,6,7,7,8,8,9,9,10,10,11,11,12,12,13,13,14,14,15,15,16,16,17,17,18,18,19,19,20,20,21,21,22,22,23,23,24,24,25,25,26,26,27,27,28,28,29,29,30,30,31,31,32,32,33,33,34,34,35,35,36,36,39,39,40,40,41,41,42,42,43,43,44,44,45,45,46,46,47,47,48,48,49,49,50,50,51,51,52,52,53,53,54,54,55,55,56,56,57,57,58,58,59,59,60,60,61,61,62,62],"right_children":[2,4,6,8,10,12,14,16,18,20,22,24,26,28,30,32,34,36,38,40,42,44,46,48,50,52,54,56,58,60,62,64,66,68,70,72,74,-1,-1,76,78,80,82,84,86,88,90,92,94,96,98,100,102,104,106,108,110,112,114,116,118,120,122,-1,-1,-1,-1,-1,-1,-1,-1,-1,-1,-1,-1,-1,-1,-1,-1,-1,-1,-1,-1,-1,-1,-1,-1,-1,-1,-1,-1,-1,-1,-1,-1,-1,-1,-1,-1,-1,-1,-1,-1,-1,-1,-1,-1,-1,-1,-1,-1,-1,-1,-1,-1,-1,-1,-1,-1,-1,-1,-1,-1],"split_conditions":[4.772972E-1,-4.082207E-3,9.789526E-1,-3.6179978E-1,-7.1512234E-1,1.2433292E0,-8.7965024E-1,-2.681962E-1,3.65954E0,-3.3454376E-1,1.2473236E0,1.0765802E0,7.445508E-1,1.783282E-1,6.000902E-1,2.8127825E-1,3.7001116E0,2.226509E0,-3.3736306E-1,-3.2856014E-1,-1.7293353E0,6.2486738E-2,-2.240842E-1,-6.4164287E-1,-1.0182968E0,-9.645632E-1,7.625278E-1,6.333506E-1,-1.0046141E-1,9.237179E-1,1.4861197E0,-4.5805242E-2,-1.897408E-1,-3.3394954E-1,5.451333E-1,2.0330937E-3,9.422703E-1,-7.56949E-4,-4.6061175E-3,3.263491E-1,-5.7806057E-1,-3.049804E-1,5.6250745E-1,-2.0254442E-1,-5.145929E-1,-5.9319E-1,-5.3500906E-3,-3.9328384E-1,3.9704728E0,-6.487111E-1,-6.9901305E-1,-2.1449555E-1,8.963641E-2,-4.175944E-1,-6.26731E-1,4.2436495E-2,2.8618033E0,-6.8484426E-1,-8.962039E-2,-2.4350712E-1,-1.3005596E0,6.4782804E-1,-1.0369046E0,1.1557202E-3,4.1840278E-4,2.5688251E-4,-7.6175533E-4,1.3767326E-3,7.6380215E-4,-8.4242906E-4,1.3824962E-3,-2.0838596E-4,4.5927017E-4,-6.380656E-4,-3.0218023E-3,8.190845E-4,4.4147284E-3,-1.653366E-3,1.8607995E-4,1.6820317E-4,-3.1742263E-3,1.9332247E-3,-1.9183382E-4,-6.96471E-5,4.6139013E-4,-1.0905369E-3,-2.8383758E-4,1.2548222E-3,-6.0506526E-4,1.4348531E-3,6.941517E-4,-2.0623198E-3,-6.6767214E-4,-2.6161422E-4,-4.8869685E-3,-2.9698466E-3,-8.127762E-4,-1.589065E-3,-3.8768302E-3,-2.938378E-4,-1.7030287E-3,-1.5264633E-3,-2.4585153E-3,1.116727E-3,-6.609724E-4,-7.298489E-5,-2.2658124E-3,2.0288744E-4,1.6557086E-3,-2.1116226E-3,9.783211E-4,9.857041E-4,2.720323E-5,1.842453E-3,1.4439863E-4,-3.0065852E-4,3.2959814E-4,-2.7167907E-3,-7.618602E-4,-1.5307651E-3,-6.584054E-4,-1.8095033E-3,-1.811561E-4],"split_indices":[68,31,68,63,72,43,72,24,72,23,87,53,26,60,30,87,111,24,17,18,99,60,83,67,30,23,25,21,22,78,68,53,68,84,22,64,85,0,0,24,94,12,25,57,80,16,32,66,18,24,22,94,48,90,0,27,38,6,7,79,16,98,24,0,0,0,0,0,0,0,0,0,0,0,0,0,0,0,0,0,0,0,0,0,0,0,0,0,0,0,0,0,0,0,0,0,0,0,0,0,0,0,0,0,0,0,0,0,0,0,0,0,0,0,0,0,0,0,0,0,0,0,0],"split_type":[0,0,0,0,0,0,0,0,0,0,0,0,0,0,0,0,0,0,0,0,0,0,0,0,0,0,0,0,0,0,0,0,0,0,0,0,0,0,0,0,0,0,0,0,0,0,0,0,0,0,0,0,0,0,0,0,0,0,0,0,0,0,0,0,0,0,0,0,0,0,0,0,0,0,0,0,0,0,0,0,0,0,0,0,0,0,0,0,0,0,0,0,0,0,0,0,0,0,0,0,0,0,0,0,0,0,0,0,0,0,0,0,0,0,0,0,0,0,0,0,0,0,0],"sum_hessian":[2.3152E4,1.5197E4,7.955E3,5.343E3,9.854E3,3.326E3,4.629E3,4.016E3,1.327E3,4.01E2,9.453E3,2.849E3,4.77E2,5.84E2,4.045E3,1.911E3,2.105E3,1.315E3,1.2E1,1.79E2,2.22E2,8.714E3,7.39E2,2.733E3,1.16E2,4.2E2,5.7E1,2.9E2,2.94E2,2.855E3,1.19E3,1.007E3,9.04E2,1.986E3,1.19E2,1.214E3,1.01E2,1E0,1.1E1,9.2E1,8.7E1,5E0,2.17E2,5.735E3,2.979E3,1.14E2,6.25E2,8.23E2,1.91E3,5.6E1,6E1,9.3E1,3.27E2,4.4E1,1.3E1,2.74E2,1.6E1,1.45E2,1.49E2,2.609E3,2.46E2,4.43E2,7.47E2,4.39E2,5.68E2,6.52E2,2.52E2,8.04E2,1.182E3,9.6E1,2.3E1,5.82E2,6.32E2,8.2E1,1.9E1,9E1,2E0,2.3E1,6.4E1,2E0,3E0,2.04E2,1.3E1,4.33E3,1.405E3,4.64E2,2.515E3,1.7E1,9.7E1,1.69E2,4.56E2,1.71E2,6.52E2,1.905E3,5E0,1.6E1,4E1,1.6E1,4.4E1,5E1,4.3E1,1.56E2,1.71E2,2.4E1,2E1,2E0,1.1E1,2.4E2,3.4E1,1.4E1,2E0,8.7E1,5.8E1,1.19E2,3E1,8.64E2,1.745E3,2E1,2.26E2,2.8E2,1.63E2,3.9E1,7.08E2],"tree_param":{"num_deleted":"0","num_feature":"122","num_nodes":"123","size_leaf_vector":"1"}},{"base_weights":[-7.56333E-5,3.955389E-3,-7.3388987E-3,-1.2050341E-3,1.1361106E-2,-4.9173576E-3,-3.321665E-2,1.0169122E-2,-4.8356685E-3,-1.653507E-2,1.2787132E-2,-8.761112E-3,7.989833E-3,-2.5956506E-2,-5.5223435E-2,-1.5222687E-2,1.5308003E-2,-3.3511815E-3,-2.304362E-2,-2.9053932E-2,3.6685646E-2,-4.943643E-3,1.4986403E-2,-6.5471926E-3,-3.4425493E-2,4.4834116E-3,2.360526E-2,-1.8037075E-2,-4.981814E-2,-5.823068E-2,3.868454E-2,-2.5491914E-2,6.3322713E-3,1.8800462E-2,-1.9126695E-3,1.619989E-2,-4.518738E-3,-1.5800623E-2,-6.3244015E-2,2.9220967E-2,-3.196804E-2,2.1140622E-2,7.880233E-2,1.6516857E-2,-1.2849236E-2,3.7273057E-2,1.31521225E-2,3.431583E-2,-7.4677216E-3,-5.8722638E-2,-2.0424316E-2,9.778593E-4,1.6179925E-2,1.7302036E-2,5.9447136E-2,-3.8821627E-3,-2.9548395E-2,-2.9897876E-2,-8.295046E-2,-6.849534E-2,-3.893431E-2,3.8485788E-4,2.032429E-3,-4.9965404E-4,-1.7657729E-3,3.87852E-4,-2.2783054E-3,6.364047E-4,1.5686576E-3,-1.9657194E-4,2.3731417E-3,-1.7496006E-4,1.0584496E-3,-2.8102705E-4,2.2330305E-4,6.185411E-4,-8.274075E-4,3.2889028E-3,-2.7314662E-3,-1.049941E-3,2.903673E-3,-4.889102E-4,-1.5483703E-3,1.4001292E-3,-2.8279165E-4,3.9418056E-3,7.843075E-4,4.3937843E-4,2.6655435E-3,-7.8643316E-5,-1.2062085E-3,1.8226424E-3,4.0482605E-4,1.8157589E-3,4.7658343E-4,2.5223247E-3,8.3713053E-4,3.442351E-4,-3.8005091E-4,-1.5921531E-3,-2.9136501E-3,-3.5094677E-3,-6.596361E-4,7.3684537E-4,-1.0263133E-4,1.7806389E-3,1.6636624E-4,1.99732E-3,4.1635567E-4,2.907351E-3,-2.6510947E-3,-5.002749E-4,5.8495224E-4,-1.6009224E-3,-1.7369544E-4,-8.7378416E-5,-1.8101506E-3,-1.2410805E-3,-3.6346249E-3,-2.8735478E-3,-6.9222547E-4,-7.928051E-4,-2.1820716E-3],"categories":[],"categories_nodes":[],"categories_segments":[],"categories_sizes":[],"default_left":[0,0,0,0,0,0,0,0,0,0,0,0,0,0,0,0,0,0,0,0,0,0,0,0,0,0,0,0,0,0,0,0,0,0,0,0,0,0,0,0,0,0,0,0,0,0,0,0,0,0,0,0,0,0,0,0,0,0,0,0,0,0,0,0,0,0,0,0,0,0,0,0,0,0,0,0,0,0,0,0,0,0,0,0,0,0,0,0,0,0,0,0,0,0,0,0,0,0,0,0,0,0,0,0,0,0,0,0,0,0,0,0,0,0,0,0,0,0,0,0,0,0,0],"id":10,"left_children":[1,3,5,7,9,11,13,15,17,19,21,23,25,27,29,31,33,35,37,39,41,43,45,47,49,51,53,55,57,59,61,63,65,67,69,71,73,75,77,79,81,83,85,87,89,91,93,95,97,99,101,103,105,107,109,111,113,115,117,119,121,-1,-1,-1,-1,-1,-1,-1,-1,-1,-1,-1,-1,-1,-1,-1,-1,-1,-1,-1,-1,-1,-1,-1,-1,-1,-1,-1,-1,-1,-1,-1,-1,-1,-1,-1,-1,-1,-1,-1,-1,-1,-1,-1,-1,-1,-1,-1,-1,-1,-1,-1,-1,-1,-1,-1,-1,-1,-1,-1,-1,-1,-1],"loss_changes":[6.7603755E-1,5.674925E-1,5.16251E-1,3.6146653E-1,2.4279404E-1,3.739961E-1,1.11206174E-1,2.7660125E-1,1.792633E-1,1.9894591E-1,2.2632182E-1,3.2977864E-1,9.461906E-2,9.963375E-2,5.1391006E-2,7.918434E-2,1.0600704E-1,1.4013956E-1,1.4458635E-1,4.1860595E-2,3.565225E-2,1.0896299E-1,2.1053231E-1,2.0142454E-1,1.5562755E-1,5.7962045E-2,7.058789E-2,6.5224916E-2,8.464056E-2,3.0807078E-2,1.6256738E-3,5.8131605E-2,2.5249729E-2,8.582455E-2,5.5070937E-2,7.316184E-2,1.466869E-1,6.522238E-2,6.136346E-2,3.0774545E-2,3.0141547E-2,1.7063472E-2,1.55977905E-2,4.723975E-2,8.827387E-2,8.780742E-2,1.8982428E-1,4.4085428E-2,1.7106473E-1,4.1974723E-2,7.639476E-2,6.736133E-2,1.1085731E-1,6.0436264E-2,8.303326E-2,2.9072057E-2,5.817564E-2,3.564854E-2,1.7318845E-2,1.741159E-2,1.7128214E-2,0E0,0E0,0E0,0E0,0E0,0E0,0E0,0E0,0E0,0E0,0E0,0E0,0E0,0E0,0E0,0E0,0E0,0E0,0E0,0E0,0E0,0E0,0E0,0E0,0E0,0E0,0E0,0E0,0E0,0E0,0E0,0E0,0E0,0E0,0E0,0E0,0E0,0E0,0E0,0E0,0E0,0E0,0E0,0E0,0E0,0E0,0E0,0E0,0E0,0E0,0E0,0E0,0E0,0E0,0E0,0E0,0E0,0E0,0E0,0E0,0E0,0E0],"parents":[2147483647,0,0,1,1,2,2,3,3,4,4,5,5,6,6,7,7,8,8,9,9,10,10,11,11,12,12,13,13,14,14,15,15,16,16,17,17,18,18,19,19,20,20,21,21,22,22,23,23,24,24,25,25,26,26,27,27,28,28,29,29,30,30,31,31,32,32,33,33,34,34,35,35,36,36,37,37,38,38,39,39,40,40,41,41,42,42,43,43,44,44,45,45,46,46,47,47,48,48,49,49,50,50,51,51,52,52,53,53,54,54,55,55,56,56,57,57,58,58,59,59,60,60],"right_children":[2,4,6,8,10,12,14,16,18,20,22,24,26,28,30,32,34,36,38,40,42,44,46,48,50,52,54,56,58,60,62,64,66,68,70,72,74,76,78,80,82,84,86,88,90,92,94,96,98,100,102,104,106,108,110,112,114,116,118,120,122,-1,-1,-1,-1,-1,-1,-1,-1,-1,-1,-1,-1,-1,-1,-1,-1,-1,-1,-1,-1,-1,-1,-1,-1,-1,-1,-1,-1,-1,-1,-1,-1,-1,-1,-1,-1,-1,-1,-1,-1,-1,-1,-1,-1,-1,-1,-1,-1,-1,-1,-1,-1,-1,-1,-1,-1,-1,-1,-1,-1,-1,-1],"split_conditions":[4.5248896E-1,-1.3808374E-1,-3.7982482E-1,-6.714996E-1,-1.7349252E0,9.549016E-1,1.3588897E0,1.0032725E-1,1.4722911E0,3.494553E-1,-1.5126522E0,7.230556E-1,8.478712E-1,7.309211E-1,4.845676E0,-3.1067124E-1,1.3279966E0,-8.224657E-1,1.5248828E0,-1.1840189E0,1.9120945E-1,-1.259578E0,-1.0800403E0,-1.3498255E0,-1.7431784E-2,-6.4525557E-1,1.3654307E0,7.156893E-1,-2.0778646E-1,-1.948702E-1,-5.979791E-1,-9.674456E-2,2.4806652E0,1.3339276E0,2.8188634E0,-2.5741386E-1,1.4225905E0,-8.8673764E-1,-2.054372E0,-6.838359E-1,-6.823962E-1,-1.1387925E-1,5.726625E-1,3.3989782E0,-2.5095997E-4,8.830727E-1,-1.0606768E0,-1.1642936E0,-1.2330105E0,-3.400258E-1,-1.3163449E0,-8.9607584E-1,-5.151649E-1,-8.716232E-1,3.3351839E0,4.1219726E-1,5.638484E-1,-4.3284205E-1,8.91148E-1,4.153615E0,-2.1449555E-1,3.8485788E-4,2.032429E-3,-4.9965404E-4,-1.7657729E-3,3.87852E-4,-2.2783054E-3,6.364047E-4,1.5686576E-3,-1.9657194E-4,2.3731417E-3,-1.7496006E-4,1.0584496E-3,-2.8102705E-4,2.2330305E-4,6.185411E-4,-8.274075E-4,3.2889028E-3,-2.7314662E-3,-1.049941E-3,2.903673E-3,-4.889102E-4,-1.5483703E-3,1.4001292E-3,-2.8279165E-4,3.9418056E-3,7.843075E-4,4.3937843E-4,2.6655435E-3,-7.8643316E-5,-1.2062085E-3,1.8226424E-3,4.0482605E-4,1.8157589E-3,4.7658343E-4,2.5223247E-3,8.3713053E-4,3.442351E-4,-3.8005091E-4,-1.5921531E-3,-2.9136501E-3,-3.5094677E-3,-6.596361E-4,7.3684537E-4,-1.0263133E-4,1.7806389E-3,1.6636624E-4,1.99732E-3,4.1635567E-4,2.907351E-3,-2.6510947E-3,-5.002749E-4,5.8495224E-4,-1.6009224E-3,-1.7369544E-4,-8.7378416E-5,-1.8101506E-3,-1.2410805E-3,-3.6346249E-3,-2.8735478E-3,-6.9222547E-4,-7.928051E-4,-2.1820716E-3],"split_indices":[68,57,61,30,85,43,43,51,23,44,75,53,96,23,118,57,43,21,30,17,9,51,68,73,66,73,6,30,105,26,0,24,21,94,2,62,61,16,43,24,96,93,9,113,83,13,73,26,61,21,21,72,94,72,18,99,26,87,23,115,94,0,0,0,0,0,0,0,0,0,0,0,0,0,0,0,0,0,0,0,0,0,0,0,0,0,0,0,0,0,0,0,0,0,0,0,0,0,0,0,0,0,0,0,0,0,0,0,0,0,0,0,0,0,0,0,0,0,0,0,0,0,0],"split_type":[0,0,0,0,0,0,0,0,0,0,0,0,0,0,0,0,0,0,0,0,0,0,0,0,0,0,0,0,0,0,0,0,0,0,0,0,0,0,0,0,0,0,0,0,0,0,0,0,0,0,0,0,0,0,0,0,0,0,0,0,0,0,0,0,0,0,0,0,0,0,0,0,0,0,0,0,0,0,0,0,0,0,0,0,0,0,0,0,0,0,0,0,0,0,0,0,0,0,0,0,0,0,0,0,0,0,0,0,0,0,0,0,0,0,0,0,0,0,0,0,0,0,0],"sum_hessian":[2.3088E4,1.4848E4,8.24E3,8.751E3,6.097E3,7.536E3,7.04E2,2.117E3,6.634E3,2.96E2,5.801E3,5.807E3,1.729E3,5.31E2,1.73E2,3.56E2,1.761E3,6.135E3,4.99E2,2.4E2,5.6E1,6.4E2,5.161E3,5.347E3,4.6E2,1.413E3,3.16E2,4E2,1.31E2,1.68E2,5E0,2.41E2,1.15E2,1.464E3,2.97E2,3.45E2,5.79E3,4.24E2,7.5E1,1.1E1,2.29E2,4.2E1,1.4E1,1.72E2,4.68E2,3.91E2,4.77E3,1.17E2,5.23E3,1.67E2,2.93E2,1.088E3,3.25E2,2.7E2,4.6E1,1.8E2,2.2E2,8.3E1,4.8E1,1.08E2,6E1,2E0,3E0,1.43E2,9.8E1,1.1E2,5E0,1.284E3,1.8E2,2.84E2,1.3E1,1.15E2,2.3E2,4.639E3,1.151E3,5.7E1,3.67E2,2E0,7.3E1,5E0,6E0,5.9E1,1.7E2,2.8E1,1.4E1,1E1,4E0,1.56E2,1.6E1,2.88E2,1.8E2,2.99E2,9.2E1,1.75E2,4.595E3,3.6E1,8.1E1,5.87E2,4.643E3,7.3E1,9.4E1,1.5E1,2.78E2,1.83E2,9.05E2,9.6E1,2.29E2,4.6E1,2.24E2,4.2E1,4E0,1.23E2,5.7E1,1.55E2,6.5E1,3E1,5.3E1,7E0,4.1E1,1.01E2,7E0,2.8E1,3.2E1],"tree_param":{"num_deleted":"0","num_feature":"122","num_nodes":"123","size_leaf_vector":"1"}},{"base_weights":[-2.6775982E-5,4.020835E-3,-7.306087E-3,1.2284464E-2,-4.21315E-4,1.7986532E-2,-9.634614E-3,1.405861E-2,-1.1513363E-2,2.1534665E-2,-1.9590885E-3,7.460491E-3,2.8582277E-2,-2.0303253E-2,-4.4610617E-3,1.1914921E-2,3.0319478E-2,1.3701976E-3,-2.641095E-2,4.6111863E-2,1.6428038E-2,-2.9180332E-5,-1.3687085E-2,1.0737281E-2,-2.784985E-2,3.0470828E-2,-4.5519132E-2,-4.5273274E-2,-1.595356E-2,-3.0048667E-3,-2.4204966E-2,-1.7134983E-2,1.3140769E-2,3.8118247E-2,7.256516E-3,-5.6278934E-3,3.4467917E-2,1.3097585E-2,-3.0111715E-2,5.1641434E-2,-2.045138E-2,1.8490076E-2,-5.019725E-2,9.120012E-3,-4.4347304E-3,-7.064421E-3,-4.450259E-2,6.406066E-3,4.1891042E-2,2.4438571E-2,-3.683417E-2,2.6724463E-2,8.87018E-2,9.902694E-4,-5.7398207E-2,-4.9644917E-2,-9.515783E-3,-1.0869622E-2,-4.678005E-2,-2.4143195E-2,-1.3692805E-3,-2.0866035E-2,-8.109871E-2,-4.9037125E-4,-3.8153192E-3,4.3341945E-4,1.2332301E-3,-2.3090048E-4,1.6414659E-3,-4.125271E-4,9.698177E-4,-1.035821E-4,-1.8729761E-3,1.6371029E-3,1.4821217E-4,-9.57368E-5,1.2457402E-3,-1.657512E-3,-6.436099E-4,8.9223555E-4,2.4874401E-3,5.975593E-4,-2.0700586E-3,3.6905575E-4,1.531028E-3,2.765282E-3,-2.8872918E-3,3.1198882E-3,3.3364803E-4,-2.6326338E-6,-4.7851948E-4,3.5279384E-4,-5.772712E-4,1.2061103E-3,-1.8957525E-3,-1.6727155E-3,3.2570737E-4,-3.5163428E-4,2.2955455E-3,1.8588194E-3,-2.2958136E-4,-1.941207E-3,-3.7397872E-4,1.4876772E-3,5.2985776E-4,4.177678E-3,8.237168E-4,-1.2439037E-3,-3.036977E-3,-1.698634E-3,-2.643265E-3,-3.2082254E-3,1.9576264E-4,1.1019525E-5,-5.825171E-4,-2.6268566E-3,-1.3654329E-3,-3.9842766E-4,-1.9892012E-3,-1.1995458E-4,6.8983634E-4,-1.7292613E-4,-1.1543379E-3,-4.7388608E-3,-2.1894614E-3],"categories":[],"categories_nodes":[],"categories_segments":[],"categories_sizes":[],"default_left":[0,0,0,0,0,0,0,0,0,0,0,0,0,0,0,0,0,0,0,0,0,0,0,0,0,0,0,0,0,0,0,0,0,0,0,0,0,0,0,0,0,0,0,0,0,0,0,0,0,0,0,0,0,0,0,0,0,0,0,0,0,0,0,0,0,0,0,0,0,0,0,0,0,0,0,0,0,0,0,0,0,0,0,0,0,0,0,0,0,0,0,0,0,0,0,0,0,0,0,0,0,0,0,0,0,0,0,0,0,0,0,0,0,0,0,0,0,0,0,0,0,0,0,0,0],"id":11,"left_children":[1,3,5,7,9,11,13,15,17,19,21,23,25,27,29,31,33,35,37,39,41,43,45,47,49,51,53,55,57,59,61,63,65,67,69,71,73,75,77,79,81,83,85,87,89,91,93,95,97,99,101,103,105,-1,107,109,111,113,115,117,119,121,123,-1,-1,-1,-1,-1,-1,-1,-1,-1,-1,-1,-1,-1,-1,-1,-1,-1,-1,-1,-1,-1,-1,-1,-1,-1,-1,-1,-1,-1,-1,-1,-1,-1,-1,-1,-1,-1,-1,-1,-1,-1,-1,-1,-1,-1,-1,-1,-1,-1,-1,-1,-1,-1,-1,-1,-1,-1,-1,-1,-1,-1,-1],"loss_changes":[6.794061E-1,5.4398525E-1,4.8546433E-1,2.189079E-1,3.254869E-1,7.730098E-2,4.1640908E-1,1.6772527E-1,6.913242E-2,7.843709E-2,2.0390892E-1,4.079564E-2,4.9807727E-2,2.668978E-1,1.4606848E-1,1.5199828E-1,1.0062641E-1,4.5128424E-2,2.4811767E-2,4.0807292E-2,7.291725E-2,3.1189746E-1,2.5948042E-1,4.3045342E-2,1.4993448E-2,7.1365654E-2,8.934304E-3,5.6584E-2,3.286034E-1,1.6367272E-1,6.460534E-2,6.483257E-2,1.6645783E-1,5.3906977E-2,4.2934146E-2,2.003096E-2,6.604694E-3,4.267782E-3,2.3630932E-2,2.9545993E-2,1.07426075E-2,9.2940286E-2,4.696548E-2,1.3425983E-1,1.7178535E-1,1.2288663E-1,4.999429E-2,2.40408E-2,3.1136952E-2,3.5911263E-3,7.904261E-3,4.4512093E-2,1.929015E-2,0E0,1.5369412E-3,3.554386E-2,4.215637E-2,7.4260816E-2,6.8701625E-2,1.22885674E-1,1.3340443E-1,4.3639258E-2,1.2234613E-2,0E0,0E0,0E0,0E0,0E0,0E0,0E0,0E0,0E0,0E0,0E0,0E0,0E0,0E0,0E0,0E0,0E0,0E0,0E0,0E0,0E0,0E0,0E0,0E0,0E0,0E0,0E0,0E0,0E0,0E0,0E0,0E0,0E0,0E0,0E0,0E0,0E0,0E0,0E0,0E0,0E0,0E0,0E0,0E0,0E0,0E0,0E0,0E0,0E0,0E0,0E0,0E0,0E0,0E0,0E0,0E0,0E0,0E0,0E0,0E0,0E0,0E0],"parents":[2147483647,0,0,1,1,2,2,3,3,4,4,5,5,6,6,7,7,8,8,9,9,10,10,11,11,12,12,13,13,14,14,15,15,16,16,17,17,18,18,19,19,20,20,21,21,22,22,23,23,24,24,25,25,26,26,27,27,28,28,29,29,30,30,31,31,32,32,33,33,34,34,35,35,36,36,37,37,38,38,39,39,40,40,41,41,42,42,43,43,44,44,45,45,46,46,47,47,48,48,49,49,50,50,51,51,52,52,54,54,55,55,56,56,57,57,58,58,59,59,60,60,61,61,62,62],"right_children":[2,4,6,8,10,12,14,16,18,20,22,24,26,28,30,32,34,36,38,40,42,44,46,48,50,52,54,56,58,60,62,64,66,68,70,72,74,76,78,80,82,84,86,88,90,92,94,96,98,100,102,104,106,-1,108,110,112,114,116,118,120,122,124,-1,-1,-1,-1,-1,-1,-1,-1,-1,-1,-1,-1,-1,-1,-1,-1,-1,-1,-1,-1,-1,-1,-1,-1,-1,-1,-1,-1,-1,-1,-1,-1,-1,-1,-1,-1,-1,-1,-1,-1,-1,-1,-1,-1,-1,-1,-1,-1,-1,-1,-1,-1,-1,-1,-1,-1,-1,-1,-1,-1,-1,-1],"split_conditions":[4.5248896E-1,-4.082207E-3,-8.716232E-1,3.7001116E0,-1.7006236E0,2.8431433E-1,1.17131084E-1,1.9255558E0,-8.008126E-2,-1.3015549E0,1.2379895E0,6.764299E-1,4.0193815E0,-1.3650941E0,-3.7982482E-1,-8.0625427E-1,4.741461E-1,2.2873409E-1,-9.334892E-1,4.153615E0,1.4610558E0,-7.0031315E-1,6.9407636E-1,4.3124285E-1,-2.198298E0,1.6968195E0,-7.057258E-1,4.677122E-2,1.5248828E0,-1.3310149E0,1.0149395E0,9.4688743E-1,2.858753E0,-1.6796489E-1,-2.594694E-1,1.5954263E0,-2.943402E-2,3.8572997E-1,1.3550855E-1,-7.456153E-1,-1.9009194E-1,-3.360623E-1,-4.8228973E-1,-1.8513331E0,9.5181115E-2,-1.3375792E-1,-4.337748E-1,-2.4817626E0,-1.389057E0,1.2788571E0,6.932897E-1,-2.4331433E-1,2.139049E0,9.902694E-4,-1.2880312E-1,4.2754036E-1,-1.391342E-1,-9.3504235E-2,-6.355787E-1,4.4039838E-2,3.3989782E0,4.8449114E-1,8.0393213E-1,-4.9037125E-4,-3.8153192E-3,4.3341945E-4,1.2332301E-3,-2.3090048E-4,1.6414659E-3,-4.125271E-4,9.698177E-4,-1.035821E-4,-1.8729761E-3,1.6371029E-3,1.4821217E-4,-9.57368E-5,1.2457402E-3,-1.657512E-3,-6.436099E-4,8.9223555E-4,2.4874401E-3,5.975593E-4,-2.0700586E-3,3.6905575E-4,1.531028E-3,2.765282E-3,-2.8872918E-3,3.1198882E-3,3.3364803E-4,-2.6326338E-6,-4.7851948E-4,3.5279384E-4,-5.772712E-4,1.2061103E-3,-1.8957525E-3,-1.6727155E-3,3.2570737E-4,-3.5163428E-4,2.2955455E-3,1.8588194E-3,-2.2958136E-4,-1.941207E-3,-3.7397872E-4,1.4876772E-3,5.2985776E-4,4.177678E-3,8.237168E-4,-1.2439037E-3,-3.036977E-3,-1.698634E-3,-2.643265E-3,-3.2082254E-3,1.9576264E-4,1.1019525E-5,-5.825171E-4,-2.6268566E-3,-1.3654329E-3,-3.9842766E-4,-1.9892012E-3,-1.1995458E-4,6.8983634E-4,-1.7292613E-4,-1.1543379E-3,-4.7388608E-3,-2.1894614E-3],"split_indices":[68,31,72,111,55,60,66,51,6,18,72,11,23,30,61,66,85,22,84,115,24,63,23,24,98,22,24,8,30,64,19,30,109,93,2,49,11,75,78,27,8,27,8,26,72,46,46,14,18,5,98,26,23,0,8,22,93,30,43,23,113,30,5,0,0,0,0,0,0,0,0,0,0,0,0,0,0,0,0,0,0,0,0,0,0,0,0,0,0,0,0,0,0,0,0,0,0,0,0,0,0,0,0,0,0,0,0,0,0,0,0,0,0,0,0,0,0,0,0,0,0,0,0,0,0],"split_type":[0,0,0,0,0,0,0,0,0,0,0,0,0,0,0,0,0,0,0,0,0,0,0,0,0,0,0,0,0,0,0,0,0,0,0,0,0,0,0,0,0,0,0,0,0,0,0,0,0,0,0,0,0,0,0,0,0,0,0,0,0,0,0,0,0,0,0,0,0,0,0,0,0,0,0,0,0,0,0,0,0,0,0,0,0,0,0,0,0,0,0,0,0,0,0,0,0,0,0,0,0,0,0,0,0,0,0,0,0,0,0,0,0,0,0,0,0,0,0,0,0,0,0,0,0],"sum_hessian":[2.3057E4,1.4818E4,8.239E3,5.18E3,9.638E3,6.94E2,7.545E3,4.821E3,3.59E2,6.3E2,9.008E3,3.49E2,3.45E2,2.463E3,5.082E3,4.261E3,5.6E2,1.93E2,1.66E2,1.07E2,5.23E2,7.736E3,1.272E3,3.2E2,2.9E1,3.37E2,8E0,3.64E2,2.099E3,4.734E3,3.48E2,1.72E2,4.089E3,4.18E2,1.42E2,1.6E2,3.3E1,1.4E1,1.52E2,9.9E1,8E0,5.08E2,1.5E1,2.514E3,5.222E3,1.048E3,2.24E2,2.82E2,3.8E1,4E0,2.5E1,3.18E2,1.9E1,1E0,7E0,3.24E2,4E1,1.803E3,2.96E2,3.39E2,4.395E3,3.3E2,1.8E1,1.63E2,9E0,3.619E3,4.7E2,2.6E1,3.92E2,7E1,7.2E1,1.5E2,1E1,2.7E1,6E0,8E0,6E0,8.3E1,6.9E1,2.7E1,7.2E1,4E0,4E0,3.47E2,1.61E2,2E0,1.3E1,2.7E1,2.487E3,3.305E3,1.917E3,3.32E2,7.16E2,8E0,2.16E2,9E0,2.73E2,9E0,2.9E1,2E0,2E0,1.7E1,8E0,1.78E2,1.4E2,1.5E1,4E0,4E0,3E0,2.28E2,9.6E1,6E0,3.4E1,4.49E2,1.354E3,1.17E2,1.79E2,2.19E2,1.2E2,4.042E3,3.53E2,1.08E2,2.22E2,6E0,1.2E1],"tree_param":{"num_deleted":"0","num_feature":"122","num_nodes":"125","size_leaf_vector":"1"}},{"base_weights":[7.826378E-5,3.8310923E-3,-6.809268E-3,1.1098567E-2,-5.2461557E-5,-1.4990324E-2,-5.9772737E-4,9.08646E-3,3.1997673E-2,1.998883E-3,-1.3450856E-2,-1.504264E-3,-2.1202883E-2,-1.9898647E-2,1.2869847E-3,-3.2590649E-3,1.1987623E-2,3.533065E-2,-3.5813324E-2,5.5166283E-3,-5.898997E-3,-8.327694E-3,-4.612192E-2,-4.90153E-3,3.7241288E-2,-1.7244715E-2,-4.0717945E-2,-3.3269014E-2,-2.1595145E-3,3.6806946E-3,-1.33545585E-2,-2.234987E-3,-9.5100164E-2,-8.3937927E-4,1.4760748E-2,2.2329066E-2,5.0549787E-2,-5.406687E-2,3.7062097E-2,1.9684858E-3,1.3554571E-2,-1.1876093E-2,7.006822E-3,8.8522695E-3,-1.4728597E-2,9.153589E-3,-5.170668E-2,1.5113107E-3,-2.8539311E-2,6.22918E-2,9.636391E-3,-1.5389233E-2,-5.113771E-2,-2.750995E-2,-5.7221863E-2,2.4606615E-2,-3.6479346E-2,3.2503382E-4,-6.325485E-2,6.1496315E-3,-7.599109E-3,-3.3127E-2,-4.7195437E-3,-2.6752896E-4,6.196758E-4,-4.076666E-3,-6.7503523E-4,2.4441603E-4,-1.351437E-3,4.5788186E-4,1.1909477E-3,1.1033982E-3,-4.947096E-4,2.2236742E-3,2.7995053E-4,-3.036146E-3,7.1557995E-4,3.942098E-4,1.656E-3,4.9192674E-4,-5.7130477E-5,1.500272E-3,4.1802443E-4,1.1635446E-3,-5.228258E-4,1.9248623E-4,3.095792E-3,-2.9516185E-4,1.8912829E-3,-7.011945E-4,1.6133733E-3,1.5088288E-3,-2.3571106E-4,-3.998432E-3,-1.884751E-3,1.7039574E-4,-9.855081E-4,-2.0937386E-3,-4.7359904E-4,3.3988638E-3,1.0970199E-3,-1.0232287E-3,1.7161339E-3,-4.3446536E-4,-1.2644966E-3,-2.2053174E-3,4.840295E-4,-1.2848624E-4,-1.5301786E-3,-2.714848E-3,-1.0256977E-3,-2.238887E-3,1.7738274E-3,-9.80407E-4,-2.1481363E-3,-2.2743702E-4,1.445494E-3,-4.7747072E-4,-3.9503686E-3,3.054039E-4,-6.5172825E-4,-4.508039E-4,1.2444715E-3,-1.5578308E-3,1.56258E-3,-2.3452054E-4,3.617851E-3],"categories":[],"categories_nodes":[],"categories_segments":[],"categories_sizes":[],"default_left":[0,0,0,0,0,0,0,0,0,0,0,0,0,0,0,0,0,0,0,0,0,0,0,0,0,0,0,0,0,0,0,0,0,0,0,0,0,0,0,0,0,0,0,0,0,0,0,0,0,0,0,0,0,0,0,0,0,0,0,0,0,0,0,0,0,0,0,0,0,0,0,0,0,0,0,0,0,0,0,0,0,0,0,0,0,0,0,0,0,0,0,0,0,0,0,0,0,0,0,0,0,0,0,0,0,0,0,0,0,0,0,0,0,0,0,0,0,0,0,0,0,0,0,0,0,0,0],"id":12,"left_children":[1,3,5,7,9,11,13,15,17,19,21,23,25,27,29,31,33,35,37,39,41,43,45,47,49,51,53,55,57,59,61,63,65,67,69,71,73,75,77,79,81,83,85,87,89,91,93,95,97,99,101,103,105,107,109,111,113,115,117,119,121,123,125,-1,-1,-1,-1,-1,-1,-1,-1,-1,-1,-1,-1,-1,-1,-1,-1,-1,-1,-1,-1,-1,-1,-1,-1,-1,-1,-1,-1,-1,-1,-1,-1,-1,-1,-1,-1,-1,-1,-1,-1,-1,-1,-1,-1,-1,-1,-1,-1,-1,-1,-1,-1,-1,-1,-1,-1,-1,-1,-1,-1,-1,-1,-1,-1],"loss_changes":[5.997709E-1,4.239195E-1,4.1587713E-1,2.196793E-1,2.6910233E-1,2.9588956E-1,1.692863E-1,1.709907E-1,1.05005085E-1,2.3593569E-1,2.172088E-1,1.4694883E-1,1.8607342E-1,9.812014E-2,1.48651E-1,8.528112E-2,1.3749385E-1,8.553958E-2,3.126899E-2,1.6752695E-1,2.0195684E-1,1.2384358E-1,5.4804623E-2,1.5556969E-1,6.163624E-2,1.2574351E-1,8.714521E-2,4.47464E-2,2.7191741E-2,1.0155679E-1,1.01601906E-1,7.115141E-2,3.6122128E-3,1.5773866E-1,1.577596E-1,4.3743424E-2,4.3747902E-2,2.9641196E-2,1.8209592E-4,1.4306861E-1,1.3335788E-1,8.7923914E-2,1.2768993E-1,1.9122137E-1,1.2718871E-1,7.529416E-3,3.071165E-2,5.8178127E-2,8.6435735E-2,3.4835353E-2,5.264641E-2,1.3987666E-1,2.6942879E-2,5.9400633E-2,5.8793485E-2,2.3159277E-2,4.4863045E-2,3.744656E-2,1.1575246E-2,9.98386E-2,9.343089E-2,7.755333E-2,4.5799095E-2,0E0,0E0,0E0,0E0,0E0,0E0,0E0,0E0,0E0,0E0,0E0,0E0,0E0,0E0,0E0,0E0,0E0,0E0,0E0,0E0,0E0,0E0,0E0,0E0,0E0,0E0,0E0,0E0,0E0,0E0,0E0,0E0,0E0,0E0,0E0,0E0,0E0,0E0,0E0,0E0,0E0,0E0,0E0,0E0,0E0,0E0,0E0,0E0,0E0,0E0,0E0,0E0,0E0,0E0,0E0,0E0,0E0,0E0,0E0,0E0,0E0,0E0,0E0,0E0],"parents":[2147483647,0,0,1,1,2,2,3,3,4,4,5,5,6,6,7,7,8,8,9,9,10,10,11,11,12,12,13,13,14,14,15,15,16,16,17,17,18,18,19,19,20,20,21,21,22,22,23,23,24,24,25,25,26,26,27,27,28,28,29,29,30,30,31,31,32,32,33,33,34,34,35,35,36,36,37,37,38,38,39,39,40,40,41,41,42,42,43,43,44,44,45,45,46,46,47,47,48,48,49,49,50,50,51,51,52,52,53,53,54,54,55,55,56,56,57,57,58,58,59,59,60,60,61,61,62,62],"right_children":[2,4,6,8,10,12,14,16,18,20,22,24,26,28,30,32,34,36,38,40,42,44,46,48,50,52,54,56,58,60,62,64,66,68,70,72,74,76,78,80,82,84,86,88,90,92,94,96,98,100,102,104,106,108,110,112,114,116,118,120,122,124,126,-1,-1,-1,-1,-1,-1,-1,-1,-1,-1,-1,-1,-1,-1,-1,-1,-1,-1,-1,-1,-1,-1,-1,-1,-1,-1,-1,-1,-1,-1,-1,-1,-1,-1,-1,-1,-1,-1,-1,-1,-1,-1,-1,-1,-1,-1,-1,-1,-1,-1,-1,-1,-1,-1,-1,-1,-1,-1,-1,-1,-1,-1,-1,-1],"split_conditions":[4.6075767E-1,-4.082207E-3,9.789526E-1,1.7527375E0,1.2379895E0,-3.2713464E-1,-9.288525E-1,-7.534017E-1,2.34947E0,7.156893E-1,1.0387486E0,3.3989782E0,9.453761E-1,-8.8012874E-1,2.689014E-1,3.4529533E0,-1.0359398E0,7.2046816E-1,1.6457886E0,4.2655507E-1,-2.3041314E-1,-9.0914804E-1,-1.8931195E-1,1.1201246E0,7.074976E-1,1.0765802E0,7.226121E-1,-1.3788613E0,1.4281124E0,1.0300088E0,-6.1960536E-1,9.594879E-1,1.0258563E0,1.5870165E0,4.357146E-1,3.3215815E-1,5.726625E-1,2.0450373E0,7.6205045E-1,-1.0496825E0,-1.922856E0,-1.9049813E0,2.1938636E0,4.357146E-1,4.845676E0,-6.353591E-1,1.1080655E0,1.0266544E0,-2.6742932E-1,-2.7272838E-1,4.1045594E-1,9.358003E-1,3.3989782E0,-2.994045E-1,-3.9248914E-1,-5.037751E-1,-3.487987E-1,1.0387486E0,-7.017727E-2,7.957182E-1,9.348756E-1,6.4294153E-1,1.6069463E0,-2.6752896E-4,6.196758E-4,-4.076666E-3,-6.7503523E-4,2.4441603E-4,-1.351437E-3,4.5788186E-4,1.1909477E-3,1.1033982E-3,-4.947096E-4,2.2236742E-3,2.7995053E-4,-3.036146E-3,7.1557995E-4,3.942098E-4,1.656E-3,4.9192674E-4,-5.7130477E-5,1.500272E-3,4.1802443E-4,1.1635446E-3,-5.228258E-4,1.9248623E-4,3.095792E-3,-2.9516185E-4,1.8912829E-3,-7.011945E-4,1.6133733E-3,1.5088288E-3,-2.3571106E-4,-3.998432E-3,-1.884751E-3,1.7039574E-4,-9.855081E-4,-2.0937386E-3,-4.7359904E-4,3.3988638E-3,1.0970199E-3,-1.0232287E-3,1.7161339E-3,-4.3446536E-4,-1.2644966E-3,-2.2053174E-3,4.840295E-4,-1.2848624E-4,-1.5301786E-3,-2.714848E-3,-1.0256977E-3,-2.238887E-3,1.7738274E-3,-9.80407E-4,-2.1481363E-3,-2.2743702E-4,1.445494E-3,-4.7747072E-4,-3.9503686E-3,3.054039E-4,-6.5172825E-4,-4.508039E-4,1.2444715E-3,-1.5578308E-3,1.56258E-3,-2.3452054E-4,3.617851E-3],"split_indices":[68,31,68,45,72,86,86,62,15,30,22,113,22,45,51,72,68,26,22,42,43,68,27,31,20,53,68,6,14,67,78,81,0,19,27,77,9,11,5,65,54,26,21,27,118,0,54,15,94,79,99,43,113,53,74,9,27,22,27,0,56,27,20,0,0,0,0,0,0,0,0,0,0,0,0,0,0,0,0,0,0,0,0,0,0,0,0,0,0,0,0,0,0,0,0,0,0,0,0,0,0,0,0,0,0,0,0,0,0,0,0,0,0,0,0,0,0,0,0,0,0,0,0,0,0,0,0],"split_type":[0,0,0,0,0,0,0,0,0,0,0,0,0,0,0,0,0,0,0,0,0,0,0,0,0,0,0,0,0,0,0,0,0,0,0,0,0,0,0,0,0,0,0,0,0,0,0,0,0,0,0,0,0,0,0,0,0,0,0,0,0,0,0,0,0,0,0,0,0,0,0,0,0,0,0,0,0,0,0,0,0,0,0,0,0,0,0,0,0,0,0,0,0,0,0,0,0,0,0,0,0,0,0,0,0,0,0,0,0,0,0,0,0,0,0,0,0,0,0,0,0,0,0,0,0,0,0],"sum_hessian":[2.3202E4,1.5019E4,8.183E3,5.23E3,9.789E3,3.531E3,4.652E3,4.772E3,4.58E2,8.49E3,1.299E3,1.114E3,2.417E3,4.13E2,4.239E3,9.08E2,3.864E3,4.37E2,2.1E1,5.874E3,2.616E3,1.124E3,1.75E2,1.025E3,8.9E1,2.011E3,4.06E2,2.35E2,1.78E2,3.644E3,5.95E2,8.99E2,9E0,6.87E2,3.177E3,2.37E2,2E2,1.7E1,4E0,4.076E3,1.798E3,1.788E3,8.28E2,3.05E2,8.19E2,1.6E1,1.59E2,8.07E2,2.18E2,4.6E1,4.3E1,1.908E3,1.03E2,2.27E2,1.79E2,1.2E1,2.23E2,1.72E2,6E0,2.99E3,6.54E2,1.8E2,4.15E2,7.19E2,1.8E2,8E0,1E0,5.68E2,1.19E2,2.604E3,5.73E2,2.06E2,3.1E1,1.79E2,2.1E1,1.3E1,4E0,1E0,3E0,1.008E3,3.068E3,2.05E2,1.593E3,5E1,1.738E3,8.04E2,2.4E1,2.15E2,9E1,7.8E2,3.9E1,5E0,1.1E1,1.2E1,1.47E2,7.31E2,7.6E1,8.9E1,1.29E2,2.7E1,1.9E1,2.1E1,2.2E1,1.493E3,4.15E2,9.7E1,6E0,7E1,1.57E2,1.33E2,4.6E1,2E0,1E1,1.33E2,9E1,1.48E2,2.4E1,3E0,3E0,2.805E3,1.85E2,5.98E2,5.6E1,1.67E2,1.3E1,4.11E2,4E0],"tree_param":{"num_deleted":"0","num_feature":"122","num_nodes":"127","size_leaf_vector":"1"}},{"base_weights":[-1.8243917E-4,3.5600795E-3,-7.332394E-3,1.0335552E-2,-1.601363E-4,-5.180594E-3,-3.1659346E-2,-2.4841184E-2,1.1209163E-2,2.696257E-2,-1.1650883E-3,1.6407778E-2,-6.9996463E-3,-4.7864527E-2,-2.5310742E-2,-3.5417374E-2,2.1418555E-2,1.5575574E-2,2.3137531E-3,1.9867478E-2,7.028604E-2,-2.154634E-3,2.8687872E-2,1.7913017E-2,-4.9348064E-2,-2.043114E-2,-3.4968706E-3,-6.1222594E-2,-3.3368293E-2,-2.2655006E-2,-7.3387235E-2,-3.0455517E-2,-8.6062536E-2,5.5187374E-2,-4.474683E-2,1.7372217E-2,-8.374852E-3,5.9512984E-3,-1.5163936E-2,2.7948538E-2,-1.8889296E-3,-4.469965E-2,7.875685E-2,1.2199826E-2,-3.712491E-3,2.4996774E-2,5.7264335E-2,1.3635218E-2,3.9958548E-2,4.8546595E-4,-6.163043E-2,-4.534278E-2,-1.3829665E-2,1.1184407E-4,-1.4483911E-2,-5.4314792E-2,-9.632271E-2,3.3206604E-2,-3.77264E-2,-2.6349407E-2,1.5317175E-2,-3.7901597E-3,-4.4124305E-2,-1.4507001E-3,1.8037784E-4,-3.7074306E-3,-6.615346E-4,-6.8919244E-6,3.758255E-3,-2.9567801E-3,1.5295341E-3,9.4260473E-4,4.8887654E-4,1.7014108E-4,-9.162809E-4,-5.438994E-4,3.8608903E-4,-7.0857373E-4,1.5208154E-3,1.7729297E-3,7.482771E-4,1.558759E-3,-2.706677E-4,-5.856403E-4,-2.6975116E-3,3.4833273E-3,-2.7743203E-4,1.8581042E-7,7.3271204E-4,1.1425588E-4,-2.7484214E-4,1.0349205E-3,-2.4761932E-3,1.2003338E-3,3.7623204E-3,1.5850744E-4,9.316326E-4,1.9766581E-3,-1.2983526E-3,